{"type": "mlp", "dim": 384, "T": 1.0, "layers": [{"W": [[0.0408641, -0.0631636, 0.415353, 0.0444872, 0.283593, 0.45707, -0.0386498, 0.0336834, 0.0612458, -0.217824, 0.457079, 0.229984, -0.0577281, 0.279, 0.27616, -1.11816, -0.115123, -0.469425, 0.151524, -0.0727857, -0.171472, -0.0724993, 0.16639, 0.635233, 0.267899, 0.339765, -0.62982, -0.047871, 0.572094, 0.0159571, -0.0653614, -0.482679, -0.1823, 0.0529149, 0.339948, 0.230164, -0.202631, -0.352872, 0.00819627, -0.179217, 0.0178088, 0.0674345, 0.281735, 0.288682, -0.086944, -0.200677, 0.217662, -0.195701, -0.223515, 0.746871, -0.235916, -0.112234, -0.253023, 0.0926853, -0.062873, -0.0698378, 0.246972, -0.0895807, -0.0532265, 0.0800605, -0.311145, -0.617544, -0.0738687, 0.752912, -0.117698, 0.11653, -0.0831808, 0.892872, 0.00986713, -0.0391088, 0.290084, 0.0266468, -0.159184, -0.0911123, -0.477327, -0.124196, 0.126016, -0.258966, -0.069149, 0.419118, -0.347272, -0.407352, -0.115695, 0.460351, 0.072265, -0.031321, -0.281752, -0.108164, -0.183242, 0.0910953, 0.703955, -0.251989, 0.213522, -0.00805801, -0.0681871, -0.199437, 0.124422, -0.43123, -0.233413, -0.140533, 0.0590263, 0.375129, 0.00672259, -0.423895, 0.40977, -0.616037, 0.367543, -0.0827227, -0.63949, 0.0596093, 0.559791, 0.237698, -0.186229, -0.0518597, 0.402288, 0.293156, 0.465894, -0.0689579, -0.364095, -0.189034, 0.355753, 0.143024, -0.0131766, -0.162337, 0.355168, -0.00359513, 0.802923, -0.172449, -0.041898, 0.156469, -0.363032, 0.0293364, -0.227637, 0.609892, -0.280207, -0.0970401, 0.386986, -0.0977479, 0.245046, 0.0494553, -0.217776, 0.0414173, 0.00343203, -0.0869805, -0.244017, -0.72064, -0.0945605, 0.839451, -0.0047365, -0.195055, -0.0185839, -0.381056, 0.149223, 0.523952, 0.162782, -0.209786, -0.0604563, 0.288962, 0.414475, -0.160616, -0.592546, -0.3448, -0.15101, 0.0634801, 0.178385, 0.133517, -0.349534, 0.42948, 0.311876, 0.164528, -0.284938, 0.246212, 0.692626, 0.252208, 0.167069, 0.33578, -0.17236, 0.0221301, 0.0831222, 0.232608, -0.0971178, -0.567453, -0.229224, -0.372744, -0.362803, 0.111684, 0.337789, -0.406543, 0.554371, 0.0656121, 0.296496, 0.110879, 0.337212, 0.0143796, 0.303352, -0.689519, -0.326114, -0.44416, -0.250569, -0.360633, 0.0303032, -0.170088, -0.0949781, 0.0463557, 0.306713, 0.77852, -0.108517, -0.302422, -0.260981, -0.174396, 0.294288, 0.27342, -0.110268, 0.226062, 0.478618, -0.16084, -0.15089, -0.502355, -0.11226, -0.123902, 0.124618, -0.275255, -0.53459, -0.266996, -0.236049, -0.216281, -0.0903708, 0.205013, -0.020816, 0.380729, -0.183044, 0.019601, -0.1797, 0.187808, -0.240059, -0.101388, -0.936493, -0.0668904, -0.550946, 0.271285, 0.114036, 0.723264, 0.0922193, 0.00311937, 0.0584065, 0.40219, -0.0766466, 0.421952, -0.129528, 0.304033, -0.296335, -0.0441234, 0.237136, 0.124053, -0.00270721, 0.0639006, 0.279618, 0.297927, 0.00733158, -0.491868, -0.400337, -0.00361418, 0.225397, -0.0170042, -0.311745, -0.388433, 1.19876, -0.384856, -0.287686, 0.107772, 0.077592, 0.460425, -0.0659889, -0.32328, -0.293172, 0.129048, 0.362273, 0.114521, 0.341696, -0.417446, -0.385189, 0.0116222, -0.211585, 0.355335, 0.35608, 0.211126, -0.339837, -0.404688, -0.268528, -0.0526275, 0.654573, 0.193802, 0.0941512, 0.0838752, -0.0666227, -0.0220584, -0.0794501, 0.297058, 0.114285, 0.131382, -0.219238, -0.758489, 0.154982, 0.0630341, -0.0479718, -0.25278, 0.298506, -0.541294, 0.461999, -0.0396562, 0.319759, -0.278432, -0.0572999, -0.00942932, 0.090136, -0.262509, 0.5886, -0.275948, 0.276172, -0.252686, 0.233717, 0.199526, -0.0171566, -0.195111, 0.468344, -0.531294, 0.345112, 0.187242, -0.538061, 0.184832, 0.474758, 0.877095, 0.00691756, -0.189872, 0.139604, -0.386163, 0.523988, -0.393606, 0.0176231, 0.342162, -0.00982711, -0.0775007, -0.210517, 0.25694, 0.0501614, -0.234252, -0.209773, -0.140413, 0.229275, 0.258682, -0.129113, -0.0658129, 0.464531, 0.125043, -0.0978736, -0.555318, 0.00752045, 0.0321097, -0.213531, -0.133956, -0.241704, -0.39469, -0.0804905, 0.234602, 0.0282286, 0.0789584, 0.598127, 0.112083, 0.0242835, 0.37167, -0.239636, -0.149418, 0.0486105, 0.34988, -0.0832843, -0.6579, 0.395108, 0.321372, 0.0235855, 0.0792358, -0.0381464, -0.430692, -0.489454, -0.0741562], [-6.14527e-40, -5.6183e-40, 6.29773e-40, -5.69233e-40, -5.78044e-40, -3.73139e-40, -3.95102e-40, -3.44777e-40, -5.98197e-40, -5.5129e-40, 4.9831e-40, -5.31e-40, -5.83383e-40, 4.25032e-40, -5.68825e-40, -4.3124e-40, 5.53834e-40, 4.25843e-40, 4.65764e-40, -5.98018e-40, -4.05621e-40, -6.22234e-40, 4.49881e-40, -5.91548e-40, -5.59998e-40, -5.70612e-40, -6.22352e-40, 6.05022e-40, -6.21875e-40, 6.23386e-40, 4.85298e-40, -4.04123e-40, -6.10864e-40, 6.03646e-40, -5.72351e-40, -3.81676e-40, 4.70783e-40, 5.82947e-40, 4.88973e-40, -4.17636e-40, 5.86243e-40, -5.75561e-40, -3.86617e-40, -6.21857e-40, 6.17479e-40, -3.98018e-40, -4.0554e-40, -3.73995e-40, 6.05966e-40, 6.1789e-40, -4.64315e-40, -5.06745e-40, -5.69441e-40, -6.01633e-40, 6.02916e-40, -5.68339e-40, 6.1324e-40, 6.00588e-40, 6.06134e-40, 4.86776e-40, 4.96459e-40, 4.24235e-40, -4.08145e-40, 6.10561e-40, -5.83691e-40, 4.40945e-40, 5.25535e-40, -3.97698e-40, -4.0605e-40, -4.51327e-40, -4.97254e-40, -4.06002e-40, -6.1819e-40, 3.86684e-40, 4.39216e-40, -6.23717e-40, 4.96341e-40, 4.42397e-40, -5.73777e-40, 5.70567e-40, 4.59539e-40, -3.91262e-40, -5.98268e-40, -4.2494e-40, 5.76133e-40, 4.64173e-40, 5.73111e-40, -6.10009e-40, -6.11451e-40, 4.43746e-40, 4.58412e-40, 6.14879e-40, -4.48851e-40, 5.74062e-40, -4.07149e-40, -5.76787e-40, 4.1536e-40, 3.73922e-40, 4.9325e-40, 5.94449e-40, 5.56814e-40, 5.66511e-40, 6.20693e-40, -4.27322e-40, -5.87864e-40, 6.12288e-40, -5.55403e-40, 6.23396e-40, 7.26069e-41, 5.70738e-40, 6.26861e-40, 4.62772e-40, 4.17902e-40, 4.57083e-40, -5.84717e-40, 6.10914e-40, 3.92595e-40, 4.37209e-40, -5.84021e-40, 3.72118e-40, -6.33498e-40, 4.36816e-40, -6.17081e-40, -6.22541e-40, -6.02854e-40, 5.99568e-40, -6.10277e-40, 5.07738e-40, -6.07599e-40, -5.66367e-40, 6.13354e-40, 5.99464e-40, 5.60807e-40, -6.01932e-40, -6.03654e-40, 6.19316e-40, -5.79919e-40, -6.098e-40, 6.03468e-40, -4.27997e-40, -4.38714e-40, 6.01226e-40, 6.20094e-40, -5.75257e-40, -6.20133e-40, 4.38536e-40, 4.51365e-40, 4.57818e-40, -6.22297e-40, 4.23556e-40, -5.86481e-40, -5.87644e-40, -6.33016e-40, -6.19091e-40, 6.0693e-40, -6.18124e-40, 4.92824e-40, 4.42443e-40, 6.10371e-40, -5.98099e-40, 5.78944e-40, -4.21284e-40, -5.86805e-40, -5.8832e-40, 6.2141e-40, 5.78288e-40, -4.14654e-40, -4.16107e-40, 5.74349e-40, 5.73317e-40, 4.6046e-40, -6.12548e-40, -6.05697e-40, -3.822e-40, -6.33887e-40, -4.03226e-40, 4.23716e-40, 6.1339e-40, 5.39476e-40, -5.95077e-40, -6.2004e-40, 4.1177e-40, 4.89555e-40, -5.94389e-40, -3.80741e-40, 4.12122e-40, -5.44123e-40, -3.77787e-40, -5.08414e-40, -5.86392e-40, 5.8259e-40, 4.53864e-40, -5.5115e-40, 5.96636e-40, 4.53076e-40, 5.89816e-40, -4.53816e-40, 4.23325e-40, 4.43797e-40, -6.15477e-40, 5.98287e-40, 5.24769e-40, -5.47388e-40, -3.98662e-40, 5.63852e-40, 4.38964e-40, -5.93849e-40, 5.60388e-40, 5.74644e-40, 4.38354e-40, -6.23834e-40, 5.62344e-40, 4.34655e-40, -4.08351e-40, -5.30802e-40, -6.25726e-40, -5.71556e-40, -4.74732e-40, 6.16449e-40, 6.11668e-40, 5.63951e-40, -5.93953e-40, 5.94777e-40, 5.97173e-40, -5.69031e-40, 4.43098e-40, -5.7742e-40, 6.11588e-40, -5.68802e-40, 3.96276e-40, 4.70159e-40, 6.23314e-40, -6.06581e-40, 5.863e-40, -4.57695e-40, 6.10177e-40, -4.33857e-40, 6.24402e-40, 4.86878e-40, 4.93525e-40, -4.31129e-40, -4.49199e-40, 5.77115e-40, 4.53153e-40, -5.90432e-40, -4.71028e-40, -4.62705e-40, 5.66663e-40, -6.18996e-40, 5.64711e-40, -6.25768e-40, 4.96497e-40, -6.10689e-40, 6.34109e-40, 3.89987e-40, -5.74049e-40, 7.47873e-41, -6.02515e-40, 6.17523e-40, -6.21479e-40, 6.13018e-40, 5.79238e-40, 3.80675e-40, 4.2211e-40, 6.05608e-40, -4.57438e-40, 6.33804e-40, 6.1577e-40, 4.72515e-40, -4.05995e-40, -3.81037e-40, 5.85834e-40, 6.09095e-40, -6.16545e-40, -6.06314e-40, -6.23256e-40, 4.25884e-40, -5.65305e-40, 4.15489e-40, 4.35399e-40, -6.22817e-40, -6.05147e-40, -6.03315e-40, 5.96988e-40, -5.95803e-40, 5.79008e-40, -5.79804e-40, 6.16826e-40, -5.97058e-40, 6.15757e-40, 5.82827e-40, 5.97951e-40, -5.63881e-40, 6.03075e-40, 4.72764e-40, 5.84392e-40, 6.23338e-40, 6.32769e-40, 6.17234e-40, 4.43008e-40, 4.27517e-40, 6.06354e-40, 4.5355e-40, -5.61528e-40, 5.99498e-40, -6.13296e-40, -5.92838e-40, -5.60955e-40, 3.8579e-40, -4.57967e-40, 5.89664e-40, 5.79972e-40, 5.77767e-40, 6.14694e-40, 6.19706e-40, -4.53362e-40, -5.87265e-40, 6.09911e-40, -5.75184e-40, -5.98827e-40, -6.12604e-40, 4.3034e-40, -6.19339e-40, -5.28116e-40, -4.52537e-40, -5.95755e-40, -6.33908e-40, -4.29464e-40, -7.56561e-41, -4.24075e-40, -4.6571e-40, -6.19468e-40, 3.85337e-40, 4.19385e-40, -5.75051e-40, -5.87766e-40, 4.0105e-40, 5.98468e-40, 5.89205e-40, 4.63582e-40, -4.61115e-40, 5.6884e-40, 6.17453e-40, -3.80179e-40, 5.95451e-40, -3.71372e-40, 4.92722e-40, -4.41588e-40, -4.38322e-40, 3.50456e-40, 5.92997e-40, -5.65926e-40, 6.0822e-40, -4.30703e-40, -5.79836e-40, 4.56727e-40, -5.58815e-40, -4.16462e-40, 7.51656e-41, -6.06877e-40, 6.11095e-40, -6.05647e-40, 5.9423e-40, 4.30877e-40, 4.87784e-40, -4.54885e-40, 5.79923e-40, -5.83833e-40, -5.60358e-40, -6.0988e-40, -6.13627e-40, 5.70038e-40, -6.07606e-40, -5.73794e-40, 5.75963e-40, 4.42843e-40, 5.64195e-40, 5.90558e-40, 5.60954e-40, 5.69702e-40, 5.62958e-40, -4.61069e-40, 6.08595e-40, 6.27181e-40], [-4.05575e-40, 6.18717e-40, -6.05065e-40, -4.53179e-40, 5.7253e-40, 5.65949e-40, -5.62534e-40, 5.84716e-40, -5.73253e-40, 3.85538e-40, 3.83084e-40, 6.02899e-40, 4.64825e-40, 6.11337e-40, -4.93965e-40, -4.34903e-40, -6.23086e-40, 4.37473e-40, -4.92248e-40, 6.12852e-40, 6.00943e-40, 6.20367e-40, 6.04889e-40, 4.70532e-40, 6.10057e-40, 3.73216e-40, 3.91863e-40, -5.5717e-40, 4.57689e-40, -4.49469e-40, 5.80984e-40, -6.13909e-40, 6.17028e-40, -6.20911e-40, -4.47676e-40, 6.23649e-40, 5.66762e-40, -5.03281e-40, -5.07658e-40, -5.85038e-40, 6.18638e-40, -5.76367e-40, -5.22104e-40, 6.14759e-40, 5.12531e-40, 6.19749e-40, -6.02373e-40, -6.17044e-40, -4.11133e-40, 5.67068e-40, 5.88496e-40, -6.14612e-40, -5.73315e-40, -5.66032e-40, -3.7148e-40, 4.58044e-40, 3.95337e-40, 5.22466e-40, -5.97439e-40, 5.79075e-40, -5.82188e-40, 6.0153e-40, 6.40646e-41, -6.02193e-40, -5.45898e-40, 4.57999e-40, 6.27063e-40, 6.20953e-40, 6.12038e-40, -4.94964e-40, -6.17381e-40, -6.21762e-40, 6.13567e-40, -4.35312e-40, 6.1376e-40, -3.6708e-40, 6.13381e-40, 5.11868e-40, -3.76338e-40, -5.83707e-40, 6.35906e-40, 5.81944e-40, 3.51441e-40, -5.8033e-40, -4.37834e-40, -6.21975e-40, 6.07408e-40, 6.17901e-40, -5.98629e-40, 6.36805e-40, 5.78127e-40, -5.77468e-40, 4.8891e-40, 4.23977e-40, 4.1022e-40, 4.32854e-40, -5.82841e-40, 4.50781e-40, 4.5882e-40, 5.85128e-40, -6.12991e-40, -5.99241e-40, 4.5881e-40, -4.47308e-40, -4.05312e-40, 4.17977e-40, -6.11818e-40, -4.58093e-40, 5.28598e-40, 5.78327e-40, -6.08077e-40, -6.12035e-40, -6.22653e-40, 6.16801e-40, -6.17897e-40, 6.06625e-40, 6.11981e-40, -5.73878e-40, -4.4108e-40, 6.13012e-40, -6.01901e-40, -6.12019e-40, -6.09667e-40, -5.90821e-40, -5.75076e-40, 6.45872e-41, 6.24152e-40, 5.60696e-40, 5.62997e-40, -6.01137e-40, 5.98787e-40, 5.80702e-40, 5.75957e-40, -3.83914e-40, -6.20464e-40, 4.65733e-40, -4.93438e-40, -6.18677e-40, 6.02008e-40, -6.27507e-40, -6.30525e-40, -6.16515e-40, -3.77064e-40, 4.57957e-40, -6.09712e-40, 6.19195e-40, 4.63943e-40, -4.67559e-40, 4.63683e-40, -5.84113e-40, 4.55063e-40, 6.30649e-40, 5.76365e-40, -6.2861e-40, 4.53393e-40, -4.38197e-40, -4.01144e-40, -3.99628e-40, 5.74716e-40, 5.6396e-40, -4.52929e-40, -5.9821e-40, 4.77574e-40, -5.64583e-40, 3.7323e-40, -4.27287e-40, 5.80635e-40, -5.90328e-40, 4.13722e-40, -6.18619e-40, 3.30079e-40, 4.38933e-40, 6.07941e-40, -6.18399e-40, -6.03374e-40, -6.0388e-40, 4.68831e-40, -4.70686e-40, -5.64366e-40, -5.60163e-40, -6.14363e-40, 5.74375e-40, -5.80272e-40, 5.63281e-40, 6.09842e-40, -5.47524e-40, -5.7056e-40, 4.12678e-40, 3.49313e-40, 4.6206e-40, -5.55468e-40, 3.96233e-40, -6.5564e-41, 6.19501e-40, 5.69876e-40, 6.11221e-40, -5.69024e-40, -5.96573e-40, 4.53452e-40, 6.00124e-40, -5.13083e-40, -6.20597e-40, 6.11096e-40, 6.20679e-40, -6.13109e-40, -6.36019e-40, -6.19127e-40, -5.56244e-40, -3.50892e-40, 6.23972e-40, 4.95094e-40, -5.63751e-40, 4.28643e-40, -6.23523e-40, -3.88496e-40, 4.20813e-40, 5.77994e-40, 5.81587e-40, 4.90129e-40, -4.55932e-40, -6.42678e-41, -3.72102e-40, 3.92413e-40, -6.1562e-40, 6.11204e-40, -6.07656e-40, 3.56192e-40, 4.54378e-40, -5.79159e-40, 5.12076e-40, 5.59531e-40, -5.96814e-40, -4.40676e-40, 6.1817e-40, 4.25558e-40, 6.10239e-40, 3.71979e-40, -6.10267e-40, -5.37206e-40, 6.00194e-40, -4.12929e-40, -6.07134e-40, -6.14101e-40, -4.18394e-40, 4.13718e-40, -4.36244e-40, 6.13022e-40, 5.9821e-40, 5.61268e-40, -6.23623e-40, -5.72053e-40, -3.91513e-40, -4.62702e-40, 5.95622e-40, -5.94586e-40, 4.01422e-40, -3.85856e-40, -4.36297e-40, -5.63001e-40, 5.66146e-40, 5.7246e-40, 6.04107e-40, -6.15838e-40, 6.03255e-40, 6.30095e-40, 6.10853e-40, 6.22425e-40, -5.83663e-40, -6.24084e-40, -6.21367e-40, 6.07838e-40, -5.73924e-40, 3.70478e-40, -6.08913e-40, 4.44298e-40, 4.37208e-40, -6.11293e-40, 6.08741e-40, 6.21863e-40, -5.67603e-40, -5.83027e-40, -5.62062e-40, -5.89951e-40, 6.19698e-40, 5.05004e-40, 6.12959e-40, -6.20131e-40, 5.92683e-40, 3.87121e-40, 3.62823e-40, 6.14464e-40, 4.71558e-40, 5.69273e-40, -4.53092e-40, 6.18397e-40, -5.60786e-40, -5.85828e-40, 3.8147e-40, -4.31467e-40, -6.14738e-40, -5.68127e-40, 6.07131e-40, 5.68512e-40, -6.20323e-40, 4.59957e-40, -5.9917e-40, 4.09978e-40, 4.61871e-40, 6.10488e-40, 4.47617e-40, 6.34057e-40, 6.20241e-40, 6.22357e-40, -6.19017e-40, 5.97791e-40, -6.12153e-40, 5.64324e-40, 5.87459e-40, -4.54417e-40, -5.69135e-40, 6.0789e-40, 4.55272e-40, 6.19161e-40, -5.65264e-40, -5.61238e-40, -6.2221e-40, 5.61275e-40, 6.27835e-40, -6.23817e-40, -5.66528e-40, 5.15143e-40, -4.0247e-40, 6.17217e-40, -4.21128e-40, 4.81942e-40, -5.68271e-40, 6.16054e-40, -3.9929e-40, -5.37165e-40, 5.58246e-40, 4.32626e-40, 6.26565e-40, 4.26442e-40, -5.19997e-40, 4.90478e-40, -3.69789e-40, 6.23546e-40, 5.73224e-40, 5.25457e-40, 4.88644e-40, -6.19139e-40, 5.40778e-40, 6.09988e-40, 6.15234e-40, 6.00095e-40, 4.42209e-40, -6.21487e-40, 4.93613e-40, -6.18123e-40, 4.52247e-40, 5.77231e-40, -6.18689e-40, -5.89694e-40, -5.7092e-40, 5.92829e-40, -4.52008e-40, 5.68528e-40, 5.78763e-40, 6.10272e-40, 5.78617e-40, -5.174e-40, 4.41682e-40, 4.53188e-40, -6.17695e-40, -5.8678e-40, 6.26565e-40, 5.88831e-40, 4.05135e-40, -5.73139e-40, 5.7958e-40, 5.78352e-40, 2.59293e-40, -5.92891e-40, -5.86347e-40], [5.6679e-40, -4.52381e-40, -4.72912e-40, -5.73557e-40, 5.70574e-40, 4.7481e-40, -4.21792e-40, 5.65131e-40, 5.95571e-40, -6.09436e-40, -5.73773e-40, -4.54265e-40, -6.12855e-40, -6.15171e-40, -5.98743e-40, -6.0168e-40, 3.87729e-40, -5.5408e-40, -5.65018e-40, 6.0959e-40, -4.39055e-40, -5.71391e-40, -3.9005e-40, -3.98584e-40, -4.36575e-40, 5.02916e-40, -5.68776e-40, 5.84435e-40, 6.3616e-40, -5.8089e-40, 6.34581e-40, 6.10579e-40, 5.65252e-40, 4.9207e-40, 6.04893e-40, -3.91846e-40, 4.09611e-40, -6.0525e-40, -4.39023e-40, 3.88255e-40, 5.6527e-40, -4.41996e-40, 4.29942e-40, -6.19e-40, -4.91392e-40, -4.3851e-40, -6.09307e-40, -6.31438e-40, -5.79445e-40, -6.12111e-40, 6.08697e-40, 5.61105e-40, 6.21337e-40, 3.99142e-40, -4.84869e-40, 5.08991e-40, -6.06356e-40, 6.13294e-40, 5.56168e-40, -6.14887e-40, -4.37939e-40, -4.70158e-40, -6.13434e-40, 4.40345e-40, 3.66599e-40, -5.19175e-40, -3.97248e-40, -5.91456e-40, 6.15604e-40, -5.95244e-40, -5.90084e-40, 5.66056e-40, -4.74303e-40, -3.97263e-40, 5.81048e-40, 5.83848e-40, 6.1391e-40, -5.62623e-40, -6.11542e-40, 4.69333e-40, 5.93718e-40, 4.64949e-40, -6.00554e-40, 3.76379e-40, 3.84358e-40, -5.84781e-40, -5.77406e-40, 6.13439e-40, -3.86168e-40, -3.90992e-40, -4.96022e-40, 6.21535e-40, -5.66857e-40, -5.89168e-40, -5.74045e-40, 5.73935e-40, 6.17526e-40, -6.05696e-40, -6.12729e-40, 5.60133e-40, 5.7144e-40, 5.6469e-40, -3.53406e-40, -4.01703e-40, -4.4473e-40, 6.18968e-40, 4.43381e-40, 5.70799e-40, 4.67756e-40, -4.48972e-40, 6.17681e-40, -6.20925e-40, 7.44482e-41, 4.50286e-40, 4.15083e-40, -6.08822e-40, -4.20809e-40, -5.53366e-40, -6.06701e-40, 5.86836e-40, 4.38169e-40, 5.73826e-40, 4.44951e-40, 5.85192e-40, -6.36072e-40, -6.03357e-40, 4.12682e-40, -6.10061e-40, -6.1501e-40, 4.14683e-40, -4.56355e-40, 6.06437e-40, 4.5883e-40, 5.70208e-40, -6.1434e-40, 4.14737e-40, -5.90677e-40, -5.76441e-40, -5.97455e-40, 3.91597e-40, -6.06356e-40, -4.54838e-40, 5.96746e-40, 5.37399e-40, -5.89123e-40, 3.99919e-40, 4.34997e-40, -4.53903e-40, 6.10823e-40, 6.22502e-40, -4.17431e-40, -6.00259e-40, 5.70064e-40, -3.87837e-40, -6.23422e-40, -4.89518e-40, -4.94252e-40, 4.41464e-40, 4.07167e-40, 5.97878e-40, 4.41129e-40, -6.09401e-40, -6.01436e-40, 3.94467e-40, 6.11073e-40, -3.78786e-40, 5.75844e-40, -5.91202e-40, -4.90501e-40, -4.94259e-40, 5.67833e-40, -4.30036e-40, -3.93612e-40, 4.7292e-40, -5.92211e-40, 6.0424e-40, 5.8001e-40, -4.14578e-40, 6.12592e-40, 4.57789e-40, -5.79856e-40, 4.92838e-40, -5.77478e-40, -4.36346e-40, -5.80604e-40, -4.9641e-40, 5.97822e-40, -4.15512e-40, 6.18672e-40, 3.99642e-40, -5.76993e-40, -6.19915e-40, -4.85672e-40, -3.93064e-40, -4.77823e-40, -4.40085e-40, 6.15909e-40, 5.65881e-40, 6.27614e-40, -4.39648e-40, 5.60766e-40, -6.11074e-40, 5.67547e-40, -5.85178e-40, 5.71472e-40, -6.09251e-40, 3.70557e-40, 6.1512e-40, 6.01391e-40, 3.8696e-40, 3.9333e-40, -5.74403e-40, -6.22518e-40, 5.59841e-40, 6.08563e-40, -4.75944e-40, -4.28919e-40, -6.17607e-40, 4.47882e-40, -6.20325e-40, -6.15712e-40, -5.9727e-40, -4.25658e-40, 4.72714e-40, 5.77223e-40, 5.74021e-40, -6.02096e-40, -4.33815e-40, -4.56114e-40, -6.09329e-40, -4.90548e-40, 3.7861e-40, 3.77064e-40, -4.46714e-40, 6.23855e-40, 5.99838e-40, -6.05495e-40, -6.08587e-40, -4.32425e-40, 5.59983e-40, -3.85955e-40, 6.16839e-40, 5.98883e-40, -6.22503e-40, 7.47635e-41, 6.15742e-40, 4.27688e-40, -3.86882e-40, -4.94157e-40, -5.72461e-40, -6.1277e-40, -6.30701e-40, 6.16999e-40, -6.05846e-40, 5.13633e-40, 4.28136e-40, -4.0298e-40, 6.09355e-40, 5.68114e-40, 3.76682e-40, -6.33366e-40, 5.79878e-40, -6.21294e-40, 3.91471e-40, -5.29461e-40, 3.71801e-40, -6.2274e-40, -4.67693e-40, 6.0248e-40, 6.16378e-40, 6.15453e-40, -6.03178e-40, -6.06141e-40, -5.51744e-40, 5.82615e-40, -4.03402e-40, -4.83744e-40, -3.74518e-40, -5.78001e-40, -5.74461e-40, 5.70754e-40, 3.7667e-40, -4.2161e-40, -4.22542e-40, -6.23453e-40, -6.24213e-40, -4.47929e-40, -5.73986e-40, -4.89703e-40, -6.22488e-40, 3.87832e-40, -4.91065e-40, 6.01928e-40, 5.93391e-40, -4.08393e-40, -4.00315e-40, -5.97863e-40, -5.78174e-40, 4.13076e-40, -6.14248e-40, -5.8316e-40, -5.05486e-40, 4.88156e-40, 6.07422e-40, -6.22692e-40, 4.67288e-40, 6.02539e-40, 6.12342e-40, 4.55901e-40, 3.83091e-40, 3.86143e-40, 6.14457e-40, -5.72932e-40, -4.49682e-40, 4.56434e-40, -5.60931e-40, 6.30467e-40, 3.51887e-40, 6.04771e-40, 5.93481e-40, 5.98985e-40, 4.35861e-40, -5.83712e-40, 6.1049e-40, -5.87602e-40, 4.51413e-40, 6.04446e-40, -5.88087e-40, 4.30703e-40, -4.88561e-40, -5.626e-40, 4.62801e-40, 4.17988e-40, -6.32321e-40, 5.66849e-40, 6.18127e-40, 5.90328e-40, 4.92128e-40, -3.98724e-40, -3.93209e-40, 5.86839e-40, 5.77568e-40, -5.61956e-40, -4.74537e-40, 4.71202e-40, 6.35985e-40, -6.14659e-40, 5.7157e-40, -6.07136e-40, 3.7598e-40, -6.19699e-40, -5.52047e-40, 5.81818e-40, 4.58974e-40, 5.6027e-40, 5.62131e-40, 4.49429e-40, 5.7041e-40, 3.82588e-40, -3.79837e-40, 6.07345e-40, -4.92768e-40, 5.07065e-40, -4.12415e-40, 5.82947e-40, -3.90374e-40, -4.09783e-40, -5.94834e-40, -5.82483e-40, 5.99291e-40, -5.62076e-40, -5.671e-40, 5.93688e-40, -5.96145e-40, -4.15709e-40, -5.8228e-40, -6.36538e-40, -5.67691e-40, -6.10431e-40, 4.57452e-40, 4.24128e-40, 4.87739e-40, 6.07878e-40, 4.25651e-40], [-0.237011, 0.480541, 0.153262, 0.193513, -0.0225475, -0.0762004, 0.0160163, 0.298952, -0.278985, -0.192793, -0.123514, -0.768262, 0.396935, -0.300532, 0.185326, -0.149024, 0.138178, 0.213487, -0.0523221, -0.0018779, 0.12458, 0.939864, 0.333158, -0.579001, -0.0615404, -0.139792, 0.309855, 0.183809, -0.16626, -0.154551, -0.272462, 0.184094, -0.326143, -0.0659775, -0.0338276, 0.494002, 0.0773463, -0.299747, 0.126925, -0.333139, 0.430019, 0.223474, 0.0858367, -0.112208, 0.0423388, 0.0369603, 0.701478, -0.120306, -0.347946, 0.0807813, -0.594524, 0.0842217, 0.259268, 0.128428, 0.0473044, -0.191046, -0.0810816, 0.0348207, 0.266521, 0.185055, 0.205669, 0.18862, -0.448589, 0.346685, -0.0809706, -0.323492, 0.249672, 0.0923666, -0.222981, -0.169678, -0.18053, 0.289598, 0.136768, -0.219501, -0.0564195, -0.0427178, 0.137048, -0.321459, -0.161456, 0.316133, -0.00962689, 0.346342, 0.329957, -0.542516, -0.221395, -0.0490586, 0.442148, 0.144592, 0.204774, 0.239214, 0.0430106, -0.341617, -0.232704, 0.183102, -0.0581178, 0.0622082, 0.218481, 0.211366, -0.103079, -0.354624, -0.147766, 0.242871, -0.0751576, 0.356509, -0.0410977, -0.0100808, 0.085783, 0.163362, -0.438519, -0.26037, 0.347667, -0.475535, -0.00271092, -0.0187298, -0.00328295, 0.380732, -0.771981, -0.107918, -0.290379, 0.136352, -0.44652, 0.0208462, 0.2153, -0.0168309, 0.293249, -0.139729, 0.145869, 0.326904, -0.00940287, -0.113565, -0.0396756, -0.456916, 0.685628, 0.123192, -0.0310956, -0.153852, -0.192021, -0.446884, -0.410298, 0.32593, -0.463944, -0.370401, -0.355917, 0.0757883, 0.591798, 0.119902, -0.288422, -0.226343, 0.219819, 0.152441, 0.380508, -0.0450917, 0.217324, -0.200107, 0.0419414, 0.0381964, -0.0888736, 0.0967983, 0.123944, -0.0240315, -0.124869, -0.0576364, 0.0704234, -0.304623, 0.424221, -0.279146, -0.0575198, -0.169604, 0.579389, -0.504985, 0.0606529, 0.135944, -0.213889, -0.126886, -0.0157637, -0.171572, -0.0885715, 0.219313, 0.113084, 0.540822, 0.217832, -0.0138128, -0.137302, 0.271541, -0.0792748, 0.075224, -0.493489, -0.722556, -0.122466, 0.175831, 0.25645, -0.1365, -0.227795, -0.198408, -0.318259, -0.778356, -0.484471, -0.169297, -0.254602, -0.307543, 0.0255195, -0.0943514, -0.373941, 0.0460309, -0.110189, -0.788016, 0.124484, 0.349226, -0.436111, -0.135284, 0.208523, 0.0161477, 0.122282, 0.243643, -0.125754, -0.288056, 0.171419, 0.236142, -0.217303, -0.318794, -0.299608, -0.13806, -0.26416, 0.0255107, 0.45209, 0.218242, -0.253568, 0.379898, 0.223735, 0.139069, -0.0674324, 0.170904, -0.481209, -0.033159, 0.266657, -0.0297382, -0.173255, -0.230294, 0.0726936, -0.14097, 0.432298, -0.194457, 0.057458, 0.0965926, 0.0683353, 0.0907438, 0.050748, -0.133778, 0.951573, 0.202976, 0.0733058, 0.445828, 0.00366063, 0.389309, -0.390449, 0.134921, -0.00959511, -0.294754, 0.209442, 0.205198, 0.0140559, -0.174933, -0.0806374, -0.114556, 0.453836, -0.168061, 0.279933, 0.363477, 0.104402, -0.0710651, 0.172497, 0.0547171, 0.374616, -0.101866, -0.349609, 0.165843, 0.13904, 0.522943, 0.0628669, 0.00224299, 0.990974, 0.119257, 0.441458, -0.578867, -0.0924303, -0.620398, -0.358547, -0.199017, 0.0624421, -0.0292014, 0.814695, -0.334296, 0.0138837, -0.296932, -0.0696244, -0.0552177, -0.44203, -0.231997, -0.00467431, 0.371941, 0.17633, -0.202614, 0.405861, 0.265525, -0.128145, -0.301245, -0.432094, -0.115108, -0.360498, 0.11815, -0.576912, -0.0748181, -0.507392, 0.145399, 0.456853, -0.0900271, 0.427022, 0.494736, 0.310797, -0.0814292, 0.242648, 0.17446, 0.0944597, 0.13006, -0.257245, -0.102499, -0.280676, -0.220039, -0.0242739, 0.264374, -0.327807, -0.297294, -0.0877395, -0.0302037, 0.30819, 0.750281, -0.0674831, -0.241583, 0.454869, 0.0751854, -0.618264, -0.0273288, 0.121338, -0.137616, -0.0990658, 0.0439285, 0.346576, 0.0136083, -0.407699, -0.00828724, 0.0283211, -0.0514024, 0.280209, 0.259306, 0.245972, -0.0764448, 0.351685, -0.0316134, -0.0445307, -0.0139508, -0.171969, -0.143244, -0.158654, 0.0872812, 0.355328, 0.430849, -0.364119, -0.105197, 0.628995, -0.469121, -0.191098, -0.367017, -0.00223922, -0.460324, -0.347326, -0.0808292, 0.174031, -0.062257, -0.320243, 0.431898, 0.0705378, 0.389909, -0.158347, -0.301242], [-6.36353e-40, -5.81634e-40, 4.9338e-40, -6.20978e-40, 5.81519e-40, 4.90223e-40, -5.20694e-40, 4.63995e-40, 5.8691e-40, 4.11051e-40, 4.1231e-40, -3.48504e-40, 4.0452e-40, -5.74245e-40, 4.73849e-40, -4.03316e-40, -6.01147e-40, 5.66836e-40, 3.93779e-40, 6.23785e-40, 6.13703e-40, 5.97535e-40, -4.55468e-40, 5.72472e-40, 5.81452e-40, -4.25068e-40, -5.61483e-40, -4.17839e-40, -4.24947e-40, 4.0031e-40, 5.82717e-40, -6.02378e-40, 6.10132e-40, -5.83306e-40, -4.48261e-40, 5.88477e-40, -3.83434e-40, -4.60083e-40, -4.17813e-40, 6.24194e-40, -3.97876e-40, -6.12059e-40, 6.02488e-40, -6.04873e-40, -4.06475e-40, 6.09877e-40, 6.21858e-40, 5.78173e-40, -4.39985e-40, 4.46168e-40, -5.59943e-40, 5.65184e-40, -5.99688e-40, -4.0178e-40, 4.99228e-40, -5.65057e-40, -4.05449e-40, 4.13941e-40, 3.95445e-40, 6.22376e-40, -4.27823e-40, -6.02521e-40, -3.93468e-40, 4.18554e-40, 5.75822e-40, 6.19727e-40, 5.59574e-40, 4.00181e-40, 4.89643e-40, 5.86705e-40, 4.32481e-40, 4.37868e-40, -6.16769e-40, 5.29025e-40, -6.1869e-40, 4.59297e-40, 5.60892e-40, 6.08563e-40, -4.02866e-40, 3.94011e-40, -4.33827e-40, 5.83555e-40, -6.24129e-40, -3.81023e-40, -6.02009e-40, 5.87103e-40, -5.80177e-40, 3.93213e-40, -6.06733e-40, -4.32124e-40, -6.10449e-40, 4.13822e-40, 5.29723e-40, -4.62946e-40, -3.99872e-40, -3.89362e-40, -4.33139e-40, 4.51182e-40, -6.24158e-40, 4.05589e-40, -3.90931e-40, -6.16639e-40, -5.7018e-40, 6.13989e-40, 4.48428e-40, 4.41193e-40, 4.095e-40, -6.08377e-40, 4.50159e-40, 6.16454e-40, -4.68387e-40, -5.73851e-40, 6.13348e-40, 5.88051e-40, 6.11761e-40, 4.4732e-40, 4.20603e-40, 3.87916e-40, -3.95676e-40, -5.62979e-40, 4.04298e-40, -5.86948e-40, 5.22321e-40, 6.08789e-40, -6.06552e-40, -5.85268e-40, 6.29731e-40, 4.09637e-40, -4.26552e-40, -6.21767e-40, -5.81895e-40, 6.31243e-40, 4.12846e-40, 4.10649e-40, 6.05825e-40, -6.00287e-40, 6.10366e-40, 5.91658e-40, 3.95809e-40, -4.35348e-40, 6.16053e-40, -4.37358e-40, 3.82449e-40, -6.06822e-40, -6.22789e-40, 6.21788e-40, -6.19373e-40, 6.11962e-40, -3.71564e-40, 4.52902e-40, -4.21886e-40, -5.80579e-40, 5.64777e-40, 4.46284e-40, 5.68071e-40, 5.60847e-40, 5.66092e-40, 5.06013e-40, -5.36009e-40, 4.18251e-40, 6.14053e-40, 4.48176e-40, 5.7471e-40, 6.06615e-40, -5.70946e-40, 6.13881e-40, -6.08147e-40, 5.6395e-40, 5.80435e-40, -5.6078e-40, -4.63479e-40, 6.14158e-40, -6.28857e-40, 5.32535e-40, 5.94263e-40, 5.88017e-40, 4.28759e-40, 5.88585e-40, -5.84134e-40, 6.04136e-40, -5.5826e-40, 6.05142e-40, 5.66583e-40, -4.55716e-40, 4.33444e-40, -4.38524e-40, -6.11155e-40, 6.34366e-40, -6.27976e-40, 4.26183e-40, -6.16562e-40, 5.40959e-40, -6.07019e-40, -6.08375e-40, 4.93399e-40, -5.95038e-40, -4.28678e-40, -4.12242e-40, 6.20625e-40, 5.04282e-40, 5.7849e-40, -6.13573e-40, -5.69273e-40, 5.68996e-40, 4.5135e-40, -4.90756e-40, 4.49745e-40, -5.6063e-40, 4.34817e-40, -5.67929e-40, -5.90932e-40, 4.16097e-40, 5.36343e-40, 5.78221e-40, -6.1802e-40, -5.92811e-40, -5.98712e-40, 4.9603e-40, -6.22629e-40, -3.97363e-40, -4.46882e-40, 6.19501e-40, -6.15981e-40, 6.12121e-40, -6.18436e-40, 4.25214e-40, 3.93251e-40, 5.72631e-40, -5.61703e-40, -5.73015e-40, 4.685e-40, -4.77958e-40, -4.79496e-40, -3.62317e-40, 4.97972e-40, -5.6432e-40, 5.69646e-40, -6.36737e-40, 6.28042e-40, 5.65564e-40, 4.61585e-40, 6.22163e-40, -3.94159e-40, 4.24549e-40, -6.15501e-40, -5.97312e-40, 5.9946e-40, -4.87062e-40, -3.99314e-40, 3.7374e-40, -5.96533e-40, -4.18467e-40, -4.51096e-40, 5.83658e-40, 5.89493e-40, -4.48278e-40, -4.01231e-40, 5.68899e-40, 5.83745e-40, 5.12969e-40, 5.85713e-40, -4.54585e-40, -6.24412e-40, 5.61674e-40, -5.79148e-40, -6.10225e-40, 6.22612e-40, 6.05271e-40, 6.22745e-40, -6.10769e-40, -5.93371e-40, 3.94239e-40, -6.12346e-40, 5.30365e-40, 6.29881e-40, 4.3734e-40, -4.42873e-40, 6.0928e-40, 3.89645e-40, -6.11057e-40, -5.92102e-40, 4.48323e-40, 5.78798e-40, 6.18645e-40, 5.75794e-40, 5.84794e-40, -5.67862e-40, 5.1683e-40, 3.86712e-40, 5.34315e-40, -5.89354e-40, -6.13776e-40, 5.99938e-40, -6.18379e-40, -6.1177e-40, 5.68536e-40, -4.5922e-40, -3.80638e-40, -6.24253e-40, 6.17513e-40, -6.1783e-40, 4.41415e-40, -6.20206e-40, 6.05743e-40, -5.68877e-40, 6.01873e-40, -4.25324e-40, 6.1113e-40, 5.6612e-40, -6.16686e-40, 5.42984e-40, 5.71636e-40, 6.17086e-40, -5.91173e-40, 6.12587e-40, 5.73428e-40, 6.18057e-40, 6.0187e-40, -5.64754e-40, 4.00464e-40, -6.09268e-40, -4.49235e-40, 5.77855e-40, -5.80687e-40, 4.8765e-40, -5.68465e-40, 3.64018e-40, 4.71039e-40, 4.43617e-40, 5.07632e-40, -6.19503e-40, -3.76839e-40, 6.01783e-40, 4.37771e-40, -6.1429e-40, 3.73925e-40, 6.00412e-40, 4.51889e-40, -6.13934e-40, 3.76656e-40, -5.94188e-40, -5.05485e-40, 5.73191e-40, -4.76289e-40, 6.0186e-40, 3.85981e-40, 6.20218e-40, -3.80164e-40, 6.02724e-40, 5.98705e-40, 3.81347e-40, 5.85635e-40, 6.19172e-40, -4.36716e-40, -6.13413e-40, -6.23616e-40, -6.24098e-40, -6.06056e-40, 3.8937e-40, 6.12236e-40, -3.7846e-40, -5.66111e-40, 5.71939e-40, -6.14918e-40, -5.84173e-40, -3.79116e-40, 6.02869e-40, -4.35716e-40, 5.61415e-40, 4.17752e-40, 5.64449e-40, 3.99558e-40, -6.09789e-40, 4.89894e-40, -5.87381e-40, -4.12074e-40, 4.78351e-40, 5.93051e-40, -4.61757e-40, -5.13772e-40, -5.77678e-40, 5.9727e-40, 6.01397e-40, -5.89853e-40], [4.6864e-40, -5.61303e-40, -4.85031e-40, -5.75174e-40, 5.966e-40, -5.74807e-40, 6.22055e-40, 5.97924e-40, -5.75313e-40, 4.29356e-40, 5.33473e-40, -3.87552e-40, -6.21992e-40, -5.89822e-40, -5.83897e-40, -5.85625e-40, 6.34867e-40, -5.88302e-40, -5.83243e-40, 6.13996e-40, -5.84849e-40, 6.07775e-40, -3.87515e-40, 5.80241e-40, -5.93753e-40, 5.79127e-40, -4.2376e-40, -3.90567e-40, -5.65413e-40, 5.84072e-40, -3.79372e-40, 4.96337e-40, -5.9109e-40, 6.18237e-40, -5.47758e-40, -5.73671e-40, -5.96634e-40, 4.11727e-40, -5.15578e-40, 6.09017e-40, 4.56232e-40, -5.95173e-40, 3.82424e-40, 6.03019e-40, -5.97016e-40, 3.57806e-40, -3.94246e-40, -3.9078e-40, -3.64453e-40, 6.25102e-40, 6.1091e-40, -5.65062e-40, -4.55271e-40, 6.25097e-40, -5.10897e-40, -6.16431e-40, -4.35416e-40, -6.14113e-40, -6.11855e-40, -4.08734e-40, -3.89354e-40, -5.5638e-40, 5.70627e-40, -4.68737e-40, -5.89952e-40, 6.04607e-40, 6.0909e-40, 4.21658e-40, -6.13985e-40, 5.31803e-40, -4.14824e-40, -5.89581e-40, -3.66568e-40, -5.77661e-40, 4.11582e-40, 6.15869e-40, 6.15738e-40, -4.07016e-40, 5.78904e-40, -4.32002e-40, -5.69517e-40, 6.13459e-40, -5.41145e-40, -6.23483e-40, -4.41199e-40, -5.83561e-40, 6.08462e-40, 5.78002e-40, 6.72763e-41, -4.14315e-40, -4.63463e-40, 6.02146e-40, -5.51365e-40, 5.66056e-40, 5.80432e-40, -6.04732e-40, 5.60333e-40, -2.99963e-40, 5.96292e-40, -5.12301e-40, -6.31659e-40, -3.80872e-40, 5.87912e-40, -4.59639e-40, -6.15379e-40, 4.56313e-40, -4.35225e-40, 4.03368e-40, 5.92309e-40, 6.24524e-40, 5.82122e-40, -6.09894e-40, 5.63922e-40, 5.88541e-40, -3.9125e-40, -5.71878e-40, 4.7173e-40, -4.22458e-40, 6.2029e-40, -5.87298e-40, 6.05243e-40, 3.94508e-40, -3.57979e-40, -6.21081e-40, 3.76712e-40, 6.00915e-40, 4.06948e-40, -5.8641e-40, 6.19756e-40, -4.42478e-40, -5.67049e-40, 4.03064e-40, 4.46961e-40, -5.05815e-40, 4.43468e-40, 5.84924e-40, -6.2195e-40, 5.57774e-40, 6.09914e-40, -5.63138e-40, 5.75635e-40, 4.44301e-40, 5.82451e-40, 6.32257e-40, 6.2236e-40, 5.70024e-40, 6.71951e-41, -5.8265e-40, 5.60959e-40, 3.54341e-40, 5.69266e-40, -5.71356e-40, 5.85931e-40, -4.27141e-40, -3.96958e-40, 5.6517e-40, -6.11607e-40, -5.74642e-40, -3.97893e-40, 4.09971e-40, -5.74644e-40, 6.08015e-40, 4.03479e-40, 5.75672e-40, -5.94872e-40, -5.95378e-40, -5.87762e-40, -4.44796e-40, -5.8931e-40, 4.84862e-40, -5.96341e-40, -5.7626e-40, 5.77835e-40, -6.346e-40, -4.60419e-40, -4.90655e-40, -6.04823e-40, -6.11106e-40, -4.08456e-40, -3.98435e-40, -4.613e-40, -6.1636e-40, -6.1054e-40, -5.97818e-40, 6.23386e-40, 4.6925e-40, 6.05846e-40, -6.21191e-40, 5.94205e-40, 3.66632e-40, 5.97881e-40, 6.21093e-40, 5.90611e-40, -4.47369e-40, -6.24399e-40, -5.80119e-40, -6.07736e-40, -4.63821e-40, 4.12247e-40, -5.79864e-40, 3.96063e-40, 5.75171e-40, -6.20086e-40, -5.86055e-40, 6.245e-40, 5.66111e-40, -6.22214e-40, 4.42251e-40, -5.90433e-40, 5.96429e-40, 5.9501e-40, -6.27244e-40, -5.97259e-40, -5.68769e-40, -6.31396e-40, 4.09112e-40, 6.02777e-40, 4.07294e-40, -5.84173e-40, 6.1394e-40, 7.61003e-41, 5.77111e-40, 6.13215e-40, -6.19843e-40, 5.98832e-40, 6.18691e-40, -6.15335e-40, -6.08592e-40, -5.96128e-40, -6.19429e-40, -6.20418e-40, -5.91848e-40, 4.24701e-40, -4.60304e-40, -6.15768e-40, -4.58537e-40, 6.00172e-40, 5.93867e-40, 5.89634e-40, 5.8479e-40, -3.78314e-40, 4.0028e-40, 6.21794e-40, -6.21416e-40, -5.92539e-40, -6.14374e-40, -6.03004e-40, 5.9423e-40, 4.03703e-40, 4.77027e-40, 5.70232e-40, -6.00822e-40, -5.66349e-40, 3.70192e-40, -3.8374e-40, 4.02288e-40, -6.28707e-40, 4.36964e-40, -5.91719e-40, -3.98909e-40, 5.80084e-40, 3.66667e-40, 4.63711e-40, -5.66661e-40, -5.72443e-40, 5.76864e-40, -5.74122e-40, 4.51437e-40, 4.94014e-40, 5.87804e-40, -6.07229e-40, -4.88912e-40, 5.17144e-40, 4.17602e-40, -6.12033e-40, 5.5344e-40, -5.87459e-40, -6.2008e-40, 6.0393e-40, 4.49108e-40, -3.70999e-40, -5.61582e-40, -4.48568e-40, -3.95892e-40, 6.14242e-40, 6.13385e-40, -6.05106e-40, 5.88683e-40, 5.62712e-40, 6.03197e-40, 5.79047e-40, -4.91344e-40, -4.57668e-40, -5.81766e-40, -4.94923e-40, -6.1034e-40, 6.03045e-40, -3.82396e-40, 6.20363e-40, 4.09869e-40, 5.65678e-40, -3.97198e-40, -5.83178e-40, 3.78669e-40, 4.02033e-40, -4.31271e-40, 6.22457e-40, 5.6937e-40, -5.97512e-40, 3.88771e-40, -4.09612e-40, 5.84753e-40, -4.06008e-40, -5.61664e-40, 5.99866e-40, 5.99752e-40, 5.88484e-40, 5.86655e-40, -6.00469e-40, -6.13612e-40, 5.91323e-40, -5.78003e-40, -5.81196e-40, 4.90489e-40, 5.38034e-40, 4.43445e-40, -4.23786e-40, -4.3928e-40, -6.16159e-40, 5.60042e-40, -3.7081e-40, -5.72735e-40, 5.6424e-40, 4.11135e-40, 6.06995e-40, -5.98436e-40, -5.65813e-40, -5.98667e-40, 3.6789e-40, 6.24026e-40, -6.22872e-40, 3.88884e-40, -5.93608e-40, 5.70874e-40, -3.96238e-40, 5.94899e-40, -6.15958e-40, 5.94578e-40, -4.4548e-40, 5.6619e-40, -6.049e-40, 3.73426e-40, -6.14953e-40, -5.20183e-40, -4.17248e-40, -4.01745e-40, 5.80977e-40, 3.94311e-40, 3.88485e-40, 5.8545e-40, 6.24046e-40, 3.96453e-40, 6.19922e-40, 5.54935e-40, 6.12938e-40, -6.12753e-40, 3.73816e-40, 6.19396e-40, -3.6523e-40, 4.09587e-40, -4.4211e-40, 6.00913e-40, -3.74615e-40, -3.66486e-40, -6.18874e-40, 5.71131e-40, 5.67819e-40, -5.13367e-40, -4.19561e-40, 5.85285e-40, -6.29428e-40, 5.90084e-40, -4.12909e-40, -5.72643e-40], [0.0869843, -0.638029, 0.0591534, 0.153547, 0.150085, 0.207406, 0.301475, 0.204912, -0.0708946, -0.266598, 0.0349723, -0.0235343, 0.0154247, 0.0649607, -0.0789382, -0.227631, -0.183651, 0.232368, -0.0458724, 0.285291, 0.16894, 0.0993588, 0.0884998, 0.0522453, -0.0461189, -0.174757, -0.490147, -0.744626, -0.136349, -0.0174343, -0.132343, -0.12062, -0.32618, 0.173298, 0.623408, -0.0153217, 0.0404257, -0.162918, -0.482061, 0.0317674, -0.112037, -0.359239, 0.0877363, -0.0647115, -0.329123, -0.106667, 0.223935, -0.070797, 0.240222, -0.334444, 0.0302125, 0.255471, 0.615164, -0.284039, -0.303798, -0.115931, -0.137548, -0.111574, 0.161848, -0.220101, -0.367422, -0.126657, -0.256501, 0.113516, -0.150437, -0.143676, 0.0905863, 0.257842, 0.13069, -0.154566, 0.0462181, 0.13097, 0.418097, 0.294621, 0.086011, -0.111471, 0.150383, 0.0134954, 0.205862, -0.260857, -0.227734, 0.303589, -0.589693, -0.569932, 0.103147, 0.294795, -0.471807, 0.0544811, 0.0322597, 0.427908, 0.0859986, 0.287705, -0.345054, 0.341582, -0.096144, 0.0585529, -0.462659, -0.301479, 0.564835, -0.615583, 0.59948, -0.0552956, -0.089929, -0.315572, -0.0527269, -0.163851, -0.327465, -0.268773, -0.357247, 0.139284, 0.439356, -0.372411, 0.507527, -0.0286171, -0.179397, -0.0306183, 0.572296, 0.0323132, 0.0692224, -0.247833, 0.0373089, -0.299761, -0.126223, 0.580202, -0.353798, 0.357232, 0.500695, -0.0708484, -0.168438, -0.101929, 0.195972, 0.0903193, -0.303034, 0.537712, 0.206955, 0.00578673, -0.665527, 0.653572, -0.317524, 0.138309, 0.893755, -0.0317476, -0.270168, 0.253067, 0.375628, 0.118291, 0.276389, -0.0540124, -0.365611, -0.469361, -0.137205, -0.818396, 0.476055, -0.304664, -0.43644, -0.0031771, 0.124223, -0.247822, 0.287572, -0.264404, 0.0599324, -0.246788, -0.0586189, 0.0219316, 0.185851, 0.309931, -0.0923912, -0.218863, 0.696027, -0.149904, -0.205648, -0.0181497, -0.26509, -0.718895, 0.495394, -0.0539771, -0.321441, -0.470534, 0.0242202, -0.461839, -0.377988, 0.391061, 0.313265, -0.199257, 0.0686051, -0.0171466, 0.317043, -0.288553, -0.323624, 0.216026, -0.280842, -0.0750009, -0.470504, 0.125762, -0.0576376, 0.146162, -0.398966, -0.321835, 0.0132857, 0.219546, 0.26767, -0.0650617, 0.109779, 0.0807503, -0.0693904, -0.102952, 0.335493, 0.189938, 0.0761314, -0.374159, 0.51682, -0.114495, 0.157741, 0.316248, 0.092833, 0.738913, -0.163207, 0.0219254, 0.033097, 0.107224, -0.254327, 0.180248, -0.331355, -0.274949, 0.239235, -0.272789, 0.0669792, 0.225657, -0.0781457, 0.000921209, -0.499537, 0.292297, 0.0394441, -0.26686, -0.0237428, 0.442748, -0.0597451, 0.444196, -0.086934, 0.190671, -0.0811897, -0.110582, 0.350964, -0.349946, 0.019979, 0.0196546, -0.195238, 0.73607, 0.920354, 0.267545, -0.209172, 0.233558, -0.14504, -0.156804, 0.00917148, -0.632288, -0.255869, 0.210751, 0.184031, -0.375097, 0.12691, -0.0789944, 0.0768619, 0.15837, -0.0423963, -0.337129, -0.0658528, -0.0541904, -0.25491, -0.074337, 0.268089, -0.375132, -0.132116, -0.27722, -0.0465706, -0.240974, 0.161383, -0.244907, -0.129544, -0.380076, -0.482843, 0.0358014, 0.370863, -0.101387, 0.0452708, 0.321733, 0.228111, -0.139252, -0.526092, -0.600304, 0.731123, -0.22522, -0.0260188, 0.256691, 0.285715, -0.167221, 0.0772596, 0.309999, -0.365755, -0.0405926, -0.155937, 0.118295, 0.0768752, -0.0558254, 0.0587761, 0.0610371, 0.501629, -0.4826, 0.0763187, -0.0177021, -0.267091, -0.57546, -0.000778031, 0.717903, 0.474455, -0.2703, -0.484557, 0.227213, 0.300059, -0.156177, 0.493194, 0.209379, -0.135214, -0.194671, -0.095743, -0.0185627, 0.0332582, 0.395197, -0.381819, 0.31328, 0.443137, -0.200609, -0.412899, 0.339604, -0.0214877, 0.256846, -0.496881, 0.0661726, 0.2042, -0.0561468, -0.0926011, 0.347686, 0.401911, -0.000885758, 0.573233, 0.250522, 0.173076, -0.342479, -0.0516299, 0.405837, -0.0646534, 0.26489, -0.206039, 0.480151, 0.181113, 0.0998449, 0.197675, 0.131748, 0.634839, 0.241532, 0.0400623, 0.223229, 0.408321, -0.00741388, -0.519558, 0.159304, -0.520908, -0.118982, 0.361018, -0.198284, -0.516485, 0.0642631, -0.1928, -0.243142, -0.514436, -0.0188616, 0.332182, -0.123187, 0.325877, 0.247216, -0.429057, 0.000834773, 0.0137788, 0.651347], [0.18037, 0.524101, 0.213052, -0.151465, -0.0692903, 0.0316942, 0.0674374, -0.22303, 0.0737631, -0.154735, -0.0277248, 0.110523, 0.479809, -0.31184, 0.0445186, -0.487602, 0.254528, -0.327759, 0.385456, -0.0934108, 0.407022, 0.0477439, -0.0575058, 0.0686772, -0.0889407, 0.180056, -0.214231, 0.336305, 0.543999, 0.211691, -0.22781, -0.241845, 0.0331863, -0.00827117, -0.321517, -1.32119, 0.144396, 0.157699, -0.0690241, -0.718922, 0.330635, -0.294252, 0.0189999, -0.159473, -0.242555, 0.226722, 0.0449212, -0.069419, 0.313089, 0.210707, -0.094333, 0.11445, 0.522913, -0.211264, 0.468565, -0.181833, 0.707509, -0.159774, 0.282962, 0.136281, 0.190657, 0.28122, -0.259882, -0.426901, -0.0291933, 0.081877, 0.00745145, 0.170212, -0.169284, 0.519257, 0.372465, -0.140457, -0.304585, 0.418178, -0.413846, -0.0388896, -0.484753, 0.135571, -0.332443, -0.101136, -0.0075353, -0.389303, 0.103628, -0.0588005, -0.21118, -0.394477, -0.184561, 0.033501, -0.109116, 0.337063, 0.394902, -0.235063, 0.288661, -0.124334, 0.130655, 0.0946166, 0.294951, -0.355719, -0.0415554, -0.665991, -0.228095, 0.287827, -0.124298, -0.158192, 0.0737462, 0.15872, -0.195367, -0.0304017, -0.135983, -0.188112, 0.59186, -0.32624, 0.568111, -0.644194, 0.0417744, -0.193328, 0.312527, -0.152334, 0.479333, 0.140243, -0.213126, 0.473365, -0.24824, -0.0512586, 0.307078, 0.109795, 0.345549, 0.0380582, -0.666323, -0.252242, -0.214491, -0.169788, -0.108361, 0.344712, -0.231456, 0.273668, -0.049184, -0.0943011, 0.0384382, 0.260325, -0.403713, -0.0252527, 0.633594, -0.491371, 0.0087806, -0.324854, 0.268503, 0.380496, 0.340711, -0.64867, -0.0890757, -0.00776271, 0.212259, 0.240014, 0.162664, -0.225291, -0.501256, -0.122849, -0.292283, -0.243415, -0.0346795, 0.449107, -0.218162, 0.180969, -0.0885895, 0.0448304, -0.288553, -0.0811163, 0.0122205, -0.0575957, 0.551244, 0.0310555, 0.000997643, 0.0820027, 0.0621346, 0.423665, -0.101618, -0.0128632, 0.0966265, -0.207976, -0.0625961, -0.360727, 0.470531, -0.307538, 0.0674617, -0.121852, 0.00541888, 0.0883306, 0.0842494, -0.115453, -0.344802, -0.145628, -0.269222, -0.189669, -0.173497, -0.72971, 0.150052, 0.183732, 0.570748, -0.0833899, 0.917814, 0.660638, 0.430738, 0.855849, -0.348103, -0.209894, 0.158665, -0.180985, 0.20203, 0.237374, 0.14759, -0.548553, -0.2231, -0.297591, -0.420159, -0.547885, -0.531307, -0.0680929, 0.0923108, 0.701783, 0.152143, -0.253438, 0.165952, -0.130741, -0.439919, -0.0231779, -0.105637, -0.0401925, 0.347772, -0.283596, 0.120447, 0.254165, -0.0970674, 0.60359, -0.152189, -0.287176, -0.392492, -0.141545, -0.211395, -0.0665375, 0.0201004, -0.157301, -0.300966, 0.0730271, 0.168442, 0.244337, 0.278239, -0.0269875, 0.428308, -0.528441, 0.230065, -0.0786659, 0.020952, 0.598338, 0.369751, -0.15489, 0.0963706, 0.136133, -0.166376, 0.179983, 0.0733249, 0.0791353, 0.251376, 0.611431, -0.111455, 0.0876139, 0.288457, 0.20082, -0.0730325, -0.232653, 0.0268786, 0.322455, 0.260979, -0.237127, -0.0211088, -0.0195996, 0.130699, 0.157803, 0.334985, 0.0313883, -0.110528, -0.448622, -0.0994189, 0.1372, -0.192971, -0.00965914, 0.982026, -0.260193, 0.225826, 0.126387, -0.344949, 0.0828202, -0.0676872, -0.236656, 0.141468, 0.110655, -0.126957, 0.187759, -0.00698204, -0.191654, -0.403112, -0.303156, -0.0486131, 0.195581, -0.191674, 0.0212268, -0.21402, -0.0312948, -0.00155127, -0.0478212, 0.054098, -0.111638, -0.183399, 0.0168331, -0.628955, -0.250759, -0.553577, -0.00681221, 0.01407, -0.0807734, -0.115032, -0.104432, 0.475481, -0.256665, 0.325424, 0.220416, 0.26723, 0.02675, -0.00412356, -0.693387, 0.337504, 0.0850401, -0.431492, -0.20577, -0.101924, 0.0261285, 0.00876125, 0.068213, 0.134286, 0.0888002, 0.336711, -0.471457, 0.173062, 0.0382871, -0.165181, -0.093295, -0.201709, 0.136013, 0.0622751, 0.303805, 0.18058, -0.139215, -0.955015, -0.176994, -0.293974, -0.408185, 0.0929646, -0.0234929, 0.0440199, -0.0246521, -0.389084, -0.130259, -0.976357, -0.01171, -0.0256916, 0.0516955, 0.159788, -0.0728707, -0.010861, 0.175006, -0.157881, 0.220257, 0.056756, 0.257488, 0.443249, 0.163498, -0.13745, 0.26706, 0.114821, -0.372559, -0.00193809, -0.139729, 0.267337, -0.121023], [-0.340958, -0.207678, 0.163358, 0.00102019, -0.628569, -0.407495, -0.185921, -0.535293, -0.182567, 0.16842, -0.000556966, 0.222289, 0.101406, -0.240645, -0.0155519, -0.163578, 0.194442, 0.380814, 0.277977, 0.112116, -0.636408, -0.557972, 0.246562, 0.147739, -0.218088, 0.360009, 0.278264, 0.0336143, 0.0906176, -0.365284, 0.108974, 0.757241, -0.108276, 0.0292458, 0.245106, -0.124593, 0.0792206, 0.1213, 0.513421, 0.094708, 0.26681, -0.470422, -0.0430378, -0.261941, -0.442876, 0.0924674, 0.210417, -0.21385, -0.32463, -0.259527, 0.54088, 0.105422, 0.0188556, 0.400744, -0.243408, 0.150295, 0.380166, -0.198573, 0.28862, 0.292816, 0.237006, 0.563109, 0.0242284, 0.361623, -0.530974, 0.0919098, -0.239349, 0.433783, 0.0269769, 0.255577, 0.0884348, -0.155152, -0.32959, -0.408192, 0.352262, -0.157498, -0.061314, -0.152185, -0.163578, -0.0312737, -0.385677, 0.496899, -0.244801, -0.349557, -0.0139559, -0.21458, -0.142218, -0.14328, 0.00129192, -0.165013, 0.107263, -0.0517533, 0.313378, 0.00927999, 0.055572, 0.10443, -0.226079, -0.30703, 0.0590209, -0.274692, -0.0532844, 0.40435, 0.150138, -0.428193, 0.684582, -0.606231, 0.0604177, -0.00309161, 0.369277, -0.0153574, -0.0266979, -0.36037, 0.157114, -0.00845727, -0.233876, -0.459129, 0.194146, -0.327817, -0.216119, 0.338923, 0.073719, 0.0458508, 0.355845, -0.097748, -0.172897, -0.533754, -0.0352138, -0.612896, -0.145313, 0.288396, -0.46175, -0.719924, 0.331418, 0.0778084, 0.266228, -0.251523, 0.449375, -0.114703, 0.478822, 0.0777474, 0.0605865, -0.27616, 0.161928, -0.265163, 0.107506, 0.202944, 0.17023, -0.104142, -0.00563827, 0.199701, 0.0641816, 0.297468, -0.31503, 0.22547, -0.220667, 0.334726, 0.177727, -0.287423, -0.461045, 0.44814, -0.265605, 0.370032, 0.127373, -0.547762, 0.165442, 0.152521, -0.136736, 0.28085, 0.0292479, -0.0630312, -0.422299, -0.277847, -0.421623, -0.0618938, 0.0866947, 0.105023, -0.107096, -0.320584, 0.152991, 0.143276, 0.114212, 0.52432, 0.0818957, 0.145683, -0.107643, 0.126669, -0.282827, -0.453774, -0.277458, 0.49367, 0.0729886, -0.0614635, -0.399762, 0.122131, -0.411215, 0.142413, -0.162191, 0.365177, 0.114246, 0.22989, 0.234981, 0.0254403, 0.0872544, 0.0227126, 0.256242, 0.299002, 0.340576, 0.446686, -0.338189, 0.405216, 0.19879, 0.207961, -0.517726, -0.163947, -0.0687943, 0.612786, -0.201214, 0.261049, -0.72824, -0.174732, -0.0141408, -0.0319696, -0.192736, -0.399369, 0.076018, 0.0653002, -0.188626, -0.366826, 0.194832, -0.0293397, 0.0394496, 0.379511, -0.28563, 0.141296, -0.445743, -0.0999904, -0.484405, -0.434082, 0.227559, -0.476518, 0.0904489, -0.630651, -0.171, -0.179049, -0.211898, 0.140138, 0.139634, 0.576258, -0.370003, -0.318901, -0.275684, 0.262281, -0.00784934, 0.237858, -0.422588, 0.147123, -0.0778331, 0.144181, 0.373698, 0.161699, -0.569144, 0.271098, 0.219306, -0.0182948, 0.313939, -0.195092, 0.389201, 0.673569, -0.0145363, 0.443803, -0.073565, -0.298042, 0.273208, -0.116741, 0.350934, -0.0496307, 0.299151, -0.204112, 0.111051, 0.242573, 0.0311788, 0.341639, -0.298868, -0.0186012, -0.16594, -0.102229, -0.0356448, 0.278622, 0.0403709, -0.728787, -0.878441, -0.0718707, 0.119278, 0.0322005, -0.0860361, -0.0694368, 0.645344, -0.0152052, -0.520638, -0.54482, -0.128162, -0.505347, -0.00865596, 0.116272, -0.429223, 0.181195, -0.0669119, 0.20021, 0.37177, -0.204963, -0.0140543, 0.0494264, 0.383906, 0.267918, -0.342296, -0.0474489, 0.372187, -0.242554, -0.350897, -0.18074, 0.107756, 0.119798, -0.0684265, 0.369273, 0.259327, 0.45667, 0.389121, -0.0469417, -0.464079, -0.235021, -0.033234, 0.0753168, 0.000392282, -0.129261, -0.00561666, 0.233843, -0.317372, -0.0814608, 0.151731, 0.062086, 0.42301, -0.265421, -0.240759, 0.21775, -0.39152, 0.215205, -0.0765754, 0.216033, 0.127726, 0.0662419, 0.192514, 0.227987, 0.393127, 0.315927, 0.0376656, 0.220838, 0.194827, -0.297893, 0.79652, -0.0323188, 0.459712, -0.0751808, 0.155637, 0.266386, 0.11298, 0.201426, 0.259498, -0.334353, -0.535297, -0.228703, -0.0434261, -0.0186964, 0.265524, -0.666972, 0.0203617, -0.377408, -0.065315, 0.202522, -0.261716, 0.18135, -0.266699, 0.180671, 0.516184, -0.03413], [-6.05156e-40, 4.64662e-40, 4.29624e-40, -5.93479e-40, 5.75335e-40, -6.07541e-40, -6.27029e-40, -4.91472e-40, 6.11084e-40, -3.98978e-40, -5.98206e-40, -4.13774e-40, -6.12772e-40, -5.5983e-40, -4.14119e-40, -6.23477e-40, 6.04684e-40, 6.2236e-40, 4.48853e-40, 6.00465e-40, -3.41435e-40, -3.68951e-40, 5.88562e-40, 5.72007e-40, 3.6614e-40, -6.29009e-40, -5.90209e-40, -6.11772e-40, -6.04114e-40, 6.26069e-40, 5.6298e-40, -6.3034e-40, 6.12922e-40, -4.36235e-40, -5.73483e-40, 5.89477e-40, 6.19855e-40, 5.98042e-40, -5.88076e-40, -5.03034e-40, 5.76535e-40, 3.91806e-40, 6.2521e-40, -5.75225e-40, 6.2149e-40, -3.73157e-40, -6.30964e-40, -5.84999e-40, -4.58145e-40, 6.18141e-40, 6.19209e-40, 6.13353e-40, -4.43697e-40, 4.60675e-40, -6.0256e-40, -4.48264e-40, -6.23234e-40, -6.3424e-40, 6.00584e-40, 5.89923e-40, 6.2283e-40, 5.98207e-40, -4.85106e-40, 6.55037e-41, -4.50634e-40, -4.85327e-40, 4.55379e-40, -4.15542e-40, 3.49068e-40, -4.06309e-40, -3.555e-40, 5.94127e-40, 6.01959e-40, 4.9178e-40, 5.85027e-40, -4.46705e-40, -5.85119e-40, -3.69259e-40, 5.71211e-40, 6.39875e-41, -6.06524e-40, 4.59029e-40, -5.61908e-40, -5.85269e-40, -6.03256e-40, -4.05508e-40, 5.76002e-40, 6.13194e-40, 6.23649e-40, 5.70187e-40, -5.69737e-40, 3.86464e-40, -3.53084e-40, 6.12248e-40, 6.11588e-40, -6.03218e-40, 5.52606e-40, 4.3227e-40, -4.46476e-40, 7.50367e-41, 6.32183e-40, 5.63159e-40, -4.36177e-40, 4.89748e-40, -6.1941e-40, 6.11063e-40, 4.08329e-40, -5.94529e-40, 3.82468e-40, -3.77417e-40, 3.83248e-40, 6.10833e-40, 5.69708e-40, -5.82244e-40, -5.97802e-40, 4.21579e-40, 5.78055e-40, -5.79123e-40, -6.00416e-40, 6.03293e-40, 6.04304e-40, -5.06564e-40, -5.84126e-40, 5.66616e-40, -5.8921e-40, -6.23662e-40, 5.76937e-40, 6.0198e-40, 4.62969e-40, -5.74102e-40, -6.12938e-40, -5.78382e-40, -3.68158e-40, -5.21528e-40, -5.89987e-40, 6.11148e-40, 6.20941e-40, 4.25752e-40, -6.03619e-40, -6.10767e-40, -6.01294e-40, -4.92278e-40, -4.05836e-40, -5.69263e-40, 5.66417e-40, -6.17094e-40, 5.86239e-40, -3.74917e-40, -5.98489e-40, -4.35699e-40, -3.95346e-40, 5.81459e-40, -6.18467e-40, 6.13336e-40, 5.92005e-40, -6.00732e-40, 6.06703e-40, -5.85579e-40, -4.84551e-40, -5.67574e-40, 4.41031e-40, -6.14412e-40, 5.53527e-40, 4.22763e-40, 5.74448e-40, -4.88701e-40, 3.73503e-40, -5.61227e-40, 6.07282e-40, 3.93024e-40, 4.35182e-40, 5.85521e-40, 5.89849e-40, 4.65179e-40, 5.61472e-40, 6.117e-40, 5.6726e-40, -3.49111e-40, -6.06112e-40, -5.63059e-40, -3.85106e-40, 6.02975e-40, 5.79976e-40, -6.29672e-40, -4.34484e-40, 6.23219e-40, 5.67773e-40, -4.87753e-40, -4.46073e-40, -4.26655e-40, -5.28395e-40, -6.08934e-40, 5.61748e-40, 6.04295e-40, -6.00092e-40, 6.08295e-40, 5.78504e-40, 5.78925e-40, 6.02883e-40, -5.74796e-40, 6.21061e-40, 5.99118e-40, -4.0243e-40, -4.40721e-40, -5.62359e-40, -3.75633e-40, -4.59119e-40, -5.76185e-40, -6.22965e-40, 5.63514e-40, 5.92528e-40, 6.03365e-40, -3.74211e-40, -6.00197e-40, -3.94143e-40, 4.90489e-40, 6.14936e-40, -6.13246e-40, -6.21966e-40, -6.28122e-40, -6.22423e-40, -6.01244e-40, 6.00552e-40, 5.61265e-40, 5.92632e-40, -4.84359e-40, -6.04442e-40, 4.32448e-40, -5.60313e-40, -6.19675e-40, -6.19642e-40, 6.17188e-40, -5.24779e-40, 5.93783e-40, -5.71123e-40, -6.09165e-40, -6.3469e-40, -6.05972e-40, 5.97037e-40, -5.80578e-40, -4.09951e-40, -3.81785e-40, 5.8307e-40, -4.03483e-40, 5.33308e-40, -5.87559e-40, 6.1179e-40, 5.76931e-40, 5.88887e-40, 4.13201e-40, 4.31465e-40, -6.21933e-40, 5.97396e-40, -6.15959e-40, -3.88279e-40, 5.63654e-40, 6.07234e-40, 6.77626e-41, 3.91669e-40, 5.99087e-40, -5.59232e-40, 5.6708e-40, 5.8718e-40, 4.42362e-40, 5.85275e-40, -4.16762e-40, -5.79726e-40, -5.62023e-40, 5.61004e-40, -4.13089e-40, -5.84162e-40, -6.02427e-40, -5.88358e-40, 6.19953e-40, -5.99312e-40, 6.0336e-40, -5.98803e-40, 5.94987e-40, -4.27909e-40, -5.81344e-40, 6.15333e-40, -6.00441e-40, -5.93362e-40, 4.01218e-40, -4.58829e-40, 5.79321e-40, -4.76502e-40, 3.74737e-40, -5.92783e-40, 5.90242e-40, -5.67083e-40, -6.12192e-40, 5.70313e-40, -4.95135e-40, -5.70833e-40, 4.68625e-40, -4.12059e-40, -3.93399e-40, 6.19291e-40, -4.21907e-40, 5.89263e-40, -5.82846e-40, 5.74866e-40, 4.1157e-40, -4.67309e-40, -6.20636e-40, -6.17747e-40, -6.08997e-40, 6.0842e-40, -6.00696e-40, -5.77727e-40, 6.26791e-40, -5.73403e-40, -4.06997e-40, -6.10163e-40, 5.76867e-40, -5.67816e-40, 4.1619e-40, 6.33126e-40, 4.98624e-40, -4.88395e-40, -4.56676e-40, 4.37078e-40, -4.85296e-40, -5.19721e-40, 5.70984e-40, 3.9643e-40, -6.11947e-40, 5.80527e-40, -6.14366e-40, -4.02377e-40, 5.89309e-40, 6.15314e-40, -5.85556e-40, -6.21354e-40, 4.1281e-40, -6.20915e-40, 5.83234e-40, 6.01264e-40, 3.87872e-40, 6.03874e-40, -4.74652e-40, -6.21539e-40, 5.78215e-40, -5.04259e-40, 5.65015e-40, 5.54724e-40, 6.11298e-40, -3.93776e-40, -5.81187e-40, -6.13514e-40, 4.24921e-40, -5.64323e-40, 6.1596e-40, -6.3589e-40, 5.94302e-40, 5.42956e-40, -5.71283e-40, -3.80865e-40, -6.32042e-40, 5.97275e-40, -4.10568e-40, 3.89241e-40, -4.38044e-40, -6.30895e-40, -6.12049e-40, -6.32856e-40, -5.78044e-40, -4.02353e-40, -5.97801e-40, -5.9404e-40, 6.17987e-40, -6.16752e-40, 3.8145e-40, -4.09614e-40, -6.35691e-40, 5.88237e-40, 6.1907e-40, 5.7612e-40, 4.54342e-40, -6.04649e-40, 5.01494e-40, 5.69839e-40, -4.50602e-40], [0.0101303, -0.410086, -0.254956, -0.0767193, -0.142622, -0.429385, -0.032449, 0.126822, -0.519564, 0.250367, 0.254238, 0.309449, -0.371829, -0.149691, 0.709009, -0.0179934, -0.0526688, 0.252259, 0.375759, -0.411365, 0.240757, 0.631241, -0.124246, -0.276224, -0.325955, 0.0789798, 0.124867, 0.021364, 0.381195, -0.136405, -0.395881, 0.0061171, -0.504336, -0.0948862, 0.495696, 0.348988, -0.252156, 0.168235, -0.178237, -0.110284, -0.0225003, -0.678148, 0.467569, 0.0684481, -0.305148, -0.0645812, 0.224584, 0.122997, -0.218645, -0.0396665, 0.485849, 0.113017, 0.327418, 0.525917, 0.401002, 0.121258, -0.087309, -0.065434, 0.255307, 0.0249727, 0.0209909, 0.335598, 0.171414, -0.323689, -0.0985301, -0.242533, -0.506109, -0.213975, -0.290061, -0.0274762, 0.386268, 0.0549318, -0.118094, 0.435192, 0.319759, 0.185437, 0.111583, -0.203749, -0.324763, -0.0136258, -0.0487887, -0.00801798, 0.552529, 0.190271, 0.473113, -0.0546655, 0.370876, 0.0216414, 0.0943066, 0.318326, -0.281934, 0.45256, -0.0321233, -0.0396822, -0.0635328, -0.136, 0.479115, 0.367021, -0.0203389, -0.100976, 0.203427, 0.622153, -0.144839, -0.222696, 0.195152, 0.42477, 0.0763746, -0.148178, 0.295895, 0.0653999, 0.162033, -0.0745117, 0.537697, 0.0943053, -0.295648, -0.0692622, 0.524826, 0.0725174, -0.355394, 0.380345, 0.1877, -0.121477, 0.235524, -0.428143, 0.224293, -0.169763, 0.0503772, 0.337141, -0.0112197, 0.253117, 0.381321, 0.0711028, -0.101337, 0.405268, 0.507109, -0.195632, 0.232719, -0.0923524, -0.123404, -0.288366, -0.125032, -0.370885, 0.385952, 0.0564853, -0.417456, -0.383089, 0.530065, 0.313426, -0.0324832, 0.124791, 0.316436, 0.439603, -0.143053, 0.0755008, -0.000311893, -0.727702, -0.0556133, -0.0515135, -0.201772, 0.277017, 0.103423, -0.0038934, 0.11275, -0.316686, 0.281, -0.0992456, -0.175071, -0.162227, -0.128183, -0.210027, -0.122113, 0.470768, 0.574886, -0.0233277, -0.697971, 0.0582338, -0.496941, 0.100855, -0.351789, 0.0193252, -0.12123, 0.0869816, -0.097034, -0.213765, 0.190361, 0.12642, -0.377802, 0.169278, -0.0563465, 0.0497609, 0.504453, -0.530736, -0.0874048, -0.0784833, -0.349903, -0.051937, 0.343893, 0.00217825, -0.428544, 0.0186088, -0.122852, -0.149604, -0.170768, -0.402136, -0.40702, -0.505048, -0.0295932, 0.204182, 0.405007, -0.24402, -0.249093, 0.229368, 0.0119256, 0.193765, 0.842392, 0.30827, 0.40921, -0.205681, -0.200659, 0.267874, -0.0770309, -0.239014, -0.625677, 0.372594, 0.614767, -0.323106, -0.169672, -0.0930126, 0.0560332, -0.00959465, -0.256496, 0.680407, 0.0181948, 0.345609, 0.450879, 0.216683, -0.532213, 0.394476, -0.248012, 0.077136, 0.204404, -0.303382, 0.431729, -0.225224, -0.579791, -0.475222, 0.406241, -0.677789, -0.608726, 0.62426, -0.079173, -0.241442, 0.144347, -0.0415382, -0.194684, -1.10502, -0.10034, -0.0276632, -0.0178798, 0.143328, -0.178086, -0.266175, -0.432363, 0.149295, 0.485178, 0.0790784, -0.126404, -0.201759, 0.437303, -0.60342, 0.130754, 0.0892287, -0.0621818, 0.262891, 0.0989178, 0.0603939, 0.139691, -0.0779053, -0.0813354, 0.0619442, 0.705161, -0.449916, 0.07122, -0.272756, -0.037232, 0.0561301, -0.207869, 0.0251684, -0.0601607, -0.580599, -0.206358, 0.303509, 0.107986, 0.377837, 0.46263, 0.0282427, 0.277217, 0.122182, -0.336674, -0.384567, 0.0173506, 0.326845, -0.301001, 0.318608, 0.137415, -0.513634, -0.028678, -0.224152, 0.0171806, 0.172396, -0.315462, 0.0399117, -0.061781, -0.107365, -0.331512, 0.00663714, 0.744741, -0.466612, 0.467269, -0.0810043, 0.107043, -0.0559414, 0.247393, -0.0120351, 0.216393, 0.0571971, -0.0974818, 0.158937, 0.142949, -0.359417, -0.495311, 0.00377652, -0.220404, 0.178484, 0.363835, -0.158453, -0.28984, -0.299135, -0.443071, 0.0475502, -0.0240521, 0.0600878, -0.160743, -0.0883041, -0.239993, 0.113446, 0.0429501, -0.0731098, -0.0201412, -0.246055, -0.196471, -0.176851, 0.436225, 0.232112, -0.408068, 0.130003, -0.309818, 0.188429, -0.229781, -0.541842, -0.307082, -0.657224, -0.337295, 0.0940707, -0.542209, -0.129941, 0.0994178, 0.0478738, 0.313147, 0.175803, -0.552216, 0.675428, -0.275607, 0.984097, 0.73956, 0.0456343, 0.057475, 0.207102, 0.18131, 0.0867972, 0.441595, -0.0908739, 0.260252, -0.469904], [4.96627e-40, -5.61129e-40, 5.9535e-40, 3.70628e-40, 4.03755e-40, 3.77675e-40, -5.92511e-40, -3.70688e-40, -6.12422e-40, -4.36346e-40, -3.84605e-40, 4.61125e-40, -3.73494e-40, -4.62703e-40, -5.96063e-40, -6.22311e-40, 6.10833e-40, -3.91399e-40, -5.71677e-40, 5.80252e-40, 6.17593e-40, -7.51096e-41, 6.00616e-40, 5.64886e-40, -6.22189e-40, -3.85846e-40, -6.1318e-40, 4.33909e-40, -4.92883e-40, -5.61891e-40, -4.55636e-40, 3.74839e-40, -5.4368e-40, 6.16557e-40, -4.38273e-40, -6.13595e-40, -3.5873e-40, 5.27153e-40, 5.4318e-40, 6.12533e-40, 5.84438e-40, -6.06667e-40, 5.91861e-40, 3.442e-40, -4.69648e-40, 7.48658e-41, 6.22381e-40, -5.98158e-40, -4.50488e-40, 5.81536e-40, -5.63262e-40, -4.34209e-40, 5.79126e-40, 4.13644e-40, 3.89414e-40, 3.95858e-40, 3.88345e-40, -4.70845e-40, 6.24033e-40, -4.84673e-40, 6.1681e-40, 4.38971e-40, 5.88327e-40, -6.07205e-40, -4.26616e-40, -4.01727e-40, -4.63156e-40, 6.1842e-40, -4.03515e-40, -5.88802e-40, -6.20342e-40, -6.18715e-40, -3.8023e-40, -5.70994e-40, 3.59762e-40, -4.15123e-40, -4.4637e-40, 4.64418e-40, -5.89893e-40, -4.48746e-40, -4.25829e-40, 5.57048e-40, 3.83889e-40, -5.86385e-40, 6.05294e-40, -4.33808e-40, -4.51131e-40, 5.70186e-40, -5.86533e-40, 6.3005e-40, 4.54583e-40, 5.88491e-40, -4.9694e-40, 5.74062e-40, -4.45888e-40, -4.27882e-40, -4.62597e-40, 3.46212e-40, -5.69147e-40, 6.23588e-40, 4.51634e-40, 5.75382e-40, -5.8935e-40, -3.80869e-40, 4.53651e-40, 6.36463e-40, -6.2312e-40, 4.13609e-40, -4.95119e-40, -4.2193e-40, -5.66283e-40, 5.80854e-40, 4.38215e-40, 3.71083e-40, 5.76249e-40, 4.9966e-40, -5.82831e-40, -6.08978e-40, -5.74831e-40, 6.16887e-40, 3.74931e-40, -6.13631e-40, 4.16553e-40, -4.3586e-40, 4.22824e-40, -5.79216e-40, 4.08135e-40, -3.99781e-40, -6.19371e-40, 6.10944e-40, -5.32322e-40, 4.21778e-40, 4.92694e-40, 6.22827e-40, 5.56303e-40, 5.73494e-40, -6.18725e-40, -3.88453e-40, -5.88331e-40, 5.4031e-40, 6.18501e-40, -3.85122e-40, -6.2235e-40, -5.64676e-40, 5.62407e-40, 6.28911e-40, -4.27683e-40, -5.71922e-40, -5.64222e-40, 5.86982e-40, 4.05279e-40, 3.90405e-40, 6.00274e-40, 5.55218e-40, 4.57755e-40, 6.06175e-40, 4.3606e-40, -6.23548e-40, -4.58042e-40, -5.71947e-40, -6.22192e-40, 5.53306e-40, -4.46866e-40, -4.24983e-40, -5.73229e-40, 3.96618e-40, 5.99338e-40, 4.26098e-40, -4.60114e-40, -4.87622e-40, 6.11552e-40, -4.20247e-40, 6.12492e-40, 5.20959e-40, -6.20171e-40, 4.72692e-40, 5.78364e-40, 4.47788e-40, 5.85126e-40, 5.91278e-40, -5.76575e-40, -5.65092e-40, 5.70847e-40, -6.01565e-40, -6.06726e-40, -6.05231e-40, 5.89722e-40, -6.23447e-40, 6.1355e-40, 4.9981e-40, 5.63918e-40, 5.83016e-40, -5.74109e-40, 4.15083e-40, -3.96011e-40, 5.70569e-40, -5.71814e-40, 3.86555e-40, 4.36042e-40, 5.70962e-40, 6.14397e-40, -5.85816e-40, 4.57112e-40, -4.40124e-40, 6.20271e-40, -3.81561e-40, -6.22029e-40, 4.21457e-40, -5.93598e-40, -5.70319e-40, 5.62888e-40, 4.15767e-40, -4.35695e-40, 4.64858e-40, 5.65797e-40, -4.0127e-40, -6.17562e-40, 4.48638e-40, 3.8572e-40, 5.07807e-40, 5.64863e-40, 5.65151e-40, 5.60617e-40, 6.22207e-40, -5.92056e-40, -5.83962e-40, 4.53839e-40, 5.7229e-40, 4.55328e-40, -5.10577e-40, -4.2749e-40, -5.8927e-40, -6.18071e-40, 5.81423e-40, -6.12205e-40, 5.53552e-40, -6.08573e-40, 5.67269e-40, 5.86691e-40, -5.72676e-40, -4.0663e-40, -4.16002e-40, -6.02923e-40, 4.15416e-40, -5.77384e-40, 6.22684e-40, 4.54258e-40, 4.12986e-40, 3.98671e-40, -5.82615e-40, 6.23984e-40, -7.45841e-41, -5.01052e-40, 4.73284e-40, -5.88585e-40, -6.09366e-40, -4.20695e-40, -5.01536e-40, 4.54759e-40, 5.76706e-40, -3.89872e-40, 6.18271e-40, 4.64762e-40, -5.78057e-40, 6.20992e-40, -5.88941e-40, -4.11091e-40, 5.63543e-40, -5.60068e-40, 4.5771e-40, -6.09579e-40, 3.87459e-40, -7.5083e-41, -4.98384e-40, -3.79214e-40, -4.21062e-40, -5.95444e-40, 4.66861e-40, -6.23682e-40, -6.00169e-40, 6.12691e-40, -4.05498e-40, -6.23752e-40, -4.9565e-40, 6.30482e-40, -5.77949e-40, -6.29811e-40, 3.45675e-40, -3.99363e-40, 4.9134e-40, 4.03606e-40, -6.23625e-40, -4.8787e-40, 5.71176e-40, 4.36335e-40, -5.59778e-40, 5.66797e-40, -5.94996e-40, 4.48842e-40, 3.79145e-40, -4.31184e-40, 4.5481e-40, 5.92344e-40, -5.63154e-40, 4.66288e-40, 4.39084e-40, 6.20547e-40, 4.64445e-40, -6.18827e-40, 4.47275e-40, -5.8352e-40, 5.75438e-40, -3.90323e-40, -6.35468e-40, -5.28557e-40, 5.61978e-40, 6.04086e-40, 4.48616e-40, -5.21825e-40, 5.00371e-40, -6.09292e-40, 6.09547e-40, -6.10947e-40, 5.47597e-40, 5.65417e-40, 6.29993e-40, 4.42197e-40, -5.75062e-40, 4.48467e-40, 4.24134e-40, -5.71434e-40, 6.03838e-40, -6.20885e-40, 5.95183e-40, -4.27053e-40, -3.86693e-40, -6.04765e-40, 6.19637e-40, 5.73117e-40, -6.36824e-40, -4.47182e-40, 4.41988e-40, -6.10521e-40, -4.43012e-40, 4.84537e-40, -3.66917e-40, -4.43036e-40, -6.21358e-40, 4.91377e-40, 4.04936e-40, 5.86501e-40, -3.81981e-40, 5.71255e-40, -3.81421e-40, 4.91901e-40, 6.06227e-40, 5.43969e-40, 4.2485e-40, 6.15574e-40, 6.21964e-40, 5.71158e-40, -6.17762e-40, 4.24912e-40, -3.7972e-40, 6.36096e-40, -5.74593e-40, 4.48032e-40, 5.43604e-40, -5.70557e-40, -5.69883e-40, 4.8884e-40, 6.20052e-40, 6.15185e-40, 4.78322e-40, -3.87547e-40, -4.88543e-40, -6.03099e-40, 5.60025e-40, 3.80206e-40, 6.18204e-40, 4.00952e-40, -3.20478e-40, 3.87074e-40, -6.2125e-40], [0.0693227, -0.145128, -0.284708, 0.43613, -0.158034, 0.0611289, 0.184991, 0.343766, -0.125567, 0.0190308, 0.175886, -0.0334974, 0.00157283, -0.25924, 0.0484893, 0.41596, -0.21371, -0.0584439, 0.266239, 0.213298, 0.392538, 0.500553, 0.514578, 0.54071, -0.0807085, -0.106874, -0.636277, -0.594921, 0.0951273, -0.0747188, 0.374764, -0.247573, -0.23614, -0.146315, -0.0914688, -0.779161, -0.0174403, 0.176334, 0.0743617, 0.254395, 0.313407, 0.0758635, -0.210385, -0.0962927, 0.0689881, -0.133192, 0.23916, -0.066844, 0.285694, 0.373433, -0.361114, -0.0635662, 0.0416002, -0.48381, -0.301458, 0.0146758, 0.0179592, 0.124109, 0.591282, -0.597146, -0.0359205, 0.653207, 0.023493, -0.588683, 0.501363, 0.160041, -0.173132, -0.390615, -0.371257, -0.233452, -0.540854, 0.114271, 0.543811, -0.416878, 0.24202, -0.692406, -0.735271, 0.0348927, -0.361895, 0.594477, -0.473669, -0.229187, 0.297064, -0.258489, 0.0746811, -0.332594, 0.056694, -0.139341, -0.26536, -0.144861, -0.131403, 0.227377, 0.279743, 0.0627912, -0.276697, -0.169071, 0.114009, 0.362512, -0.528092, 0.493296, -0.332156, 0.1102, -0.550458, 0.45313, 0.0878906, 0.194272, -0.010007, 0.125936, 0.344825, 0.354433, 0.400685, -0.210202, 0.336389, 0.0931534, -0.271604, 0.211497, -0.279289, -0.139492, -0.317116, -0.027309, 0.694366, 0.322421, 0.0329925, 0.303325, -0.558481, 0.0174477, -0.111029, 0.015011, 0.0638499, -0.171719, -0.10109, -0.187443, 0.206308, 0.61805, -0.360776, -0.00560954, 0.0398486, 0.208982, -0.116192, -0.158378, 0.426264, 0.0925498, 0.370671, 0.248054, 0.403947, 0.242238, -0.0777315, -0.388103, -0.21449, 0.908995, -0.326334, -0.187271, -0.048602, -0.307041, 0.457835, 0.124375, -0.240898, 0.0585853, -0.386718, 0.327485, -0.146822, 0.162662, 0.624919, -0.185901, -0.135419, -0.488811, 0.35912, 0.0308376, -0.0652653, 0.127048, 0.305492, -0.354525, 0.107391, 0.0125466, -0.233507, 0.271478, -0.513968, -0.0703371, 0.448701, 0.0161915, 0.373515, 0.36129, -0.0544785, 0.1609, -0.347152, -0.341677, 0.0878768, 0.176271, -0.1892, 0.328476, 0.389558, -0.0741777, -0.323704, 0.0618246, 0.443685, -0.0410122, -0.0134672, -0.0512808, 0.23583, 0.349996, -0.286048, -0.16229, 0.13518, -0.180191, 0.532173, 0.410837, 0.555341, -0.0463688, 0.0103827, 0.250545, 0.0873338, 2.4272e-05, 0.118127, 0.0674125, -0.163189, 0.207322, -0.0107041, -0.1253, 0.744704, 0.247604, -0.185848, -0.203427, 0.618714, 0.156052, -0.355278, 0.100288, 0.129826, 0.0598175, 0.0706462, 0.585225, 0.0193009, -0.203742, -0.405711, 0.270968, -0.06288, 0.0862586, -0.706103, 0.185309, 0.228731, 0.0704636, -0.382024, 0.137097, -0.103441, -0.188324, -0.139177, 0.298509, -0.0324133, -0.176564, 0.199035, 0.461517, 0.0267914, -0.0979613, -0.395184, -0.0751629, 0.00665938, 0.119005, 0.134799, -0.0625546, -0.49894, -0.159491, 0.215889, -0.334793, 0.0381914, 0.0634262, 0.00460323, 0.0498153, 0.149626, 0.51006, 0.183228, -0.353777, 0.305263, -0.0910335, 0.0509215, 0.0318657, -0.268708, -0.0742486, 0.642257, 0.00668397, -0.27184, -0.0663188, 0.0081396, 0.0399327, 0.104925, 0.0245749, -0.181169, 0.770192, -0.231342, -0.107155, -0.259287, -0.390645, 0.247007, 0.416352, -0.0830777, 0.414316, -0.126825, 0.00889104, -0.02357, -0.258001, -0.150096, -0.180409, -0.257139, 0.117455, 0.153245, 0.352639, 0.0982947, 0.299714, -0.424858, 0.730841, -1.12128, -0.425019, 0.0648146, -0.293802, 0.282501, 0.327699, 0.125938, -0.200829, 0.174486, -0.572919, -0.0922561, 0.217676, -0.17261, -0.654939, 0.0544857, -0.00293152, 0.361716, 0.127391, -0.139762, 0.0328265, -0.0252957, 0.241043, -0.385522, -0.136469, 0.332658, -0.504837, 0.0862488, -0.526489, 0.131073, -0.047711, -0.324365, -0.113856, -0.267284, -0.0773291, 0.126836, -0.283729, 0.417399, -0.0125077, 0.091982, 0.36741, 0.0338783, 0.272863, 0.0997326, -0.393474, -0.31018, 0.18835, -0.0024964, 0.0367671, 0.160928, -0.587146, -0.477127, -0.0556919, 0.1578, -0.661823, -0.0222783, -0.349148, 0.0493818, 0.214929, 0.68811, 0.442561, 0.230247, 0.112219, 0.150019, -0.500434, 0.32252, 0.597783, -0.279353, 0.355837, 0.138618, 0.31702, 0.127691, -0.388283, 0.0677011, 0.150671, -0.249373, -0.217552], [-5.86707e-40, -5.68138e-40, 4.84448e-40, -5.94626e-40, -4.60618e-40, 5.67938e-40, 5.75226e-40, -5.40021e-40, -3.90526e-40, -6.16036e-40, 4.52241e-40, 4.09654e-40, 3.8484e-40, 4.90459e-40, 5.68854e-40, -5.71357e-40, 6.2362e-40, -3.7968e-40, -4.62587e-40, -3.95093e-40, 6.16482e-40, -5.54735e-40, 6.20833e-40, 6.00989e-40, 6.18354e-40, -3.92816e-40, 6.16475e-40, 6.00973e-40, 3.84462e-40, -6.09877e-40, -6.18218e-40, 5.75833e-40, 5.85712e-40, -3.88744e-40, 5.87633e-40, -3.97942e-40, 4.1581e-40, 5.97833e-40, 4.62002e-40, -4.82836e-40, 6.01761e-40, -6.1437e-40, -5.79162e-40, -5.54254e-40, -5.86844e-40, -5.79026e-40, 3.72053e-40, 5.14778e-40, -5.86676e-40, -6.058e-40, -6.16501e-40, -5.65539e-40, 6.2091e-40, 5.75509e-40, 3.71651e-40, 5.66513e-40, 5.78483e-40, 4.16001e-40, -5.97701e-40, 6.00567e-40, 6.18861e-40, -4.56334e-40, -5.74595e-40, -5.83163e-40, -5.33284e-40, 4.63855e-40, 5.63975e-40, 4.73211e-40, -4.10701e-40, 4.58234e-40, -4.38648e-40, 5.62211e-40, -6.19573e-40, -6.35241e-40, 5.52379e-40, 6.18757e-40, -3.8977e-40, -6.14439e-40, -4.23642e-40, -3.59408e-40, -5.6318e-40, -6.32967e-40, 5.68e-40, -3.83006e-40, -6.19489e-40, 5.99666e-40, 4.01901e-40, -5.75173e-40, -5.83253e-40, 5.96286e-40, -6.21654e-40, 4.50243e-40, -4.88528e-40, 5.22502e-40, 5.00192e-40, 3.80006e-40, 5.76138e-40, -4.69707e-40, -5.72704e-40, 5.91532e-40, 6.32759e-40, -5.85203e-40, 6.1554e-40, -4.17396e-40, 6.11153e-40, 5.72419e-40, -4.48916e-40, -4.40376e-40, -5.97846e-40, -5.57096e-40, -5.46104e-40, 5.94973e-40, 6.04215e-40, 3.59796e-40, -6.23859e-40, -4.71735e-40, -3.7788e-40, -3.8912e-40, -4.50894e-40, 6.15152e-40, 5.73518e-40, -6.21067e-40, -5.73504e-40, 4.30061e-40, -4.4267e-40, 5.55235e-40, 5.73962e-40, 6.17234e-40, -5.74981e-40, 5.79039e-40, 6.08801e-40, 5.93677e-40, 6.17227e-40, 5.83426e-40, -5.94809e-40, 3.90456e-40, 5.53182e-40, -5.67391e-40, -5.60758e-40, -5.5712e-40, 5.62181e-40, -4.97374e-40, -4.5129e-40, 4.91954e-40, -4.55662e-40, 6.19476e-40, -6.22214e-40, -4.08179e-40, 5.84556e-40, -6.14499e-40, 3.82151e-40, 5.67588e-40, 4.3483e-40, 4.28416e-40, -6.13519e-40, 4.84806e-40, -3.89991e-40, 5.64573e-40, 4.53792e-40, 3.98274e-40, 5.94526e-40, 6.06831e-40, -4.65856e-40, -4.54066e-40, 4.31911e-40, 5.71818e-40, 6.13732e-40, 5.82084e-40, 4.27299e-40, 4.2842e-40, -4.30953e-40, -6.14495e-40, 4.50705e-40, -6.26481e-40, 3.54467e-40, -6.12886e-40, 5.33442e-40, 6.01984e-40, -3.61953e-40, 4.27476e-40, -5.95763e-40, 6.35045e-40, 4.59543e-40, -6.02756e-40, 5.48732e-40, -3.98653e-40, -4.22402e-40, -6.16535e-40, -6.3027e-40, -4.27494e-40, -4.33559e-40, -4.47589e-40, 3.8037e-40, 5.01514e-40, -6.34259e-40, 6.04617e-40, -6.09905e-40, 6.21959e-40, -5.75327e-40, -6.04296e-40, 4.61981e-40, -3.93204e-40, 6.3241e-40, 6.19078e-40, -5.61279e-40, -3.76549e-40, -4.94521e-40, -5.13322e-40, 4.63942e-40, 3.94428e-40, -5.89612e-40, -7.60681e-41, 5.82856e-40, -3.71186e-40, 5.49857e-40, -5.86205e-40, 5.72777e-40, 5.97546e-40, -5.22682e-40, 5.85289e-40, 4.24401e-40, -4.91378e-40, 6.18443e-40, 3.82679e-40, -5.69278e-40, 4.2272e-40, -6.09671e-40, -4.81538e-40, -3.93972e-40, -4.62664e-40, -4.25392e-40, -5.92036e-40, 5.96625e-40, 5.71927e-40, 4.51386e-40, 5.8325e-40, 5.99267e-40, -5.67466e-40, 4.56002e-40, -6.10722e-40, 5.81319e-40, 3.95442e-40, -4.69256e-40, 4.91814e-40, -4.68234e-40, 3.53395e-40, 5.90154e-40, -4.46228e-40, -4.2454e-40, 6.09153e-40, 4.71173e-40, 6.22839e-40, 5.91275e-40, -3.72748e-40, 5.43153e-40, 5.74214e-40, 6.06162e-40, 3.77958e-40, 6.11996e-40, -6.08456e-40, -4.41092e-40, 4.34033e-40, -4.36795e-40, -5.99701e-40, -6.24364e-40, -5.96893e-40, 5.68065e-40, 4.14442e-40, 5.81853e-40, 5.79402e-40, 6.30689e-40, -3.86757e-40, 3.88762e-40, 6.20931e-40, -4.00574e-40, -6.12749e-40, -5.97158e-40, 4.6607e-40, -5.69537e-40, 6.19799e-40, 6.14342e-40, -5.99558e-40, 6.13832e-40, 5.64409e-40, 6.41052e-41, 5.4582e-40, -5.90403e-40, -4.03665e-40, -6.20428e-40, -5.90869e-40, 6.20756e-40, -4.32891e-40, -3.9129e-40, 6.22398e-40, -4.10065e-40, 6.04114e-40, 5.95325e-40, 6.16162e-40, -5.92067e-40, 5.58018e-40, -5.09784e-40, 4.87097e-40, -6.19218e-40, 5.72163e-40, -6.20359e-40, 6.20621e-40, -6.00459e-40, 5.54207e-40, 5.70953e-40, -5.79405e-40, 4.85137e-40, -6.31656e-40, 4.38514e-40, -6.11311e-40, -4.86695e-40, 4.40825e-40, -6.19939e-40, 6.01147e-40, -6.03326e-40, -5.92634e-40, -4.46611e-40, 4.19483e-40, -5.87288e-40, 4.23142e-40, 5.76804e-40, 3.90803e-40, -6.14618e-40, 5.75718e-40, 5.73494e-40, -3.86606e-40, -6.11601e-40, 5.89594e-40, -4.34197e-40, -5.13367e-40, -3.89127e-40, -6.72245e-41, 6.26665e-40, -3.86362e-40, -5.6335e-40, 4.89723e-40, -5.55263e-40, 5.82067e-40, -6.20959e-40, -4.28521e-40, 6.12359e-40, 5.93932e-40, 6.09226e-40, 6.15963e-40, -5.65347e-40, 4.37668e-40, -3.96794e-40, 4.20975e-40, 6.20743e-40, -3.44208e-40, -5.4501e-40, -4.00659e-40, -3.54545e-40, 5.75246e-40, -5.03296e-40, 5.80994e-40, -6.06198e-40, 4.53708e-40, -6.21828e-40, 5.86801e-40, -4.20907e-40, -5.69364e-40, -6.02121e-40, 4.84919e-40, 6.18906e-40, -5.6943e-40, 6.18457e-40, 4.8748e-40, -6.15417e-40, 6.31362e-40, 5.95783e-40, 4.4585e-40, 6.2898e-40, -3.85384e-40, -6.19993e-40, -6.08793e-40, 6.02302e-40, 4.92362e-40, 4.13212e-40, 4.95564e-40], [-0.117626, 0.680148, 0.0348156, -0.335642, 0.0911322, -0.28892, -0.10646, -0.413663, -0.1987, -0.332664, -0.133646, -0.234808, -0.30053, 0.354788, -0.41966, 0.220831, -0.171807, 0.163127, -0.594517, 0.421276, 0.339357, 0.321592, 0.341871, 0.00625439, -0.267055, -0.212694, 0.296231, -0.608173, -0.0118129, 0.0140886, 0.327125, -0.176213, 0.231661, -0.305356, -0.204225, -0.119703, -0.178127, -0.151622, 0.242977, -0.00119541, 0.37774, -0.51243, -0.447348, -0.285405, -0.134771, -0.0550405, 0.0706151, 0.608894, 0.118734, 0.0467134, -0.64951, 0.0850856, 0.127599, -0.210113, -0.0383187, -0.450795, 0.343001, -0.12348, -0.134011, 0.0219176, -0.290341, 0.695576, 0.676314, -0.130232, 0.462623, 0.216093, -0.420586, 0.144411, -0.116133, 0.674359, 0.242134, -0.00896284, -0.0452551, 0.0050254, 0.0371581, 0.0269037, -0.0636259, -0.190672, 0.749451, -0.0830664, 0.221148, 0.0918261, 0.223324, -0.228243, -0.349288, -0.0277466, 0.454305, 0.0725629, -0.0647197, 0.190404, -0.201553, -0.208591, 0.0966943, -0.0159681, -0.0246279, 0.286004, -0.182139, -0.274306, 0.264656, -0.324772, 0.355326, -0.155848, -0.323172, -0.336436, -0.200698, -0.422264, -0.177897, 0.0692787, -0.09446, -0.427596, -0.350671, -0.0432514, -0.240681, -0.144564, -0.0263666, 0.160619, -0.0647247, -0.125579, -0.279653, 0.36418, 0.10754, 0.00474361, -0.259385, -0.296879, 0.342141, -0.178436, -0.0765861, -0.0288573, -0.0372907, -0.48941, -0.182012, -0.458205, 0.189126, -0.0521161, 0.42922, 0.21493, -0.0909485, 0.499618, 0.313111, 0.206886, 0.234723, 0.422077, -0.0295907, 0.190107, 0.230773, -0.00232082, 0.164058, 0.0135005, -0.0887405, 0.0969945, -0.14456, 0.407035, -0.0473322, 0.395645, 0.247124, 0.126904, -0.16788, 0.699612, 0.0442048, -0.0931867, 0.23008, 0.476793, 0.406364, 0.901776, 0.0855649, -0.0843003, 0.0583032, 0.225051, 0.05892, -0.339639, -0.0961583, -0.212451, 0.256637, 0.00191535, -0.0208194, -0.208768, 0.0538752, -0.393477, 0.0561428, -0.0193443, 0.00928545, 0.170149, 0.337096, -0.155348, -0.186639, -0.0217397, 0.286189, -0.579448, -0.311718, -0.061986, -0.862158, -0.407788, 0.0635015, 0.153833, -0.735911, 0.327092, 0.348125, -0.492326, -0.114817, 0.270363, 0.132607, 0.239964, -0.116297, -0.248205, -0.0453046, -0.38931, 0.171574, -0.0991493, -0.4332, 0.106908, 0.0471839, 0.0237077, 0.135541, -0.0860995, -0.227561, 0.238571, -0.00150013, 0.422809, 0.576631, -0.0776248, -0.180603, 0.335082, 0.291285, -0.106031, 0.251069, -0.248322, -0.132063, -0.205195, -0.195264, -0.0527098, 0.182773, 0.15095, 0.289154, 0.432647, -0.0395432, -0.144409, 0.30219, 0.344013, 0.39225, -0.0457049, 0.117049, -0.338796, -0.40258, -0.378515, 0.192653, 0.151566, -0.340305, 0.11859, -0.0207888, 0.392988, 0.036955, -0.461997, -0.184878, 0.15699, -0.309321, -0.216284, 0.296296, -0.370925, -0.107516, 0.0750471, -0.0232694, 1.02048, 0.106037, -0.00973373, -0.0832648, 0.533091, 0.561229, 0.23455, 0.138767, -0.165983, -0.0704327, -0.0528507, 0.170102, -0.659037, 0.0681078, -0.315547, 1.14553, 0.109417, 0.099273, 0.0245533, -0.422116, -0.847141, 0.554464, 0.0984206, -0.599293, 0.0446434, 0.0656249, 0.212435, 0.322593, 0.0826933, 0.11586, -0.133412, -0.141988, 0.653053, 0.18856, 0.4483, 0.0661112, 0.0975177, 0.199925, 0.109604, -0.26369, -0.165544, -0.12473, -0.513817, -0.0447153, 0.573578, 0.21957, -0.0268987, -0.226294, 0.39848, -0.0444346, -0.357074, 0.262712, -0.21656, 0.156403, 0.173589, -0.172398, -0.133305, -0.0944252, -0.112776, 0.39218, 0.0685614, -0.0184241, 0.475117, 0.0649106, -0.160916, -0.140145, -0.0260781, -0.188213, 0.183135, 0.101396, -0.0172929, -0.742023, 0.0550186, -0.367638, -0.336032, 0.60977, -0.0297531, 0.207812, -0.230768, 0.0875112, -0.457237, 0.157018, 0.183379, -0.290785, -0.187202, -0.235018, 0.234961, -0.295989, 0.431356, -0.300329, 0.162065, -0.730685, -0.0348992, -0.685131, 0.226284, 0.157412, 0.568829, -0.213492, 0.337839, 0.0819621, -0.290658, -0.183939, -0.476817, 0.101009, 0.113092, 0.206163, 0.00966595, -0.0653417, 0.219711, 0.242506, 0.149856, 0.0820613, -0.165489, -0.0990611, 0.0401681, 0.515741, -0.0443711, -0.02676, 0.200303, 0.680437, 0.0820097, 0.123082, -0.310292], [-2.17287e-40, -5.92298e-40, -4.23367e-40, 3.97089e-40, -4.61655e-40, -4.56362e-40, 5.7591e-40, -5.72344e-40, -5.85991e-40, -6.19941e-40, -4.60598e-40, 6.16731e-40, 5.80904e-40, -6.0198e-40, 4.22294e-40, 5.84135e-40, 5.9727e-40, -4.31531e-40, 4.17003e-40, 5.67576e-40, -4.17482e-40, -5.01515e-40, 4.27549e-40, 6.05694e-40, -4.06025e-40, -6.09936e-40, 5.79654e-40, -6.04631e-40, 5.65529e-40, -6.04484e-40, 5.91716e-40, 5.76269e-40, -5.97179e-40, 4.29369e-40, 5.69746e-40, -5.7289e-40, -3.83146e-40, -4.57102e-40, -4.435e-40, 4.16032e-40, -5.48114e-40, -6.12091e-40, -6.22109e-40, 4.01049e-40, -6.10738e-40, -4.22039e-40, -5.61897e-40, 6.09405e-40, 4.06253e-40, 4.87952e-40, -4.58111e-40, 4.50346e-40, 5.46306e-40, -6.18202e-40, -3.45946e-40, 5.95728e-40, -4.35043e-40, 6.05874e-40, -4.88337e-40, 4.90055e-40, 6.32456e-40, -5.7225e-40, -6.17762e-40, -4.19292e-40, -4.42855e-40, 4.40037e-40, 3.77004e-40, -4.26778e-40, -3.9599e-40, 6.16493e-40, 6.18232e-40, -6.09011e-40, -4.26541e-40, -6.21211e-40, 4.12881e-40, 5.02892e-40, 6.04509e-40, -5.94176e-40, -6.01266e-40, 3.69538e-40, -4.43637e-40, 6.12608e-40, -5.15009e-40, 4.54535e-40, 4.70119e-40, -5.61925e-40, -6.21636e-40, 5.89177e-40, -5.93384e-40, 3.77874e-40, 4.48707e-40, 4.26219e-40, -6.20509e-40, 6.05594e-40, 6.19814e-40, -5.87112e-40, 5.50538e-40, -4.65572e-40, 3.7542e-40, -6.07653e-40, -6.1796e-40, -3.92399e-40, 6.23546e-40, -5.84794e-40, -6.17201e-40, -6.20401e-40, -4.5458e-40, 4.32963e-40, 4.56088e-40, 6.02984e-40, 4.44475e-40, 4.4598e-40, -6.17664e-40, 6.12164e-40, -6.12502e-40, -6.19755e-40, 4.92251e-40, -5.87775e-40, -5.94054e-40, -3.30697e-40, 5.94188e-40, 6.10354e-40, 5.73514e-40, 4.94948e-40, 6.15366e-40, -5.97208e-40, -6.22964e-40, 5.75331e-40, 5.92196e-40, 4.53682e-40, 3.58908e-40, 5.66447e-40, 4.862e-40, -6.14842e-40, -6.09792e-40, 3.54093e-40, -5.60908e-40, 4.49331e-40, -6.22102e-40, 5.59886e-40, -6.18949e-40, -4.3348e-40, -4.01077e-40, 5.04804e-40, -5.00527e-40, 6.28806e-40, -5.75373e-40, -5.97885e-40, -4.53082e-40, -4.85875e-40, 6.02966e-40, -4.63073e-40, -6.17804e-40, -5.54219e-40, 6.16738e-40, 4.79334e-40, -6.18617e-40, -3.99066e-40, -6.14872e-40, -4.39069e-40, 4.05857e-40, 5.66755e-40, -4.47283e-40, -5.89783e-40, 6.16957e-40, -4.91762e-40, -4.33155e-40, 6.14636e-40, 5.13387e-40, -6.16461e-40, -5.65987e-40, -5.96276e-40, -6.08969e-40, -5.79944e-40, 4.91355e-40, -4.24687e-40, -5.74261e-40, -5.84648e-40, 5.66488e-40, 4.09752e-40, 3.89561e-40, 4.4834e-40, -4.37214e-40, 5.65509e-40, 4.56354e-40, 4.27886e-40, -6.12977e-40, 5.68501e-40, 5.70927e-40, -4.84912e-40, 5.73411e-40, 5.52821e-40, -5.86286e-40, -6.05381e-40, -5.91202e-40, 6.22622e-40, 3.89875e-40, -5.64943e-40, 5.48122e-40, 5.66276e-40, -5.59917e-40, 5.0359e-40, 5.88669e-40, 3.71002e-40, -5.98639e-40, -5.89337e-40, -5.97201e-40, 4.63561e-40, -4.16593e-40, 6.1196e-40, 5.84571e-40, -5.68951e-40, 5.7495e-40, -3.76292e-40, 4.24914e-40, -6.06842e-40, 4.48113e-40, 4.2912e-40, 3.84411e-40, 3.92074e-40, 6.29659e-40, -5.87814e-40, -5.94882e-40, -5.72957e-40, 5.85451e-40, -6.12964e-40, -4.43458e-40, -6.18833e-40, 4.3834e-40, 4.40749e-40, -4.68114e-40, -6.12934e-40, 4.09927e-40, 6.30216e-40, 4.25216e-40, 6.13067e-40, 5.61809e-40, 6.01304e-40, -6.11063e-40, -4.07952e-40, -4.471e-40, 4.39091e-40, -5.61297e-40, -5.73818e-40, 5.95937e-40, -5.6326e-40, 5.72456e-40, 4.30123e-40, -5.85121e-40, 5.97309e-40, -3.74525e-40, 5.78089e-40, 4.63757e-40, -5.0808e-40, -6.23806e-40, 4.30854e-40, -6.02748e-40, 5.57431e-40, -4.35526e-40, -3.94072e-40, -6.13194e-40, 3.7478e-40, 5.96309e-40, -5.70476e-40, 5.07175e-40, 5.94875e-40, -6.22495e-40, -4.06989e-40, -6.11071e-40, -4.32172e-40, -5.91745e-40, -5.64405e-40, -4.06112e-40, -3.8654e-40, -4.91144e-40, 3.93779e-40, 6.22228e-40, 6.05051e-40, 4.87174e-40, -6.19073e-40, 4.40916e-40, 4.48637e-40, -5.76639e-40, -3.94859e-40, 6.01023e-40, -4.92112e-40, 6.1769e-40, 6.16915e-40, -5.0249e-40, 6.2412e-40, 4.10524e-40, -5.66228e-40, -4.64881e-40, -6.03427e-40, 6.1766e-40, 5.74738e-40, -5.7979e-40, 6.22504e-40, -6.09366e-40, -4.46978e-40, 5.72638e-40, 5.62215e-40, 4.59751e-40, -6.12935e-40, 4.89516e-40, 6.03199e-40, -5.75568e-40, -4.88081e-40, 4.33143e-40, 4.90617e-40, -4.76781e-40, -3.94034e-40, -4.38384e-40, -3.90009e-40, 4.93975e-40, -4.39461e-40, 5.66099e-40, -4.64941e-40, 6.10336e-40, 4.3349e-40, 3.751e-40, 6.15185e-40, -5.72432e-40, -6.11293e-40, 4.94923e-40, 4.06583e-40, -4.14423e-40, -5.98368e-40, 6.18478e-40, 5.86441e-40, 4.07789e-40, -6.11279e-40, 3.99414e-40, 4.61736e-40, -4.13541e-40, 5.21171e-40, 6.15075e-40, -6.35259e-40, -6.16477e-40, 4.95059e-40, -4.87559e-40, -4.86661e-40, -6.14626e-40, -5.66199e-40, -5.39343e-40, -4.2293e-40, -4.3664e-40, 4.84179e-40, 5.05443e-40, 6.17698e-40, -4.54797e-40, 4.12163e-40, -4.79297e-40, -6.05316e-40, -6.16262e-40, -6.16468e-40, 6.11993e-40, 6.07506e-40, 5.7187e-40, -6.30461e-40, 5.65306e-40, -6.01262e-40, -4.58911e-40, 5.78876e-40, 5.66242e-40, 3.94138e-40, -5.63245e-40, 4.18128e-40, 3.57953e-40, -3.83859e-40, 4.63074e-40, -6.2037e-40, -4.62277e-40, -5.85524e-40, 4.50896e-40, -5.6667e-40, -4.18309e-40, -3.70999e-40, 6.10278e-40, -4.38705e-40, 5.10744e-40, -4.51992e-40, 5.69736e-40, 5.86997e-40], [0.0154873, -0.183726, -0.0269098, 0.290073, -0.0224824, 0.120763, -0.259938, -0.449215, -0.115926, 0.983832, -0.54744, 0.331538, -0.268995, -0.0461166, 0.479623, 0.0635077, 0.0119249, 0.376256, -0.325858, -0.0540597, 0.309574, -0.497056, -0.295921, -0.524389, 0.123666, 0.155525, 0.299391, -0.155979, 0.295285, -0.0464051, -0.213471, -0.325236, -0.16884, 0.501162, 0.252245, -0.280636, -0.278783, -0.45623, 0.00249571, -0.217372, -0.0817395, 0.361095, -0.134078, -0.360357, 0.240151, -0.30824, -0.0796447, 0.068975, -0.195978, -0.207602, -0.339699, 0.191754, -0.285179, -0.0197221, -0.300846, -0.153651, -0.625924, 0.0514471, 0.393196, -0.281448, 0.228393, 0.332983, -0.122917, -0.0488296, -0.0596433, -0.090063, -0.0778425, 0.603344, -0.702248, 0.242714, 0.0608831, -0.177392, -0.334259, -0.350923, -0.350298, 0.322502, 0.00348141, -0.0857494, -0.395646, -0.3052, -0.677542, 0.163288, -0.311822, -0.0519414, -0.0246613, 0.101855, 0.258802, 0.27461, 0.183983, -0.354383, -0.605574, -0.472469, -0.488652, -0.0663577, -0.0809906, -0.00306963, -0.256287, -0.129279, 0.29326, -0.191211, -0.101167, -0.420067, -0.47174, 0.185211, 0.103487, -0.384895, -0.127784, -0.0415124, 0.22798, 0.299549, -0.0857492, -0.636844, -0.355003, 0.204466, 0.522975, 0.183769, 0.916246, 0.0978682, 0.230714, 0.158146, 0.250485, -0.359432, 0.0556061, 0.0917167, 0.146962, 0.335724, 0.239069, -0.227446, -0.102005, -0.453763, 0.487442, -0.663323, -0.255166, -0.0998133, -0.388411, -0.282737, -0.0278185, 0.328164, 0.312249, 0.316154, 0.175198, -0.225771, 0.183952, -0.376099, 0.0151957, -0.149367, -0.428588, -0.229803, -0.0151899, 0.020507, 0.117437, 0.00318122, -0.246601, -0.412865, 0.0382605, 0.0244963, 0.156776, -0.342227, 0.281875, 0.189936, -0.280126, 0.193954, -0.152386, 0.233323, -0.082967, 0.202796, 0.250092, -0.107602, 0.156743, -0.214416, 0.329275, 0.122777, 0.176858, 0.200229, -0.174796, 0.117498, -0.261468, -0.00985286, 0.165824, 0.256524, 0.111364, -0.384887, 0.085344, -0.238726, 0.13466, -0.100873, 0.250449, 0.0621769, -0.0881791, -0.530639, -0.382833, -0.179178, -0.0204469, -0.103195, 0.285924, 0.343738, 0.301234, -0.0130879, -0.142068, 0.0111538, 0.432968, -0.0493014, 0.251787, -0.00749867, -0.233522, 0.0913001, 0.36405, -0.185315, -0.333103, 0.3709, -0.505884, 0.391881, 0.232517, -0.265252, -0.200129, 0.398794, 0.24249, 0.457714, -0.316897, 0.296617, -0.204338, 0.255164, 0.0665136, -0.174115, 0.0596667, -0.326095, -0.425909, -0.26253, 0.152364, 0.179597, 0.166319, -0.22575, -0.25524, -0.259894, 0.190294, -0.00363978, -0.613874, 0.000245758, -0.18742, 0.544362, 0.353279, -0.0434723, -0.194242, 0.0468377, 0.135718, -0.208445, -0.327878, 0.60234, 0.827333, -0.151159, -0.139563, -0.108184, -0.17689, 0.175667, 0.435103, 0.196964, 0.128973, 0.0822434, 0.422889, -0.108341, 0.382026, -0.495065, 0.336918, 0.272117, 0.563706, 0.542219, 0.392873, -0.489251, 0.242951, -0.132324, -0.0634331, -0.0423405, 0.336371, 0.0336578, -0.13966, 0.850124, -0.459619, 0.012383, 0.0498763, -0.646198, 0.0710592, 0.333646, 0.319628, 0.516757, -0.162674, 0.547082, 0.288778, 0.17772, -0.235235, 0.793078, -0.244395, -0.043349, -0.148475, 0.303739, -0.0863381, -0.397144, 0.382372, 0.418292, -0.000725845, 0.123935, 0.358975, -0.0660003, 0.247262, 0.159977, 0.349654, -0.0553357, 0.167219, 0.206312, 0.753855, -0.415272, 0.106491, -0.0603449, -0.115529, 0.0609751, 0.205079, -0.066861, 0.0973331, -0.184185, -0.0852947, 0.18693, 0.00852635, 0.110972, 0.0584248, -0.100939, -0.266022, 0.132197, -0.272319, 0.0286591, 0.181833, -0.0628647, 0.096378, 0.245517, 0.285016, 0.110855, 0.122838, 0.43109, 0.297457, 0.147408, 0.261256, -0.0819673, 0.0154795, -0.356749, -0.206765, -0.334094, 0.986535, -0.0386028, -0.25986, -0.0838553, 0.190879, 0.379341, 0.0451482, 0.171574, -0.0127566, 0.0932345, -0.897795, -0.242691, -0.326463, -0.0856018, -0.0654394, 0.250775, 0.316975, -0.281501, 0.398167, -0.626109, 0.0295811, -0.283455, 0.162722, -0.612519, -0.352475, 0.113411, 0.0207565, 0.17634, -0.118862, 0.300755, 0.286291, 0.0951577, -0.377731, -0.030715, 0.089329, -0.234164, -0.0134977, 0.169649, 0.325403, -0.107103], [6.07272e-40, -4.46821e-40, 6.07178e-40, -6.11063e-40, -3.7456e-40, -5.55323e-40, 6.04924e-40, 3.93295e-40, 5.26574e-40, -6.12499e-40, -5.60253e-40, -4.3723e-40, 6.04443e-40, -5.91164e-40, 4.86996e-40, 3.81826e-40, -4.48132e-40, -6.01593e-40, 4.04022e-40, 4.48348e-40, -3.77049e-40, -6.11319e-40, 5.69266e-40, -4.561e-40, 4.01912e-40, -6.28824e-40, -4.22545e-40, -5.86469e-40, -4.18038e-40, 4.95045e-40, 6.27482e-40, -5.75225e-40, 6.19867e-40, 4.59773e-40, 6.18436e-40, 6.345e-40, 5.9391e-40, -3.81501e-40, -4.59016e-40, -6.09555e-40, -6.22423e-40, -4.35598e-40, -6.18459e-40, 3.56867e-40, 4.05132e-40, -5.71164e-40, -5.03167e-40, -5.67628e-40, -5.73771e-40, -3.90283e-40, -5.6402e-40, 6.14842e-40, 3.83559e-40, 6.06224e-40, -4.81691e-40, 5.65075e-40, -3.89118e-40, -3.85207e-40, -5.73452e-40, 6.18968e-40, -4.59406e-40, 4.99077e-40, 6.18947e-40, 5.93687e-40, 3.73516e-40, -6.11623e-40, -5.24072e-40, -4.25193e-40, -4.61107e-40, -5.94144e-40, 6.14098e-40, 7.39297e-41, 5.56303e-40, 4.4539e-40, 4.59503e-40, -4.17374e-40, 4.03858e-40, 5.71663e-40, 4.33095e-40, 4.04866e-40, 5.79389e-40, 5.99603e-40, 6.1995e-40, -5.68486e-40, -6.14891e-40, -5.76535e-40, 3.88771e-40, 5.81448e-40, -3.9044e-40, 4.24034e-40, -3.84358e-40, 4.21064e-40, 4.86664e-40, 5.7504e-40, 3.67783e-40, -5.70229e-40, 4.32909e-40, -4.12967e-40, -4.09143e-40, 5.64884e-40, -4.57771e-40, 6.1547e-40, 6.17402e-40, -5.85563e-40, -6.143e-40, 5.59051e-40, -4.42066e-40, 3.70641e-40, -4.1603e-40, 3.54457e-40, 4.26562e-40, -5.632e-40, -6.2199e-40, -4.60661e-40, 4.93948e-40, -4.92535e-40, 4.77296e-40, 4.51741e-40, -3.99711e-40, 6.1027e-40, -4.20727e-40, -4.27938e-40, 4.90979e-40, -4.54004e-40, 6.027e-40, 6.20949e-40, 6.15087e-40, -4.24114e-40, 5.85299e-40, -6.17205e-40, 6.25273e-40, -5.64519e-40, -4.21016e-40, 6.09011e-40, 5.6738e-40, -6.08954e-40, 6.34216e-40, 5.91446e-40, -5.93631e-40, 6.04606e-40, -4.69997e-40, 6.11429e-40, 6.08081e-40, 6.13186e-40, 5.74203e-40, 5.99937e-40, -6.36257e-40, 6.0922e-40, 4.03602e-40, -5.9791e-40, 5.26518e-40, -5.91829e-40, -5.81832e-40, -5.1695e-40, 5.42507e-40, -5.78516e-40, -6.07822e-40, -5.68505e-40, -4.67378e-40, -5.74154e-40, 3.9345e-40, -4.64502e-40, 5.89067e-40, -6.12037e-40, 4.91333e-40, 5.70965e-40, 6.11695e-40, -4.09462e-40, -3.97525e-40, -5.80509e-40, -4.5964e-40, -5.62892e-40, 5.64108e-40, 6.36447e-40, -5.62257e-40, -3.74309e-40, -6.1658e-40, -4.3488e-40, 5.85933e-40, 6.0073e-40, 3.83137e-40, -6.06102e-40, 4.91732e-40, -5.93401e-40, -3.91793e-40, -4.95855e-40, -5.99606e-40, -5.74259e-40, 5.90402e-40, 4.15783e-40, -5.86781e-40, 5.61287e-40, 5.61157e-40, -5.68972e-40, 6.18319e-40, -6.14835e-40, -4.26161e-40, -4.01109e-40, 4.46018e-40, -4.62601e-40, 5.48393e-40, -6.09175e-40, -6.21935e-40, 4.31265e-40, -5.85981e-40, 6.20199e-40, 5.46721e-40, -5.94162e-40, 6.14535e-40, 5.90311e-40, 6.05731e-40, -3.25984e-40, 6.10955e-40, 4.4379e-40, 6.19129e-40, 5.97871e-40, 4.43208e-40, 4.14291e-40, -6.06828e-40, 5.94075e-40, 4.0165e-40, 3.61262e-40, -5.82092e-40, 5.92653e-40, 4.07695e-40, -5.63253e-40, 6.17151e-40, 6.20258e-40, -4.55306e-40, -4.22672e-40, 4.26118e-40, -4.42338e-40, -3.86506e-40, -6.07897e-40, -5.7568e-40, -6.07277e-40, -6.09537e-40, 5.51614e-40, -3.78552e-40, 3.87362e-40, -5.93697e-40, -4.68038e-40, -4.41594e-40, 3.78655e-40, 6.01224e-40, -6.13334e-40, 6.13992e-40, -5.67084e-40, -6.06329e-40, -6.23534e-40, 4.32177e-40, -5.98436e-40, -3.59231e-40, -5.90785e-40, 5.76207e-40, -6.08515e-40, -4.91627e-40, -5.74027e-40, -3.93133e-40, 3.45573e-40, -4.56305e-40, -3.77862e-40, 5.98238e-40, -4.03776e-40, -3.91479e-40, -7.28297e-41, 6.13828e-40, -3.44522e-40, 5.49211e-40, 6.068e-40, 3.92501e-40, 6.0876e-40, 5.94586e-40, -4.43986e-40, -4.03268e-40, -3.94185e-40, -5.81448e-40, -5.23835e-40, -3.68923e-40, 6.21528e-40, -4.99179e-40, -5.86165e-40, 5.91886e-40, -6.30804e-40, 4.09061e-40, -5.61342e-40, 6.15382e-40, 3.9028e-40, -4.26938e-40, 5.65292e-40, -4.86819e-40, 3.44934e-40, 6.22482e-40, 6.20485e-40, -3.45576e-40, 5.2584e-40, 5.73662e-40, 4.68264e-40, -5.67438e-40, -4.23778e-40, 4.48777e-40, 4.53869e-40, 5.98894e-40, 4.49077e-40, 5.86173e-40, 4.02994e-40, -4.27364e-40, 4.36231e-40, -6.20002e-40, -5.80003e-40, -6.0996e-40, -5.95632e-40, 3.4755e-40, -4.9338e-40, -6.21666e-40, 4.60844e-40, -4.50069e-40, -4.57211e-40, 3.93342e-40, 5.73083e-40, 5.22362e-40, -6.03026e-40, 5.95857e-40, -5.93292e-40, -6.12142e-40, 7.54725e-41, -5.40855e-40, 4.90921e-40, 5.54564e-40, -5.89198e-40, 7.47705e-41, -6.35181e-40, 6.05755e-40, 6.29018e-40, -4.01985e-40, -6.34557e-40, -3.94285e-40, 5.49743e-40, -5.7846e-40, 5.76493e-40, 4.34957e-40, -5.96087e-40, 5.65253e-40, 6.19852e-40, -4.88301e-40, -6.02376e-40, -5.96607e-40, -6.07277e-40, -5.82332e-40, -6.09296e-40, 4.02558e-40, -3.79434e-40, -6.27897e-40, 6.31767e-40, 4.45583e-40, 6.10774e-40, 4.18547e-40, -5.79776e-40, 6.18029e-40, -5.9746e-40, 5.64925e-40, 5.83435e-40, -4.2484e-40, 4.67306e-40, 5.4869e-40, 6.06305e-40, -5.76863e-40, 5.61378e-40, -4.47781e-40, 5.61961e-40, -4.18938e-40, 5.25015e-40, 4.33032e-40, 6.01091e-40, -5.60542e-40, -5.03655e-40, 4.1332e-40, 4.63244e-40, -4.95994e-40, -4.28842e-40, -3.92921e-40, 5.99026e-40, -4.72327e-40, 4.07788e-40], [-0.21694, -0.020807, 0.207356, 0.376527, 0.569051, -0.0044115, 0.14601, -0.158905, -0.237507, -0.0710175, -0.0152867, -0.38186, -0.129888, 0.23041, 0.0788002, -0.381919, -0.0317852, 0.0425687, 0.338819, -0.181707, -0.374692, -0.39124, 0.197236, -0.0484462, 0.254763, -0.0425763, 0.117631, -0.230893, -0.315822, -0.398427, 0.236389, 0.0572666, -0.44034, -0.0839613, -0.109724, -0.31945, -0.464453, -0.150102, -0.0201733, 0.183679, 0.000678286, 0.926448, 0.402234, 0.31457, 0.22873, -0.230107, -0.0482836, -0.298131, -0.0742678, 0.496392, 0.35677, 0.247709, -0.601294, -0.142897, -0.251836, -0.319744, 0.251168, 0.266148, 0.0193829, -0.221958, -0.0843295, -0.632146, 0.0158439, 0.363062, -0.205974, -0.204535, -0.0261148, 0.0547187, -0.0833315, 0.0139371, -0.406775, -0.279654, -0.302406, 0.111312, -0.21645, -0.353222, -0.488033, 0.592816, -0.522126, 0.427395, 0.3533, 0.214006, -0.21774, -0.194133, -0.27506, -0.302481, -0.0931644, -0.0723535, -0.00844189, -0.314553, -0.0631719, 0.328921, 0.440975, -0.180226, -0.00190398, 0.154023, 0.393706, 0.173032, 0.0136664, 0.674368, 0.316278, -0.129583, 0.142391, -0.366057, 0.382786, 0.233013, 0.246086, -0.132828, -0.0119518, 0.166881, 0.347828, 0.282952, -0.470409, -0.143307, 0.24738, -0.143649, 0.246621, -0.0993221, 0.234178, 0.276502, 0.242435, 0.481294, -0.552277, -0.298793, -0.0486197, 0.240946, 0.0350498, -0.103864, -0.290774, 0.190787, 0.19066, 0.465213, 0.204015, 0.222747, 0.810145, 0.155055, -0.221265, 0.0487039, -0.798723, 0.183523, 0.301466, 0.230278, -0.312081, 0.343867, -0.332647, -0.0147593, 0.230582, 0.333593, -0.144772, -0.658815, 0.580853, -0.052851, 0.22799, 0.843831, -0.336243, -0.535582, 0.011118, 0.15594, 0.294391, 0.227172, -0.0895503, 0.0555784, -0.30546, 0.120184, 0.0829958, -0.268593, 0.299767, 0.100276, -0.0368045, 0.467504, 0.33966, -0.920019, 0.353701, 0.511699, -0.297896, -0.26751, -0.182309, 0.131848, -0.056482, -0.162884, -0.299678, -0.133326, -0.00271654, -0.0575821, 0.235863, -0.204364, -0.343622, 0.379482, -0.184456, -0.137537, 0.179658, -0.208934, 0.380906, -0.0636361, -0.254514, 0.0237154, 0.132537, -0.140432, -0.238669, 0.142863, 0.560308, -0.0853499, 0.0363637, -0.208397, -0.372897, -0.0239935, -0.474967, -0.42904, 0.496079, 0.215245, -0.0962178, -0.00567502, 0.299292, -0.315826, 0.242423, -0.16394, 0.27439, 0.262831, -0.0114055, -0.280032, -0.237021, 0.837964, 0.0267512, -0.268491, -0.280485, 0.481999, -0.292435, 0.142486, -0.0910572, -0.141244, 0.168756, -0.0130257, -0.151453, -0.11066, 0.052482, 0.114155, -0.667547, 0.0028211, -0.506841, -0.18709, -0.13476, -0.223723, -0.487312, 0.224969, -0.192821, 0.147934, 0.221635, 0.601391, -0.122288, 0.152409, 0.256228, -0.332531, 0.365877, 0.567544, 0.510103, -0.0388467, -0.117934, 0.292977, -0.111385, -0.293579, -0.378672, 0.178494, -0.208393, -0.293523, -0.281571, -0.54202, -0.170083, -0.142706, -0.238622, -0.392441, -0.1394, 0.19021, -0.0208861, -0.537322, 0.215754, 0.599515, -0.32248, -0.288763, -0.155768, -0.663958, -0.127371, 0.389275, -0.0156309, 0.233658, 0.439011, -0.0499862, -0.0052753, 0.209125, 0.0464347, 0.357467, 0.219755, 0.398984, 0.194287, 0.235531, 0.287336, 0.409945, 0.46226, 0.0572431, 0.280275, -0.0425083, 0.148837, -0.000815711, -0.353947, -0.351114, 0.0549293, -0.345727, 0.381474, -0.0749042, 0.0554715, -0.173531, 0.31496, 0.181188, -0.157262, -0.0209028, 0.154844, 0.0519435, -0.69638, 0.266114, 0.277829, -0.0516177, -0.431028, -0.333573, -0.347485, 0.058568, -0.397918, -0.0925533, 0.502205, -0.402289, -0.233149, 0.440678, 0.326816, -0.00517874, 0.609299, 0.0975844, -0.357022, -0.404512, -0.199494, 0.0446754, -0.117928, -0.297252, 0.209801, 0.0704285, -0.446881, 0.216912, 1.13726, 0.149925, -0.420968, 0.318894, -0.0954381, -0.0978705, -0.122508, -0.393931, 0.00560968, -0.156342, -0.448798, -0.256496, 0.278078, 0.829391, -0.0404882, -0.210502, 0.813199, -0.359503, 0.212304, -0.355597, -0.0604539, 0.17256, -0.422132, -0.440114, 0.223116, 0.393088, -0.112971, 0.33229, 0.715805, -0.0620467, 0.587933, -0.0437606, -0.159359, 0.336551, 0.125558, -0.353205, 0.450165, -0.0575269, -0.290504, 0.172058], [-0.241469, -0.39589, -0.0173212, -0.128254, -0.285647, 0.213991, -0.672142, 0.298543, -0.389183, -0.17116, 0.479197, -0.109189, -0.160692, -0.0737419, 0.0296703, -0.0790547, 0.215853, -0.612836, 0.517068, 0.0814335, 0.632597, 0.143855, -0.656925, 0.452388, -0.111671, 0.369448, 0.350062, 0.0345041, 0.220293, 0.525927, 0.164555, -0.183261, 0.0826811, -0.11775, 0.3968, 0.339124, -0.271528, -0.356426, -0.130942, 0.594035, -0.00905983, -0.208898, -0.767555, 0.287339, 0.287724, -0.312147, -0.368703, -0.613354, -0.0618056, 0.528534, -0.452558, 0.141722, -0.226727, 0.0125013, -0.235206, 0.234594, -0.0612663, 0.0589411, 0.345749, -0.042537, 0.101528, -0.0835814, -0.20345, 0.562607, 0.322338, 0.0256185, -0.192055, -0.118506, -0.0209505, -0.427223, -0.384613, 0.286085, 0.382208, -0.295682, -0.448573, 0.362183, -0.209012, -0.203824, 0.407646, -0.0693593, 0.168305, 0.142055, 0.0990575, 0.541594, 0.140852, 0.158303, 0.247713, 0.0840974, -0.0521865, 0.0377135, -0.0822949, -0.178399, -0.115307, 0.485891, 0.319582, 0.0164689, 0.322853, -0.330658, -0.0898225, -0.140566, -0.296969, -0.238292, 0.468153, 0.32533, 0.154156, -0.224883, 0.112043, 0.461928, 0.213621, 0.00375024, -0.267712, -0.121431, -0.460801, -0.252782, -0.216459, -0.0663344, 0.590874, -0.159998, 0.467845, -0.501134, 0.0340422, 0.0303793, -0.0954946, 0.416184, -0.0740449, -0.158103, -0.448731, 0.533564, 0.223453, 0.13498, 0.244585, -0.661785, -0.699206, -0.155634, -0.126455, -0.274764, -0.181164, -0.196465, -0.249006, 0.0959862, 0.246723, -0.325953, 0.0810027, 0.362717, 0.139664, -0.522854, 0.218541, -0.0355013, 0.305411, -0.185474, 0.335177, -0.243435, -0.235668, -0.205555, 0.145371, -0.000680485, -0.0844527, 0.420416, -0.147247, 0.610925, 0.203142, -0.268892, -0.197007, -0.0398657, 0.0539486, 0.334215, -0.0968859, -0.291167, -0.390717, -0.291506, 0.331173, 0.122052, -0.366653, -0.0258425, 0.101994, 0.00788363, -0.0527989, 0.0423492, 0.355006, 0.279091, 0.187639, 0.318453, 0.194564, 0.198052, 0.244065, 0.136397, -0.483791, -0.225919, 0.254689, 0.302676, -0.345909, -0.0377231, -0.0600739, -0.0760791, 0.0986739, 0.0611723, -0.398404, 0.077963, -0.380637, 0.426226, 0.429967, 0.368771, -0.171229, -0.320212, 0.404972, 0.439725, -0.0923697, 0.462065, -0.018763, 0.218749, -0.161967, 0.139282, -0.2552, 0.306481, 0.713573, -0.331902, -0.297529, 0.181095, -0.41408, 0.302226, -0.150509, 0.368083, 0.134238, -0.117484, 0.199726, 0.0869999, 0.223343, -0.318453, -0.491245, 0.0787304, 0.578902, 0.264787, 0.132988, -0.202829, 0.458446, 0.144298, 0.182496, 0.375035, 0.336149, 0.237557, -0.6093, -0.184303, -0.664181, 0.211169, -0.125389, -0.0604273, -0.459161, 0.0182424, 0.19015, -0.0875571, -0.302402, -0.161253, 0.0626551, -0.12874, -0.267503, 0.0199647, 0.179816, -0.0811511, -0.133974, -0.177568, 0.0514224, -0.150624, -0.340054, -0.217648, 0.315393, 0.120037, 0.196933, -0.379438, 0.509123, -0.106979, 0.522955, 0.0246787, -0.0531659, -0.172028, 0.339979, 0.253432, 0.172879, -0.277827, -0.396543, -0.13828, -0.416351, -0.168733, -0.102843, -0.347102, -0.187886, 0.218782, -0.154204, -0.252449, 0.220679, -0.155148, 0.367154, 0.0809418, -0.0408934, -0.246462, -0.0887538, 0.0260763, 0.248669, 0.374932, 0.0753429, 0.261952, -0.33669, -0.189991, 0.594237, -0.232694, -0.0257343, -0.0800269, 0.681302, -0.807579, -0.178035, 0.317887, -0.101744, 0.0107892, 0.015329, -0.301065, -0.464699, 0.0782287, 0.0681091, -0.0734736, -0.138851, 0.127099, -0.26252, 0.346123, -0.385321, -0.179909, -0.653629, -0.0134143, 0.14733, -0.19338, -0.0485254, 0.203792, -0.833767, -0.589869, 0.0523737, -0.0807879, -0.196594, -0.183606, -0.182397, 0.0592486, -0.489261, -0.113436, -0.328543, 0.0783135, -0.126347, 0.309242, 0.189088, 0.300333, -0.0791521, -0.105696, -0.438805, 0.110651, -0.0766629, 0.335044, 0.201542, 0.401498, 0.0121903, -0.035763, 0.195977, -0.165092, -0.423406, 0.0785306, -0.297497, 0.439328, 0.015551, 0.00216946, -0.0718063, 0.297807, 0.0548511, -0.168073, 0.120193, 0.517425, -0.214012, 0.206797, 0.254823, 0.0497402, 0.19952, 0.0944838, 0.520927, 0.0155423, 0.178505, 0.140342, 0.182023, -1.56003e-05, -0.693567, -0.3194], [-0.329871, 0.551047, -0.297268, 0.174642, 0.0837429, 0.497138, 0.177285, 0.297484, 0.0542366, 0.500315, -8.51121e-05, 0.499035, 0.416598, -0.308931, -0.156637, -0.0712318, -0.174915, 0.273234, -0.10597, -0.140513, -0.0491758, -0.00987265, 0.387329, -0.471417, -0.018092, -0.314197, -0.0471597, 0.15939, -0.430601, -0.0815755, -0.0183503, 0.486773, 0.120286, 0.140649, 0.397026, -0.234402, 0.0264477, -0.408874, 0.326882, -0.14033, -0.0282858, 0.298366, 0.169771, -0.142728, 0.108128, 0.161767, -0.0420241, -0.12398, 0.26314, 0.0345652, 0.117376, 0.007447, 0.783207, -0.604373, -0.0128399, -0.140608, 0.290482, 0.335928, -0.132084, -0.422551, 0.154178, 0.461176, 0.0723766, -0.245945, 0.360896, -0.133566, -0.377285, 0.145804, -0.30551, -0.177485, -0.153964, 0.243475, 0.0107575, 0.46479, 0.0583154, -0.0706138, 0.0318797, 0.123092, 0.868418, -0.175931, 0.0878887, 0.118206, 0.18148, 0.0607953, 0.0217788, 0.143951, 0.171725, 0.200507, -0.0787745, -0.0882644, -0.134477, 0.156694, 0.0510049, 0.189238, -0.0229278, -0.257393, -0.0754083, -0.737023, -0.0341708, -0.489167, -0.212124, -0.422769, -0.0564299, 0.354688, -0.153944, -0.66379, 0.273454, 0.16679, -0.181143, -0.36328, -0.144017, -0.0777731, -0.0472693, -0.352097, -0.18116, -0.0185386, 0.307803, 0.588949, -0.434404, -0.0402373, 0.406503, 0.203596, -0.0590475, 0.250491, -0.132524, 0.0553396, -0.733436, 0.121572, 0.112086, -0.00418094, 0.179788, 0.0590887, 0.49418, 0.451408, 0.0927051, 0.02239, -0.128039, 0.138849, -0.0744525, 0.075976, -0.290392, 0.0749682, 0.452127, -0.550478, 0.297385, -0.0978636, 0.339253, -0.300342, -0.271802, 0.327527, -0.276942, -0.338738, 0.00499719, -0.165818, -0.23168, -0.18417, 0.0751527, -0.00895724, 0.114287, 0.000514162, 0.105444, -0.294036, 0.0674074, 0.542623, -0.0333697, 0.25068, -0.465274, 0.284532, 0.411815, -0.344698, 0.0194907, 0.168926, -0.329338, 0.360826, 0.487649, -0.266859, -0.0205507, 0.368658, 0.0829985, 0.433233, -0.202654, -0.216039, 0.156406, -0.361965, -0.27989, -0.0729865, 0.14239, -0.05125, 0.183508, 0.232469, 0.184083, 0.098457, -0.294583, -0.178075, -0.5236, -0.272331, 0.0772415, -0.413944, 0.238128, 0.404221, -0.269432, -0.149618, 0.190352, 0.209917, 0.316364, -0.179306, -0.104567, -0.209509, 0.00493151, 0.360048, 0.131472, 0.212261, -0.0375049, -0.140509, 0.123781, -0.631598, -0.148767, -0.343278, 0.333684, 0.344244, -0.20966, -0.606576, -0.168114, 0.042599, -0.337967, 0.217389, -0.384092, 0.208781, -0.149533, -0.459548, 0.105273, -0.941397, -0.0365734, 0.149347, -0.323227, 0.381074, 0.312322, -0.692397, 0.0425185, -0.277045, -0.259499, -0.314892, 0.16884, -0.215519, 0.153149, -0.168831, 0.162297, 0.487729, -0.206743, -0.129055, -0.437196, -0.197478, -0.576065, -0.0477748, 0.00700127, 0.299499, -0.755406, 0.202905, -0.209357, -0.0220246, -0.19606, -0.224353, 0.214515, 0.0259309, 0.0459259, -0.346508, 0.413378, -0.244195, -0.255218, 0.253544, 0.222085, 0.0813655, -0.168082, 0.27033, 0.380406, 0.725738, -0.303482, -0.267752, 0.217353, 0.225926, -0.126814, -0.197806, 0.476284, 0.0349322, 0.0497538, 0.217628, -0.216642, 0.188859, 0.10153, -0.57442, -0.0444357, 0.122213, -0.173817, 0.676134, 0.100061, -0.344042, -0.307217, 0.253797, 0.231402, -0.439863, -0.359904, -0.109767, -0.0527357, 0.162072, -0.541819, -0.249387, 0.102731, -0.114976, 0.159528, 0.416161, 0.165031, -0.448112, 