{"type": "mlp", "dim": 384, "T": 1.2811, "layers": [{"W": [[-0.5173, 0.023857, 0.053674, -0.10102, -0.074574, 0.15421, -0.11962, 0.10765, 0.01281, -0.28463, -0.19028, 0.057367, -0.01754, 0.036213, 0.25239, -0.053377, -0.049039, -0.062172, -0.23677, 0.063774, 0.082246, -0.24597, 0.30314, -0.016259, 0.095469, 0.11551, 0.16434, 0.0039859, 0.061571, -0.043535, 0.065801, 0.27327, 0.095559, -0.039975, -0.18587, 0.12892, -0.083935, -0.069818, -0.019691, -0.0097846, 0.21685, -0.15264, 0.0062393, 0.14636, 0.16664, -0.042191, 0.19664, 0.19208, 0.12242, 0.024905, 0.065538, -0.21396, 0.14095, 0.11053, -0.034981, -0.032703, 0.047135, -0.051249, -0.0041671, -0.042872, -0.069994, -0.22836, -0.01617, -0.19255, -0.16628, -0.036094, 0.0074884, 0.1113, 0.10933, 0.19307, 0.073416, 0.050347, -0.089165, -0.1409, 0.19378, 0.10876, -0.058919, -0.02301, -0.065343, 0.039927, -0.1073, -0.034998, -0.033153, -0.10518, 0.0093999, -0.019849, -0.092178, -0.07401, 0.14229, 0.055864, 0.20457, -0.15322, 0.37569, 0.034581, 0.095232, -0.14786, 0.0078019, -0.17465, -0.049737, 0.11494, -0.010868, -0.030282, 0.1184, 0.2471, -0.019068, 0.17747, 0.062897, 0.027994, -0.10396, -0.013035, 0.10286, -0.044083, -0.1746, -0.074524, 0.074962, -0.27943, 0.1532, 0.1693, 0.095624, 0.097009, -0.034881, -0.041168, 0.17847, 0.33906, 0.00076562, 0.096079, 0.1397, 0.074744, 0.1347, -0.13586, -0.096016, 0.12152, -0.19164, 0.019505, -0.20661, 0.14121, -0.039175, 0.2789, 0.035084, -0.037879, -0.16442, -0.16738, -0.025195, 0.23982, -0.14448, 0.10707, -0.062359, 0.00083792, -0.055901, -0.13227, -0.26607, 0.1689, -0.054661, 0.31214, -0.15207, -0.16915, -0.0016119, 0.054768, 0.0033427, -0.09334, -0.009108, 0.26327, -0.084971, 0.20307, -0.17599, -0.019638, 0.14973, -0.1042, 0.043835, 0.13837, 0.15801, -0.35439, 0.22864, 0.26605, 0.4113, 0.049575, 0.14412, -0.13721, -0.15063, 0.13181, 0.26939, 0.028235, -0.057117, -0.26023, -0.10974, 0.013768, -0.043242, 0.00162, 0.022004, -0.083764, -0.22576, -0.22562, -0.086187, 0.027276, -0.11028, -0.29259, -0.13611, 0.017824, 0.0046471, -0.11097, -0.0076621, 0.13406, -0.02669, -0.102, 0.0022247, 0.0028613, -0.0079897, 0.033854, 0.082559, 0.031821, -0.12857, 0.12645, -0.070893, -0.013456, -0.057063, -0.047698, 0.22322, -0.13714, 0.11085, 0.033823, 0.095496, -0.017536, 0.018748, -0.297, 0.068023, 0.22647, 0.14694, 0.26036, 0.01076, 0.010477, -0.19943, 0.095329, -0.0561, 0.03631, -0.23596, 0.0090503, -0.0023446, 0.13425, 0.026992, 0.21136, 0.23676, 0.23999, -0.12317, 0.017368, -0.11266, 0.0053094, -0.016718, 0.10934, -0.20002, 0.14303, 0.033532, -0.016265, -0.12926, -0.20951, 0.1496, -0.17345, 0.0099388, 0.095629, -0.096273, 0.063398, 0.17632, 0.050113, -0.075332, -0.018339, 0.03527, -0.13482, -0.033888, 0.22804, -0.04135, -0.067167, 0.028326, -0.026104, -0.35319, -0.15158, 0.17229, 0.19833, -0.16863, 0.061186, 0.20017, 0.0036885, -0.20063, 0.057106, -0.14642, -0.0033089, 0.14895, -0.043121, 0.10779, 0.10402, 0.19229, -0.24505, -0.20953, -0.29267, -0.22081, 0.059889, -0.22797, -0.20863, -0.24282, -0.024834, -0.10687, 0.11679, -0.10971, 0.066042, 0.21386, -0.015031, -0.031203, 0.034174, 0.27269, 0.047464, 0.0878, 0.14353, 0.21653, -0.097788, 0.1332, 0.02599, -0.069424, 0.13364, -0.31251, 0.24609, -0.10106, -0.17767, -0.037665, -0.016469, -0.058925, 0.12014, -0.18626, 0.030333, 0.15262, -0.084423, -0.010474, 0.012807, 0.087387, -0.067019, 0.10404, -0.079258, -0.15722, -0.29951, 0.41731, -0.065873, -0.26124, -0.10249, -0.11481, -0.16445, 0.096907, -0.23011, 0.078653, 0.024689, -0.098454, 0.011572, -0.075452, -0.044414, -0.04166, -0.12704, -0.18952, 0.067781, 0.092333, 0.3325, 0.13184, -0.27216, -0.022843, 0.14131, -0.053734, 0.07032, 0.066849, 0.08641, 0.19273, 0.019563, 0.13211, 0.20614, -0.2329, -0.095991, -0.095329, 0.032634, -0.1307, 0.32695, 0.22504, 0.18157, 0.11621, -0.017247, -0.21028, -0.16407, -0.043286, 0.17457, 0.016576, -0.024329], [-0.020046, -0.094759, 0.12256, 0.11452, 0.055188, 0.12976, -0.077149, -0.094843, 0.11458, 0.17552, -0.19274, 0.12532, -0.020704, 0.11578, -0.082285, 0.19732, 0.10283, -0.023283, 0.047229, 0.2081, -0.062543, -0.10884, -0.038479, -0.1093, 0.10994, -0.36947, 0.33342, -0.12489, -0.085293, -0.12365, -0.021112, -0.082744, -0.12724, -0.18049, -0.014811, 0.21415, 0.037297, -0.045991, 0.12311, -0.13595, 0.047199, -0.11737, -0.15746, -0.16942, -0.047382, 0.085009, 0.018594, -0.016166, -0.11143, -0.017507, -0.028491, -0.1657, -0.040447, -0.010269, -0.13497, -0.077957, 0.0027366, -0.00038775, -0.074297, -0.15316, 0.13693, 0.085821, 0.19396, 0.073963, -0.0017325, 0.029078, -0.11272, 0.10105, -0.18165, 0.14299, 0.040495, -0.074183, 0.18872, 0.094905, 0.18544, -0.060346, -0.17448, -0.057766, 0.35472, 0.094573, -0.24391, -0.10568, 0.031055, 0.026452, -0.053387, -0.014348, -0.16417, -0.051678, -0.051517, 0.085547, 0.098524, -0.072285, 0.14817, 0.12564, -0.12845, 0.062496, -0.10465, 0.016998, 0.13939, 0.1349, -0.067304, 0.18761, -0.084726, -0.28504, -0.028432, -0.21779, 0.29011, -0.12311, 0.22444, -0.17133, -0.25545, -0.068989, 0.02467, 0.063466, -0.094186, 0.17205, -0.1176, 0.096147, 0.13639, 0.17217, -0.034554, -0.31411, 0.08125, -0.073303, 0.061699, 0.1031, -0.089686, -0.10208, -0.099654, -0.1075, -0.18741, 0.3098, 0.0771, 0.20516, -0.011446, -0.14626, -0.063501, -0.16114, 0.16307, 0.25173, 0.15335, 0.071385, -0.15719, 0.15987, -0.029302, 0.19216, -0.049102, -0.2058, -0.01076, 0.26021, 0.11599, 0.23335, -0.033138, 0.069673, 0.033305, 0.09114, 0.040537, 0.29486, 0.057137, 0.089059, 0.098444, 0.035476, -0.063165, -0.0075166, -0.015049, 0.27826, 0.023643, 0.015311, -0.042553, -0.18378, -0.058164, 0.21869, -0.1237, -0.06725, 0.065078, 0.11645, 0.338, -0.035531, 0.036329, -0.18503, 0.050183, -0.3185, -0.0077166, 0.13169, -0.28406, 0.089582, -0.10572, -0.058768, -0.19656, -0.28203, -0.16316, -0.18229, 0.26298, -0.21114, -0.013128, -0.028896, -0.021468, 0.16766, 0.054652, 0.12414, -0.019684, 0.047819, 0.037723, 0.070733, 0.10077, -0.12188, -0.16359, -0.0034679, -0.18652, -0.15436, 0.10024, 0.26168, 0.13642, 0.073481, 0.18918, 0.055846, 0.075375, -0.021604, 0.046301, -0.030032, -0.040999, 0.16797, -0.12919, 0.046882, -0.24778, -0.023168, 0.02076, -0.05162, 0.0049425, 0.095975, 0.065702, 0.14622, -0.2181, -0.10065, -0.26122, -0.058268, 0.27389, -0.12446, 0.14696, 0.17473, -0.28383, -0.097661, -0.013617, 0.078701, -0.084478, 0.34765, 0.16522, -0.090364, 0.13481, 0.21889, -0.12623, 0.012059, -0.012418, -0.045399, 0.054431, 0.25471, 0.0022527, -0.10965, 0.0087538, 0.12533, -0.013254, -0.06341, 0.032109, -0.080292, 0.26495, -0.13288, 0.10233, 0.013368, 0.15642, -0.0084802, 0.060778, -0.048171, 0.11003, -0.12484, 0.1032, -0.032797, 0.030237, 0.14978, 0.08179, -0.10211, 0.11216, 0.10696, 0.19069, 0.13874, -0.1224, 0.038152, 0.045864, 0.073794, 0.50508, 0.01115, -0.21121, -0.029879, 0.19777, 0.15668, 0.1402, -0.029246, 0.15125, 0.11659, 0.016587, 0.066408, 0.33617, -0.16371, -0.18173, -0.28452, 0.066266, 0.056207, -0.043235, -0.033934, -0.11043, 0.10786, 0.042209, 0.026506, -0.096621, -0.012547, -0.025076, -0.24033, 0.40192, -0.20396, -0.0031654, -0.2627, 0.15063, -0.11518, 0.080836, 0.11931, -0.065875, 0.061355, -0.086057, 0.0088413, 0.048178, -0.063167, 0.032842, 0.13553, 0.16835, -0.057171, 0.043191, -0.10158, 0.027528, 0.023709, 0.15442, 0.0368, 0.041385, -0.1711, 0.015284, -0.024528, 0.2584, 0.035373, -0.049087, -0.13744, 0.084904, 0.048026, 0.034639, -0.035998, -0.42817, 0.19525, -0.12885, 0.088081, -0.085362, 0.051247, 0.060858, 0.36383, -0.0074977, -0.10187, -0.084632, -0.17033, -0.010764, 0.059035, 0.092972, -0.38494, -0.23817, 0.10283, 0.12157, 0.23064, -0.18614, -0.036072, 0.056213, -0.23065, 0.065195, -0.1185, 0.12076, 0.064192, 0.084922, -0.12515, 0.28097, -0.021461], [0.063439, -0.033836, -0.046825, 0.0628, -0.10699, -0.1628, 0.0057165, 0.02087, -0.18583, -0.0029225, -0.10015, -0.14335, -0.098505, 0.043429, 0.046972, -0.1089, 0.11901, -0.088595, 0.0049841, 0.022295, -0.077823, -0.0050349, 0.40838, -0.12129, 0.054707, -0.12377, 0.14704, -0.051135, 0.05346, 0.0010953, 0.013917, -0.037689, -0.14067, 0.10611, 0.0012446, 0.097371, -0.029983, -0.085214, -0.072052, 0.14872, 0.32686, -0.22795, 0.1241, 0.031361, 0.0084953, 0.15047, -0.06518, 0.14465, -0.06144, 0.0034445, -0.058409, 0.033897, 0.083823, 0.024513, 0.0055968, -0.30021, 0.011125, -0.063023, 0.087226, -0.092284, -0.16073, 0.10791, 0.10696, -0.049141, -0.00074298, -0.041763, 0.044091, -0.082778, -0.0018235, 0.00042902, 0.15612, 0.095307, -0.2293, 0.0036149, -0.14582, 0.080158, 0.1589, -0.088842, -0.15298, 0.33983, 0.16224, 0.087477, 0.054514, -0.052607, 0.0035656, -0.0036982, 0.082002, 0.13959, 0.072888, 0.078481, 0.18886, -0.037995, 0.1538, -0.099305, 0.063346, 0.060093, 0.028663, -0.036349, 0.017509, 0.010767, -0.099796, 0.092866, -0.074889, -0.096678, -0.023006, 0.0048862, 0.0937, 0.20094, -0.2007, -0.00012063, -0.057609, 0.0046369, -0.38138, 0.16843, 0.0922, -0.014502, -0.21279, 0.043303, -0.15267, 0.10531, -0.0028012, -0.13039, 0.077308, -0.015399, -0.11781, -0.024194, -0.063054, -0.030724, 0.15846, 0.32554, 0.10312, -0.19945, -0.069752, 0.11235, -0.040281, 0.078803, 0.34456, 0.32884, 0.15383, 0.32063, -0.14314, 0.12725, -0.029259, -0.013849, 0.12449, 0.041546, 0.059307, -0.17812, 0.039236, 0.090034, 0.037517, -0.11895, -0.19513, 0.22775, -0.15101, 0.1038, 0.03684, -0.031913, -0.025042, -0.063274, 0.14509, 0.019732, -0.031217, -0.13188, 0.034077, -0.14914, 0.012408, -0.16576, -0.18585, -0.022896, -0.081239, -0.016854, 0.068012, 0.080364, 0.43057, -0.082924, -0.05312, 0.0031487, -0.16774, -0.13953, 0.55831, 0.055162, 0.046659, 0.25168, -0.13706, 0.13618, 0.10149, 0.13798, 0.16976, 0.074577, 0.20932, 0.016372, -0.074551, 0.00044407, -0.1093, 0.041184, 0.032155, -0.050717, -0.06801, 0.05079, -0.17856, -0.07043, 0.091371, -0.12696, 0.025321, -0.12182, -0.072946, -0.0095787, 0.14286, 0.068298, -0.011161, -0.16643, -0.17027, 0.19942, 0.093434, -0.15664, -0.3349, 0.11554, 0.28446, -0.071356, -0.075875, 0.056408, -0.081513, 0.1977, 0.026184, -0.15353, 0.026972, 0.15453, -0.10672, -0.03077, 0.12394, -0.05054, 0.065876, 0.054726, 0.0043896, -0.043605, -0.17618, 0.075143, 0.17436, 0.029513, 0.27618, -0.088859, -0.054192, 0.14578, -0.1125, -0.062984, -0.24616, 0.010642, -0.075692, -0.093475, -0.01722, -0.045097, -0.051017, -0.14456, -0.15101, 0.26362, -0.093397, 0.068103, -0.058444, 0.095869, -0.10662, -0.045146, -0.037309, 0.018648, 0.13509, -0.066046, 0.037001, 0.42629, 0.12069, -0.010594, 0.15551, 0.055196, -0.18915, -0.055877, 0.092143, -0.10903, 0.090603, 0.12828, -0.22191, -0.058415, -0.089268, -0.033273, -0.023687, 0.04431, 0.096715, 0.19792, -0.22805, 0.081685, -0.07929, -0.19984, 0.1731, -0.20092, 0.084955, 0.34949, -0.11187, -0.0015664, -0.057541, 0.13218, 0.14656, 0.0024766, 0.072146, 0.028989, 0.021227, -0.078506, -0.12519, 0.087894, -0.2305, 0.16057, 0.12563, 0.1232, 0.026958, -0.11661, 0.038221, 0.1123, -0.091849, 0.11816, -0.11111, 0.42924, -0.086031, -0.026317, -0.14945, 0.032326, -0.26372, 0.12626, -0.32751, 0.17839, 0.12107, -0.23672, 0.038057, -0.080619, 0.10044, -0.22349, 0.11144, -0.058737, -0.22579, 0.12339, 0.053829, 0.077024, 0.11732, 0.06705, 0.1564, 0.16146, 0.12671, 0.034949, -0.16258, -0.31988, -0.020163, -0.20801, -0.12545, -0.18815, -0.10078, -0.12734, 0.091377, 0.055713, 0.19985, 0.010868, 0.080432, 0.15112, -0.092186, -0.19944, -0.11903, 0.31027, 0.15559, -0.1195, -0.23317, 0.027655, 0.21198, 0.056238, -0.069904, 0.20113, -0.10645, -0.079902, 0.10124, -0.10937, -0.26591, -0.17864, 0.157, -0.13467, 0.0029482, 0.12514, -0.07762, 0.19878, -0.09697, 0.086789], [-6.2199e-39, -9.6551e-39, -8.1881e-39, -1.2432e-38, 8.2322e-39, -4.525e-39, 6.2069e-40, -3.132e-39, 1.1758e-39, -5.885e-39, 9.0394e-39, 3.4345e-39, 2.7838e-39, -1.2269e-38, -3.2065e-39, -1.0009e-39, 7.7472e-40, -1.0237e-38, 7.4129e-33, 1.2838e-38, 1.0294e-38, -7.5326e-39, 6.8292e-39, 7.3533e-39, -9.0114e-39, -4.1051e-35, -3.8741e-39, 1.0337e-38, 8.1068e-39, -3.4025e-27, 6.412e-40, -2.7758e-39, 1.324e-38, 3.4422e-34, -3.6966e-41, -5.2922e-39, 9.666e-39, 1.9347e-39, 1.2728e-38, -1.1846e-38, 9.8642e-39, 3.6033e-39, -1.0342e-38, 4.1131e-39, -3.6213e-38, -8.9597e-40, -1.024e-38, -8.8036e-39, 6.3965e-40, -1.1279e-38, -7.1016e-30, -3.7749e-39, 8.8343e-39, 1.0594e-37, 6.2153e-39, 3.7728e-31, -8.5967e-26, 1.5335e-31, -4.2347e-39, 6.7519e-39, 3.5098e-35, -7.9254e-39, 2.8748e-39, -5.8665e-39, 9.5178e-39, -4.4093e-30, -5.4915e-39, 1.2159e-39, -1.0583e-38, -7.7862e-39, -1.2847e-38, -8.1709e-39, -1.2035e-38, 4.1053e-39, 1.875e-39, -5.4646e-39, 7.2755e-39, 2.2828e-39, -7.2947e-39, 1.3031e-38, 1.1345e-38, 6.8838e-39, 8.6439e-39, 1.2422e-38, 2.8206e-39, -5.0874e-37, -3.1804e-39, 1.1522e-38, -3.4499e-33, 1.2825e-38, 6.2611e-39, -1.0566e-38, 1.039e-38, -7.4188e-39, 6.4551e-39, -1.0795e-38, 1.1873e-39, -9.0864e-39, 5.9435e-33, 8.499e-39, -2.7755e-35, -9.6081e-38, -1.1995e-38, -7.7316e-40, -1.2654e-39, -2.3679e-35, 4.4991e-27, -8.6255e-39, -2.5171e-40, 3.4324e-39, -7.5774e-39, 1.313e-38, 2.9124e-39, 6.6344e-39, -1.1377e-37, 6.5337e-34, 1.0351e-38, 2.6922e-39, -1.0984e-38, 5.2932e-39, 4.1513e-39, -1.0959e-38, -9.9789e-39, 1.1513e-38, 5.2285e-41, 5.6929e-39, -8.3152e-39, -3.5677e-39, 4.399e-25, -3.466e-39, 3.1484e-39, 8.5714e-39, -3.1136e-39, -4.881e-40, -5.4861e-40, 1.1831e-38, -6.9552e-39, -2.1345e-39, -2.6784e-39, -8.8785e-39, -1.69e-33, 6.4462e-39, -8.2873e-39, -6.662e-39, -1.3273e-38, -6.0779e-39, 1.1456e-38, 1.0215e-38, -2.5787e-39, -1.6424e-26, 9.7461e-39, -5.1347e-39, 1.5464e-38, 4.756e-39, 8.2115e-39, 2.6043e-39, 5.4749e-40, -1.7443e-30, 2.778e-39, -5.9292e-40, 6.366e-39, -3.0409e-40, 1.2921e-38, 4.2891e-39, -9.0122e-39, 6.9207e-35, -2.4111e-35, -1.1799e-29, -8.4655e-39, -3.8473e-39, -1.8151e-39, -9.3403e-39, -4.8021e-39, 1.0505e-38, -5.1729e-39, 8.3823e-39, -1.7458e-39, 1.6195e-33, -6.733e-37, -3.4519e-39, -5.2236e-39, -1.157e-39, 5.26e-39, -5.9125e-41, -1.2649e-38, -5.7138e-39, 6.3925e-39, 8.3474e-39, 2.1311e-29, -1.1239e-38, 1.0141e-38, 1.0208e-38, -6.8485e-39, -1.7057e-37, 3.5854e-39, 1.235e-39, -4.1838e-39, -1.3017e-38, -6.9636e-40, 5.7697e-39, -6.9228e-39, 6.6788e-34, 4.6783e-39, -4.5424e-39, -1.0243e-38, -1.0104e-38, 1.7404e-38, -5.1218e-39, 1.1044e-38, -9.6392e-39, -4.6444e-39, 4.0613e-39, -6.1399e-26, 1.1356e-38, 2.0204e-31, -1.8657e-40, -8.2708e-39, -2.1968e-39, -2.3046e-39, 3.8881e-39, -2.6436e-36, 1.2378e-38, 8.9708e-39, 2.3228e-36, 1.2335e-38, 6.5271e-39, 7.0572e-33, -8.3515e-39, 8.2492e-40, 1.6417e-39, -2.6287e-34, 9.9468e-40, 2.581e-34, -1.9744e-39, -3.5269e-34, 1.7218e-41, -3.1603e-39, -1.3365e-39, 7.7982e-39, 3.2887e-31, -3.7132e-39, -2.2201e-39, -3.2988e-39, -7.2504e-33, -9.7689e-39, 5.3921e-39, -4.9639e-39, -8.3291e-39, -7.9238e-39, 5.8284e-36, 1.3012e-38, 1.954e-39, -1.2069e-38, 3.974e-28, -6.928e-39, -6.8518e-39, -3.4216e-39, -6.5294e-39, -9.5276e-39, 1.264e-38, -1.7924e-28, 9.5048e-39, 6.8261e-30, 7.6854e-36, -1.4644e-32, 1.9373e-35, -1.2969e-37, 1.1669e-38, -3.5536e-26, 1.1917e-37, 3.1728e-39, -1.0845e-38, -1.2697e-40, -9.744e-39, -4.0232e-39, -1.1398e-38, 8.6533e-39, 1.1833e-27, 4.3726e-39, 5.2197e-39, -4.9618e-39, 6.9585e-39, -1.3487e-38, 6.2658e-39, 3.7286e-39, -3.4523e-39, -6.9724e-39, 1.0648e-38, 5.6153e-38, -9.1875e-39, -3.5329e-39, -1.3146e-36, 4.9024e-39, -1.3029e-38, 4.245e-39, -2.9409e-39, 1.4904e-39, 1.1616e-38, -1.7556e-29, -1.2889e-38, 1.8899e-39, -1.3035e-38, -8.2745e-28, 9.8022e-39, -8.7565e-39, -5.7538e-39, 1.0822e-38, -1.3043e-38, 3.1489e-39, 1.0269e-38, -1.3932e-35, 5.3629e-38, 4.5072e-40, 6.381e-39, -1.3048e-38, 8.8477e-39, 3.7484e-39, -7.3837e-39, -9.6511e-39, 7.4985e-39, 2.7552e-38, -5.7007e-39, 2.5177e-39, -7.4699e-39, 1.1522e-38, -3.7206e-39, 6.7116e-39, 5.2617e-39, 1.3277e-36, 8.4167e-40, 5.383e-39, 7.6457e-39, -8.094e-40, 1.1216e-38, 1.9716e-33, -1.2641e-38, -8.3291e-39, 5.718e-39, -4.1581e-39, 5.2422e-30, 6.7353e-39, -6.6031e-39, 4.1372e-39, 1.0501e-38, 1.1641e-38, -5.3962e-39, 9.6384e-39, 4.139e-39, 5.1998e-39, -1.8481e-33, -8.9011e-39, -7.8959e-39, -1.0513e-38, -1.2671e-38, 2.6537e-39, -5.2935e-39, -6.299e-39, 2.0638e-34, 1.2583e-38, 1.8102e-39, 7.8461e-40, -5.3566e-40, 7.7791e-39, -8.7151e-32, -5.5103e-39, 4.8261e-32, -8.5355e-39, -3.2781e-39, 2.1771e-39, 8.0071e-39, 5.5132e-39, 7.8703e-39, -6.5416e-39, 1.2483e-38, -7.8917e-39, 5.7833e-39, -5.7829e-39, -4.7129e-39, -6.6908e-39, 1.5442e-26, 2.9382e-39, -6.4537e-40, -5.9528e-39, -6.7489e-39], [0.11887, 0.34016, 0.02044, 0.015252, 0.00034233, 0.13573, 0.013283, 0.0040964, -0.0065573, -0.204, -0.16689, -0.06584, -0.023456, -0.026663, -0.022744, -0.065633, -0.047178, -0.029939, 0.11307, 0.20902, 0.087499, 0.11371, -0.18395, -0.13627, -0.017234, -0.10165, 0.080313, 0.095117, -0.011088, 0.15613, -0.026639, -0.034455, 0.098146, -0.0089145, 0.031584, 0.027277, -0.053692, 0.04568, 0.054198, 0.1011, 0.10044, -0.012106, 0.14505, -0.14009, 0.017989, -0.03298, 0.1046, 0.087223, -0.12271, 0.03834, -0.10848, 0.038267, -0.034622, -0.034236, -0.055502, 0.046452, 0.13976, 0.079852, 0.037487, -0.19857, 0.002697, -0.18121, -0.28032, 0.10233, -0.0048005, -0.029692, -0.068381, -0.11385, 0.074969, -0.14988, 0.040473, 0.013833, 0.051066, -0.023809, -0.0085152, 0.044948, -0.13191, -0.017066, 0.075581, 0.15352, 0.0096803, -0.08, -0.072457, -0.13375, -0.030492, 0.079701, -0.16636, 0.024073, 0.10442, 0.069439, 0.098724, -0.2913, 0.036597, 0.052721, 0.046991, -0.030976, -0.070868, -0.011563, -0.016147, 0.10966, -0.010567, -0.21287, 0.12478, 0.066103, 0.069285, 0.010208, -0.086857, 0.068929, -0.10864, -0.10442, -0.061625, -0.14501, -0.11581, -0.095867, 0.073548, 0.03824, -0.23787, 0.069589, -0.0023451, 0.078944, -0.08668, -0.12769, 0.18501, 0.041735, -0.067605, -0.15868, 0.046942, 0.12812, 0.082941, 0.077841, -0.22344, -0.011788, 0.10091, 0.073676, -0.039096, -0.062632, 0.079418, -0.16945, 0.14469, 0.13706, -0.046604, -0.061865, -0.043369, 0.22779, 0.000139, -0.11797, -0.018907, -0.024581, 0.01549, 0.034853, 0.088036, -0.062132, 0.14269, 0.30662, 0.026482, 0.079591, 0.00603, 0.13307, 0.038281, -0.080522, -0.025061, 0.105, -0.098771, 0.084146, 0.036704, 0.076397, 0.027554, -0.19379, 0.00043484, -0.0091754, -0.14139, 0.086346, -0.021508, 0.032634, 0.28308, 0.18206, 0.018265, 0.13658, -0.12431, -0.06035, 0.15183, -0.029339, 0.10423, -0.14062, 0.03511, -0.17584, 0.048075, 0.10549, 0.075529, -0.16506, 0.14955, -0.011556, -0.050829, -0.056383, 0.039605, 0.094203, 0.015554, -0.038215, 0.13161, -0.0037087, -0.014254, -0.032714, -0.10297, -0.13815, -0.033665, -0.074705, -0.067162, 0.08088, -0.14484, 0.0069841, -0.15034, -0.016395, -0.19548, 0.10161, -0.082502, -0.24502, 0.10419, 0.0025511, 0.092567, 0.12318, -0.031127, -0.19103, -0.087215, 0.067549, -0.1092, 0.11457, -0.095059, 0.02711, -0.20628, -0.037581, 0.052743, 0.056299, -0.12946, 0.09702, 0.04714, 0.037794, -0.18808, 0.04353, 0.1532, -0.07541, -0.13167, 0.18548, -0.037631, -0.038621, 0.11971, 0.08811, -0.18066, 0.15432, -0.056112, 0.075703, 0.025812, 0.031008, 0.016721, 0.054022, -0.0072927, 0.23407, 0.060751, 0.12697, -0.053545, 0.10439, 0.035459, 0.10467, 0.018168, -0.015718, 0.043141, -0.13247, -0.036244, 0.22206, 0.1005, -0.15924, 0.047842, -0.14846, -0.096163, -0.058511, 0.074952, -0.047913, 0.032172, 0.0022473, 0.07412, 0.030109, -0.02954, 0.071667, -0.050275, 0.0055988, -0.10083, -0.12835, -0.062954, 0.059849, -0.01957, -0.063836, 0.25784, -0.15246, -0.078346, 0.029502, 0.15477, 0.097238, -0.035638, -0.098303, 0.23133, 0.065905, 0.026189, -0.0029867, -0.068507, -0.013683, -0.1448, 0.062705, -0.064919, -0.20696, 0.031861, 0.18061, 0.13649, -0.067313, 0.058106, -0.14437, -0.14075, -0.052506, -0.1187, -0.05802, -0.14967, 0.045602, -0.019573, 0.10056, -0.0042473, 0.091499, -0.050167, 0.026716, -0.10979, 0.046391, -0.033352, -0.10493, -0.029915, -0.0029306, -0.02446, 0.05064, -0.0012662, -0.081849, 0.0029136, 0.03941, 0.12414, -0.11521, 0.041186, 0.010268, -0.032118, -0.10164, -0.043754, -0.081071, -0.056997, 0.03883, -0.11749, -0.0078573, -0.1274, -0.062409, 0.011898, 0.14703, -0.11463, -0.089778, 0.036207, 0.090445, -0.069272, -0.024145, 0.060035, 0.081831, 0.09938, -0.071456, 0.041314, -0.04577, 0.14921, -0.15082, -0.072647, 0.18034, -0.037589, -0.0069308, 0.17387, -0.35199, 0.023177, 0.15448, 0.067715, 0.13695, -0.096897, -0.039395, 0.11197, -0.0074561, 0.082033, 0.12648], [-0.28434, -0.084645, 0.11487, 0.011546, 0.060962, -0.20575, -0.14058, 0.11129, -0.082731, -0.10045, -0.038707, 0.02082, 0.087167, 0.11847, 0.11065, 0.044844, -0.13104, -0.086096, 0.048115, 0.1581, 0.0523, -0.088674, -0.1419, 0.092259, 0.090817, 0.043115, 0.12811, -0.12041, -0.053513, -0.010823, 0.077793, -0.090005, 0.048372, 0.096479, 0.027422, 0.0066275, 0.030535, -0.074091, 0.05765, 0.18476, 0.12014, -0.029133, -0.06385, -0.0382, 0.013892, -0.1677, 0.2393, -0.013641, -0.015515, -0.095081, -0.14085, -0.024664, -0.21546, 0.093117, -0.26403, -0.039617, 0.069429, -0.0956, -0.099362, -0.012702, 0.03093, 0.029868, 0.13571, -0.16731, 0.074067, 0.04706, -0.02613, 0.11113, 0.028083, 0.19771, 0.02351, -0.01683, 0.028495, -0.055882, -0.12887, 0.021529, 0.1225, -0.072593, -0.1944, -0.11263, -0.13853, 0.061689, -0.043797, -0.025983, -0.049037, 0.074139, -0.13235, -0.048196, -0.070379, 0.045607, 0.2602, -0.072521, 0.10213, 0.060749, 0.12478, -0.1285, -0.10077, -0.14142, -0.019885, 0.07178, 0.020074, 0.081941, -0.20681, 0.53676, 0.2149, -0.01875, -0.091722, 0.14998, -0.037048, -0.13793, 0.051205, -0.24014, -0.3512, 0.043687, 0.066664, -0.017967, -0.13369, 0.0094117, -0.19295, 0.32833, -0.10802, 0.043311, 0.024893, 0.30117, -0.14396, 0.037243, 0.23001, 0.13609, 0.13637, -0.11584, -0.022156, 0.07051, 0.080143, 0.16623, -0.009343, 0.0084487, 0.17416, 0.098287, -0.1363, -0.0194, -0.10306, -0.086961, 0.13891, 0.19311, 0.041032, -0.098723, -0.17274, 0.24876, -0.11178, 0.065983, -0.05446, -0.026954, -0.018714, -0.073067, -0.083561, -0.078803, 0.15935, -0.11699, -0.07655, -0.031786, 0.028448, 0.108, -0.13423, 0.069529, -0.1805, -0.1195, -0.02804, -0.15347, -0.1092, 0.021027, 0.0044319, -0.059923, 0.10889, 0.16684, 0.0049811, -0.00017335, -0.15162, -0.2328, -0.068225, 0.31955, -0.024537, -0.18618, -0.043657, 0.049964, -0.19771, 0.27586, -0.037982, 0.047575, 0.097448, 0.028251, -0.1612, -0.43883, 0.18862, -0.12167, -0.10691, -0.43662, -0.20652, -0.031703, 0.19577, 0.13523, 0.44308, 0.16263, -0.086041, 0.09905, 0.083653, -0.034852, -0.0027367, 0.086885, 0.00016022, -0.18549, -0.10901, -0.086567, -0.11271, 0.086243, -0.20744, -0.16903, 0.45686, 0.016901, 0.19237, -0.057627, 0.0078164, 0.2123, -0.21093, -0.044541, 0.083237, 0.011982, -0.10362, -0.17163, -0.064949, 0.099811, -0.10729, -0.2032, 0.1938, 0.021971, 0.01272, 0.12651, -0.083571, 0.066579, 0.072556, -0.12374, -0.057726, 0.29969, -0.1475, 0.034658, -0.17271, 0.010749, -0.09167, 0.040471, 0.026582, -0.019, 0.34888, -0.031071, 0.073088, -0.11773, 0.17798, 0.11078, -0.15548, 0.076894, -0.0070134, -0.055292, 0.18724, -0.036548, -0.17337, 0.069882, 0.10672, -0.15362, 0.16645, -0.083657, 0.16569, -0.062371, 0.12633, 0.13961, -0.04105, -0.093776, 0.10234, 0.33899, 0.03317, -0.030059, 0.081266, -0.17725, -0.15972, 0.26582, 0.087242, -0.03986, -0.071315, 0.16346, 0.28435, -0.023848, 0.17815, 0.1086, -0.15518, -0.19778, 0.015364, 0.013947, -0.031298, -0.057117, -0.12116, -0.080638, 0.071743, 0.028074, 0.25307, -0.043491, 0.16561, -0.053262, 0.039483, 0.041792, 0.12554, -0.28261, 0.08166, 0.083387, 0.10372, -0.075063, 0.087467, -0.017438, -0.057433, 0.10541, -0.062409, 0.1586, -0.10002, 0.10831, 0.030306, 0.14766, 0.22171, -0.1874, 0.13329, -0.086776, 0.2754, -0.26624, 0.28651, 0.051293, -0.11526, -0.13483, 0.10805, 0.08249, -0.044187, 0.23788, 0.29618, -0.018683, 0.039576, -0.13942, 0.070324, -0.11452, -0.0044502, -0.15442, -0.11681, -0.0027122, 0.030062, -0.002451, -0.010163, 0.073197, -0.075222, 0.018853, 0.048608, 0.047216, -0.040067, 0.12643, 0.16767, -0.069012, 0.018391, -0.020332, -0.1974, 0.3797, -0.020427, 0.11468, 0.19859, 0.022451, -0.026575, 0.00095007, 0.19178, -0.097068, 0.16256, -0.2247, -0.11669, -0.14611, 0.18836, 0.015767, -0.029077, -0.21715, -0.18137, 0.10368, -0.32795, 0.041641, 0.035296, 0.025762], [0.06299, 0.25127, -0.19192, -0.08859, -0.020646, -0.016749, 0.066834, 0.14165, 0.21295, 0.15784, -0.063725, 0.17194, -0.12958, -0.26526, 0.16868, 0.10747, 0.08539, 0.014257, 0.10822, -0.022199, -0.07524, 0.026595, 0.010451, -0.17636, -0.019164, 0.12254, -0.11081, 0.28256, 0.095364, -0.15348, 0.1529, -0.0037152, 0.12903, 0.12403, -0.12915, 0.16126, -0.11262, -0.11958, 0.017131, 0.030341, 0.025127, -0.18929, -0.040737, 0.025876, 0.097986, 0.033386, 0.24136, -0.01912, 0.26222, 0.014477, -0.036242, -0.024813, 0.38151, 0.13936, 0.062803, 0.02436, -0.12283, 0.17627, 0.026328, -0.096471, -0.20696, 0.18362, 0.22223, -0.14377, -0.035252, 0.017539, 0.042447, 0.043446, 0.066969, 0.08906, -0.0080509, 0.021577, 0.01161, -0.099311, -0.17981, -0.063551, -0.11022, -0.096435, -0.31704, 0.034617, -0.11198, 0.1018, -0.068713, 0.13615, -0.035232, -0.14705, -0.03143, -0.13912, -0.039983, 0.21364, -0.0053755, 0.065821, -0.090779, 0.13984, -0.056217, -0.12801, 0.02043, 0.067176, 0.014436, -0.12449, 0.13282, 0.059718, -0.13219, 0.22691, 0.066337, 0.10357, 0.12713, 0.12544, -0.14091, 0.19207, 0.26159, -0.14113, -0.076148, -0.073238, -0.046987, -0.033069, -0.043843, -0.065925, 0.025431, -0.090547, -0.18356, -0.019553, -0.058755, 0.048565, -0.1113, 0.092289, -0.066292, 0.017575, 0.2549, -0.12041, -0.061437, 0.15422, 0.0022557, -0.1768, -0.04673, -0.18165, 0.051763, -0.068293, 0.1223, -0.020406, -0.042695, -0.16947, -0.091055, 0.068993, 0.04136, 0.074178, 0.029949, 0.27515, 0.039492, 0.04554, -0.20399, -0.13189, 0.0015386, -0.0055986, 0.031138, 0.0033958, 0.15663, -0.20199, -0.17609, -0.20598, 0.01153, 0.11449, 0.056424, -0.083554, 0.014819, 0.072427, -0.022917, -0.1605, -0.13473, 0.049317, -0.039111, -0.35522, 0.17423, 0.23875, 0.044682, -0.05454, 0.014374, -0.1395, -0.10221, 0.10886, 0.064709, -0.028975, 0.23372, 0.11411, -0.061926, 0.075511, 0.10659, -0.10341, 0.029865, 0.21139, -0.11828, -0.20836, -0.15648, 0.013398, 0.015576, 0.0058968, -0.25382, -0.1359, -0.13239, 0.25382, 0.31548, -0.034802, -0.10651, 0.014523, 0.055752, -0.09107, -0.071515, 0.018312, -0.080455, 0.15862, -0.073428, -0.042525, -0.17393, -0.18429, 0.091737, 0.1107, -0.042536, -0.033535, 0.035391, -0.11552, -0.063817, -0.043835, -0.041229, -0.025801, -0.042941, 0.12166, 0.20514, -0.10628, -0.057349, -0.11313, -0.016991, 0.0198, 0.11171, 0.17813, 0.12121, 0.052796, -0.28592, -0.20285, -0.19469, 0.037993, -0.07262, 0.17292, 0.069745, -0.1538, -0.13918, -0.065284, -0.13671, 0.13977, 0.59705, -0.13727, -0.014362, 0.14244, -0.26512, -0.24276, 0.0069707, -0.084259, 0.13136, 0.016038, -0.039393, -0.059557, -0.13663, -0.26772, 0.11187, 0.1347, -0.025881, -0.13706, 0.11231, 0.011382, -0.1415, 0.13024, -0.052041, -0.23097, -0.11465, -0.1036, -0.012876, 0.15459, 0.09246, -0.044669, -0.14385, -0.11967, -0.19789, 0.068629, -0.20872, -0.20453, -0.022897, 0.087794, -0.04257, 0.093672, -0.24517, -0.12768, 0.20134, -0.052547, 0.17042, -0.04657, -0.25746, 0.023993, -0.1073, 0.080552, -0.16355, 0.018518, -0.085838, -0.095324, 0.069467, -0.07816, -0.0044842, -0.1591, 0.080537, -0.1158, 0.069701, 0.013355, 0.0042155, -0.092707, -0.0092313, 0.24259, 0.25545, -0.079626, -0.34376, 0.036086, 0.089229, 0.10392, 0.087846, 0.10817, -0.061537, 0.049694, -0.049671, -0.05518, 0.19086, -0.14473, -0.19895, 0.032665, -0.23364, -0.0242, -0.18816, -0.15254, 0.18455, 0.18445, -0.0038274, 0.07144, -0.13751, -0.09609, 0.13606, -0.073229, 0.046498, -0.094202, 0.057719, -0.084477, -0.13749, -0.05666, 0.10218, -0.060628, 0.088376, 0.024237, 0.26555, 0.13705, 0.091762, 0.37864, 0.11946, 0.049775, 0.31688, -0.15237, 0.30903, 0.0024541, -0.088736, -0.14009, -0.054829, 0.2007, -0.1466, 0.076355, 0.12988, -0.038216, -0.034183, -0.19284, 0.15129, 0.13239, 0.012347, 0.12765, -0.065123, 0.0027151, -0.087736, -0.23586, -0.3293, 0.039836, -0.083617, 0.037813], [8.2197e-39, 1.2132e-38, -8.1028e-39, -7.1599e-39, 1.2427e-38, 1.4461e-39, -9.3166e-39, -9.0796e-39, -1.7932e-39, -1.0536e-38, -9.5466e-39, -1.1744e-38, 9.6512e-39, 1.0887e-38, 3.0895e-40, 1.16e-38, -8.205e-39, 3.0408e-39, -1.5232e-39, -4.0981e-40, -9.2962e-39, -4.2327e-40, -1.291e-38, 1.0293e-38, -6.9099e-39, -8.2834e-39, 4.7858e-39, 2.7795e-39, -6.8152e-39, -7.9366e-39, -1.1186e-38, -4.6031e-39, 1.154e-38, -1.2819e-38, -6.9117e-39, -6.9825e-39, -7.7343e-39, -5.7027e-39, 1.2473e-38, -5.7515e-39, 1.3027e-38, -9.8818e-39, 1.2715e-38, 7.5645e-39, 1.1136e-41, -4.0977e-39, -1.6252e-39, -8.4933e-39, 1.0391e-38, -7.6436e-39, -1.1693e-38, -2.2041e-39, -7.2542e-39, 5.7747e-39, -1.5931e-39, -5.4773e-39, -1.2639e-38, -9.1698e-39, 9.1776e-39, 1.167e-38, 9.9657e-40, 4.1356e-39, -1.1832e-39, 7.4148e-39, 8.0867e-39, 1.077e-38, -2.4121e-40, 6.906e-39, -6.0948e-40, 6.6268e-39, 5.0065e-39, -8.8515e-40, 2.1843e-40, -3.2457e-40, 1.1323e-38, 1.6271e-39, 9.7e-39, 1.1947e-38, -5.7234e-39, 6.9512e-39, -1.0256e-38, 7.5901e-39, -4.7393e-39, -7.1684e-39, -6.4342e-39, 8.202e-39, 8.846e-39, 6.2432e-39, 2.3196e-39, -1.0022e-38, -1.0184e-38, -4.9651e-39, 8.7027e-39, 8.2106e-39, 4.2577e-39, -4.2474e-39, -1.2465e-39, 6.7642e-40, -1.5871e-39, 8.8612e-39, -1.0402e-38, 1.1236e-38, -9.3892e-39, 6.2672e-39, 1.0765e-38, 1.3049e-39, -2.3346e-39, 4.8912e-40, 1.0376e-38, -4.1587e-39, -6.8693e-39, -1.6348e-39, -6.6292e-39, -5.7736e-40, 5.8694e-39, 6.9904e-39, 7.3631e-39, 6.3415e-39, -7.4765e-39, 8.5775e-39, -7.4309e-39, -8.2008e-39, -1.1421e-38, -9.1597e-40, 9.4743e-39, -2.5006e-39, -7.6079e-39, -4.1598e-39, -1.2589e-39, -5.1428e-39, -2.9989e-39, 1.117e-38, -2.6938e-39, 9.88e-39, 9.6923e-39, -1.9336e-39, -2.9285e-39, 9.1154e-39, -1.035e-38, -1.1833e-38, -1.3004e-38, -7.6102e-39, 8.494e-39, 4.1446e-39, -6.5736e-39, 1.3143e-38, 1.3509e-39, 6.9985e-39, -8.4048e-39, 1.2237e-38, -1.6704e-39, -1.3666e-38, -1.1523e-38, 8.3503e-39, 2.6492e-39, 4.2744e-40, 1.0296e-38, -1.7762e-39, -2.8264e-39, -9.374e-40, -7.6642e-39, 1.0848e-38, -3.9225e-39, -9.2876e-39, -6.6855e-39, -7.9208e-39, 8.889e-40, -1.1292e-38, 1.2407e-38, 5.5732e-39, -6.9772e-39, -8.4977e-39, -1.3965e-40, 2.9221e-39, -6.7541e-39, -2.2301e-39, 5.2779e-39, -1.4161e-39, 1.1695e-38, 4.065e-39, 4.8211e-39, 7.1328e-39, -1.0188e-39, 6.6345e-40, -5.0139e-39, 5.9753e-40, -1.018e-38, 4.6948e-39, 7.1051e-39, -3.6267e-39, 1.5397e-39, 4.6392e-39, -1e-38, 5.9777e-39, -3.8753e-39, -6.7308e-39, -1.1846e-38, -4.8456e-39, -7.4718e-39, 1.1887e-38, -6.9183e-39, 7.8131e-39, -1.0602e-38, 1.3187e-38, -8.0462e-39, 1.0148e-39, -5.1342e-39, -7.1372e-39, -7.0419e-39, -3.7177e-39, 6.0815e-40, -7.2679e-39, 8.3326e-39, 2.9508e-40, -7.4948e-39, -9.1348e-39, 1.1285e-38, 3.0563e-39, 1.0566e-38, 2.5785e-39, 1.1219e-39, 9.9534e-39, 1.0889e-38, 1.0849e-38, 1.0915e-38, -1.079e-38, 8.4878e-39, -6.168e-39, -5.9946e-40, -4.4296e-39, 7.0984e-39, -1.6935e-40, 6.5481e-39, 6.4533e-39, -1.023e-38, 1.1187e-38, 2.9809e-39, 7.0181e-40, -8.5013e-39, -6.625e-39, -1.1782e-38, -1.2246e-38, -6.2788e-39, -2.4016e-39, -2.2973e-39, -9.0849e-39, -3.0874e-40, -4.8453e-39, -7.6131e-39, 7.6722e-39, -3.1142e-39, -6.4128e-39, 6.992e-39, 1.2305e-38, 1.0825e-38, -3.1754e-39, 5.5117e-39, 5.1433e-39, -1.3073e-38, -6.3135e-39, -1.2587e-38, -3.6714e-39, -1.0232e-38, -1.0753e-38, -7.7202e-40, -1.588e-39, 1.8112e-39, -2.1958e-39, -4.1127e-39, -4.9278e-39, 5.8122e-39, 6.8779e-39, -1.1542e-38, 6.7004e-39, -1.1586e-38, 1.3315e-38, 1.1468e-38, -8.9816e-39, 7.895e-39, 6.0053e-39, -3.5225e-39, 9.5468e-39, -1.2096e-38, 6.8032e-40, 1.3342e-39, 1.1939e-38, -7.9505e-39, 1.1218e-38, -5.8111e-39, -1.3299e-38, -5.1799e-40, 4.0027e-40, -5.6372e-39, -1.1636e-38, 1.0868e-38, 3.8162e-39, 9.8864e-39, 5.7959e-39, 8.3444e-39, -9.508e-39, 8.0244e-39, 6.4114e-39, 7.0908e-39, 1.423e-39, -2.1637e-39, 1.0811e-38, -5.6226e-39, 6.5415e-39, -4.996e-39, 7.5167e-39, -1.1725e-39, 2.4709e-39, -3.5915e-39, 7.3767e-39, 3.9877e-39, 3.9423e-40, -1.1592e-38, -5.7466e-39, 4.2101e-39, -2.2604e-39, 1.4705e-39, -1.2234e-38, -1.2605e-38, 9.2257e-40, 1.1354e-38, -1.1463e-38, -2.4991e-39, -2.2253e-39, -1.2252e-38, 5.5595e-39, -7.8599e-39, -1.0088e-39, -9.9632e-39, 8.5568e-39, 8.2964e-39, 1.0976e-38, 1.3007e-38, -1.0228e-38, 7.3233e-39, -1.1261e-38, 9.6263e-39, 6.5002e-39, -1.0945e-38, -5.3494e-39, -9.3992e-39, 1.5477e-39, -7.0648e-39, -8.2752e-39, 1.1641e-39, -9.7823e-39, 1.2015e-38, 4.8063e-39, 9.8372e-39, -5.0498e-39, -1.7713e-39, 3.6547e-39, 7.2523e-39, -7.1256e-39, 1.1116e-38, -2.6326e-39, -5.8388e-39, -7.7689e-39, 1.0029e-38, 4.8651e-39, -2.0375e-39, 7.5146e-39, 6.3449e-39, -3.0549e-39, -4.2461e-39, 1.0906e-38, -3.0077e-39, 7.876e-39, -1.8015e-39, 4.4836e-39, 8.2844e-39, -4.6734e-39, 5.003e-39, 6.9352e-39, 4.2259e-39, -7.6185e-39, 1.0619e-38, -6.3273e-41, -2.3133e-39, -7.4318e-39], [-0.3125, 0.023996, 0.063842, 0.11622, -0.069226, -0.013155, -0.20931, -0.14849, 0.058989, -0.2285, -0.12678, -0.34469, -0.084694, 0.018722, -0.13175, 0.013095, 0.014755, 0.09681, 0.012628, 0.14838, -0.017881, -0.15699, -0.20618, 0.0080224, 0.13333, -0.099793, 0.072766, -0.030688, -0.14017, -0.038362, 0.016514, 0.10398, 0.23533, 0.038627, -0.0091094, -0.030936, 0.14816, -0.029505, 0.061287, -0.040471, 0.19943, -0.028471, -0.011976, -0.029857, -0.048471, -0.043258, -0.068458, 0.012043, -0.050318, 0.11735, -0.1519, -0.047655, -0.21242, -0.085506, -0.27259, -0.16123, 0.053849, 0.056648, 0.032924, -0.049121, -0.027136, -0.022132, -0.11268, 0.015902, -0.11425, 0.087545, -0.040108, -0.056599, -0.07953, 0.047241, -0.058026, 0.048467, 0.58441, -0.050911, -0.35746, 0.13614, -0.039875, -0.1823, 0.069681, 0.055685, 0.016917, -0.004361, -0.12494, 0.051225, 0.0538, -0.12557, 0.10056, 0.092359, -0.037145, 0.12323, 0.25958, -0.064199, 0.25977, -0.0028996, 0.12283, 0.1857, -0.23682, -0.0026481, 0.12912, -0.0076193, 0.15287, 0.35345, 0.047614, 0.2513, -0.085261, 0.039375, -0.048786, 0.11812, 0.1673, -0.0028326, 0.054582, -0.17199, -0.11191, 0.061616, 0.16496, -0.046071, -0.098156, -0.0079379, -0.32217, 0.17602, 0.1231, -0.17148, 0.11253, 0.050459, 0.040555, 0.0027377, 0.12421, -0.22938, -0.040815, 0.12066, -0.1886, 0.16201, 0.030816, 0.099521, 0.12131, -0.12183, 0.19016, 0.2034, 0.31776, -0.052449, 0.10397, 0.1361, 0.24242, -0.026852, -0.19543, -0.032816, -0.087759, 0.067699, 0.14746, 0.1532, -0.16124, -0.17607, 0.029828, 0.34614, 0.074547, -0.015175, 0.021665, 0.0603, 0.08377, -0.098279, 0.034993, -0.0078331, -0.042107, -0.066529, -0.025281, -0.15495, 0.027285, -0.014461, 0.054196, -0.058731, 0.011393, 0.060379, 0.11696, 0.025585, -0.17831, -0.042637, 0.072272, 0.15034, -0.010616, 0.0051552, 0.26628, 0.11758, -0.12365, 0.16034, -0.039959, 0.0034471, -0.0021486, 0.0037361, -0.17238, 0.060406, -0.12435, -0.14895, -0.20143, -0.026376, -0.092073, -0.25611, -0.075325, 0.0066928, 0.0096383, -0.022587, 0.4292, 0.088621, -0.23841, -0.023469, -0.011552, -0.21607, 0.04773, -0.14027, 0.12106, -0.08969, -0.085422, -0.069784, -0.16532, 0.030838, -0.17832, -0.12563, 0.35395, 0.028264, -0.030952, 0.31908, -0.074346, 0.068365, 0.046749, -0.070039, 0.11959, 0.089909, -0.077417, -0.19022, 0.021797, -0.052935, -0.17277, -0.069264, -0.08907, 0.21328, -0.046825, 0.13666, 0.024375, -0.060288, 0.095272, 0.013798, 0.038664, -0.055133, 0.12622, -0.15902, -0.046106, 0.10795, -0.28194, -0.041195, -0.0065008, 0.027475, 0.029069, -0.023837, 0.071437, -0.19411, -0.15613, 0.074894, -0.18186, 0.04131, -0.060838, -0.15546, 0.039603, 0.043004, -0.099111, -0.028603, -0.086448, -0.15709, 0.21702, 0.059937, -0.0093087, -0.096453, 0.068843, -0.0031027, -0.022906, 0.022781, -0.001736, -0.016522, -0.020761, 0.1438, 0.17614, 0.012379, -0.092318, -0.106, 0.0087835, -0.23351, -0.010566, -0.16271, -0.071685, 0.12438, 0.12748, 0.18049, -0.086654, 0.0069401, -0.18269, -0.051731, -0.048615, -0.13886, -0.17511, -0.1097, 0.070759, 0.025274, 0.2183, 0.31463, 0.11793, 0.13409, -0.018703, 0.027772, -0.015013, -0.29659, 0.41647, 0.14788, 0.25042, -0.13671, 0.045665, 0.023823, -0.06763, -0.087122, -0.10883, 0.19801, -0.12426, -0.0096488, -0.0076734, 0.040872, -0.22474, 0.059248, 0.28485, -0.10573, 0.32644, -0.14661, 0.0077454, -0.1503, 0.072081, -0.076274, 0.257, -0.032283, -0.13327, -0.070382, 0.39643, -0.02056, 0.079701, -0.088787, -0.018244, 0.019, 0.20623, 0.010921, -0.24078, -0.1382, 0.0084581, -0.066808, -0.014139, 0.1729, -0.16861, -0.037697, -0.13413, 0.036497, 0.056919, 0.093387, 0.039656, -0.018913, -0.088759, 0.0085531, 0.072371, 0.15786, -0.050462, 0.062546, -0.0020633, -0.042085, 0.0045538, -0.026263, -0.022488, 0.09971, 0.15814, -0.25732, 0.053534, -0.42866, -0.041955, -0.022653, 0.030538, 0.011999, -0.0013157, 0.21919, -0.093908, 0.19212, -0.21632, 0.082044], [-6.7282e-39, -1.3491e-38, 5.273e-40, -3.0208e-39, -1.2511e-38, -7.9586e-39, 1.3065e-39, 1.1162e-38, -6.255e-40, 1.2649e-38, -9.0577e-39, -4.2025e-39, 3.9599e-39, 3.1386e-39, -5.0703e-39, -8.9939e-39, 9.1839e-39, 2.4383e-39, -1.1983e-38, -9.0506e-39, 9.4995e-39, 4.1274e-39, 5.9609e-39, 1.1083e-38, 8.4593e-40, 3.4211e-39, 1.266e-38, -7.1887e-39, 1.0938e-38, 9.1933e-39, 1.1839e-38, 1.0953e-38, -9.863e-39, -1.1798e-38, -1.2404e-38, -1.0177e-38, -7.7599e-39, -1.0641e-38, 9.0835e-39, -1.2535e-38, 2.6955e-39, -4.7347e-40, -1.3267e-38, 3.5202e-39, 9.8505e-39, 7.8519e-39, -1.1875e-38, -2.3563e-39, -3.5611e-39, -6.7379e-40, -8.331e-39, 3.3703e-39, -7.4883e-39, -1.2555e-39, -4.0937e-39, -1.0131e-38, 1.2319e-38, 7.199e-39, -1.3057e-38, 8.2599e-39, 1.0697e-38, 3.9913e-39, -6.7192e-39, 8.0265e-39, 1.6285e-40, -9.349e-39, -1.003e-38, -4.7934e-39, 1.2036e-38, -2.251e-39, -5.3444e-39, 6.7457e-39, -1.1623e-38, -2.3381e-39, 1.333e-38, 8.593e-39, -1.2813e-38, -2.0754e-39, -9.2221e-39, -1.0076e-38, 1.3433e-38, 2.5405e-39, 4.2405e-39, -4.5647e-39, -3.5379e-39, 1.181e-38, -1.1513e-38, -9.567e-39, 1.0405e-38, 4.9528e-39, 1.0613e-38, 2.1247e-39, 2.2016e-39, -8.542e-39, 2.2059e-39, -2.428e-39, 7.7512e-39, -1.0016e-38, -4.9813e-39, 7.0744e-39, 3.3359e-39, 7.0928e-39, -3.2588e-39, -1.1133e-39, 4.4052e-39, 6.8307e-39, 6.1501e-39, -1.312e-38, -4.457e-39, -3.6515e-39, -1.3566e-38, -4.9106e-39, -7.8189e-39, 9.4302e-39, -6.4066e-39, 9.9878e-39, 4.2538e-39, 1.1837e-38, 3.539e-39, -6.2645e-39, -5.3221e-39, 1.1394e-38, -6.1989e-39, -6.9604e-39, 7.8424e-39, 6.1637e-39, 4.3566e-39, 7.5515e-39, -1.1055e-38, 1.0803e-38, -1.0264e-38, 1.7878e-39, -3.719e-39, -9.3608e-39, 9.2539e-39, 7.4041e-39, 2.0681e-39, 9.4344e-39, -4.6661e-40, -9.6277e-39, -1.1969e-38, -4.8283e-39, -2.9716e-39, -4.5862e-39, 2.7532e-40, 4.1474e-40, 2.79e-39, -3.0794e-40, 1.037e-38, -3.9298e-39, 2.4818e-39, 1.7754e-39, 4.2544e-39, 7.5357e-39, 6.5875e-39, 1.2243e-38, 9.2793e-39, 9.5846e-39, -4.6965e-39, -6.7207e-39, -5.5324e-39, -1.0959e-38, -1.1395e-38, -6.176e-39, 4.7969e-39, 6.3831e-39, 5.328e-39, 5.3486e-39, -8.8249e-39, 7.5636e-39, -1.1452e-38, 2.9967e-39, -3.6147e-39, 1.2451e-38, 1.3183e-38, -4.3328e-39, -3.374e-39, 6.4607e-39, 8.077e-39, -1.134e-38, -4.2804e-39, 5.464e-39, 4.8654e-39, -7.8269e-40, 1.1397e-38, 1.6631e-39, 1.036e-38, -3.3002e-39, 1.0053e-38, 2.4868e-39, 1.3524e-38, -9.0416e-39, -1.0659e-38, 1.2304e-38, -6.1167e-39, -4.9937e-39, -4.5353e-39, -1.2307e-38, -1.274e-38, -2.7134e-40, -1.4545e-39, 3.5674e-39, 1.2207e-38, -2.6737e-39, 1.0225e-38, 6.0108e-39, 5.1495e-39, 1.9994e-39, 8.3628e-39, 3.0798e-39, 4.1671e-39, 1.2412e-38, -2.6521e-39, -3.429e-39, -5.9286e-39, 1.3711e-38, 5.3958e-39, -1.0667e-38, -8.6933e-39, 1.262e-38, -1.2318e-38, 1.1717e-38, 1.1324e-38, -1.5991e-39, 1.1191e-38, 6.3197e-39, -4.4237e-39, -8.1449e-39, 3.6247e-39, 1.0073e-38, -1.0068e-38, 9.0854e-39, 4.1344e-39, 4.485e-39, 7.3466e-39, 3.2205e-39, -1.7495e-39, 1.8833e-39, -1.3153e-38, 3.9706e-39, 7.8692e-39, -1.1019e-38, 9.899e-39, 4.3479e-39, 1.0973e-38, -7.8816e-39, 6.3564e-39, -2.0987e-39, 6.885e-40, -1.0819e-38, 7.7583e-39, 1.3153e-38, 1.6662e-39, 6.7629e-39, -1.0788e-38, -1.0506e-39, 9.8329e-39, 4.2791e-39, 2.1219e-39, 9.3807e-39, -1.1349e-38, -4.6745e-39, 2.2328e-39, 1.0835e-38, -7.3593e-39, 4.404e-39, -5.0688e-39, -7.7364e-39, 2.1881e-39, -3.1158e-39, -1.0166e-38, 1.3176e-39, 1.26e-38, -1.0251e-38, 7.2002e-39, 6.9706e-39, 9.5467e-40, -1.04e-38, -7.6812e-39, -1.2499e-38, -5.8105e-39, 5.3553e-39, 7.0809e-40, 6.6553e-39, -1.2945e-38, 8.7062e-39, -1.0593e-38, -8.0873e-39, 9.6308e-39, -1.353e-38, 1.2002e-39, 8.1522e-39, -3.4726e-40, 4.284e-39, 6.3918e-40, -3.2957e-39, 1.1718e-38, 1.1709e-38, -5.1349e-39, 1.0468e-38, 1.1861e-38, -6.7412e-39, 2.5274e-39, -1.3381e-38, 8.8252e-39, -1.1294e-38, 1.0969e-38, -2.0318e-40, 7.1318e-39, 5.3961e-39, -7.2934e-39, -1.2422e-38, -8.9996e-39, 3.9918e-39, 9.0962e-39, -7.2089e-39, -3.3337e-39, -1.2402e-39, 6.8429e-40, -1.1695e-38, 1.3631e-39, -7.0575e-39, 1.1912e-38, 8.3413e-39, 4.5013e-39, 1.0174e-38, 6.7422e-39, -6.9807e-39, -3.2767e-39, 7.4172e-39, -7.4787e-39, 1.1588e-38, -9.6887e-39, -7.3781e-39, -5.9337e-39, -5.3417e-39, 1.1981e-38, 3.3869e-39, -8.9806e-39, 1.9904e-39, -6.1231e-39, -5.2669e-39, -3.1235e-39, 9.6589e-39, -1.6081e-39, 3.3508e-39, -7.8673e-39, -1.1172e-38, -3.6006e-39, 4.1631e-39, -1.0105e-38, -9.7993e-40, 5.4906e-39, 2.2849e-39, -1.8718e-39, 7.3048e-39, -1.193e-39, 6.4991e-39, -1.4235e-39, -1.289e-38, 8.9695e-39, 7.3787e-39, -7.9647e-39, 9.2564e-39, 6.6363e-40, 9.1825e-39, 5.8242e-39, 1.3004e-39, -1.2463e-38, -7.3255e-39, -1.7351e-39, 7.3489e-39, 1.2765e-38, -1.3803e-39, 2.4455e-39, 5.814e-42, 9.7191e-39, -5.9894e-39, -1.2907e-39, 1.3556e-38, -8.9706e-40, 1.0721e-38, 2.5066e-39, -5.7211e-39], [0.021036, -0.0025649, -0.084345, -0.03557, -0.13498, -0.22014, 0.14786, 0.2225, 0.062485, -0.23425, -0.04786, 0.10241, 0.083504, -0.19376, 0.076522, -0.18777, -0.07239, -0.15404, 0.039398, 0.017225, -0.14722, 0.033356, 0.15644, -0.082976, -0.084921, 0.13905, -0.042252, -0.17511, 0.043597, 0.24159, -0.058865, 0.12407, -0.0089888, 0.025987, -0.08185, -0.25971, 0.026901, -0.01599, -0.12131, 0.043647, 0.0461, 0.41705, 0.16883, 0.085294, 0.038244, 0.1577, -0.16098, -0.10157, 0.077625, 0.00023229, 0.10027, -0.21437, 0.1623, 0.015553, 0.1919, -0.017707, 0.28581, 0.026641, -0.15024, 0.074203, 0.13224, -0.41322, -0.083503, 0.10268, 0.0869, -0.062385, -0.016503, -0.26797, 0.23483, 0.015944, -0.19969, 0.056698, 0.031142, 0.15604, 0.25744, 0.1192, 0.21315, 0.15258, -0.08441, -0.090501, 0.17663, 0.20155, 0.14578, -0.025638, -0.079653, -0.088878, -0.21943, -0.090368, -0.13379, 0.080532, -0.21117, 0.14888, -0.15357, -0.071535, -0.085375, 0.037753, -0.011725, -0.14852, 0.064432, 0.13675, 0.04075, -0.36588, 0.026637, -0.2494, 0.097216, -0.09887, 0.28892, 0.14016, -0.10503, -0.059301, 0.041363, -0.056965, 0.096956, -0.010296, 0.13219, -0.022624, -0.073536, 0.096647, 0.00024803, -0.059301, 0.15723, 0.36812, -0.17481, 0.097256, -0.049185, -0.00051608, -0.13954, -0.14835, 0.11971, 0.2218, 0.263, 0.15236, 0.11618, -0.1747, 0.072552, -0.065395, -0.060775, -0.22093, 0.027837, -0.10524, 0.069997, 0.034149, -0.16717, -0.020224, 0.010325, -0.27341, 0.049137, 0.0094558, -0.076212, -0.11388, 0.14311, -0.11352, 0.098136, -0.089263, 0.085287, 0.20439, -0.01108, 0.084914, 0.056461, -0.02045, 0.0093589, 0.10179, 0.016345, -0.045504, -0.12621, 0.059705, -0.38514, -0.044064, 0.10651, 0.041302, 0.057232, 0.16476, 0.05134, 0.1415, -0.46769, -0.08899, -0.032022, 0.0084461, -0.021899, 0.10287, -0.127, -0.38435, 0.26609, 0.045935, 0.14383, 0.030691, 0.045625, -0.30534, -0.076817, 0.19421, 0.26599, 0.013415, -0.35932, 0.031642, -0.07439, 0.11424, -0.0058053, 0.019334, -0.11215, -0.065475, 0.093284, -0.068278, -0.14282, -0.06768, -0.15439, -0.27459, 0.34523, -0.059254, 0.10103, 0.12347, -0.06389, 0.0823, 0.14077, -0.061071, 0.028939, 0.17606, 0.1936, -0.1439, -0.25837, -0.19673, -0.053346, -0.049289, -0.043108, -0.015002, 0.18426, -0.099753, 0.12382, 0.05854, 0.15753, -0.11841, 0.054422, 0.045856, 0.037402, 0.042022, 0.26698, -0.12688, 0.00028021, 0.052446, -0.060283, 0.060535, 0.057798, 0.062586, -0.19263, -0.087848, 0.15306, -0.27553, 0.21169, 0.15484, 0.31613, -0.2867, 0.0021328, -0.056959, 0.076558, 0.0288, -0.10048, -0.050401, 0.018915, -0.027968, 0.019659, -0.057333, -0.058114, -0.14024, 0.023801, -0.070314, -0.26341, 0.077587, 0.24135, -0.060138, -0.14261, 0.18995, 0.01552, 0.091873, 0.12894, 0.15532, -0.046934, -0.19539, -0.43084, 0.14005, 0.073739, 0.089742, -0.076401, -0.14087, 0.033779, -0.037282, 0.054475, 0.1026, 0.11298, -0.060135, 0.0072638, 0.36309, 0.11357, 0.17173, 0.071026, 0.068678, 0.048381, -0.27582, -0.076864, 0.019928, 0.025727, 0.0082282, -0.12986, 0.066013, -0.040965, 0.038196, 0.046094, -0.028742, -0.26987, 0.067465, 0.013516, -0.38057, 0.033652, 0.19118, -0.2388, -0.052575, 0.071728, 0.10469, 0.10454, 0.062325, -0.058146, 0.052351, -0.058139, 0.062696, 0.34221, -0.012587, -0.16531, -0.078368, 0.063432, 0.25705, -0.004976, 0.066837, 0.074936, -0.12284, 0.15579, 9.2756e-05, 0.043376, -0.012481, 0.029425, 0.012151, 0.021948, 0.026486, -0.0038141, -0.027623, -0.10052, -0.044473, 0.0034871, -0.09229, -0.0063624, -0.028863, 0.063524, 0.064077, -0.023633, 0.005782, 0.14793, -0.21103, 0.15039, -0.078648, -0.15659, 0.13494, -0.40386, -0.14391, -0.000715, -0.3531, 0.021995, 0.088287, -0.11721, 0.11326, 0.43646, -0.25248, -0.066129, -0.16214, -0.042627, 0.17655, -0.13474, 0.11228, 0.03653, 0.087959, -0.11106, -0.24349, 0.094849, -0.089665, 0.065015, -0.013747, 0.20971, -0.1685], [0.062447, 0.029659, 0.021843, -0.0038586, -0.1147, -0.13871, -0.12395, 0.042943, 0.15921, -0.22068, 0.0047288, -0.06652, 0.04102, -0.061093, -0.026308, 0.069915, -0.03971, -0.064175, 0.10937, 0.063927, -0.088872, -0.16675, 0.12037, 0.0040057, -0.19491, -0.1155, -0.061905, -0.059148, 0.19715, 0.15243, -0.31584, -0.041287, -0.1287, 0.14144, 0.0012024, 0.057598, -0.11242, 0.1172, -0.061815, 0.12417, -0.24309, 0.063193, 0.11023, 0.084256, 0.027009, 0.16061, -0.066823, -0.090667, 0.1702, 0.26928, 0.060874, -0.065596, 0.18198, -0.02183, -0.05488, 0.064776, 0.0011283, -0.076368, -0.0015246, -0.13526, -0.26433, -0.0045831, 0.17796, 0.1682, -0.083285, -0.073616, -0.081601, 0.081226, 0.15193, -0.16687, 0.25962, 0.045471, 0.56307, 0.33135, -0.020997, 0.0029438, -0.033474, -0.19384, -0.12486, 0.050946, 0.026458, 0.055115, -0.19133, -0.094503, 0.040545, 0.050861, -0.078041, 0.18642, -0.015698, -0.31353, 0.078986, 0.040435, 0.11569, 0.011606, 0.15158, -0.049992, -0.12927, -0.13767, 0.064535, -0.086754, 0.15419, -0.10618, 0.15829, -0.257, -0.083096, -0.1671, -0.24227, -0.051011, -0.0088329, 0.05256, 0.30701, 0.23703, -0.13823, 0.13113, 0.21015, 0.045875, 0.54873, -0.13007, -0.058695, 0.010839, -0.2235, 0.06207, -0.065453, -0.0021718, -0.013256, 0.24696, 0.05546, -0.10473, 0.10406, -0.096623, -0.015644, -0.18797, 0.17189, -0.35399, 0.18328, -0.024585, 0.079452, 0.091588, 0.057558, 0.075579, 0.051286, 0.08994, -0.0030518, 0.099376, -0.044213, -0.022461, 0.23158, 0.24147, 0.023377, 0.0081914, 0.23582, -0.16535, 0.2217, 0.10819, -0.023463, -0.03301, 0.042727, -0.14684, 0.0095401, 0.15705, 0.06495, 0.033736, 0.005187, 0.0012905, 0.028446, 0.1558, -0.02109, -0.044703, -0.0064887, 0.18151, -0.076034, 0.12109, -0.1157, 0.22424, 0.081397, 0.086684, -0.075578, 0.017527, 0.12586, -0.19045, 0.0044057, 0.097893, -0.12662, -0.10933, 0.055447, -0.18793, -0.072111, -0.19703, -0.023064, 0.060012, -0.06776, -0.27925, 0.04059, 0.055679, 0.1132, 0.1847, 0.048319, 0.12109, -0.1983, 0.16333, -0.30564, 0.045856, 0.073355, 0.10743, -0.21432, 0.11492, 0.031088, -0.083989, -0.099614, 0.083712, 0.078635, 0.14446, -0.0042439, 0.03843, 0.023934, 0.10758, -0.23485, -0.053193, 0.096691, 0.37933, -0.041875, 0.10148, 0.069705, -0.060189, -0.057922, -0.29008, -0.039949, 0.089534, 0.10851, 0.07144, -0.025648, 0.10183, -0.090428, 0.13621, 0.20544, -0.13474, 0.13125, 0.10249, 0.14052, -0.0039303, -0.040341, 0.02828, 0.11978, 0.16424, -0.15115, 0.081, -0.30368, -0.10462, 0.0047457, 0.2144, 0.11523, -0.032118, -0.2288, -0.054664, 0.16499, 0.095196, 0.091015, 0.25331, 0.010306, 0.089424, -0.19661, 0.25392, 0.026693, -0.15778, 0.066327, -0.30747, 0.18479, -0.057171, -0.19455, 0.17133, -0.1443, 0.25918, -0.095178, -0.1317, -0.027359, -0.18646, -0.019489, 0.013667, -0.08392, -0.2233, 0.1752, 0.16559, -0.097149, 0.16171, 0.11047, -0.35555, 0.10602, -0.07925, 0.095185, -0.24334, 0.58614, -0.13446, 0.30792, -0.35054, -0.01392, 0.076042, -0.17682, -0.027205, 0.036175, -0.20296, -0.37964, -0.11188, -0.098032, 0.053378, 0.022017, 0.053014, 0.39086, -0.24696, 0.010895, -0.11049, 0.067452, -0.15634, -0.11211, 0.17234, -0.16534, 0.10643, -0.14517, 0.44305, -0.078987, -0.015194, 0.071591, 0.069862, -0.011709, 0.084303, 0.2768, 0.025251, 0.14226, 0.010686, 0.03903, 0.091524, -0.19056, -0.12264, 0.058, 0.074956, -0.048619, -0.19577, 0.25717, -0.12152, 0.016748, -0.049158, 0.028835, -0.021116, 0.1158, 0.058781, -0.22309, -0.12299, 0.0017266, -0.052998, 0.12678, -0.12722, 0.01097, 0.070747, 0.017798, -0.18389, -0.015902, 0.056494, -0.085038, 0.156, -0.24388, -0.011934, -0.043647, -0.14124, -0.024692, -0.020489, -0.15647, 0.02553, -0.041253, -0.037476, -0.15667, -0.039797, 0.065954, -0.15355, -0.19914, 0.10136, -0.067688, 0.064643, -0.078198, -0.089835, -0.076725, -0.088223, 0.008443, 0.16891, -0.090727, -0.035997], [-1.0303e-39, 5.7844e-39, 9.0196e-39, -7.3615e-39, 2.5959e-39, 5.3518e-39, 1.1601e-38, -1.3828e-39, 9.9789e-39, 1.1383e-38, -5.9756e-39, 6.9838e-39, 7.2031e-39, -9.6918e-39, 1.0222e-38, -2.9913e-39, -8.865e-40, -5.9318e-40, 2.8829e-41, -7.7843e-39, 1.1913e-38, -3.1547e-39, 9.6967e-39, 7.2061e-39, 1.9667e-39, 8.5386e-39, -7.9556e-39, 1.3316e-38, -3.181e-39, 1.0782e-38, -1.1176e-38, -1.5805e-39, -1.084e-38, 6.6517e-39, 8.2728e-39, 8.098e-39, -1.0777e-38, -8.2081e-39, 7.3837e-39, -1.0787e-38, -1.0802e-38, -3.4421e-39, -8.7033e-39, -1.137e-38, 3.5093e-39, -2.3268e-39, -1.3309e-38, -7.3514e-39, -1.1614e-38, -3.1573e-39, 1.0407e-38, -1.191e-38, 7.454e-39, -4.0411e-39, -1.094e-38, 8.6614e-39, -2.5524e-39, 3.1662e-39, -4.505e-39, -1.0619e-39, 2.4394e-39, 3.3956e-39, 9.486e-40, -7.4477e-39, -1.7245e-39, -1.186e-38, -4.9256e-39, 1.2522e-38, -4.5795e-39, 9.8658e-39, -6.7991e-39, 3.1631e-39, -8.7575e-39, 1.5326e-39, 6.2566e-39, 2.7346e-39, -8.1729e-39, 1.1005e-38, 8.527e-39, -1.4375e-39, -7.207e-39, -2.0444e-39, 3.2631e-39, 2.6103e-39, 6.8964e-39, 4.5646e-39, 5.9153e-39, -8.0311e-39, 6.6697e-40, 8.08e-39, 2.9679e-39, -5.2511e-39, 7.0603e-39, 6.6085e-39, -1.1243e-38, 1.0178e-38, -1.0011e-38, -8.6606e-39, 1.1546e-38, -2.7682e-39, 1.1137e-38, 5.4816e-39, 5.5034e-39, -1.0399e-38, -7.9364e-39, 1.1508e-38, -8.5351e-39, -1.2838e-39, 6.6005e-39, -4.393e-39, 7.5373e-39, 1.0084e-39, 6.9692e-39, -8.9957e-39, 2.0126e-39, -8.3767e-39, 3.5726e-39, -1.6406e-39, -9.1998e-39, 1.1595e-40, -1.141e-38, 6.957e-39, -4.6468e-39, -8.9972e-40, -1.0557e-38, -1.0903e-39, -1.0934e-38, 2.2517e-39, -8.9668e-39, -3.6632e-39, -4.3456e-40, 9.6659e-39, -6.4611e-39, -1.0514e-38, 1.1264e-38, 9.929e-39, 3.0265e-39, -8.2086e-39, -1.2169e-38, -7.3495e-39, -8.6389e-40, 8.8698e-39, 7.2366e-39, 1.0474e-39, 7.2686e-39, -1.0365e-38, 1.1104e-38, -5.8613e-39, 2.1522e-39, -4.9041e-39, 2.6121e-39, -6.9921e-39, 1.1649e-38, -6.3621e-39, -5.943e-39, 1.3647e-38, 1.3022e-38, 5.374e-39, 3.6431e-39, -3.7534e-39, -6.3444e-39, -2.508e-39, -1.0439e-39, 9.0915e-40, -5.2641e-39, 6.6562e-39, -7.9335e-40, 8.3502e-39, 4.2481e-40, -4.7903e-39, 8.9988e-39, -2.3359e-39, 7.0927e-39, 1.1325e-38, -7.3881e-39, 6.7215e-39, 7.5576e-39, 8.3478e-39, 1.0728e-38, 3.6985e-40, -9.0823e-39, 1.6152e-39, 1.3159e-39, 7.5439e-39, -7.1282e-39, 1.3938e-40, -8.3263e-40, 6.2976e-39, -1.2074e-38, -5.807e-39, -1.1309e-38, 6.2374e-39, -2.5206e-39, 1.3044e-38, -9.135e-39, 6.3668e-39, 7.1737e-39, -5.2661e-39, 7.1009e-39, -6.4416e-41, 7.6649e-39, -6.0457e-39, -8.6155e-39, -7.8277e-39, -5.8102e-40, -4.5486e-39, -4.4366e-39, -3.7125e-39, 1.1029e-38, -1.1011e-38, 9.9954e-39, 3.5437e-39, 1.1697e-38, 7.3488e-39, 8.3331e-39, -1.0433e-38, -8.6386e-40, -9.0599e-39, 4.6993e-39, 1.0957e-38, 3.8246e-40, 2.253e-39, -7.2773e-39, 7.6407e-39, -9.6611e-39, -1.4365e-39, -6.0361e-39, 1.0538e-39, -3.3203e-39, 6.1314e-40, 8.8264e-41, 1.0261e-38, -7.8309e-39, 4.4201e-39, -1.1968e-38, -6.4159e-39, 3.2352e-39, -9.2188e-39, -5.1994e-39, -7.3519e-39, -1.0113e-38, -1.1489e-38, 1.2125e-38, 9.9033e-40, 3.3699e-39, -3.9732e-39, -6.5165e-39, -1.0804e-38, -6.6415e-39, -4.2001e-40, 1.0814e-39, 9.9511e-39, -9.2835e-40, 1.2024e-38, -3.6103e-39, -1.9e-39, -4.7094e-39, 3.1447e-39, -1.1568e-38, -3.3738e-39, -4.5499e-39, -1.1554e-38, -9.1983e-39, -1.2581e-39, 1.578e-40, 8.374e-39, 9.9045e-40, -1.3317e-38, 3.0791e-39, -7.5933e-39, 2.6772e-39, 1.0374e-38, -1.9678e-39, 6.9492e-39, 1.0353e-38, -1.2257e-38, -4.142e-39, -1.0452e-38, 8.5973e-39, -4.244e-39, 7.9342e-39, 3.2748e-40, 4.4606e-39, 9.7247e-39, -7.2913e-40, -1.0741e-38, 2.1655e-39, -5.2227e-39, -4.908e-39, 5.8595e-39, 9.1988e-39, -7.5039e-40, 3.1376e-39, 8.9665e-39, 3.1261e-39, -1.134e-38, -7.8146e-39, -7.2702e-39, 5.1563e-40, 5.0696e-39, 3.7379e-39, 7.4411e-40, -3.1708e-39, 7.8108e-39, -2.8791e-40, -1.1524e-38, -8.084e-40, 5.3231e-39, 1.1708e-38, 1.3009e-40, -7.595e-39, 8.7529e-39, -4.3688e-39, -3.9872e-39, 3.6475e-39, 1.3727e-39, -1.0501e-38, 4.3118e-40, -6.1572e-39, -1.1765e-38, 5.0746e-40, 2.6767e-39, 1.1292e-39, -2.9387e-39, 5.3504e-39, 7.658e-39, -3.0379e-39, -7.5257e-39, 2.2863e-39, 2.6833e-39, 1.1215e-38, 1.281e-38, -2.8483e-39, 6.1678e-39, 6.1442e-39, 7.0428e-39, 1.3634e-38, -1.8218e-40, 4.8383e-39, -4.0648e-40, 9.4331e-40, -8.2313e-39, 1.2106e-38, 9.8862e-39, -7.4774e-39, 5.8861e-39, -1.1023e-39, 3.5232e-39, 1.2583e-38, -8.0383e-39, 3.3362e-39, -1.5495e-40, 1.1729e-38, -7.3061e-41, -7.275e-39, -7.4745e-39, 1.0268e-38, -6.1462e-40, -4.5712e-39, -1.1904e-38, 8.7785e-40, 8.2051e-39, 1.0869e-38, -5.1337e-40, 6.4331e-39, 8.2051e-39, 8.1455e-39, -7.824e-39, -2.4604e-39, 4.5088e-40, -2.9337e-39, -6.5535e-39, 9.4276e-39, 2.7928e-39, -2.495e-39, 4.6638e-39, 7.0212e-39, 8.1051e-39, 3.0265e-39, 9.3826e-39, 6.3698e-39, 7.8454e-39, -3.5992e-39, -8.4706e-39], [-0.010012, 0.0093344, 0.014363, 0.017666, -0.02314, 0.0035252, -0.016557, -0.012082, -0.022415, -0.0010246, -0.0010873, -0.00010343, -0.013575, 0.0056642, 0.011096, -0.0097555, -0.020599, 0.0046482, 0.0073677, 0.016144, -0.010582, 0.0005927, 0.011968, -0.012725, -0.017005, -0.012111, 0.01256, -0.0016897, -0.0053943, 0.019998, 0.013309, 0.0092261, -0.0080944, 0.016634, -0.010516, -0.010971, 0.013448, 0.01605, -0.0067031, 0.022649, 0.0052674, 2.0368e-06, -0.0090687, -0.011988, -0.020318, -0.016149, 0.014437, -0.013135, 0.014513, 0.0042635, 0.010211, -0.017598, -0.0076731, -0.020442, 9.0201e-07, 0.026577, 0.012969, 0.0156, 0.016373, -0.013213, -0.0082053, -0.00013482, 0.0085054, -0.0069297, -0.022878, -0.020297, -0.012954, -0.0096673, 0.011261, 0.0076626, 0.013989, -0.022197, -0.0002441, 0.0085589, -0.00029209, -0.0075539, -0.0057397, 0.013827, -0.0079026, 0.0076163, 0.014554, 0.01525, 0.01083, -0.012691, 0.017674, -0.016678, -0.011499, 0.013833, -0.016791, 0.007469, -0.019237, -0.011112, 0.019037, 0.016756, 0.025028, 0.02164, 0.018321, -0.010794, -0.015579, 0.012476, -0.015856, 0.00063622, -0.011148, 0.0073814, 0.010786, -0.011743, -0.0056975, 0.0038283, -0.016342, 0.017472, 0.0002561, -0.00024661, -0.013474, -0.010427, 0.019287, 0.0040936, 0.0052505, 0.0024738, -0.0066457, 0.015809, -0.017893, 0.010655, 0.016731, 0.012424, 0.011015, 0.013958, -0.011215, -0.019784, -0.014194, -0.0065602, -0.011366, -0.0075856, -0.01402, -0.0045192, -0.012836, -0.019076, 0.0070033, -0.00026786, 0.00505, 0.015566, 0.0081651, -0.01927, 0.00085953, -0.012079, -0.012914, -0.005437, -0.015213, 0.0056796, -0.014566, 4.3262e-05, -0.014171, 2.9175e-05, -0.012216, -0.0086654, -0.019921, 0.012201, 0.02592, 0.016949, -0.0036684, -0.010043, 0.034122, 0.018313, 0.025027, -0.0062532, 0.012832, 0.014185, -0.0081322, -0.01537, 0.015143, 0.016041, 0.016076, -0.0028557, 0.0099672, -0.0065819, 0.0036423, -0.015677, 0.010761, -0.0068407, -0.016079, -0.0087618, 0.0051102, 0.0020402, 0.017512, 0.013323, 0.028, 0.0069188, 0.011364, -0.0098292, -0.0097594, 0.0076987, 6.7701e-07, -0.0065683, 0.0066395, 0.02926, 0.018917, -0.0098115, 0.0075277, -0.012535, -0.017877, -0.0097174, -0.0028045, 0.0071335, -0.0026508, -0.0038569, -0.012524, -0.0015111, 0.019972, -0.010401, 0.014637, -0.010887, -0.013187, 0.021341, 0.02446, -0.010734, 0.0052619, 0.0085855, 6.7654e-07, -0.015704, 0.0069418, 0.0020652, -0.014453, 0.0028573, -0.0086579, 0.017921, 0.0082272, -0.013357, -0.012826, 0.013992, 0.014105, -0.01719, 0.0086626, 0.0056227, 0.015541, 0.017135, 0.0072005, 0.020353, 0.0026338, -0.011872, -0.016863, 0.013993, 0.0071207, 0.013482, -0.0081085, 0.015265, -0.01379, 0.0032468, 0.012138, -0.0020087, 0.0062618, -0.0079986, -9.076e-08, 0.014291, 0.014327, 0.018395, 0.012176, -0.005161, -0.021544, -0.017369, 0.021519, -0.0034, -0.011112, 0.004069, -0.02072, -0.012289, -0.010405, -0.0063635, 0.01071, 0.00014099, 0.010678, 0.0070849, 0.017173, -0.0015937, -0.0011136, 0.011231, 0.01019, 0.0063709, -0.0058207, -0.011898, 0.014586, 0.0092562, -0.0073582, -0.00024424, -0.011946, -0.019021, -0.0070674, 0.0001014, 0.0030797, -0.020222, 0.01268, 0.0028388, 0.00010402, 0.0095992, -0.0026579, 0.0107, -0.013179, -0.0074842, -1.5744e-12, -0.012637, 0.010785, -0.012778, 0.0035186, 0.00019757, -0.011774, -0.016642, 0.014898, -0.0076305, -0.0014064, -0.0098339, -0.0038932, -0.015717, -0.012942, -0.011841, 0.010323, 0.015349, -0.009604, -0.0081026, 0.0039644, -0.001009, 0.017004, 0.011437, 0.011069, 0.013672, 0.0064395, 0.011016, -0.0089996, -0.0065195, 0.0045362, 0.011782, -0.017087, 0.0015337, -0.014216, 0.014291, 0.014841, -0.0092516, 0.019239, 0.010581, 0.0037575, -0.012798, 0.0050874, 0.017761, -0.0064071, -0.010748, 0.0084164, -0.020217, 2.156e-05, 0.0028024, -0.014093, 0.012065, 0.012949, -0.015791, -0.012641, 0.034072, -0.0060617, -0.01227, 0.011517, -0.0049657, 0.019171, 0.015081, -0.0067565, -0.011232, 0.017447, 0.00029609, -0.0042526, -0.010353, -0.023923, -0.015777, 0.0063813, -0.0014168, -0.0073258, 0.0076043, -0.016524, -0.011125, 0.014038, -1.8942e-05, 4.4678e-05, 0.010444, 0.0053607, -0.0069441, 0.0061742, 0.0038539, -0.012533, -0.018895, -0.021085, -0.016162], [-3.4298e-39, -1.2416e-39, -6.031e-39, 1.3806e-39, 9.031e-39, -1.0781e-38, 4.1296e-39, 1.106e-38, -5.3025e-39, 1.0731e-38, -5.291e-39, -8.3324e-39, -3.7609e-39, 8.1637e-39, -1.1063e-38, -8.0593e-39, -7.0233e-39, -7.4778e-39, -5.6316e-39, 7.5171e-39, -1.1144e-38, 3.7854e-39, -6.0733e-39, -6.6721e-39, -1.0647e-38, 1.4395e-39, 8.1506e-39, -5.0304e-39, -1.1255e-38, 4.1119e-39, 5.785e-39, -6.898e-39, 1.3228e-38, 2.1343e-39, 9.3477e-39, -3.4406e-39, 3.4988e-39, 3.0298e-39, -6.9898e-39, -7.0296e-39, 1.098e-38, 3.0444e-39, 6.861e-39, -9.9695e-39, 6.9062e-39, 9.6385e-39, 5.7885e-39, -1.365e-38, 6.9983e-39, 1.0774e-38, 6.4782e-39, 8.1301e-39, -3.7038e-39, -1.4643e-39, -9.5019e-39, -7.5264e-39, -2.5017e-39, -7.8281e-39, 6.6251e-40, -4.4894e-39, -4.8754e-39, -6.3313e-39, 2.97e-39, -5.7986e-39, 6.1228e-39, -1.0486e-38, -8.9609e-39, 7.2037e-39, 6.1225e-39, 4.0258e-39, -4.842e-39, 7.0813e-39, -9.6878e-39, 8.1757e-39, 3.1937e-39, -2.5354e-39, -3.597e-39, 1.9675e-39, 7.4907e-39, -9.8405e-40, -2.1599e-40, 8.426e-39, 1.5954e-39, -1.2754e-38, 1.3174e-38, 1.6266e-39, 4.6761e-40, 1.2802e-38, 3.0736e-39, -1.9279e-39, 3.5571e-39, 8.0489e-39, -3.1145e-39, -9.4196e-39, 8.2925e-39, 8.1372e-40, 3.1758e-39, 1.089e-38, -3.9745e-39, 1.2189e-38, -1.13e-38, -7.9331e-40, -7.3878e-39, 8.4432e-39, 3.6202e-39, 1.338e-39, -7.2863e-39, 5.0394e-39, 5.4272e-39, -1.083e-38, 4.8902e-39, -3.5096e-39, -3.4391e-39, 9.9121e-39, -7.3729e-39, 6.19e-40, 6.2763e-39, -8.7063e-39, 1.3386e-39, 1.5355e-39, -5.1651e-39, 5.19e-39, -9.9899e-39, -1.1416e-38, 3.3293e-39, -6.4169e-39, -7.5259e-39, 1.0314e-38, 4.7369e-39, -5.9173e-40, 7.2157e-39, -1.0082e-38, 2.8792e-39, 1.0573e-38, 3.8222e-39, -1.7568e-40, 1.2172e-38, -1.0509e-38, -6.4873e-39, -6.18e-39, 7.637e-39, -7.1708e-39, 3.0357e-39, 3.5245e-40, -8.5864e-39, 2.5319e-39, -6.7841e-39, -7.3388e-39, -4.3151e-39, 5.7565e-39, -1.2307e-38, 1.0008e-38, -1.1212e-38, 9.7754e-39, 7.3736e-39, -7.5396e-39, 1.0798e-38, -1.132e-38, 1.1758e-38, 1.0277e-38, 4.0041e-39, -4.9179e-39, -7.6356e-39, -7.0363e-39, -4.012e-39, 8.3619e-39, 9.8471e-39, -5.7306e-39, 6.6419e-39, -1.0836e-38, 6.7486e-39, 2.4707e-39, -5.7646e-39, -8.5406e-39, -5.303e-39, 1.5801e-39, -6.2783e-39, 4.2429e-40, -1.0891e-38, -1.1401e-38, 1.1114e-38, 4.9086e-39, 4.8362e-39, -1.9278e-39, 2.3105e-39, 6.9728e-39, -8.8423e-39, -1.0769e-38, -6.8439e-42, -8.6556e-39, -2.2579e-40, -7.0824e-39, 1.1101e-38, 3.9345e-39, -3.437e-40, 5.2461e-39, -5.2784e-39, -1.0133e-38, 2.9507e-39, 1.1371e-38, -2.3701e-39, 1.1386e-38, 1.1158e-38, -4.3742e-39, -6.6304e-40, 6.8196e-39, -8.3415e-40, -1.034e-38, 7.2464e-39, 8.1243e-39, -8.118e-39, 1.1173e-38, -5.349e-39, -3.7537e-39, -1.0407e-38, 3.6821e-39, 1.057e-38, 7.7349e-41, 6.6467e-39, 1.0165e-38, 1.7853e-39, 8.9274e-39, 2.0827e-39, 6.774e-40, 7.2828e-40, -8.1311e-39, -1.2034e-38, -6.9497e-39, -1.5988e-39, 7.5424e-39, 8.7952e-39, -3.4861e-39, 1.0957e-38, -1.1221e-38, 1.1761e-39, 3.3326e-39, 4.5163e-39, 6.7053e-39, 1.0779e-38, 6.8203e-39, 1.0192e-38, 2.5109e-39, 3.1696e-39, -7.6643e-40, 8.4273e-39, -4.1846e-39, -1.7111e-39, -3.8069e-39, 6.9096e-40, 1.1157e-38, -2.256e-39, -4.2347e-39, 3.6741e-39, -1.6035e-39, -5.9698e-39, 9.5888e-40, 1.1561e-38, 1.0382e-38, -1.6514e-39, 1.2593e-38, 1.1669e-38, -6.4444e-39, 4.4222e-39, -7.4114e-39, 2.4206e-39, -4.8924e-39, 7.4946e-39, -8.0978e-39, 1.0381e-38, -1.2371e-39, 1.0703e-38, -6.7117e-39, 1.1024e-38, 5.118e-39, -9.368e-40, 2.3579e-39, 1.0932e-38, -1.0652e-38, 7.8441e-39, 8.1728e-40, -3.587e-39, 6.5693e-39, 3.0949e-39, 4.0306e-39, 4.0021e-39, 3.3318e-39, 9.2852e-40, -7.6341e-40, 7.279e-39, -6.5293e-39, -1.1565e-39, 9.083e-39, 9.6258e-39, -7.4196e-39, -3.0655e-39, 2.3605e-39, 5.3605e-39, 8.6375e-39, 1.0808e-38, -1.0196e-38, 1.3128e-39, 5.2827e-39, -1.0467e-38, 2.0513e-39, 7.712e-39, 1.0073e-38, -9.0259e-39, -4.4956e-40, 4.8562e-39, 1.5259e-39, 1.1254e-38, -1.0417e-38, -1.1299e-38, 1.0412e-39, 1.2533e-38, -6.6768e-39, -1.0837e-38, -1.1575e-38, 8.4128e-39, 8.0384e-41, -6.8573e-39, -1.0438e-38, 8.0974e-39, -2.6316e-39, 5.4962e-39, -9.668e-39, 4.644e-39, 8.1781e-39, 1.0485e-38, 1.1302e-38, 6.8414e-39, 1.0321e-38, -7.0542e-39, -5.139e-39, -2.5208e-39, -8.043e-39, 6.4825e-39, 4.069e-39, -1.5511e-40, 6.8075e-39, 8.4356e-39, -8.42e-39, 1.2062e-39, -5.052e-39, 6.2461e-39, 7.9992e-39, -1.115e-38, -7.4409e-42, -1.8869e-39, 7.3299e-39, -6.7037e-39, 1.1583e-38, 6.6063e-39, 1.1209e-38, -2.727e-39, 4.4507e-39, 6.9259e-39, -5.4838e-39, 7.4753e-39, -6.2784e-39, 9.2094e-39, -9.8505e-39, -7.3307e-40, 3.4877e-39, -3.5335e-39, -6.4056e-39, -1.8543e-39, 1.1918e-38, -2.8948e-39, 8.0571e-39, -4.4761e-39, -1.1289e-38, -6.2998e-39, -1.8986e-39, 1.7304e-39, -7.2462e-39, 5.2863e-39, -5.3335e-39, 1.1464e-38, 7.8607e-39, 6.5058e-39, -5.7811e-39, 7.0187e-39, 6.1995e-39], [-5.826e-39, -1.1786e-39, -8.3088e-39, 6.4284e-39, -6.9916e-39, 1.4993e-39, -1.2656e-38, -1.2261e-38, 2.6739e-39, 1.3297e-38, -9.9707e-39, -6.2032e-39, -4.6158e-39, -1.3134e-38, 4.7578e-39, 1.0034e-38, -5.14e-39, -4.2862e-39, 3.5497e-39, 2.2756e-39, 5.4464e-40, -1.2484e-38, 3.4141e-39, -7.7391e-39, -6.6635e-39, -1.1021e-38, 5.7418e-39, -4.2838e-39, 9.2172e-40, -2.7237e-39, -1.045e-38, -7.2826e-39, 9.5633e-39, -6.8251e-40, 8.2386e-39, 1.4543e-39, 4.3026e-39, 1.163e-38, -1.1917e-38, 8.5963e-39, 8.4675e-39, -1.2916e-38, 1.3338e-38, 1.2235e-38, 1.0533e-38, 9.8491e-39, -1.5491e-39, 1.3344e-38, 5.5398e-39, -1.1113e-38, 3.7292e-39, -4.712e-39, 2.9538e-40, 1.2893e-38, -1.4714e-39, 8.2726e-40, 1.15e-38, 1.0772e-38, 1.3001e-38, -1.1684e-38, -6.4899e-39, 4.9863e-39, 9.2082e-39, 5.8301e-39, -5.9895e-39, -9.9447e-39, -1.3257e-38, -4.6386e-39, -1.2376e-38, 6.4543e-40, 5.5454e-39, -1.3652e-38, -4.6119e-39, 6.3133e-39, -9.5151e-39, 8.1284e-39, -1.3021e-38, 1.0423e-38, 8.5152e-39, -8.0778e-39, 1.0329e-38, -4.3637e-39, -1.3235e-38, 3.0619e-39, 1.1241e-38, 6.7286e-39, -1.3407e-38, 1.1363e-38, -6.3125e-39, 7.771e-39, 4.7288e-39, 9.9759e-39, 1.0065e-38, 3.2553e-40, -1.1037e-38, 1.1055e-38, -8.5445e-39, -1.0185e-38, 2.8012e-39, -1.5747e-39, 7.201e-39, 4.2355e-39, 1.2066e-38, 1.3562e-38, -4.8097e-40, -5.0995e-39, 1.3301e-40, -1.1792e-38, 6.2984e-39, 3.384e-39, 3.0016e-41, -2.6688e-39, 7.9175e-39, -1.5285e-39, 1.2308e-38, 6.1705e-39, 1.0732e-38, 7.7708e-39, 9.0844e-39, 6.6113e-39, 1.2598e-38, 9.8737e-39, -7.1003e-39, -1.2017e-38, 8.0843e-39, 5.1709e-39, 2.723e-39, -8.1118e-39, 3.7917e-39, -3.8328e-39, -1.3539e-38, -1.2829e-38, 1.1021e-38, -1.2807e-38, 5.6761e-39, -5.6512e-39, 7.4336e-39, 1.0337e-38, 1.3552e-38, -3.2482e-39, -9.83e-39, -5.5641e-39, -5.4202e-39, -8.2826e-39, -8.8131e-39, -7.5864e-39, 4.1031e-39, -1.887e-39, 3.0346e-39, -1.0904e-38, -6.1293e-39, 1.178e-38, -4.1398e-39, -7.4419e-39, -5.0707e-39, -2.8521e-39, 1.1992e-38, -9.6641e-39, -1.1661e-38, -8.9179e-39, 9.3692e-39, 2.2454e-39, -1.5185e-39, 9.4707e-39, -2.9701e-39, -7.8084e-39, 5.588e-40, -1.1061e-39, 6.1419e-39, 5.3571e-39, 8.1537e-39, -1.1256e-38, -1.2469e-38, 9.8685e-39, 3.4089e-39, 6.3846e-39, 5.7637e-39, -6.5327e-39, -8.0878e-39, -9.2382e-40, 5.7214e-39, -9.1445e-39, 1.1946e-38, 1.3272e-38, 7.1111e-39, 2.6537e-39, 7.5572e-39, 9.8931e-39, 3.2088e-39, 1.1212e-38, -3.9327e-39, 6.7819e-39, 4.8633e-39, 7.9256e-40, -5.4929e-39, 6.9635e-39, -8.7255e-39, 2.5997e-39, 1.1e-38, -6.6642e-39, -1.2814e-39, 7.0301e-40, 1.206e-38, -2.2205e-39, 3.9384e-39, -9.7907e-39, -8.4537e-39, -1.3585e-38, 1.2202e-39, -1.3163e-38, -1.1079e-38, 3.5015e-39, -6.6864e-39, 7.869e-39, -5.314e-39, 7.5322e-39, 7.5217e-40, -6.6704e-39, 9.3754e-39, 6.3659e-39, -1.4853e-39, 1.2082e-38, 1.8635e-39, -1.222e-38, -1.344e-38, 2.5649e-39, 1.2601e-38, -2.1901e-39, -1.1218e-38, 3.5392e-39, 1.0147e-38, 8.2353e-39, 8.0112e-39, -1.9092e-39, 1.0815e-38, 3.0562e-39, 1.1675e-38, 1.0106e-38, -6.0399e-39, 6.735e-39, 2.7419e-39, 3.3395e-39, -1.0076e-38, -1.1823e-38, 5.8367e-39, 1.0464e-38, 6.3077e-39, 1.1402e-38, 4.4481e-39, 2.9055e-39, -8.6094e-39, -2.2152e-39, 8.5725e-39, -2.3001e-39, -4.4252e-39, -9.4348e-39, 1.0594e-38, 4.4993e-39, -9.9695e-40, 1.3673e-38, -2.5898e-39, 9.1408e-39, -5.92e-39, 1.0591e-38, -1.0611e-38, 1.1803e-38, 7.0197e-39, 7.205e-39, -1.1206e-38, -5.4133e-39, -8.2091e-41, 4.5251e-39, 8.5557e-40, -3.3931e-39, -8.9059e-39, -1.0332e-38, -2.2731e-39, 1.2834e-38, 8.1702e-39, 8.2929e-39, -2.4512e-39, -5.078e-40, -1.2688e-39, 1.281e-38, -1.4392e-39, -7.1854e-40, -9.3014e-40, -8.6355e-39, -3.9076e-39, 1.1625e-38, 4.0399e-39, -5.8168e-39, 1.3524e-38, 2.8279e-39, 3.5084e-39, -1.2173e-38, -1.3329e-38, 7.4188e-39, -1.0428e-38, 1.1767e-38, -1.555e-39, 1.0902e-38, -4.0271e-39, -5.0764e-39, -1.4112e-39, -1.1677e-38, 6.687e-39, -4.5411e-39, 7.5511e-39, 9.8983e-39, -6.7709e-39, 8.1244e-39, -3.5684e-39, 1.1587e-38, -9.5177e-39, 1.3159e-38, 5.566e-39, 6.698e-39, -1.0853e-38, -4.1268e-39, 1.2248e-38, -1.0211e-38, 9.6199e-39, -6.0188e-39, 3.7539e-39, -1.2875e-38, -5.2705e-39, -1.6654e-39, 4.4837e-39, 1.8781e-39, 1.274e-38, 1.8143e-39, -1.2363e-38, 8.482e-40, 8.4698e-39, -4.2037e-39, 4.045e-39, 9.968e-39, -3.9904e-40, 3.0752e-39, 7.53e-39, 5.6769e-39, -1.2735e-38, -5.1365e-39, -1.2219e-38, 4.9581e-39, 3.4113e-39, 3.2353e-39, -7.2941e-40, -9.926e-39, -7.2198e-40, -1.2932e-39, -1.2255e-39, -1.744e-39, -4.415e-39, -9.0193e-39, 4.9988e-39, 1.7038e-39, -1.019e-41, -3.6022e-39, 4.8215e-39, -7.6439e-39, -9.5646e-39, 6.2571e-39, 2.2432e-39, 9.759e-39, 1.3191e-38, -5.8552e-39, -3.8766e-39, 4.0833e-39, -5.7798e-39, 6.3358e-40, -1.2251e-38, -4.5446e-39, 1.3702e-38, -6.942e-39, 4.1845e-39, -1.2869e-38, 2.5985e-39, -6.4778e-39, -4.6237e-39, 9.9303e-39, -7.7667e-39, -8.7617e-39], [-0.16208, -0.0096522, 0.15926, 0.072607, 0.072306, -0.020089, 0.018767, 0.022022, -0.054792, 0.020771, 0.12551, -0.019778, 0.14845, 0.12979, -0.080036, 0.044301, 0.099322, 0.027312, -0.069558, -0.21453, 0.26674, -0.2358, 0.07512, 0.014135, 0.046947, -0.16148, -0.043146, 0.34136, 0.039719, 0.022461, -0.10837, -0.21163, -0.021566, -0.020133, 0.16247, 0.089295, 0.049674, 0.057097, 0.048545, 0.068306, -0.036701, -0.274, -0.22949, -0.13036, -0.24238, 0.12146, -0.19199, 0.15197, -0.085895, 0.16416, -0.014559, 0.054197, -0.091968, -0.058095, -0.14063, -0.17526, -0.049004, -0.10989, 0.053053, 0.22506, 0.15021, 0.072725, 0.14067, 0.0021599, 0.11515, -0.16343, 0.11184, -0.18288, 0.11172, -0.070483, -0.313, -0.033643, 0.089285, 0.11483, 0.19617, -0.079378, 0.097347, -0.055101, 0.20502, 0.19989, 0.11149, 0.098892, 0.079203, 0.18649, -0.022991, 0.049069, 0.0079268, -0.14404, -0.049761, -0.12755, -0.17927, 0.09398, -0.045561, 0.042873, -0.10742, 0.16263, 0.091174, -0.11033, 0.046763, -0.045101, -0.084512, 0.073925, 0.12418, -0.10776, 0.010259, -0.15091, -0.3141, 0.075687, 0.32064, -0.13632, -0.2119, -0.17351, -0.064476, -0.02083, -0.1612, 0.031282, 0.096249, 0.0080682, 0.013679, -0.10741, -0.020184, -0.044802, 0.1195, 0.001052, 0.2222, 0.051095, -0.24434, 0.1648, 0.10208, -0.23156, -0.0039599, -0.12098, -0.1134, 0.18868, -0.080342, 0.12129, 0.18473, 0.049678, 0.28406, 0.39462, -0.21394, 0.039888, -0.10224, -0.32625, -0.040731, 0.28215, -0.045403, -0.22734, -0.15884, 0.091321, 0.22027, 0.24441, -0.1586, -0.30318, -0.14208, -0.063157, 0.10345, 0.061686, 0.042244, 0.11891, -0.097002, -0.06188, 0.091807, 0.14085, -0.24561, 0.0020075, 0.044167, 0.056749, 0.035716, -0.17557, 0.13956, -0.15737, -0.069873, -0.14957, 0.28555, 0.10871, -0.051943, 0.19626, -0.14828, 0.048913, 0.067448, -0.21212, 0.037446, -0.030851, -0.11577, 0.18467, -0.019254, 0.46663, -0.20356, -0.033732, -0.036778, -0.011871, 0.20008, -0.016736, 0.080147, 0.070675, -0.023705, -0.077259, 0.020106, 0.078096, -0.51904, -0.0058242, -0.26155, 0.1358, 0.0067706, 0.086984, 0.030732, 0.049555, 0.15608, -0.035003, -0.35531, 0.0022194, 0.22567, 0.22027, 0.062481, -0.11889, -0.29642, -0.03498, -0.053642, -0.27766, -0.024796, 0.023441, 0.15676, 0.30064, 0.041784, -0.16174, 0.1232, -0.13031, -0.19906, -0.10727, 0.045181, 0.37076, 0.033143, 0.12866, 0.035086, -0.018394, 0.3085, 0.065811, 0.015322, -0.021388, -0.045155, -0.061163, -0.22008, -0.086108, -0.14092, 0.11177, 0.15464, -0.042169, -0.40739, -0.073298, 0.13058, 0.099469, 0.15878, 0.014656, 0.01936, 0.030961, -0.01252, 0.14593, -0.11785, 0.17021, 0.076191, 0.20054, -0.035043, -0.04653, -0.15018, -0.1332, -0.2224, -0.17262, 0.12244, 0.049763, 0.016146, -0.073268, -0.27206, -0.099444, 0.059786, -0.12784, 0.09557, 0.067479, -0.055197, -0.1736, 0.079184, 0.19631, 0.1509, -0.056265, -0.052756, 0.064753, 0.093622, 0.0038917, 0.13205, -0.12586, -0.17314, -0.11895, -0.08484, 0.33146, 0.086298, 0.067275, -0.31828, 0.08858, 0.10225, -0.15773, 0.036436, 0.017809, -0.20036, 0.14705, -0.093752, 0.12551, -0.38593, 0.0022563, -0.28862, -0.12976, 0.22398, 0.062596, 0.01661, 0.20132, -0.13224, 0.16026, 0.23238, -0.33978, 0.032373, 0.20054, -0.009497, 0.2335, 0.18185, -0.0037548, -0.15887, -0.073154, 0.11399, 0.16293, -0.16235, -0.35896, 0.073186, 0.069736, -0.0158, -0.12519, -0.12207, 0.24421, -0.07061, -0.047211, -0.011754, -0.032664, 0.10244, 0.27588, -0.19952, 0.18065, -0.16732, -0.087583, 0.023723, -0.21439, 0.14365, 0.016608, 0.15065, -0.19716, 0.25159, -0.13345, -0.13474, -0.055101, -0.1141, -0.16764, -0.12287, -0.014223, 0.027026, 0.14643, -0.12393, -0.10834, -0.093167, -0.14526, 0.24017, -0.081302, 0.012258, -0.061144, -0.0042061, 0.25248, -0.089252, -0.16324, -0.15205, -0.073753, 0.33044, -0.27868, 0.030279, -0.0027553, 0.32468, -0.097406, 0.057616, -0.038448], [0.023902, 0.32414, -0.019412, 0.0601, 0.017373, -0.037925, 0.10375, -0.021608, -0.15491, -0.18661, -0.01043, 0.30333, -0.019103, -0.17638, -0.013588, 0.083738, 0.1496, 0.08397, 0.025272, 0.0021122, -0.025623, -0.10155, 0.085253, -0.12101, 0.015598, -0.12771, 0.020315, 0.063312, 0.067708, 0.066744, 0.066455, 0.16778, 0.12244, -0.023698, -0.0060034, -0.11362, 0.053834, 0.021635, -0.14981, -0.19521, 0.24182, 0.084249, 0.08639, 0.0099202, -0.078926, -0.11245, 0.10764, 0.069772, 0.042706, 0.089132, -0.13744, -0.070368, 0.39772, 0.11481, 0.18495, -0.01048, 0.067949, 0.056456, 0.016448, -0.16726, 0.10728, 0.41545, 0.23246, -0.041814, 0.12111, 0.083096, -0.14889, 0.083127, -0.10488, -0.008088, 0.12, 0.0018041, 0.30864, -0.0067842, 0.0060288, -0.059303, -0.016097, -0.099233, -0.13472, 0.017861, -0.079416, -0.031378, 0.14601, -0.11623, -0.062552, 0.0049525, 0.0017446, -0.040959, 0.16135, 0.090962, 0.19343, -0.0037414, 0.12847, 0.11288, 0.079876, -0.050779, -0.06694, -0.22949, -0.082253, -0.020169, 0.048424, -0.075111, -0.037204, -0.1604, 0.052092, 0.19528, -0.031099, 0.094541, -0.17958, -0.078356, -0.083381, 0.15846, -0.090937, -0.071036, -0.0003259, 0.01, -0.22682, 0.045354, -0.16277, 0.037542, -0.1047, -0.019319, 0.05434, 0.021981, 0.0056573, 0.029461, -0.05059, -0.17558, -0.011985, -0.11112, -0.059303, -0.27366, 0.076661, 0.11048, 0.13143, -0.0096115, -0.056996, -0.37236, -0.28104, -0.058263, -0.16418, 0.042798, -0.061906, 0.18943, 0.06344, 0.17092, -0.030084, 0.054822, -0.032766, 0.12153, -0.057888, -0.13797, -0.16432, 0.16916, -0.086374, -0.055439, 0.17645, -0.037431, -0.12301, 0.0040895, 0.079224, 0.093153, 0.04816, 0.11962, 0.0065016, -0.011212, -0.0030497, -0.12916, 0.080576, -0.12897, 0.017189, -0.12637, 0.13755, 0.1152, 0.10761, 0.08775, 0.13933, 0.21895, 0.091003, 0.069213, 0.051207, -0.18901, -0.083144, -0.083394, -0.17977, 0.07455, 0.062772, -0.24187, 0.016728, -0.055847, 0.090962, -0.096288, -0.022756, -0.0057213, -0.126, -0.019957, -0.089237, 0.056599, -0.040316, -0.061804, 0.14687, 0.024894, 0.1766, 0.091685, -0.12606, -0.0058542, -0.073137, -0.03018, 0.058981, -0.052029, -0.08458, -0.027229, -0.12639, 0.011369, 0.13331, -0.0077338, 0.29778, 0.030495, 0.15842, 0.34751, -0.0021138, -0.0002456, -0.0175, 0.05766, -0.088914, -0.20342, -0.087113, 0.073636, 0.042673, 0.009418, 0.064653, -0.16363, 0.066332, 0.17493, 0.055344, 0.10825, -0.15682, -0.020276, -0.012774, 0.14363, -0.1322, 0.012548, -0.017772, -0.058907, 0.061297, 0.18158, -0.083629, -0.33127, 0.14087, -0.073797, -0.030061, 0.041285, -0.023657, -0.17127, -0.11537, -0.16098, -0.078437, -0.12708, -0.025217, 0.068213, -0.19193, -0.073188, -0.12276, 0.043735, -0.016451, -0.080531, 0.12247, 0.18093, 0.012028, 0.051936, 0.025476, -0.12492, -0.018174, -0.077501, 0.14559, 0.14615, 0.12466, -0.17653, 0.1428, 0.033725, -0.015119, 0.093813, -0.049985, -0.042453, 0.016067, 0.4387, -0.36171, 0.10265, -0.29906, -0.12532, -0.32045, -0.051273, -0.16561, -0.10283, 0.053843, -0.020259, 0.47274, -0.052043, -0.006863, 0.20053, 0.17777, -0.07548, 0.012541, -0.057332, 0.089264, 0.053856, 0.032954, -0.028428, 0.074417, -0.031756, -0.059489, -0.05057, -0.080238, 0.14961, 0.067534, 0.205, 0.07571, 0.20642, -0.046663, -0.022016, -0.068666, 0.025655, -0.15286, 0.20207, -0.081724, -0.023248, 0.0074347, -0.18215, 0.047639, -0.034822, -0.064663, -0.13575, -0.0042469, 0.26485, 0.005798, -0.038107, 0.14816, 0.02016, -0.068501, -0.056388, 0.075418, 0.3633, 0.035164, -0.072076, -0.13546, -0.1543, 0.020981, 0.085393, 0.27115, -0.14177, -0.121, 0.092508, -0.12439, 0.23093, 0.053066, 0.011684, 0.0036125, 0.14502, 0.18986, 0.0033682, 0.038009, 0.03602, 0.052278, -0.043743, 0.053732, 0.0076418, 0.020423, -0.35449, 0.081768, -0.009431, -0.10924, -0.022688, 0.051005, -0.024398, 0.020645, -0.10115, -0.020349, 0.028426, 0.16984, 0.026667, -0.073155, 0.084695, 0.12416, -0.065078], [0.074284, -0.044983, 0.077808, 0.074419, 0.054923, -0.15074, -0.17375, -0.058198, -0.068366, 0.072997, 0.073538, -0.079036, -0.0094337, 0.17662, 0.0032105, -0.084333, -0.041138, 0.016332, -0.19165, -0.025814, 0.047067, -0.1056, 0.1544, -0.011544, 0.1209, 0.012837, -0.15413, 0.022043, 0.059067, -0.045752, -0.061582, -0.076331, 0.045266, -0.15378, 0.047744, 0.0031893, -0.051852, 0.11074, 0.14252, 0.18369, -0.16471, -0.15908, 0.055991, 0.10677, -0.08846, 0.0641, -0.029195, 0.027299, -0.11033, -0.046143, 0.11112, -0.019604, -0.030496, 0.013087, 0.094494, -0.019012, 0.10252, -0.049283, -0.051501, -0.12182, 0.099093, -0.23377, 0.088563, -0.1303, -0.017102, -0.049776, 0.11601, -0.16404, -0.10022, -0.10499, -0.039462, -0.027605, -0.15352, -0.063692, 0.070888, 0.088331, 0.0062183, 0.10829, 0.0887, -0.015997, -0.14651, 0.0090228, -0.1036, 0.028522, 0.13028, 0.1206, -0.0096802, -0.071748, 0.00048031, -0.061797, 0.084453, -0.21091, 0.027379, 0.061812, -0.0001766, 0.10272, 0.0038746, 0.058937, 0.033606, -0.00099223, 0.19313, -0.11934, -0.091067, 0.33309, 0.012152, -0.043101, 0.08379, -0.18729, 0.048613, -0.095267, 0.21403, 0.022725, -0.019107, -0.011633, 0.1625, 0.10115, -0.098822, -0.041351, 0.21209, 0.033653, -0.14718, -0.0097476, -0.077443, 0.019279, 0.022106, 0.049858, 0.18699, -0.22439, -0.17592, -0.067433, -0.087122, -0.097044, -0.06312, 0.032816, -0.0024719, -0.0079076, -0.25231, -0.078059, 0.08165, -0.028302, 0.072009, -0.0035282, 0.061373, -0.066259, -0.0097429, -0.24806, -0.1217, 0.0010976, 0.069824, -0.13572, 0.10439, -0.006441, 0.05855, 0.088023, 0.070632, 0.10649, -0.029038, -0.081281, -0.039773, 0.056156, -0.049477, -0.043149, 0.01249, -0.24419, 0.03864, -0.026618, -0.03467, -0.088271, 0.17546, 0.08953, -0.079543, 0.16653, -0.24035, -0.041973, 0.11336, -0.0066781, -0.1454, -0.090592, 0.052626, -0.070599, -0.025485, -0.029056, -0.039256, -0.17798, 0.16767, -0.056119, -0.068868, 0.019197, 0.098515, 0.19648, -0.19698, 0.099629, -0.13755, 0.048466, 0.20239, 0.031747, 0.28222, 0.14024, -0.0038222, 0.29003, 0.056946, -0.049575, 0.038856, 0.11172, 0.10108, -0.12038, 0.07084, 0.00027641, -0.087053, -0.016096, -0.079341, -0.0010288, 0.014325, 0.065926, -0.23819, 0.092985, 0.10227, -0.02254, -0.021186, -0.041032, -0.11732, -0.041682, 0.015919, -0.11376, -0.32041, 0.019463, -0.061465, 0.13288, -0.066282, 0.046816, -0.11763, 0.085256, 0.050892, -0.11955, 0.12047, 0.11858, -0.041948, -0.057972, 0.10558, -0.074886, 0.013804, -0.09322, 0.11895, -0.1017, 0.07461, 0.083524, -0.033219, 0.088029, -0.32849, 0.066642, 0.13855, 0.068686, 0.094471, 0.21524, -0.12373, 0.16778, -0.13025, -0.11432, 0.017045, 0.1807, 0.13949, -0.066957, -0.053149, -0.048669, -0.075318, 0.046798, -0.051854, 0.028028, -0.057268, -0.10998, 0.0037694, -0.14871, 0.096197, -0.13219, 0.34771, -0.029234, -0.055381, 0.020816, -0.10731, 0.14282, -0.053306, 0.13984, -0.19563, 0.073524, 0.19195, -0.10949, 0.3797, 0.15259, -0.021147, 0.019215, 0.025007, -0.057745, 0.15911, -0.021091, 0.023594, 0.13611, -0.17311, -0.026619, -0.026561, 0.087456, -0.099977, -0.10089, 0.051955, -0.011, 0.059438, 0.1606, 0.048558, -0.15595, -0.060982, 0.024263, 0.0021324, 0.053223, -0.0025514, 0.004757, -0.065018, -0.085487, -0.035099, -0.1975, 0.14626, 0.0057086, -0.16314, -0.012297, 0.16867, -0.060632, -0.023713, -0.038952, -0.19991, 0.11628, -0.028659, 0.27976, 0.14628, -0.11204, -0.068128, -0.14786, -0.001335, 0.099125, -0.11525, 0.065373, -0.018381, 0.016117, -0.052931, -0.18316, -0.11542, 0.026096, 0.012402, -0.030646, 0.1008, -0.092496, -0.05385, -0.13392, 0.039557, 0.045107, -0.030565, -0.13893, 0.10357, -0.031492, -0.056081, -0.27021, -0.19052, 0.078071, -0.037072, -0.041061, -0.086886, 0.095457, -0.069098, -0.0048057, 0.03936, 0.060664, 0.024899, -0.11256, -0.10678, -0.03064, -0.15768, 0.20873, -0.23914, 0.13811, -0.039648, 0.060275, 0.13158, -0.14423, -0.27373, -0.0014241, -0.11239, 0.038955], [-0.25611, 0.069486, 0.069379, 0.0054287, 0.18246, 0.13054, 0.0098936, -0.33896, 0.078466, 0.31864, -0.16149, 0.15152, -0.13003, 0.23851, 0.13937, -0.057531, -0.044781, -0.076284, -0.063278, 0.040144, -0.27661, 0.079043, 0.34074, 0.12168, 0.20298, 0.20454, -0.081582, 0.18896, -0.23259, -0.098397, 0.02093, -0.095965, 0.1677, -0.02604, -0.064816, -0.028101, -0.17782, 0.15624, -0.12521, 0.13178, 0.0039968, 0.01973, 0.080024, -0.095205, 0.076313, -0.11462, -0.070004, 0.13084, -0.12631, -0.14354, 0.051082, -0.15872, -0.19, -0.023874, -0.24851, 0.078598, 0.1629, 0.11819, -0.17749, 0.22725, -0.15253, 0.37781, 0.011694, -0.097481, -0.23566, 0.085665, -0.18783, -0.17436, 0.11246, 0.20004, -0.06172, -0.058873, -0.25873, -0.12837, -0.085733, -0.023236, 0.031277, -0.0076617, 0.13407, 0.25759, -0.093856, -0.07357, -0.11875, 0.024467, 0.061001, -0.22127, 0.03833, 0.026638, -0.015118, 0.018208, 0.17897, -0.10731, -0.070866, -0.11758, 0.12442, 0.20807, 0.058271, -0.034779, -0.084179, -0.13741, 0.079049, 0.012039, -0.028931, 0.066126, 0.26094, 0.14197, 0.086367, -0.010098, -0.083658, -0.037619, 0.38013, -0.091509, -0.22024, -0.12882, -0.1041, -0.074592, -0.22121, 0.0053648, -0.13268, 0.29061, 0.06254, -0.094778, 0.076775, 0.089891, 0.11803, -0.060124, 0.065468, 0.04712, -0.1058, -0.0077711, -0.069125, -0.169, 0.16407, 0.0019397, 0.0011638, 0.012605, -0.082371, -0.18657, 0.02595, 0.069533, -0.067279, -0.15256, 0.10536, 0.34134, -0.0058928, 0.0091689, -0.25441, -0.10688, 0.026357, -0.1675, -0.11973, -0.1787, -0.0099726, -0.27932, -0.15663, -0.015035, -0.0067274, -0.12145, 0.024164, 0.070524, -0.041975, 0.077106, -0.16377, -0.3056, 0.10551, -0.10524, 0.020247, 0.055832, -0.078972, -0.18103, -0.18122, 0.047347, 0.017514, 0.28744, 0.11055, -0.025499, -0.087113, -0.083552, -0.089664, -0.14908, -0.15311, -0.12551, -0.046056, -0.043212, -0.021906, 0.091967, 0.1349, 0.12841, 0.24601, 0.19316, 0.66212, 0.30394, 0.15123, -0.10516, 0.034554, -0.023948, 0.21537, -0.16657, 0.041832, -0.24162, -0.31391, -0.12252, 0.32406, -0.31929, 0.065675, -0.15554, -0.15163, 0.13386, -0.044032, 0.063999, -0.015257, -0.034067, -0.14924, -0.046028, -0.082841, -0.021512, -0.6535, 0.13808, 0.069103, 0.0068583, 0.14476, -0.029571, 0.087788, 0.11563, 0.031884, -0.19684, 0.064574, -0.076118, -0.027159, 0.15877, -0.1523, -0.24582, -0.14814, 0.14521, 0.09457, 0.24067, 0.052912, -0.039988, 0.056402, -0.10717, 0.22694, 0.18982, 0.074925, -0.0081036, 0.027781, -0.044638, -0.010038, -0.038935, 0.02301, 0.012092, 0.079057, 0.039245, 0.13402, -0.08292, 0.049316, -0.14526, -0.11536, 0.067324, -0.070349, -0.047523, 0.11835, -0.057178, -0.1643, 0.016065, -0.081779, 0.037548, 0.30963, -0.039433, 0.016737, -0.16276, -0.053882, 0.11252, 0.29933, -0.15807, 0.21431, -0.18672, 0.15182, 0.070477, -0.040539, 0.0015817, -0.073918, -0.25012, -0.1417, 0.086514, 0.16773, -0.08696, -0.43203, -0.0096961, 0.021462, 0.068314, 0.066519, -0.065627, 0.040339, 0.071351, 0.083448, -0.04061, 0.3108, -0.076836, -0.019993, 0.14667, 0.021521, 0.27048, 0.012575, -0.16501, -0.13712, -0.13463, -0.19179, 0.085145, 0.047597, 0.1569, 0.013373, 0.1115, 0.17846, 0.11329, 0.17849, -0.064546, 0.024085, -0.34484, 0.23686, -0.029194, -0.043713, -0.24812, 0.05259, -0.15849, 0.012387, 0.01394, 0.17763, 0.13463, 0.074128, -0.056202, -0.29417, 0.0023203, -0.061312, -0.11234, -0.13034, 0.34435, -0.038099, -0.02815, 0.14456, -0.15793, 0.21544, -0.21148, 0.19475, -0.16709, -0.096264, 0.17798, -0.12318, 0.11688, -0.10693, -0.034265, -0.033717, 0.032692, 0.10362, 0.16855, 0.2103, -0.044564, -0.00030628, -0.024364, -0.028509, -0.098277, 0.013442, 0.083247, -0.17765, 0.11187, 0.093007, -0.07033, -0.014654, 0.13335, -0.17092, 0.014948, -0.042357, -0.15872, -0.052945, 0.095947, 0.13906, 0.085368, -0.02973, -0.19271, 0.14641, -0.14514, -0.33365, 0.091797, -0.26591, -0.062142], [0.23199, -0.021494, -0.17136, -0.0633, -0.10822, 0.26264, -0.10938, -0.14472, -0.032651, -0.19141, -0.15405, -0.20258, -0.1772, 0.13228, 0.12011, 0.059249, 0.013244, 0.035023, 0.019176, 0.21022, -0.13665, -0.19949, -0.0074377, 0.12934, 0.070394, 0.079754, 0.13773, -0.10882, -0.030214, 0.044864, 0.039952, -0.40224, 0.012397, -0.081278, -0.19004, 0.12258, -0.24172, -0.10108, 0.14414, -0.11252, 0.10748, 0.11604, -0.097383, 0.10518, 0.096708, 0.29571, -0.064377, -0.016531, -0.003228, 0.10672, -0.18579, 0.048852, -0.083739, -0.30303, -0.16194, 0.16658, 0.001382, -0.036128, 0.063011, -0.24521, 0.16659, -0.083009, 0.2256, -0.070859, 0.14455, 0.11964, -0.12549, -0.10461, -0.01374, -0.020807, 0.11372, -0.064686, -0.13308, 0.087176, -0.046643, -0.18457, -0.11581, -0.01039, -0.0013749, 0.030548, 0.060003, -0.066673, -0.25765, -0.27783, -0.07306, -0.022632, -0.25695, -0.023214, -0.012046, -0.037871, -0.16075, -0.093379, 0.032466, -0.0088269, 0.081608, 0.10538, -0.13373, -0.080179, -0.056526, -0.17343, -0.12206, 0.096261, 0.14231, -0.33423, 0.14643, 0.076688, -0.035234, -0.04967, 0.25554, -0.071721, 0.035233, 0.14032, 0.10989, -0.22712, 0.13095, -0.050446, 0.18495, -0.0017663, -0.090144, 0.00125, -0.09475, -0.25865, 0.056011, -0.094374, -0.085581, 0.17542, -0.075931, -0.11858, -0.22816, 0.089325, -0.00033101, 0.033339, 0.1552, -0.082934, -0.029875, 0.12477, -0.023273, 0.068913, 0.20507, -0.13329, 0.14311, -0.14046, 0.012589, 0.31253, -0.13794, 0.18223, 0.069736, 0.050499, 0.047343, 0.013236, 0.18517, 0.17407, 0.18536, -0.28215, 0.051347, -0.030593, 0.048108, 0.060401, 0.1106, 0.087393, 0.026091, 0.41804, -0.21562, -0.27937, 0.14369, -0.13521, -0.020091, -0.16438, 0.12532, -0.27704, -0.22056, 0.21513, -0.21408, 0.35565, 0.11621, 0.17312, 0.18314, -0.046416, 0.040803, 0.012469, -0.020201, -0.30049, 0.029254, 0.0073561, 0.19899, -0.13548, -0.0015438, -0.076989, 0.107, 0.11974, -0.20165, -0.076562, 0.17034, 0.072569, 0.18573, 0.13584, -0.15199, 0.024895, 0.022751, 0.023375, 0.0072334, -0.11261, -0.15705, -0.24288, 0.069998, -0.10649, 0.29134, 0.20132, -0.091889, 0.088351, 0.058461, 0.11347, -0.018917, 0.050988, 0.018742, -0.01245, -0.031659, 0.082048, 0.08947, 0.3319, 0.057867, -0.30272, -0.084851, -0.052031, 0.067609, 0.13772, -0.0615, 0.15878, 0.14299, 0.093222, -0.10441, 0.0077397, 0.044367, 0.094015, 0.030425, -0.097671, 0.069654, -0.11701, 0.00364, 0.20726, -0.19675, -0.045367, 0.025059, -0.14232, 0.027857, -0.010642, 0.043668, -0.11964, 0.23649, -0.074157, 0.18984, -0.097773, 0.034034, -0.091766, -0.0029881, 0.17817, -0.10728, 0.18792, -0.069466, -0.092333, 0.17345, 0.23757, 0.12295, -0.21955, 0.27882, -0.079882, 0.20965, -0.013337, 0.064513, -0.16865, -0.013585, -0.037835, 0.0063252, -0.028407, -0.12959, 0.086479, -0.30713, 0.084752, 0.048331, 0.10661, -0.34767, 0.13537, -0.043249, 0.065791, 0.11458, 0.086718, -0.0089635, -0.047887, -0.19076, -0.1152, -0.26197, 0.044002, 0.06206, 0.031947, 0.17136, -0.12551, 0.1825, -0.072946, 0.16881, -0.074511, 0.034937, -0.097997, -0.10652, 0.018938, 0.14879, -0.046408, -0.0041938, -0.15894, 0.14748, -0.010788, -0.15581, 0.19171, 0.13282, 0.17368, 0.12669, 0.14571, -0.10253, 0.14165, -0.016296, -0.057615, -0.1548, 0.12638, -0.10183, -0.070627, 0.29096, -0.069963, -0.18404, 0.15605, -0.026002, 0.051581, -0.024348, 0.03611, 0.024996, 0.16389, -0.12763, 0.081643, 0.35642, -0.059713, -0.20578, 0.070582, -0.011056, -0.14092, 0.081512, -0.12248, 0.065484, -0.11496, 0.016104, 0.013052, -0.073657, 0.05619, -0.18767, -0.056776, 0.19938, -0.21422, 0.17334, 0.10177, 0.10041, 0.03975, -0.25605, 0.075392, -0.074303, -0.27323, 0.024526, 0.0011023, 0.1274, -0.056451, 0.082612, 0.060041, -0.018574, -0.046401, 0.02901, 0.12653, 0.012517, -0.061212, -0.2715, 0.06866, 0.0689, 0.2301, 0.069126, -0.0065906, 0.0027672, -0.11911, 0.16395, 0.035381], [0.22544, 0.18378, 0.040954, -0.0081394, 0.024952, -0.17579, -0.012146, 0.19592, -0.097736, -0.028027, -0.15726, 0.2433, 0.1112, 0.19751, 0.091012, 0.22421, -0.0020053, 0.079062, 0.092992, -0.092545, -0.51533, -0.16233, 0.36208, -0.17634, 0.24732, 0.10689, -0.042644, -0.25874, 0.097171, -0.21794, 0.19412, 0.24898, -0.26826, -0.1512, 0.22714, -0.10739, 0.071463, -0.11872, -0.059455, -0.096689, -0.10126, 0.08941, -0.14557, -0.26218, -0.036399, 0.07458, 0.033963, -0.19796, 0.10025, -0.17501, 0.19926, -0.024737, -0.14524, -0.2627, 0.046259, 0.093258, 0.10381, 0.067967, 0.030765, -0.079812, -0.038102, -0.067335, 0.014368, -0.030975, 0.14913, -0.014123, 0.0098653, 0.25386, -0.28371, 0.04081, 0.18344, -0.10528, 0.014103, -0.061452, -0.05257, -0.1398, 0.12553, -0.022082, 0.11368, -0.13438, 0.2073, 0.010305, -0.12318, -0.083511, 0.025298, 0.090075, -0.0077435, -0.0032146, -0.083692, -0.042535, -0.15395, 0.14838, -0.16427, -0.15345, -0.056309, -0.14311, -0.035793, -0.20121, 0.044793, 0.046289, 0.036182, 0.1929, -0.2701, 0.4647, 0.11714, 0.078981, -0.14559, -0.19955, -0.18521, -0.079793, -0.084327, -0.029877, 0.19659, 0.097187, -0.067795, 0.15364, 0.21299, -0.041728, -0.088007, -0.11091, 0.0060072, 0.10462, 0.20395, 0.0033389, -0.010599, -0.073191, -0.23942, -0.042614, 0.083594, 0.060557, -0.095699, 0.12741, -0.028347, -0.0070031, 0.032169, -0.01636, -0.11722, 0.18782, 0.23937, 0.066721, 0.22755, 0.047446, -0.17611, -0.17744, 0.19876, 0.088865, -0.096983, -0.15728, -0.054733, 0.047398, -0.014154, -0.19573, -0.095376, 0.054698, -0.21897, -0.14796, -0.093714, -0.023368, -0.31463, 0.011951, 0.050786, -0.2828, 0.047618, 0.043029, -0.12505, 0.1127, 0.016896, 0.12233, 0.070242, -0.025512, 0.11924, 0.038805, -0.0082469, 0.068038, -0.046245, -0.3033, 0.16235, -0.35722, 0.024495, 0.0092474, -0.098447, -0.21321, 0.14124, -0.041495, 0.18017, 0.083757, 0.13677, 0.051329, -0.05401, 0.27166, 0.087736, 0.0067582, 0.19511, 0.089214, -0.12468, -0.17881, -0.15871, 0.028672, 0.076476, 0.012022, -0.3152, -0.089948, -0.047116, 0.18386, 0.1107, -0.22532, -0.011881, -0.028317, -0.1092, 0.081833, -0.023066, 0.15381, 0.060578, -0.059144, 0.1243, 0.0054353, -0.086982, -0.12227, 0.061797, -0.14125, 0.024196, 0.30288, -0.2846, 0.063087, -0.10236, -0.020989, -0.059495, -0.089071, 0.14478, 0.049595, 0.34698, -0.023931, 0.21403, 0.032446, -0.078903, -0.011296, -0.10168, -0.14534, 0.061802, 0.15482, -0.22982, -0.14029, -0.12203, -0.08434, 0.11894, -0.026845, -0.016499, -0.13431, 0.46975, 0.090231, -0.33161, -0.16759, -0.018394, 0.1389, 0.13917, -0.031594, 0.09527, 0.20664, -0.015532, -0.01858, -0.15858, -0.28791, 0.1355, 0.062105, 0.12389, -0.15066, -0.11513, 0.14151, -0.11935, 0.13234, 0.038579, 0.11378, 0.055509, 0.078534, 0.015857, 0.14748, -0.099771, -0.056612, 0.059489, -0.071409, -0.30905, 0.053298, 0.1986, 0.092202, 0.13603, 0.3478, 0.22599, 0.12214, -0.14725, -0.046225, 0.21642, 0.072739, 0.23081, 0.038239, 0.1356, 0.046858, 0.016921, 0.18304, -0.097287, -0.27326, -0.057413, -0.06669, 0.19567, -0.076773, 0.0054324, -0.17317, -0.014919, 0.1377, -0.023099, -0.014491, -0.095163, -0.20841, 0.1402, 0.11355, 0.23261, -0.060061, 0.043231, 0.33503, 0.070303, 0.22269, 0.017609, -0.00086949, -0.10719, 0.18278, 0.079331, -0.087153, -0.11256, 0.072587, 0.010573, -0.31376, -0.1187, 0.094559, -0.13405, 0.15081, 0.06958, 0.17728, -0.33098, 0.068127, -0.049116, 0.0967, -0.0075276, 0.25104, -0.0082783, -0.067337, 0.2151, -0.12211, -0.02348, 0.086585, -0.065006, 0.11492, 0.11901, 0.034039, -0.096596, 0.096783, 0.032815, 0.030182, -0.036255, -0.12953, 0.077488, 0.20807, 0.0023207, -0.10366, 0.1077, 0.040048, -0.05743, -0.28244, 0.13602, 0.11134, 0.23948, 0.065335, -0.10076, 0.078997, -0.23123, -0.0043873, -0.34768, -0.15046, 0.096754, 0.016193, 0.10032, 0.073243, -0.03162, -0.16929, -0.055738, 0.024853], [0.05877, -0.064285, -0.19923, -0.16099, -0.083047, 0.089582, 0.068044, 0.0817, -0.098398, 0.022416, -0.015775, -0.43557, -0.052303, 0.2609, 0.10798, 0.039424, -0.081668, 0.070387, -0.12329, 0.0016537, -0.30611, -0.14524, 0.13414, 0.17258, -0.078147, -0.098199, 0.021289, -0.18452, -0.12473, -0.010889, 0.12858, -0.0076344, 0.1808, 0.11859, 0.052145, -0.044442, -0.036766, -0.012801, -0.174, 0.10768, 0.1446, -0.13717, -0.17018, 0.1181, -0.032684, -0.10409, -0.038754, 0.11806, 0.034519, 0.060431, 0.056826, -0.077366, -0.18282, 0.071484, -0.26193, 0.061645, 0.10724, 0.09131, 0.01116, 0.10904, -0.063265, 0.09722, 0.080468, -0.29219, -0.028029, -0.0098176, -0.23787, 0.14733, 0.13522, 0.055613, 0.12374, 0.0019527, 0.0019302, 0.10178, -0.16482, -0.023925, 0.11304, -0.033593, -0.10428, 0.14198, -0.14309, -0.064746, 0.012621, -0.099638, -0.048487, -0.18144, 0.024601, -0.034438, -0.030096, 0.0096859, 0.025775, -0.022078, 0.11781, -0.07764, 0.10055, 0.18737, -0.064751, -0.035606, -0.099431, -0.04906, -0.090271, -0.075131, 0.19561, 0.017316, 0.068212, 0.121, -0.18045, 0.037067, -0.023808, 0.25555, 0.10399, -0.254, -0.1099, -0.048422, 0.13529, -0.041516, 0.032704, 0.087989, -0.11339, 0.16078, 0.081699, -0.010529, -0.0094089, 0.11812, 0.029406, 0.01146, 0.083679, 0.099197, 0.085465, 0.055515, 0.074803, 0.090795, -0.17531, -0.2467, -0.060262, 0.086042, 0.024906, -0.079453, 0.36999, 0.099988, -0.17845, -0.083173, 0.25535, 0.10696, -0.01064, 0.072024, 0.063035, -0.076725, 0.066726, 0.065531, 0.049988, 0.16445, 0.032494, 0.11071, -0.036893, -0.067685, -0.015464, 0.05698, 0.0062075, 0.10369, -0.0092516, 0.071864, -0.12654, 0.056831, 0.07167, -0.077461, 0.020279, -0.0855, -0.050436, 0.018902, -0.066804, 0.24113, 0.25095, -0.093022, -0.02754, 0.08036, 0.0053991, 0.1934, -0.025606, 0.19614, 0.0031439, 0.33512, -0.015332, 0.01946, -0.15418, 0.11022, -0.012888, 0.14836, -0.092077, 0.064607, 0.1463, -0.089823, 0.014746, -0.044268, -0.1047, -0.071456, -0.0090949, -0.061949, 0.13984, -0.13373, 0.14037, 0.082696, 0.019212, -0.1844, -0.0063406, -0.14156, 0.00049973, 0.0020985, 0.24909, 0.15845, 0.12065, -0.17307, -0.065309, 0.0081984, -0.086206, -0.070222, 0.0099412, 0.081851, -0.14511, -0.30949, 0.019531, -0.0081106, 0.050515, -0.11426, 0.015108, -0.16842, 0.031208, 0.0086044, -0.064262, -0.17853, -0.016577, -0.28762, 0.10331, 0.053261, -0.22422, 0.0091858, 0.12511, -0.10959, 0.088974, 0.15813, 0.13344, 0.033814, 0.080642, 0.1021, -0.10809, -0.14129, -0.18559, -0.13846, -0.15115, 0.00070667, 0.034092, -0.081438, -0.099184, -0.2437, -0.10538, -0.15993, 0.074043, -0.021636, -0.065884, 0.10042, 0.096009, 0.32405, -0.077466, -0.13685, -0.11976, -0.13058, -0.033317, 0.15747, 0.075414, -0.13098, 0.046089, -0.023449, -0.12138, -0.07256, 0.087791, -0.13898, -0.1974, 0.040542, -0.13305, 0.050761, -0.05478, -0.22856, -0.070438, -0.25379, 0.055026, -0.15566, 0.31003, -0.03752, 0.030607, -0.002663, -0.22834, 0.034965, -0.032984, 0.064167, -0.0022372, 0.006782, -0.14879, -0.12307, 0.045174, 0.22177, 0.27757, -0.0093238, -0.06816, -0.037422, -0.0055093, 0.14235, 0.14778, 0.02751, 0.078131, 0.016467, 0.093779, 0.024064, 0.20939, 0.071165, -0.20406, 0.10423, -0.042365, 0.053066, -0.097408, 0.057052, -0.17834, -0.043632, -0.22193, 0.13014, 0.068054, 0.21037, 0.1682, -0.026266, -0.039977, 0.048537, -0.12328, -0.12014, -0.075324, -0.22259, -0.25536, 0.050943, 0.31798, -0.015104, -0.085078, 0.03221, 0.18937, 0.019731, 0.29339, 0.024, 0.12873, -0.015392, 0.096658, 0.035777, -0.23892, -0.13569, -0.10408, 0.065907, 0.043929, 0.11544, -0.017451, 0.062207, -0.0017398, -0.031233, 0.011742, 0.034659, 0.19675, 0.16269, -0.15316, -0.018947, 0.16043, -0.043591, -0.086772, -0.15707, -0.13126, 0.044186, 0.077247, -0.031292, 0.072281, -0.0136, -0.22533, 0.17049, -0.023906, 0.21507, -0.056881, 0.097496, -0.12244, -0.030798, -0.059686, 0.22239], [-1.2577e-38, -8.7579e-39, -5.2196e-39, -7.7694e-40, -3.5288e-40, 2.2962e-39, -1.2081e-38, -6.147e-39, 1.1641e-38, 6.6775e-39, 2.4379e-40, 9.2362e-40, -7.9264e-39, -6.5633e-39, 1.0847e-38, -3.1515e-39, 1.2208e-38, -5.7789e-39, 1.2682e-38, -2.7925e-39, 1.1443e-38, -5.0969e-39, 5.4068e-39, 1.0006e-38, -4.8984e-40, 9.1858e-40, -2.5981e-39, 1.2028e-38, 1.4754e-39, 8.9567e-39, -2.6789e-39, 6.7007e-39, -7.3527e-39, 7.7316e-39, 3.749e-39, 6.0057e-39, 4.3421e-39, -3.8423e-39, -7.4563e-39, -7.9504e-40, 3.6416e-39, -8.2111e-39, -7.9539e-39, -7.5087e-39, -1.012e-38, 4.3758e-39, -4.3911e-39, -1.2446e-38, 2.1041e-39, -2.6641e-39, 1.1946e-38, -4.9852e-39, -1.0908e-38, -1.1392e-38, 2.5468e-39, 7.3583e-39, 2.3567e-39, -1.1557e-38, -6.8499e-40, -1.1273e-38, 2.3263e-39, -1.1619e-38, 1.1336e-38, 8.5136e-39, 7.2731e-39, -9.9702e-39, -1.1789e-40, 2.9798e-39, 7.5298e-39, -4.8885e-39, 4.3633e-39, -4.6659e-39, 5.0699e-39, -2.398e-39, -3.9748e-39, 1.2773e-38, 4.3405e-39, -7.3366e-39, -6.0717e-39, 1.1358e-38, -1.4483e-39, -1.045e-38, -6.5824e-39, 1.2111e-38, -1.0449e-40, -2.3545e-39, 9.545e-39, 1.3205e-38, 1.09e-38, 6.0004e-39, 1.2184e-38, 1.0682e-38, 9.9743e-39, -4.7031e-39, -8.1535e-39, -2.2719e-39, -1.633e-39, 1.0236e-38, 1.0518e-38, -7.4209e-39, 1.0428e-38, 7.8503e-39, -7.2889e-40, 9.1047e-39, 3.6857e-39, 9.8934e-39, 1.2293e-38, -8.7962e-39, 1.6888e-39, -4.1519e-39, 8.1159e-39, -7.9605e-39, 7.6701e-39, 1.1662e-38, -5.2808e-40, 6.9837e-39, -8.1048e-39, -1.0396e-38, -7.2859e-39, 7.9085e-39, -4.2627e-39, -1.2119e-38, 1.0057e-38, -3.27e-40, 1.0937e-38, -6.5081e-41, 3.5618e-39, -3.5524e-39, 8.6602e-39, -4.8771e-39, -6.9968e-39, 1.0098e-38, 1.1099e-38, 1.1424e-38, -4.5796e-39, -1.1122e-38, 7.2268e-39, -1.2443e-38, 7.6421e-39, -6.5298e-39, 3.8663e-40, -7.429e-40, -8.3782e-39, 8.9471e-40, -3.2526e-39, 1.1833e-38, -3.6237e-39, 4.5841e-39, 1.0573e-39, 8.4353e-39, -3.9428e-39, -7.2665e-39, -1.0738e-38, 9.8371e-39, 7.0127e-39, 3.3592e-39, 1.2381e-39, -4.4806e-39, -9.4388e-39, -1.3191e-38, 3.4192e-39, -1.5563e-39, 4.6342e-39, 9.4487e-40, 6.7263e-39, -1.1289e-38, 4.5201e-39, 9.3726e-39, -1.1593e-38, 8.0371e-41, 9.5458e-39, -1.2442e-38, -1.1907e-38, -7.8222e-39, -1.1825e-38, 6.051e-39, -3.2874e-39, -7.1445e-40, -6.1199e-40, -3.8873e-39, 1.0685e-38, -7.8067e-39, 8.6006e-39, -2.9664e-39, 4.9225e-39, -7.4559e-39, 3.0214e-39, 1.1104e-38, -1.0449e-38, 9.853e-39, 3.1074e-39, -6.2504e-39, 7.3947e-39, 7.376e-39, -4.7421e-39, -8.6515e-39, -7.4562e-39, -1.3893e-39, -3.3549e-39, -4.1568e-39, 6.7239e-41, -1.1692e-38, 2.6839e-39, -9.1225e-39, 2.4386e-39, 3.1711e-39, 1.0558e-38, -1.2065e-38, -1.0097e-38, 1.1473e-38, 3.0924e-39, 1.2215e-38, -5.9365e-39, -1.0582e-38, 5.7011e-39, -4.6539e-39, 8.1812e-39, 1.124e-39, 5.7585e-39, -1.1228e-38, -8.1977e-39, 8.509e-39, -1.2284e-38, -5.5962e-40, -1.2261e-40, 1.1218e-38, 1.0328e-38, 1.1085e-38, 6.0341e-39, 4.3945e-39, -4.2508e-40, 8.5914e-39, 1.3111e-38, 1.6226e-39, 4.3518e-39, -1.2154e-38, 9.148e-39, 1.1938e-38, -7.4702e-39, 5.7272e-39, 7.0488e-39, -8.5066e-39, -7.5463e-39, -5.7361e-39, -6.4092e-39, -1.2123e-38, 1.0978e-38, -1.0446e-38, -1.121e-38, 8.379e-39, 2.526e-39, 8.9836e-39, 4.7374e-39, -8.1866e-39, -2.2944e-39, -5.256e-41, -8.4318e-39, -6.2521e-40, -1.098e-38, 3.8672e-39, -1.2178e-38, 4.5611e-39, -5.7625e-39, -2.5225e-39, -6.7537e-39, -9.2877e-40, 1.2259e-38, -2.129e-39, -4.0882e-39, -5.76e-39, -7.6479e-39, 3.4419e-39, 7.8584e-39, -3.7192e-39, -7.3458e-39, 8.279e-39, 2.2807e-39, 3.6251e-39, 1.0379e-38, 6.7183e-39, -1.6238e-39, 4.0109e-39, -7.4345e-39, 1.0648e-38, 7.9453e-39, -8.3538e-39, 1.1796e-38, -7.2953e-39, 6.5604e-39, -6.3962e-39, 2.654e-40, 7.1154e-39, 7.5774e-40, 4.3144e-39, -9.4714e-42, -9.7594e-39, 1.1592e-38, -2.0876e-39, -6.1322e-40, -9.6615e-39, 7.6174e-39, -9.4639e-39, 3.9856e-39, -1.2087e-38, 5.4951e-39, 4.3636e-39, -6.9009e-39, 1.2763e-38, -3.8234e-39, 3.8892e-39, 2.2582e-39, -7.7498e-39, 5.262e-39, -8.8454e-39, 7.8353e-40, 1.8393e-40, 4.1488e-39, 5.7703e-39, -3.1782e-39, -8.8661e-39, 2.7209e-39, -2.8327e-39, -6.6235e-39, 6.9687e-39, 3.8111e-41, 5.1503e-39, 9.0942e-39, -2.7018e-39, -7.2949e-39, -5.2126e-39, 1.2838e-39, 9.7489e-39, -6.5325e-39, -7.4167e-40, 1.0765e-38, -1.1415e-38, 8.1854e-39, -1.2461e-38, 4.3302e-39, 7.7713e-39, 9.8008e-39, -1.2712e-38, 1.2155e-38, -7.9157e-39, 9.6452e-39, -1.2519e-38, 1.1832e-38, -4.226e-39, -1.4476e-39, -1.1319e-38, -6.1273e-39, 3.9272e-39, 1.0317e-38, 8.8632e-39, 8.3713e-39, -8.5729e-39, -1.0024e-38, -2.5644e-39, 6.8343e-39, 1.0399e-38, 1.0234e-38, 6.7579e-39, -1.1258e-38, -1.3362e-38, 1.2353e-38, -1.1117e-38, 1.2473e-38, -1.0094e-38, -1.2277e-38, -8.0937e-39, -3.8687e-39, 1.2234e-38, 1.0793e-38, 5.8543e-39, -3.3972e-39, 6.2998e-39, -1.38e-39, -2.2213e-39, -2.9725e-39, 9.2925e-39, -1.2079e-38, -6.1322e-39, -4.6214e-39, -8.2052e-41], [0.27551, -0.016673, -0.030041, -0.043564, 0.028525, 0.46753, -0.0053771, -0.38072, -0.017171, -0.0030963, 0.0094458, -0.30403, 0.013019, 0.27482, 0.0070331, -0.070188, 0.045085, -0.20438, -0.023116, 0.066828, -0.20012, 0.0056189, 0.1208, -0.14258, -0.084018, 0.078944, 0.11603, -0.14321, -0.027632, 0.0039837, -0.094739, -0.19471, 0.084631, -0.054772, -0.083144, -0.20315, -0.036032, 0.09924, 0.03082, -0.0042701, -0.0011622, -0.27414, 0.1088, 0.11001, 0.19671, -0.057934, 0.04688, 0.052536, -0.23365, 0.10996, -0.20071, 0.0053508, -0.052223, -0.22745, -0.35286, -0.030672, -0.0083235, 0.09423, -0.075836, -0.059175, 0.010953, -0.26983, -0.35582, -0.36939, 0.12034, 0.16106, 0.1279, 0.12627, -0.070764, -0.15594, 0.10728, 0.037475, -0.3301, 0.0086484, 0.36927, -0.15124, -0.15043, -0.10129, -0.043248, 0.21555, -0.15083, 0.11588, -0.18039, -0.27579, 0.14717, 0.062529, -0.13545, 0.059971, 0.029079, 0.034253, 0.10313, 0.12552, 0.077894, 0.073984, 0.094116, 0.17362, -0.06752, 0.021941, -0.064722, 0.1064, -0.015169, 