{"type": "mlp", "dim": 384, "T": 2.022302061348028, "layers": [{"W": [[-0.5311532020568848, 0.43722081184387207, -0.22132091224193573, 0.23979836702346802, 0.17132124304771423, -0.5743778347969055, -0.26752978563308716, 0.26411914825439453, 0.2802309989929199, -0.20184224843978882, -0.11626619845628738, 0.21602246165275574, -0.09515461325645447, -0.21716539561748505, 0.18533910810947418, 0.195979043841362, 0.3248939514160156, 0.35211870074272156, 0.17134036123752594, 0.23430021107196808, -0.0258083026856184, 0.48065271973609924, -0.5219773054122925, -0.6197276711463928, -0.04215557128190994, -0.34506261348724365, 0.20456206798553467, 0.24495986104011536, 0.14801254868507385, -0.38435831665992737, 0.21094560623168945, -0.13175952434539795, 0.04595927149057388, -0.15719319880008698, -0.00936555489897728, 0.39059266448020935, -0.3261326253414154, -0.578296422958374, -0.07801908254623413, -0.20884887874126434, 0.35101646184921265, 0.2873574495315552, 0.1291133612394333, -0.002015506848692894, -0.08337925374507904, -0.4848024845123291, 0.1298670768737793, 0.11499293893575668, 0.20877745747566223, -0.35529404878616333, -0.18626956641674042, -0.052582643926143646, 0.6274436116218567, 0.05338231846690178, 0.09564386308193207, -0.34022805094718933, 0.009963355027139187, 0.12144464254379272, 0.16358646750450134, -0.20776057243347168, 0.4678095579147339, -0.10040347278118134, 0.2989239990711212, 0.08920533210039139, 0.017337625846266747, -0.032954271882772446, 0.1256289929151535, 0.06774062663316727, -0.36141738295555115, -0.0477447584271431, 0.2505453824996948, -0.22097361087799072, -0.7115326523780823, -0.10948285460472107, 0.05405488237738609, 0.5056198239326477, -0.3979411721229553, 0.002429333748295903, -0.22678247094154358, 0.05725216493010521, -0.052644893527030945, -0.23205743730068207, 0.04841965064406395, -0.1561424285173416, -0.05104264244437218, 0.2180495709180832, 0.3708079159259796, -0.02902349829673767, 0.021165719255805016, -0.4360869228839874, 0.22608846426010132, -0.9192557334899902, -0.2442987859249115, 0.5220859050750732, -0.040607668459415436, 0.06392819434404373, 0.1859200894832611, -0.0723404735326767, 0.341217964887619, 0.37558451294898987, 0.10464044660329819, 0.22932833433151245, -0.060058072209358215, -0.14065909385681152, -0.22604578733444214, -0.21884579956531525, 0.39721742272377014, -0.22980189323425293, 0.16918650269508362, 0.1786879450082779, -0.20484691858291626, -0.3957134187221527, 0.07480622082948685, 0.0021974537521600723, 0.024594208225607872, -0.19242483377456665, 0.43612146377563477, 0.3328692317008972, -0.2687259018421173, 0.24941419064998627, -0.4094061553478241, -0.5782954692840576, 0.1345077008008957, 0.26725631952285767, -0.0871860682964325, -0.01107095554471016, -0.5997479557991028, 0.3269678056240082, 0.17088723182678223, 0.5851706266403198, -0.08790957927703857, 0.42971232533454895, -0.43264225125312805, 0.6454335451126099, 0.30152708292007446, -0.04614937677979469, 0.04095815122127533, 0.04558369517326355, -0.3429827392101288, 0.1949601024389267, 0.17311780154705048, -0.04422898218035698, -0.4332379996776581, 0.4053545296192169, -0.1230735331773758, 0.9470519423484802, -0.48992568254470825, -0.6959640383720398, -0.02301476150751114, 0.2632523477077484, 0.32724902033805847, 0.3719644844532013, 0.42799142003059387, 0.5135312676429749, -0.06253083795309067, 0.3042406439781189, 0.15128599107265472, 0.3761999011039734, -0.659758448600769, 0.09759771078824997, -0.058432091027498245, -0.025940382853150368, 0.07519172877073288, -0.3131376802921295, -0.01680058427155018, -0.07097962498664856, -0.2549085319042206, -0.22858962416648865, -0.11778971552848816, -0.09565551578998566, -0.09545957297086716, 0.3068983256816864, -0.04536643996834755, -0.03231919929385185, -0.2845081090927124, -0.4339190125465393, 0.7202802300453186, 0.11494176834821701, 0.0057566422037780285, -0.1993909776210785, 0.9597920179367065, -0.4943282902240753, 0.032137107104063034, 0.23611904680728912, 0.060535430908203125, 0.09656022489070892, 0.0008430429152213037, -0.12180092930793762, -0.3581732213497162, 0.17671312391757965, -0.4285220503807068, -0.09603910148143768, 0.7330425977706909, -0.04200582951307297, -0.5911954641342163, -0.10931512713432312, 0.09203502535820007, 0.018225744366645813, -0.3854548931121826, -0.09380238503217697, 0.25338631868362427, -0.44672998785972595, 0.4998668134212494, 0.08428764343261719, -0.04237869754433632, -0.4116900563240051, -0.6895616054534912, 0.16302046179771423, -0.03556127846240997, -0.4688243865966797, 0.02625279314815998, 0.27477771043777466, 0.09290352463722229, 0.036695532500743866, -0.01721961796283722, 0.08035517483949661, 0.12356263399124146, -0.44416776299476624, -0.10804793238639832, 0.2743774652481079, 0.1233828216791153, 0.13220110535621643, -0.15122954547405243, 0.07402937859296799, 0.49011313915252686, 0.4243636429309845, 0.3634340465068817, -0.29462066292762756, -0.0059849913232028484, 0.009695506654679775, -0.08134710788726807, 0.12788739800453186, -0.030372517183423042, -0.043035343289375305, -0.4331863522529602, -0.21432916820049286, 0.028684956952929497, -0.5567595958709717, 0.019935593008995056, 0.3182687759399414, -0.3525838553905487, 0.513860285282135, -0.19890081882476807, 0.007716379594057798, -0.34108006954193115, -0.0050278943963348866, -0.5476767420768738, -0.1966080218553543, 0.4134218394756317, 0.5235788226127625, -0.7747727632522583, 0.3898465633392334, 0.03587879240512848, -0.14213967323303223, 0.49284878373146057, -0.7533827424049377, 0.25568583607673645, 0.11345208436250687, -0.3066795766353607, -0.3477393686771393, 0.3510444164276123, -0.8143967390060425, 0.2942458689212799, -0.16231368482112885, 0.24562998116016388, -0.2639440894126892, 0.24488100409507751, 0.10135839134454727, 0.18848875164985657, -0.20873214304447174, 0.17247967422008514, -0.5729191899299622, 0.04396502301096916, -0.8642479181289673, -0.4228934049606323, 0.2888452410697937, 0.32841452956199646, 0.2571081817150116, 0.0919349193572998, -0.0028374381363391876, -0.2503832280635834, -0.05112912133336067, 0.3142499625682831, -0.49495139718055725, -0.3067801892757416, -0.32032451033592224, 0.8260768055915833, 0.48039206862449646, 0.840991735458374, -0.8129777312278748, -0.23395147919654846, -0.2488730251789093, -0.5784490704536438, -0.2811089754104614, 0.051342833787202835, -0.495810866355896, -0.494913786649704, 0.161373570561409, 0.29996228218078613, -0.3009625971317291, -0.329793244600296, -0.11309036612510681, -0.027164189144968987, 0.07674797624349594, 0.22330424189567566, 0.3313857316970825, 0.4608384966850281, 0.5095560550689697, 0.4457734227180481, 0.17497722804546356, -0.018216660246253014, 0.02870386838912964, -0.20259015262126923, 0.18807196617126465, 0.11899411678314209, 0.10495547205209732, -0.13375990092754364, 0.22378009557724, 0.035479217767715454, -0.2583601176738739, -0.1956280916929245, 0.16039584577083588, 0.015652932226657867, 0.08224830031394958, 0.2250734120607376, -0.04602488502860069, 0.27073726058006287, -0.49801474809646606, -0.1504676789045334, -0.2595260739326477, -0.026761220768094063, 0.29630953073501587, -0.2505355477333069, -0.30308157205581665, -0.11859584599733353, -0.31899493932724, -0.8682518005371094, 0.06423621624708176, -0.2609844207763672, -0.054056160151958466, 0.2958751916885376, -1.5466376543045044, 0.40225866436958313, 0.03721468895673752, 0.6640703082084656, -0.19141289591789246, -0.43477222323417664, -0.26367783546447754, -0.015045613050460815, 0.19650202989578247, -0.3543633222579956, -0.21340718865394592, 0.3368322253227234, 0.19051416218280792, 0.3538592755794525, 0.7526854872703552, 0.17593948543071747, -0.1716182380914688, 0.49868080019950867, 0.16334283351898193, 0.010143440216779709, -0.055431414395570755, -0.10932504385709763, -0.08022579550743103, 0.1028706282377243, -0.11802876740694046, 0.11238788813352585, 0.4237558841705322, 0.21109986305236816, 0.031040722504258156, 0.19184353947639465, 0.2825256586074829, 0.270124614238739, 0.5301662683486938, -0.4681502878665924, -0.0687280148267746, -0.4416085481643677, 0.023689672350883484, -0.34514981508255005, 0.08465554565191269, 0.409178763628006, 0.11186058074235916, 0.8678056597709656, -0.24536597728729248], [0.043172452598810196, -0.279155433177948, 0.5733145475387573, -0.05116036906838417, 0.11228887736797333, 0.5601115226745605, -0.5519235730171204, -1.7459862232208252, -0.47558534145355225, 0.37309885025024414, -0.5506787300109863, -0.5939673185348511, 0.20628906786441803, 0.3891150951385498, 0.15696227550506592, 0.1404651552438736, -0.2082296907901764, 0.3252241909503937, -0.3023449182510376, 0.32758092880249023, 0.06153843551874161, -0.6580983400344849, -0.03845249116420746, 0.04816214367747307, -0.3424558639526367, 0.24698896706104279, -0.4226193130016327, 0.14619944989681244, -0.5584970116615295, -0.5909433364868164, 0.44966721534729004, 0.5041611790657043, 0.8983799815177917, 0.1773313283920288, 0.33031198382377625, -0.05508310720324516, -0.06167000159621239, -0.0022482131607830524, -0.3598814904689789, 0.5693682432174683, 0.05468739941716194, 0.29624420404434204, -0.41843265295028687, 0.466240793466568, 0.3442022204399109, -0.6421009302139282, 0.8119606375694275, 0.03466906026005745, -0.23073972761631012, 0.43425747752189636, 0.08494151383638382, 0.28794750571250916, -0.16866889595985413, 0.22106683254241943, -0.44888901710510254, 0.15104831755161285, -0.24278630316257477, 0.18337781727313995, 0.06374327093362808, 0.14294593036174774, -0.11995944380760193, 0.30247771739959717, 0.5887558460235596, -0.3418548107147217, 0.09026908129453659, -0.009799253195524216, -0.07213305681943893, 0.2722157835960388, 0.23444971442222595, -0.047151125967502594, 0.7223188877105713, 0.01816057413816452, -0.1563536822795868, 0.18773597478866577, 0.08013845980167389, -0.2946180999279022, 0.05359400436282158, -0.25570598244667053, -0.05599256977438927, 0.06501052528619766, 0.32408592104911804, -0.03954075649380684, -0.11891316622495651, -0.24112698435783386, 0.006980878300964832, -0.31847083568573, -0.25955620408058167, -0.21435540914535522, 0.1756933033466339, -0.005402360577136278, 0.47938650846481323, -0.021720359101891518, 0.10832998901605606, -0.21360613405704498, -0.1216815635561943, 0.04274999722838402, -0.20697583258152008, -0.380783349275589, -0.3193103075027466, 0.06801833212375641, 0.5975447297096252, -0.33188188076019287, -0.15241144597530365, -0.0022056757006794214, -0.6597710251808167, 0.9003075361251831, -0.6883293986320496, -0.23324687778949738, -0.06497279554605484, -0.3278774917125702, 0.1927674412727356, 0.5051026344299316, 0.12505368888378143, 0.10215434432029724, -0.10922537744045258, -0.2664574384689331, -0.4072422385215759, -0.03793139383196831, 0.6377670168876648, -0.14855019748210907, -0.09152533859014511, 0.024958936497569084, 0.24572917819023132, 0.3531542420387268, -0.033005714416503906, 0.3703562617301941, 0.4284493327140808, 0.18609003722667694, -0.008288213051855564, 0.13980431854724884, -0.25338712334632874, 1.1882548332214355, 0.3315426707267761, 0.7541821002960205, 0.13445326685905457, 0.14520753920078278, 0.07266631722450256, -0.07533825933933258, -0.21255330741405487, -0.3907780051231384, -0.3766821324825287, -0.0616602785885334, 0.2946488857269287, -0.15217988193035126, 0.4427475929260254, 0.42078208923339844, 0.4492325782775879, -0.13076446950435638, -0.3320809006690979, -0.09099717438220978, -0.09827908873558044, -0.12150449305772781, 0.7800886631011963, -0.6244765520095825, -0.06928357481956482, -0.5798497200012207, 0.008181130513548851, 0.5289840698242188, -0.19724905490875244, 0.47539472579956055, -0.3853326141834259, 0.5864185690879822, -0.15246449410915375, 0.1607770323753357, 0.3680885434150696, 0.008976465091109276, -0.009707512333989143, -0.5133202075958252, 0.7130944132804871, 0.6151330471038818, 0.14955395460128784, -0.6562321782112122, -0.435468465089798, 0.39033839106559753, 0.2704012393951416, 0.30692535638809204, 0.09236786514520645, 0.21804344654083252, 0.54939866065979, -0.04616158455610275, -0.9848229885101318, 0.3315846025943756, -0.610480010509491, -0.45974960923194885, 0.5935781002044678, -0.7793834805488586, 0.2250324934720993, -0.7700724601745605, 0.5461375117301941, 0.8658415675163269, -0.8434389233589172, -0.35709822177886963, -0.14395679533481598, -0.07668744027614594, 0.24064840376377106, -0.6407177448272705, -0.3453361392021179, 0.14170405268669128, 0.18216270208358765, -0.573607861995697, 0.37215515971183777, 0.21827328205108643, -0.5851523876190186, -1.0935410261154175, 0.2678169906139374, 0.10871335864067078, -0.06667276471853256, 0.4385756850242615, -0.039693109691143036, -0.024482648819684982, 0.42226338386535645, 0.26034069061279297, -0.5532494187355042, 0.10502404719591141, 0.2402338832616806, -0.18275682628154755, 0.047414109110832214, 0.048482075333595276, -0.021237101405858994, 0.02310708351433277, 0.2655431628227234, -0.5196878910064697, -0.38902518153190613, -0.7562648057937622, -0.3477807343006134, -0.15420043468475342, -0.04372592642903328, -0.10722701251506805, 0.4321766495704651, 0.09360371530056, -0.30265694856643677, -0.7734588980674744, -0.01119252946227789, -0.02886962890625, -0.12113790214061737, 0.28018420934677124, -0.31179454922676086, -0.6254158616065979, 0.314075231552124, -0.09147453308105469, -0.38523536920547485, -0.21554304659366608, 0.7780712842941284, -0.02181725576519966, 0.4197451174259186, -0.09063226729631424, -0.3175521194934845, 0.07883897423744202, -0.2612755000591278, 0.12068259716033936, 0.29626500606536865, 0.15494422614574432, 0.1459229588508606, -0.1944555640220642, 0.14775416254997253, -0.1247154176235199, -0.35358211398124695, 0.04343481734395027, -0.273487389087677, -0.16637566685676575, -0.20882198214530945, 0.008055399172008038, 0.06510302424430847, 0.25139737129211426, 0.1698617786169052, 0.6206164956092834, 0.18312983214855194, -0.2587646543979645, 0.1063075140118599, -0.4652843177318573, -0.07344263792037964, 0.09420657157897949, 0.2322172373533249, 0.39466431736946106, 1.0416210889816284, 0.08030207455158234, -0.24587535858154297, -0.15756560862064362, 0.3564898669719696, -0.13915541768074036, -0.27430787682533264, -0.16294896602630615, -0.7706592679023743, 0.32218748331069946, 0.2586892545223236, 0.2721679210662842, -0.17641681432724, 0.15132740139961243, -0.18759971857070923, -0.08636783808469772, 0.22445647418498993, -0.1408078372478485, -0.036651529371738434, 0.09394820779561996, 0.009223513305187225, 0.2035650759935379, 0.004687448497861624, -0.3857082426548004, -0.11045612394809723, 0.003739776788279414, -0.14728166162967682, -0.3094569742679596, -0.11804993450641632, -0.2154339849948883, 0.045160070061683655, 0.05205821618437767, 0.19330644607543945, -0.2124912142753601, -0.20491638779640198, 0.03413127735257149, 0.38028058409690857, 0.1815735548734665, -0.07625605911016464, 0.5186200141906738, -0.4564730226993561, -0.3749788701534271, -0.2837257385253906, 0.5868881344795227, 0.2843102216720581, -0.662993848323822, 0.12366284430027008, 0.1186443492770195, -0.02509814128279686, -0.19769540429115295, 0.11940396577119827, -0.830761194229126, -0.4909404516220093, 0.45434704422950745, -0.49981725215911865, -0.3569764792919159, -0.6792448163032532, 0.48909127712249756, -0.3038676977157593, 0.16748149693012238, 0.24450115859508514, 0.7460166811943054, 0.007347651291638613, 0.31686344742774963, -0.9207270741462708, -0.020767007023096085, -0.16363345086574554, 0.18044421076774597, 0.32333457469940186, -0.09994619339704514, -0.11304661631584167, 0.020344316959381104, -0.4716845154762268, 0.723893404006958, -0.49148812890052795, 0.2442370057106018, 0.11534677445888519, 0.21923229098320007, -0.9251956343650818, -0.4202861189842224, -0.6165740489959717, 0.4646035134792328, 0.5012379288673401, -0.32910439372062683, -0.7526289224624634, -0.06673175096511841, 0.16473481059074402, -0.418648898601532, 0.26341092586517334, 0.4323064386844635, 0.8091608881950378, -0.12770865857601166, -0.2315853387117386, -0.5178669691085815, -0.31866493821144104, -0.22879518568515778, -0.5194578766822815, -0.012763836421072483, 0.14375783503055573, -0.5691173672676086, -0.42889830470085144, 0.1256268471479416, 0.03965211287140846, 0.23137198388576508, -0.18249604105949402, -0.1462319940328598, -0.4285641610622406, 0.09747545421123505, -0.5543365478515625, 0.4625110328197479], [-0.7020533680915833, 0.6378403902053833, -0.42183607816696167, 0.2078012079000473, 0.22928613424301147, -0.2048519253730774, 0.1337440460920334, 0.15428198873996735, 0.44106006622314453, 0.1886107325553894, -0.28717663884162903, -0.20532310009002686, 0.0051781972870230675, -0.0498400442302227, -0.0036253619473427534, 0.09220557659864426, 0.3999321460723877, 0.26646530628204346, 0.1982065588235855, 0.22479355335235596, 0.0784388855099678, 0.3162012994289398, -0.9007010459899902, -0.3092331290245056, 0.08169879019260406, -0.3317364752292633, 0.37012454867362976, 0.3364226520061493, 0.38123318552970886, -0.3209535777568817, 0.14087262749671936, -0.02633948251605034, -0.035024043172597885, -0.13856135308742523, -0.17294898629188538, 0.6799561381340027, -0.4501263201236725, -0.49859818816185, 0.16439184546470642, -0.3644735515117645, 0.3234444558620453, -0.19574132561683655, 0.3693954050540924, 0.07878735661506653, -0.47863316535949707, -0.3838408887386322, 0.002010288182646036, 0.0934290885925293, 0.0576620027422905, -0.1607447862625122, -0.1509687751531601, 0.22291846573352814, 0.5290639400482178, -0.11093036085367203, -0.07750144600868225, -0.24205969274044037, -0.16880151629447937, -0.027430448681116104, 0.31602370738983154, -0.19068744778633118, 0.28314006328582764, -0.34367820620536804, -0.08422324061393738, 0.05611012503504753, 0.05056099221110344, 0.13017059862613678, 0.5385519862174988, 0.15105807781219482, -0.46932920813560486, 0.24747015535831451, -0.011523890309035778, -0.2646462917327881, 0.053708821535110474, 0.1884782612323761, 0.11448826640844345, 0.46491971611976624, -0.14088909327983856, -0.08641138672828674, -0.20167265832424164, -0.17171195149421692, -0.14732760190963745, -0.11385104060173035, -0.0012457786360755563, -0.25731685757637024, 0.1176089346408844, 0.07058582454919815, 0.3200604021549225, -0.28649190068244934, 0.1423390954732895, -0.5031856894493103, 0.39742305874824524, -1.079120397567749, -0.08983613550662994, 0.3264455199241638, -0.0336814746260643, 0.14684753119945526, 0.3207271695137024, -0.13351184129714966, 0.26355546712875366, 0.3705396056175232, -0.09435505419969559, -0.03311439976096153, -0.29317107796669006, 0.21175992488861084, 0.13750308752059937, 0.04166522994637489, 0.2847960889339447, -0.17578615248203278, 0.13208311796188354, 0.13050396740436554, -0.15096861124038696, 0.3234054446220398, -0.2242802083492279, 0.04873945191502571, -0.06292770057916641, -0.2926417589187622, 0.3627857267856598, 0.5079896450042725, -0.3694058656692505, 0.06544723361730576, -0.32161781191825867, -0.40673017501831055, 0.3171389698982239, 0.30020415782928467, -0.27559658885002136, -0.5599119663238525, -0.206452876329422, 0.21771059930324554, -0.07553054392337799, 0.29299798607826233, 0.034674979746341705, 0.4941750466823578, -0.1883877068758011, 0.5968887209892273, 0.08711464703083038, -0.22633956372737885, 0.1171899065375328, 0.15319590270519257, -0.12234504520893097, 0.3061101734638214, 0.019082408398389816, 0.09832873195409775, -0.08000073581933975, 0.6001285910606384, -0.16997030377388, 0.9152305722236633, -0.8248974680900574, -0.7723386287689209, -0.13220588862895966, 0.18572722375392914, 0.07964646071195602, 0.1681107133626938, 0.5140392184257507, 0.43918147683143616, -0.3641199767589569, 0.09886655956506729, 0.14643920958042145, 0.18210569024085999, -0.6015673279762268, -0.23852010071277618, 0.05624772608280182, 0.3749867379665375, 0.1007719486951828, -0.5896159410476685, -0.04708995670080185, -0.38268712162971497, -0.17824001610279083, -0.20262742042541504, -0.0695214718580246, -0.06473663449287415, 0.1941368728876114, 0.4043877422809601, 0.6086719632148743, 0.23915916681289673, -0.829746663570404, -0.09622889757156372, 0.9018877744674683, -0.3620074391365051, -0.287273108959198, -0.17721083760261536, 0.9234234094619751, -0.13503456115722656, -0.11543115973472595, -0.04640379548072815, -0.15624603629112244, 0.25737059116363525, 0.017025424167513847, 0.18311692774295807, 0.017416102811694145, -0.3782618045806885, -0.6071919798851013, 0.12252262979745865, 0.6617660522460938, 0.1473657637834549, -0.1947225034236908, -0.017987946048378944, -0.004542346578091383, 0.15311308205127716, -0.5983250141143799, -0.25790560245513916, -0.12509439885616302, -0.4045826494693756, 0.21969465911388397, -0.403189480304718, 0.26006636023521423, -0.8471346497535706, -0.5686251521110535, 0.17454694211483002, -0.03461775183677673, -0.02010507695376873, 0.10768096894025803, 0.5318582653999329, -0.2351735532283783, 0.14233392477035522, -0.006948341615498066, -0.37456604838371277, -0.2222089171409607, -0.3104277551174164, -0.3161567151546478, 0.02599634788930416, -0.038986556231975555, 0.2382211685180664, -0.35535645484924316, 0.05069573596119881, 0.6684035658836365, -0.08106943219900131, 0.16140423715114594, -0.20024099946022034, -0.19227570295333862, 0.15852485597133636, -0.10468558967113495, 0.17117099463939667, -0.11092226952314377, -0.06813082098960876, -0.5248090624809265, -0.04390709847211838, -0.6233181357383728, -0.6034876108169556, -0.013930833898484707, 0.08022113889455795, -0.53632652759552, 0.5411240458488464, -0.35524818301200867, 0.04690176993608475, -0.22683008015155792, -0.206143319606781, -0.2125982642173767, -0.2322373241186142, 0.42479413747787476, 0.5942610502243042, -0.7212568521499634, 0.4725516438484192, 0.08598446100950241, -0.15835827589035034, 0.16113433241844177, -0.7501063346862793, 0.3429803252220154, -0.1064075231552124, -0.39226236939430237, -0.20873099565505981, 0.31777137517929077, -0.4442404508590698, 0.282076358795166, -0.10230537503957748, 0.2803763747215271, -0.36569324135780334, 0.3605295717716217, 0.37077537178993225, 0.005262367427349091, -0.11969608068466187, 0.20324957370758057, -0.6078052520751953, 0.02203468047082424, -0.7722102999687195, -0.45460638403892517, 0.5104090571403503, 0.32401904463768005, 0.16511929035186768, 0.034423813223838806, -0.1556178480386734, -0.0052642482332885265, 0.17713062465190887, 0.3583690822124481, -0.3802277147769928, -0.2280278503894806, -0.21165847778320312, 1.4025710821151733, 0.3294343054294586, 0.4419907331466675, -0.9941407442092896, -0.4245777130126953, -0.3631576597690582, -0.258698433637619, -0.13959835469722748, 0.23281718790531158, -0.006999517325311899, -0.33815038204193115, -0.07580208033323288, 0.6185261011123657, -0.036430492997169495, -0.14405591785907745, -0.24525178968906403, 0.10682255774736404, 0.043872397392988205, 0.4685188829898834, 0.14455759525299072, 0.7421292662620544, 0.3919837474822998, 0.09232800453901291, 0.017197102308273315, 0.1629391312599182, 0.10947097837924957, -0.30213603377342224, -0.024501044303178787, 0.2547225058078766, 0.23832087218761444, -0.14949974417686462, 0.4903351068496704, -0.2570064663887024, -0.1122296005487442, 0.16419975459575653, 0.03073652647435665, 0.07755573093891144, 0.03350374102592468, 0.09566102176904678, -0.28796014189720154, 0.43713828921318054, -0.6076013445854187, -0.06442423164844513, -0.2567490339279175, 0.23039554059505463, 0.3328024446964264, -0.0026558509562164545, 0.014310224913060665, -0.07871171087026596, -0.44030579924583435, -0.5388947129249573, -0.0738317221403122, -0.2226206511259079, 0.029642222449183464, 0.8015455007553101, -0.53548663854599, 0.012409876100718975, 0.0966838151216507, 0.8428990840911865, 0.06989683210849762, -0.07526281476020813, -0.48399025201797485, 0.28253617882728577, -0.13576549291610718, -0.18452422320842743, -0.07274799793958664, -0.06329507380723953, 0.40256577730178833, 0.11319668591022491, 0.4812423288822174, 0.08394061028957367, -0.2142190784215927, 0.3010486960411072, -0.06066347286105156, 0.09768489748239517, -0.24714185297489166, -0.14105522632598877, -0.023498214781284332, 0.25947535037994385, -0.048647698014974594, 0.2495741993188858, 0.2866721451282501, 0.47501465678215027, 0.2129441350698471, 0.25940510630607605, -0.03161165490746498, 0.37244880199432373, 0.5016210079193115, 0.2855740189552307, -0.135739266872406, -0.48197054862976074, 0.08089741319417953, -0.2197447419166565, -0.11308958381414413, 0.2981340289115906, 0.0790688619017601, 0.5442413687705994, -0.0975150465965271], [-1.0072756168022613e-38, -1.3912749764095017e-38, 1.2825633625859538e-38, 1.9298528307850305e-39, -8.753814817043094e-39, -1.1426046146959662e-38, 2.3561908820635345e-39, 1.3297467634379276e-39, 8.20361319190599e-39, -2.3366091373230595e-39, 2.975096769608019e-40, 1.1180434959923594e-38, -1.143548108951996e-38, -1.3552617460062003e-38, 1.1034380423583947e-38, 1.4081045709660427e-39, 9.522411610442148e-39, -7.395950999918489e-39, -7.1764614175559e-39, -4.9330386281104406e-39, 5.5668122923614115e-39, 3.1295913265982945e-39, 2.7672015307392536e-39, -1.3093313862410258e-38, -1.3129414113448194e-38, 4.885985828275342e-39, 7.933259277885339e-39, -3.578575762358752e-39, -4.5832535119380014e-39, 1.3713309960159987e-38, -7.11160371943309e-40, -2.1004062681764683e-39, -5.27090009564994e-39, -1.397627342607979e-38, -3.198133038383814e-39, -1.277940058562607e-38, -1.0493886994207686e-38, 1.0124026876235329e-38, -1.355344562745442e-38, 8.623751898778322e-39, -4.650587304447273e-39, -9.308458558312107e-39, -1.0933785410725461e-39, 6.211439013218578e-39, -9.185092445408343e-39, -1.4578422586587878e-39, 1.0536180984457937e-38, -5.8244185942521e-39, -1.365004413709265e-38, 2.709816957326688e-39, 1.0824578017505235e-38, -5.7300495504706095e-40, -9.40763685842316e-39, -1.3508797455784102e-38, 7.712469290547857e-39, 5.398042707915059e-39, -5.477905509993859e-39, -1.1743127759571688e-38, -7.866521037223406e-39, 1.0973659358527824e-38, 8.581459309826534e-39, 3.9540578897699796e-40, 8.329522661522504e-39, 4.796633432996134e-39, -7.090839278788725e-39, -1.2584203913441015e-38, -8.525680624454085e-39, 4.9854850257347255e-39, -5.980804904169214e-39, -5.506094029902217e-39, 8.288178751631065e-39, -3.539567817007342e-39, 1.2887481334880978e-38, 5.3804676225754974e-39, -1.386972849994178e-38, 1.363271287768588e-38, -6.00380861975957e-39, 6.74074447565567e-39, 8.319253946375932e-39, 4.664685768296845e-39, -1.1507799300666836e-39, -1.4824784869600824e-39, -2.5978167762670627e-39, 7.667267605984131e-39, 1.547145608491744e-39, -6.041355010812689e-39, -4.639664182917861e-39, -8.676505180766294e-39, -1.8274753662799237e-40, 1.726253973007885e-39, 1.0093998451443313e-38, -8.629938631498316e-39, -9.273611068101277e-39, -7.766916742379198e-39, -1.3195458711370286e-38, 1.3548144515363878e-38, -1.351278555121357e-38, -1.2235073203651416e-39, 3.903933443701081e-40, -1.9387174448703493e-39, 1.3575779522378828e-39, -5.63540865478704e-39, -3.7376609731181554e-39, -5.855977236967159e-39, -4.859885243078828e-39, -6.576551531993802e-39, -1.3472464589201088e-38, 5.951458911729324e-39, 5.0286394132420726e-39, -6.238447639819975e-39, -8.697860969362604e-39, 1.638894224144947e-39, -1.3704539233071778e-38, -2.25779310519711e-39, -2.4970858374575375e-40, -1.3632798356892205e-38, 9.486443081459859e-39, 9.208419860943958e-39, -9.34614227661473e-39, -1.2245470838256706e-39, 1.7453760918520613e-39, -1.7629876109516956e-39, 1.2247906294987702e-38, 3.26790789281794e-39, -8.584368405438473e-40, 1.0317045930606822e-38, -3.7675590771529897e-39, 1.3281548883824546e-39, 8.933061910107203e-39, -7.077760960221181e-39, -6.095722588631563e-39, 9.726349582447661e-39, -6.447192065558121e-39, 1.326778252771102e-38, -3.872646652888101e-39, 4.571359290572812e-39, -3.465158868551694e-39, -1.2416628235286268e-38, -2.3470586199715296e-39, 1.3367399434241406e-38, 7.376611679812342e-39, 6.220941218105165e-39, 1.0474326268944176e-38, 2.524638167863092e-39, 1.1842457399916889e-39, -1.2620402255371454e-38, -4.743787665309517e-40, 1.3421956187352964e-38, 1.2115150081074498e-38, -1.1976445355180235e-38, -8.484489456095257e-39, 1.3144119339532818e-38, 1.292864447727052e-38, 1.288509071970084e-38, 5.574760457251062e-39, 6.382157803828806e-39, 1.0435805975458351e-38, 1.3624251837558288e-38, -1.36585107824141e-38, 4.4714705321403464e-39, -6.81440232813444e-39, -8.90561047319108e-39, 1.1536602990601032e-38, 4.6134528951426655e-40, 6.390901906246193e-41, -1.1808146607017895e-38, -7.262398848477548e-39, 1.3451324600568283e-38, -7.246510926489033e-39, 5.371824413647542e-39, 5.926081396540401e-39, -9.780889519977647e-39, -3.24696688856707e-39, -1.3769350688345265e-38, 2.997041103559346e-39, 9.032426582914011e-39, 1.350791884164697e-38, -5.071419654059445e-39, 4.3169829816423926e-39, -5.043631905511884e-39, -1.6861516135558372e-39, -1.2465600814017491e-39, 1.1257240128753237e-38, -4.0704006947705475e-39, 1.2103957910239936e-38, 7.026152539078563e-39, 2.7026843481432747e-40, 1.3760682256044952e-38, 5.2830255312617426e-39, -5.257820375783932e-39, 5.25036406665526e-39, -1.2066534833451677e-38, 9.457419387666763e-40, -1.103648096998197e-38, 4.1441720524249275e-39, 5.342126695293106e-39, 4.5651137033173166e-39, 8.030465951057088e-39, 7.117706374245224e-39, 1.3069941605323784e-38, -1.3110415308868878e-38, -4.519326275995503e-39, 3.07393735678917e-39, 1.1316430975886317e-38, 1.8557759900654277e-39, -1.273878535093608e-38, -1.2422492669359467e-38, 1.0120812297558168e-38, -9.003194095649731e-39, 9.000434938973476e-39, 1.3708014453263303e-38, -3.722849248350242e-39, -5.397354670369076e-39, 6.060296362154968e-39, -1.3759551408184242e-38, -1.0348799353808423e-39, -4.7626659582209007e-39, -1.1734834875259814e-38, -6.043728810411255e-39, 2.303988310372042e-39, -2.340140409453158e-40, 5.187637743496688e-39, 4.904852910799011e-40, 1.33518057849304e-38, -8.873681887681439e-39, -1.852489945166586e-39, -1.0275662784358382e-38, 1.0672139165362124e-38, -1.333112402089543e-38, -3.542907111247828e-39, -1.0777272983946558e-38, -9.084431571522034e-39, -7.872232729763994e-39, 3.26981646132635e-39, -1.0206369976595984e-38, -2.361486388960218e-39, 1.0713839005063502e-38, 7.131098583668777e-39, 2.896670298455152e-39, -6.686023770623786e-39, -3.3721687024590993e-40, 5.135045610832113e-39, 1.0808467289060893e-39, 1.2960098022600755e-38, 5.563384716317673e-39, 1.2630771864007458e-39, 3.295367737524849e-39, 8.63684142773358e-39, 2.88866327903e-39, -4.3390758532309377e-39, 1.103546362729687e-39, -5.8155637892560314e-39, 6.526949770252097e-39, 4.266883758945852e-39, -8.785513589604586e-39, -1.3294966316620456e-38, -1.3938832132411494e-38, -9.223579107731024e-39, -8.462861815596868e-39, 3.467164126654143e-39, -1.2331319987375102e-38, 1.8849398137049558e-39, 3.6340321490844065e-39, 1.0638439338593577e-38, 1.3467017742070257e-38, -2.4231561330766888e-39, 4.1366260601945384e-39, -8.197820224054472e-39, 9.804551845846236e-39, -5.131657271145376e-39, 1.357202824638983e-38, -1.399964147927087e-38, -9.165866630477806e-39, 1.352862022386044e-38, -8.940334649137049e-39, -1.1098994295773964e-38, -5.901204144903243e-40, 1.3442078833300668e-38, -4.02317973911973e-39, 6.12709906254626e-39, 5.445937688127217e-39, 2.4301388033244194e-39, -1.5471596214763873e-39, 1.1707824847359953e-38, 1.366895325857025e-38, -1.1236810598441845e-38, -3.203614917976253e-39, 3.3873727907970236e-40, -9.390829684642048e-40, -1.2681795943690453e-38, 1.0130786740027232e-38, 4.257701050109131e-39, -1.315363976129944e-38, -2.3038551870179312e-39, 5.1705783359919976e-39, 3.5665077799839865e-39, -3.602201654467268e-39, 7.202099574259187e-39, -1.8851920474285343e-39, 1.1763163525014604e-38, 8.463252777868414e-39, -3.7417247386646973e-39, 7.853650110828582e-39, -7.083066276207115e-39, -1.1395982689706037e-38, -2.696343472592205e-39, 6.923742844708776e-39, -5.052675885800636e-40, 1.1790572922976798e-38, 1.0503617610743957e-38, -1.0747502398071977e-38, -1.1618839592278399e-38, 1.3422874037847097e-38, 1.344240953973825e-38, -4.956665921517421e-39, -3.5334049063612414e-39, -9.620096126390231e-39, 2.1095147081945796e-40, 8.418282307551302e-39, -1.2324239226234868e-38, -1.3586135118030188e-38, -7.107115360451857e-39, -1.0529877943965404e-38, -2.8460329771483105e-39, -4.619114140938538e-40, 1.2333892771355602e-39, 3.910427060784762e-39, -5.409271312509694e-39, 4.201579046612922e-39, -6.088727306697654e-39, 8.437934117214994e-39, 1.2183334461751615e-38, -7.283328642340703e-39, 9.54478193912663e-39, 3.8660325241364875e-39, -8.945962263769777e-39, -4.0272687280386296e-39, -5.998017053206516e-39, 4.4622177583804096e-39, -5.8184238394217184e-39, -1.2032240856134256e-38, -8.31323957336705e-39, -9.379687960552201e-39, 5.466941750808982e-39, -2.7581449387643223e-39, 3.0634556442760205e-39, -4.377589140224441e-39, -1.350344449565038e-38, 1.2286014606725016e-38, 1.4019360551260849e-39, -1.3820879235475417e-38, -5.381595667839279e-39, 2.3483814457218523e-39, -1.378925333043407e-38, 1.2783006126574777e-38, 1.1417264209483738e-38, 9.263984147651366e-42, -1.73380837302906e-39, 6.64468126203081e-39, -5.641788766695111e-39, 2.581113298572311e-39, -9.237215143087369e-39, -1.3992119309114374e-39, -8.978441559575898e-40, -1.348852346960225e-38, -9.225036458133922e-39, -6.333776573049528e-39, 9.461972206377355e-39, -7.997634929336421e-39, 2.6105503754123823e-39, 5.646672291843283e-39, 7.325706710498814e-39, 4.401540133576681e-39, -4.2976170368654236e-39, -5.0792010644318406e-39, -2.1390526785240824e-39, -8.992973024650946e-40, 1.263181583136338e-38, 1.0716505676041112e-38, -4.615643124642405e-39, 8.429145173246748e-39, -1.1590417055526498e-38, 1.1443314347935536e-38, -1.2039191296517307e-38], [-1.277298824385332e-38, -1.0941845679492257e-38, 5.5495468939824655e-39, 7.113882230736082e-39, 3.292796354842813e-39, 6.5433211402108036e-40, 1.1148631089977278e-38, 1.1357051815770165e-38, -1.3200004523588556e-38, -9.038094835202205e-41, 1.0990470736204328e-38, -7.047562978314981e-39, -3.8851224131159845e-39, -1.1165574189709429e-39, 2.981342356863515e-39, -1.887521005476242e-39, -1.3685009336374483e-38, -9.026381381338914e-39, 1.2126483783053957e-38, 9.667195169074653e-39, 9.296469048651344e-39, 9.16904617669336e-40, -5.682022848202805e-39, -7.664450996070838e-39, 1.265304830569483e-38, -6.672781500135916e-39, 1.3484763785822467e-38, 8.985568563565454e-39, -9.017616259444562e-39, 1.3451834673209298e-38, 7.277646377067866e-39, 4.201745801130177e-39, -1.1093082217552977e-38, 1.209739843212843e-38, 1.2320625277495375e-38, -2.802311063762912e-39, 8.172727172453807e-39, -1.2730998335369826e-38, -4.505325903038434e-39, -9.637447003975501e-39, 7.178135969220768e-39, -9.404776808257473e-39, 1.3673556524025556e-38, 2.240928478178961e-40, -1.3001320019525798e-38, 6.730834492915965e-39, 1.888633636456916e-39, -6.277325264414202e-39, -1.1779840378038534e-38, -9.483475131312419e-39, 4.547255555687961e-40, -6.877540633041523e-39, -9.13992719460469e-39, -9.477656940088542e-39, -1.1681166545374638e-38, 3.691663351026693e-39, -2.1141488022161018e-39, 2.961260348571276e-39, 3.659781008366375e-39, 2.5401491405647035e-39, -1.2116510741883357e-38, -1.3795012667122445e-38, 2.643772359404595e-39, -8.284023901684342e-39, 9.883474376655474e-39, 1.2693393089781205e-38, -1.271457511736794e-38, -2.724523584709777e-39, -7.643996242387089e-39, -2.882800246255265e-39, -4.5962617655823286e-39, -1.3411663650132498e-38, -7.507123013585698e-39, -4.913744149555152e-39, -1.2294264050784496e-38, 1.876838907282694e-39, -9.696340775834145e-39, 1.0338628729554353e-38, 7.15033000379317e-39, -1.0520066052118202e-38, 7.701904901425312e-39, -1.3312018717632825e-38, -7.038942190162455e-39, -1.2854671332637277e-38, 6.580287393699692e-40, -7.869203122484123e-39, -5.158387039352372e-39, -8.511939491712916e-39, 1.1192689314994114e-38, 1.1604465072631355e-38, -7.334679224565886e-39, -6.025275110934562e-39, 1.3601580229703976e-38, 4.62134080419835e-39, 8.246775987204124e-39, -5.996156128845892e-42, 1.2618339544031968e-38, 1.1974585832118076e-38, 4.6060624470418164e-39, -1.3134436367144334e-38, 7.576100529193623e-39, -5.8024406291376295e-40, 6.693845818651647e-39, -2.4769940200760483e-39, -3.593791061084391e-39, 8.202092783072198e-39, -2.6545805744599324e-39, -9.39545396957432e-39, -1.0717478177175354e-38, 9.197889102984557e-39, 4.297402638200382e-39, 8.607164728856109e-39, -1.1110508765255321e-38, -6.395785431394365e-39, -5.2813509795968744e-39, -5.6417229056672876e-39, 1.3360147714688525e-39, -8.893562108994815e-39, 1.1715139625343729e-38, -5.8711603058281186e-40, 4.435686974555348e-39, -1.3750811509662248e-38, 9.832999605970494e-39, 9.017756389290995e-39, 1.3054741720881253e-38, -1.2380612062156191e-40, -8.973471153922938e-39, 5.3599806390270685e-40, 1.1335215381800591e-39, -6.690584997125163e-39, -4.1562036010396204e-39, 3.433937938766537e-39, -9.565530965487887e-39, -1.231264628403951e-38, -1.8954523547843206e-40, -8.875408287389487e-39, -1.1682088599764164e-38, -5.8301807335374036e-39, -4.605311351064938e-39, -6.0159845021160884e-40, -1.2448042544259502e-38, 4.869222094746624e-39, 1.3097479922744695e-38, 1.2631304357423901e-40, -1.3149636251586865e-38, 9.979080766980963e-39, 7.883183877262692e-39, 1.3409910625753628e-38, -4.1874161230339914e-39, -8.463547050545923e-39, -7.634481425814323e-39, 6.928613758170769e-39, 5.131019680344108e-39, -8.01516377182666e-39, 5.608027282794133e-39, 5.144208701490333e-39, -5.880749391219493e-39, -7.450209276457146e-39, 5.863509216212905e-39, -6.371856858817555e-39, -2.5420521038792566e-39, -8.521842467960299e-39, -1.3034086581517105e-38, 3.5959686788979515e-39, 4.513901849640102e-39, 1.0094610818872223e-38, 1.068521187873581e-38, -7.914336143423097e-39, -1.226941342381816e-38, 1.50455594426552e-39, -1.1699464700721791e-38, -7.770045841850035e-39, 9.095868969587853e-39, -1.086487375614536e-38, 1.1614523593008278e-38, -4.823225873953626e-39, -1.0484995755451545e-38, 1.1903352225982588e-38, -4.6840278909999206e-39, -5.118658826590299e-39, -7.547679393740187e-39, 1.339801360179151e-38, 1.105950570504929e-38, 7.370915401554862e-39, 7.278289573062991e-39, 4.5515491341826524e-39, 1.1830107756550794e-38, -1.0260759975190288e-38, -7.85723603359879e-39, -3.3932176066917224e-39, -4.1353410695027525e-39, -1.0968141045175312e-38, -1.1745210089089675e-38, -6.394326679693003e-39, -4.664849720217171e-39, -4.390155984852506e-40, -4.763401639914671e-39, -8.59154445487428e-39, 2.3432709102224597e-39, -3.7105640647135064e-39, -1.2050936980245278e-38, -6.316232316276181e-39, 1.2473638662008859e-38, -5.1674842689827684e-40, 4.688282233137611e-40, 1.944871947725664e-39, -6.022444488036626e-39, -1.2113804834548746e-39, 6.448205204347828e-39, 5.408706589228571e-39, 2.510573335176664e-39, -7.116662406889302e-39, -5.694291216257969e-39, 1.3284337467768552e-38, -1.2917242111666309e-38, -7.03562251410047e-39, -2.420235827077036e-39, -1.3548933446399293e-38, 9.412497962795903e-39, -1.33237013429299e-38, 2.0895742310472375e-39, -1.6700534967976737e-39, -9.485006750533926e-39, 1.3713915321096575e-38, -5.4369273390016086e-39, 5.03720555075449e-40, 8.232088977999535e-39, 5.549406764136033e-39, 3.262760923558475e-39, -9.709933370938095e-39, -1.2628375643633462e-38, 4.296707594162077e-39, 1.252459688066403e-38, 2.257529661085817e-39, -5.2756743195178946e-39, -3.7043997527689415e-39, 1.3689574766771253e-38, 4.314377967797213e-39, -8.58164568252229e-39, -9.77071329052972e-39, 2.1455294800261917e-39, -1.273602199036443e-38, 1.281255390599353e-38, -5.97118358891316e-39, 6.63394311189869e-39, -9.587056311198381e-39, 5.066813586007209e-39, 1.030008321269617e-38, -5.0209420807775364e-39, 3.4970594280920486e-39, -1.044008273837147e-38, 2.944551265682667e-39, -1.0547324109846248e-38, 1.1494666331459184e-38, -6.435328672759147e-39, 1.5855159630418862e-39, -1.2382735029329643e-38, 2.4882464467445766e-39, 7.015902040812027e-39, -1.2266189036051748e-38, -1.0742754798874845e-38, 5.64765320076831e-41, -4.975003313221576e-39, 7.312772725673096e-39, 1.3376746094998452e-38, -1.3069477775532092e-38, 1.234138971813974e-39, 6.526561610577479e-39, 1.3706646785962122e-38, -1.0658421854694848e-38, -5.710107672024803e-39, 6.051643344137762e-39, 2.265752480474475e-39, 8.542506015115233e-39, 9.623893645228552e-39, 2.6083111004663912e-39, -4.7881191435268966e-39, 1.3465979379908192e-38, 4.276747498836234e-39, -1.525885108191008e-39, 4.4621953376049804e-39, -2.3003070993062608e-39, 7.825720831136124e-39, -7.167785978763265e-39, 3.3843179601447955e-39, 1.3854897156995366e-38, -2.4187168195417078e-39, -9.92886103261649e-39, 1.0891555880204568e-38, 3.700619049512193e-39, 2.3203484699430343e-39, 3.355058848209693e-39, -1.0302096878589405e-38, -1.0639327761819958e-38, 2.3944056924841366e-39, -4.678089188108112e-39, -2.918599218123371e-39, -2.2240540420715615e-39, 1.0276307381651971e-38, 3.1577195906726866e-39, -6.495426159998646e-39, -3.5849334534913936e-39, -1.3204420015049644e-38, -6.528550053098356e-39, 8.99420896989648e-39, -1.6631422927716237e-39, 9.743857405460935e-39, 1.1143897503764788e-38, -5.7746879130516765e-39, -2.5811903699878487e-39, 2.2581055947546546e-39, 1.1374335431029147e-38, -1.4019094304552627e-39, -9.22211334953734e-39, -1.1662675010839407e-38, 8.198051438301085e-39, -5.5062285545547924e-39, -7.060068165810616e-39, -7.99995127569795e-39, 5.856432658968065e-39, -1.1182137537557748e-39, 6.976124782603702e-39, 1.052783204820749e-38, 1.3133419024459234e-38, 3.6170652272783616e-39, -1.1765723697308926e-38, 1.061958626905455e-39, -6.382775776451574e-39, -9.309990177533614e-39, 4.262888657024062e-39, 5.8566386498423205e-39, 5.699784306238122e-39, -8.473216009949764e-39, -5.2042361238066154e-39, -9.641363633183289e-39, 1.2334981580262382e-38, -1.2521734027901415e-38, -1.934841453318027e-39, 1.9387440695411715e-39, -7.42860545803265e-40, 1.0626835186010503e-38, 9.462251064771755e-39, 1.2658831464457098e-38, -1.3478791451767514e-38, 1.198333553972932e-38, 1.183567931924495e-38, -1.239505944932338e-38, -2.0389060811741807e-39, 9.886847302059104e-39, 7.421244437199552e-39, -9.83681534168885e-39, -1.0841687871754641e-38, 4.436010674500607e-39, -1.3893008271329609e-38, -4.187064397119446e-39, 3.862398957218493e-40, 1.18812257232309e-38, 2.8876221142710067e-39, 1.1866806362032997e-38, 6.3736379091657115e-40, 1.343131545979619e-38, 2.273564719413086e-40, 7.57041966521925e-39, -1.0301299539763204e-38, -3.505758688958577e-39, -1.2070881661288013e-38, 1.086100196848843e-39, 8.40497417603561e-39, -1.3072099604958844e-38, -1.1688540177893915e-38, 1.368173870575875e-38, 1.307571075110141e-38, 5.904442545654297e-39, -5.914701451711619e-39, 3.7266523723824196e-39, 9.675022822296371e-39, -1.2153224761648668e-38, -7.823369452312987e-39, 3.1493286154683096e-39, -2.437833333192027e-39, 2.9509916334247036e-39, -6.56848285543622e-39, 3.609173114327284e-39, 8.199497578316269e-39], [4.2811489773126784e-39, -1.1814895260422084e-38, 1.001414125455837e-38, 4.806434114455622e-39, 8.255878822028378e-39, 1.1414926843645244e-38, 5.980461586045454e-41, -4.0228630456667924e-39, -8.913543223797622e-39, 1.0089884239152055e-38, 2.915376231655424e-39, 1.2858034448951656e-40, 4.493609646578214e-39, 4.1244992232842714e-39, 5.883526764775785e-39, -2.5807405531808005e-39, -1.3545563323592592e-38, 2.418946632489857e-39, 1.2146637257567877e-39, -6.149770670400572e-39, 7.667008365768231e-40, -5.212138045846943e-39, -6.264968614555786e-39, 1.1932405347043434e-38, 5.288321038158426e-39, 1.384800977504321e-39, 3.533902367316077e-39, -2.2156588629717915e-39, -1.3667762154875573e-38, -6.892818990198056e-40, 6.794939693763432e-39, 1.0425132285055589e-38, -4.8929040387937135e-39, 4.647269029683752e-39, -8.400906206593675e-39, -1.918444859986962e-39, 6.314391010094058e-41, 3.329724773273165e-39, 7.460833921413656e-39, 1.1253742487786282e-38, -6.963674245748176e-39, 1.8289243088920355e-39, 3.844480553755172e-39, 9.527428258944431e-40, 1.070265664331819e-38, -6.604916615508665e-39, -1.0663966792718182e-38, 1.3961545779219735e-38, -1.661939978689233e-39, -6.42175989972909e-39, -1.0577381961906016e-38, -1.191404833716078e-38, 1.3382557279730007e-38, 3.102449576642787e-39, 1.782570756990635e-39, 6.027008517134932e-39, -3.2623069028560336e-39, 1.310351111133515e-38, -1.3671109856906845e-39, 2.593793648375986e-39, -3.015468178365217e-39, 1.7042073442686625e-39, 4.37607573788297e-39, 9.566413783520412e-39, 4.980635131749697e-39, -6.30073115266382e-39, -2.052871421669642e-39, -1.1153335248922016e-38, -8.950087686448749e-39, 1.3205052000657054e-39, -8.135238234637726e-39, -1.0133726664205386e-38, -8.625161605033432e-39, -8.706648512032385e-39, 8.271723303764498e-39, 3.155366810551085e-39, 9.883503803923225e-39, -1.9813155168873594e-39, -6.385034669576065e-39, 9.06066414826862e-39, -4.449855503328136e-39, -9.380350774725827e-39, 9.855022412635823e-39, 1.1409939622410712e-38, 7.143980720451315e-39, 5.4388078815407325e-39, -1.0436966250586812e-38, 1.349138772366333e-38, -4.3794766892558865e-39, -7.283007744992373e-39, -1.342626097623537e-39, 8.50402215538948e-39, 1.18534001396248e-38, 1.2606439717472922e-38, -7.589901917768758e-39, -1.377528798993861e-38, 9.514803961079329e-39, -5.248547983845495e-39, 5.2977573820171894e-39, 5.814725812774365e-39, -7.166544428323873e-39, 5.036298910648072e-39, -1.2928067142303218e-38, 1.0529006336320594e-39, 5.433030327972321e-40, 7.221252521669578e-39, 9.014763215771197e-40, -2.670684296411953e-39, 1.8374876438075245e-39, 1.086345143820407e-38, 1.377940360352833e-38, -1.119711741814138e-38, 4.136274334279993e-39, -5.609874194170113e-39, -9.942532100434443e-39, 1.2901481707838047e-38, -4.607539415623215e-39, 4.797121084861719e-40, -1.3096043591818762e-38, -1.2279659718189303e-38, -7.512026156912371e-39, 8.794535149117909e-39, 1.3035618200738612e-38, -9.207708001324081e-40, 8.43145591441442e-39, 1.082366577220496e-38, 7.342481654415247e-40, 1.3278555710304748e-38, 7.247913626251822e-39, 1.1382661946504165e-38, -1.378325857560369e-38, -5.8200507469387995e-39, -3.875202621287029e-39, 1.1188516248167355e-38, 1.0401279382595852e-38, -1.0656748704328445e-39, 6.897956150368271e-39, 1.0971951175699812e-38, -2.7279777854243376e-39, 5.7975655117802435e-39, -4.099019413307453e-39, -5.724482191671847e-39, -2.3127464257740722e-39, 8.855658386833293e-39, -6.923859152481315e-39, 3.035145211401266e-39, 8.434359404832501e-39, 7.142681716774886e-39, 5.182301598944539e-39, -1.0607750902224863e-38, -2.3991771137551626e-40, 3.1225554070089196e-39, 1.23709332936631e-38, -1.146136307215604e-38, -1.3457812612458107e-38, -3.108333628894487e-39, -1.8167974719817686e-39, 5.700734386596934e-40, -1.3502354285445136e-38, -2.0359157102513116e-39, 6.60325607682844e-39, -5.330970958218616e-39, -1.1681383746636608e-38, 3.268995300426256e-39, 7.674065304834571e-39, 9.361040881887431e-39, -1.0736416725920703e-38, 1.6332610043183613e-39, 1.3794789860666618e-38, -1.379880177816998e-38, -1.0154126767249026e-38, 2.9113152687058107e-39, -4.913938930041693e-39, -8.108291265168759e-39, -1.0655308169507119e-38, 5.8063054103022374e-39, -1.0942947100085217e-38, 3.493882684473424e-39, -1.2029684887735327e-39, 1.3071117294735352e-38, -1.2425355522122083e-39, 2.803549811605375e-39, -1.0802628078360051e-38, -1.1635061023301423e-38, -8.62436706880416e-39, 2.3958602402901057e-39, -9.806152128692495e-39, 1.3638477819568113e-38, -3.0030877064329073e-39, -2.3397760718524336e-40, 2.8423195362178497e-39, -1.0128271409283769e-38, -1.376378613214343e-38, -4.7935926153285494e-39, 7.790532825398464e-39, 2.1230274292860638e-39, -3.550695528112545e-39, -5.936606549305945e-39, 5.296703605572017e-39, 1.3871571207422367e-38, -9.762385373756238e-39, 1.1256524065237967e-38, 5.73660762728365e-40, 4.282382119961284e-40, 2.460995395508852e-39, 1.036627915085241e-38, 1.3691078360023474e-38, 1.4385435762081064e-39, 6.076677541202925e-39, -7.705300247604371e-39, 1.7720862418805566e-39, 1.269685850088348e-38, 2.880961742670071e-39, 8.672934672279194e-39, -2.4326681470525257e-40, 1.083681135309879e-38, -5.560408358379447e-40, 6.68957325963392e-39, -2.3419452818752084e-39, 1.3999187458568429e-38, 1.1071570884827127e-38, -4.872454890303821e-41, 4.435535634321201e-39, -6.889073319402916e-39, 1.1137288980207032e-38, -1.0415150836094203e-38, 8.574748491480883e-39, 3.02212434607076e-40, 6.4013696057747e-40, 9.581124614798894e-39, -1.314317066047247e-38, -1.7405360069562834e-39, 1.20888603205853e-38, -1.3555013680435998e-38, -1.234952565702361e-38, 6.944653020393431e-39, -1.1244632646469706e-38, -7.063860079455079e-39, -1.1609069739385126e-38, -1.3243385921447124e-38, -6.872075569030656e-39, -9.096813444752808e-39, -6.333053503041936e-39, -2.932201622316572e-39, 5.7420867042791597e-39, 5.471089594263383e-40, 1.3727718110970175e-38, 1.2308522262659e-38, -2.6432650893605095e-39, -2.0333863665232053e-39, -6.871617344432822e-40, -3.018626705103805e-39, -1.1476774552666684e-39, 5.201464355444181e-39, 1.257898547795987e-38, -1.0858517466311182e-38, 7.876645418628152e-39, 2.877796209439161e-39, 5.867103546773898e-39, -3.2620602743263125e-39, 1.3739190541497602e-38, 1.1124465697959996e-38, -8.194049329886974e-39, 1.7065671308825855e-39, 2.681650858193759e-40, 1.211287297106997e-38, 1.2023561213446228e-40, 3.2808951269853023e-39, -1.1327628751914737e-38, 3.0363419202897996e-39, 1.2003695005117495e-38, -5.041686903243401e-39, -4.41641211417856e-39, 1.3740007498502303e-38, 7.065481381778303e-39, -9.790070827515903e-39, -2.8188057479864793e-39, -8.389629957851253e-40, 7.805270281347768e-39, -4.572499947522773e-39, -7.804514981475497e-39, -1.3096734431961674e-38, 1.945618839807149e-40, -1.358163835125817e-38, -3.2071756173741024e-39, -6.387402863980774e-39, -4.501335005012037e-40, 3.900248028739907e-40, 1.119624581049657e-38, -7.298033868425328e-39, 1.0214204636310024e-40, -6.811839353243189e-39, 1.1892967203063477e-38, -5.495341866785453e-39, 5.378532429396265e-39, 7.498789491618358e-39, 1.5618760579487265e-39, 4.168294004189815e-39, -9.985512726932214e-39, -2.1006528967061895e-39, 5.695623851097542e-39, -9.319342443484518e-39, -1.168563528617737e-38, -7.256483967659633e-40, 1.2813592268155595e-38, 1.3586479837452412e-38, 8.041569840088397e-39, 6.017803387522782e-39, -1.0838436859317407e-38, 1.2645318743365614e-38, -1.3752055862698568e-38, -1.349889868343211e-38, 8.891785262542051e-39, 1.0731479951430887e-38, 1.2686764948044949e-38, 6.276768948923866e-39, 7.223951422511868e-39, -1.0406787886859112e-38, 2.9187421505667323e-39, -6.760471955436435e-39, -6.242479175501837e-39, 1.0323724519087795e-38, 5.263977681236175e-41, 7.316878530173568e-39, -9.83441772001639e-39, -6.637929806029694e-39, 1.2302624197422658e-38, 4.0406469244775387e-39, -1.320350216455551e-38, -6.895061067740976e-40, 1.156149285392437e-38, -4.9121971160505376e-39, 8.23424837893306e-39, 2.76866168373908e-39, 1.3850065479890375e-38, 2.2903648867018762e-39, 9.729897670159331e-39, -2.2561409743076712e-39, -9.698329218355022e-39, 6.401354191491592e-39, -8.762061458505645e-39, 1.181841952605986e-38, -1.0124413634611483e-38, 1.2572176568721715e-38, 1.0065452600426552e-38, -8.471216357041172e-39, 1.2818335663457334e-38, -9.106828524877337e-39, -5.2528485688325076e-39, -7.1065590449615205e-40, -6.787360070369899e-39, -1.291059715434848e-39, -2.2861651952042947e-39, -9.362161920658891e-39, 8.477326018345628e-39, -1.1281563867496987e-38, -2.5797091975110574e-39, -3.153860414701936e-40, 1.208041329344235e-38, -3.1652305504414676e-39, -8.511500885293582e-39, 7.984803239298599e-39, 1.2665019598475556e-39, -1.276156065487675e-38, -6.508655818800336e-39, -4.0826354316625675e-39, 6.689026753232834e-39, 2.0039394805938836e-39, -4.94167342924761e-39, 1.3468102347081645e-38, -6.227216232628411e-40, 9.171258826968528e-39, -1.3058093626807918e-38, -8.228676816238904e-39, 4.409346767321434e-39, 3.909666155718634e-39, 2.024933734186398e-39, -8.854789581785411e-39, -1.1571083340614209e-38, -1.6866967186584596e-39, 1.1199072229499114e-38, -5.845065325825462e-39, -1.0768261233522485e-38, 1.3692423606549226e-39], [1.2048881275398113e-38, 4.306970704114792e-39, 1.3419033078756382e-38, 1.3574588418684152e-38, -5.294038335892871e-39, -5.3672029313121987e-39, -9.611111000636981e-39, 1.0852109328433825e-38, 9.308745824497293e-39, 1.1426390866381885e-38, -1.0075910490865808e-38, -7.965496149057132e-39, -8.027132262010459e-39, 7.045283065713525e-39, 1.1657762058423485e-38, 1.034322218592041e-39, -1.0918813937932615e-38, -3.303456032260932e-39, 1.0007237057024642e-38, -8.567244538204423e-40, 9.039700723242321e-39, 1.0347801629301824e-38, -7.047201443311186e-39, -7.76014566819958e-39, 1.6019321745514514e-39, -1.3812573739477364e-38, -8.155934011657339e-39, -8.260336352443395e-39, -1.3364851873633263e-38, 3.026507607667168e-39, -3.216190170395104e-39, 7.085215868051389e-39, 8.066538176125737e-39, 1.3829834933960917e-39, 8.450568224169346e-39, 3.2323793715534485e-39, 9.280188763092818e-39, 6.715686456516613e-39, 9.646531621919719e-39, -1.3328621301838145e-38, -1.272226404204169e-38, 1.3546130849470643e-38, -9.352540605402837e-39, -1.249930764727836e-38, -1.4354985546451286e-39, 9.490895006681019e-39, -3.231747385946038e-39, -1.2768115929092862e-38, 4.158232681215963e-39, 1.3443791220024073e-38, -1.0434588247092852e-38, 1.1834446176596344e-38, 1.7461874436629054e-39, -5.829927098515361e-39, 4.390198023806436e-40, 5.307413729734852e-39, -1.2003731438877567e-38, -1.0629378542723252e-38, -9.026857822816784e-39, -3.080338488174206e-39, -1.4151839308078117e-39, -1.0989426768848406e-38, -2.0137527737395503e-39, 1.345998742767474e-38, -1.3327973901947627e-39, -9.205646691283059e-39, -4.9591083847407395e-39, -1.251680425990392e-38, 1.9648306417530423e-40, 4.547542821873148e-39, 1.1816432484837448e-38, -3.976816378129079e-39, -8.816954523248641e-39, -1.3243158911095903e-38, 7.120920952922386e-39, 7.382652677492046e-39, -2.953746586205566e-39, 8.29133307447426e-39, -1.229808539169671e-38, -1.0164653321313034e-38, 1.1800431057673323e-38, 1.1622285385202173e-38, 8.011779636035316e-39, 3.7724075698395535e-39, 9.714992058394308e-39, 4.0379578327244993e-39, -1.0496982462515379e-38, 1.7698693877099948e-39, 8.668279558780707e-39, 6.043044976760665e-39, -5.944187573997942e-39, -8.92094628358465e-41, -1.231728037806103e-38, 3.316546962514654e-39, -6.534605063762703e-40, -1.3048973976402092e-38, 3.7206898474167175e-39, 8.910764448942866e-39, -9.425010156783859e-39, -5.257859612140933e-39, 1.0621057632442092e-38, 4.4144685132085415e-39, 1.2809256650706974e-38, 1.340056676759351e-38, 1.29502174671288e-38, 8.698513974446979e-39, 3.2100314636443963e-39, -3.6297693991559304e-40, 1.3470052954543985e-38, 1.73570713244822e-39, 1.2813554433097058e-38, -1.1516669519946012e-39, 1.1121302967326015e-38, 1.1532958213295324e-38, 1.3873436335678384e-38, 3.9255807023779706e-39, -6.908435060284492e-39, 1.0360198916815705e-38, 7.337812527932116e-39, 9.569461607680318e-39, -3.5952259907118593e-39, -9.040328504954339e-39, 1.3685191505174845e-38, 1.2785609739121493e-38, -1.239416542090314e-38, -1.3676912633847614e-38, 3.857251987959028e-39, -2.100421682459576e-39, 3.091331674626834e-39, -1.35522993653106e-38, -2.4799970026850964e-39, 1.3647975820559307e-38, -1.2831086078184226e-38, 2.099132487872397e-39, 2.0746097647467128e-39, -2.7651163986243383e-39, 1.356816907041908e-38, 1.266864615890123e-38, -1.589065452052021e-39, -7.387597859772649e-39, 3.37808218197855e-39, -9.388541364249806e-39, -1.1745669714985973e-39, -8.223641950856585e-39, -2.0513047699865267e-40, -7.993686070263954e-39, 3.731369143013337e-39, 6.041231696547829e-39, -1.1839546903006486e-38, 9.937899407711385e-39, -1.2157921914101084e-38, 4.9098149086611854e-39, 1.1159863898467305e-38, -1.10204262934762e-38, -1.153687764510004e-38, -1.3710103789273612e-38, 1.055042238075087e-38, -7.898593956474872e-39, -1.5606947633433007e-39, -5.8108526238189714e-39, 2.989440460688848e-39, -4.2613430248179114e-39, 8.41168779697819e-39, -1.2381605582767398e-38, -8.239881598759646e-39, -1.0306928555694397e-38, 9.279750156673484e-39, -6.896821098612168e-39, 7.465968278986943e-39, -8.104427885302616e-39, 1.3529969674281585e-38, 1.2351072690528224e-38, 7.578159036637716e-39, -6.91066032224584e-39, 5.952379564820385e-40, -7.566204559438561e-39, -3.248944120700232e-39, -7.767670640953004e-39, 7.925923480424599e-39, 1.8295226633363022e-39, -1.2401403127471379e-38, 1.0245536268673863e-38, 3.508959254651095e-39, 1.22258078182053e-38, 4.667809262573825e-40, -7.477891927619882e-39, -1.1843942776289073e-38, -5.5645043537906686e-39, 8.087444147914999e-39, -1.309540459971903e-38, -4.332757398455297e-39, 1.2676854965305244e-38, -9.814367941588831e-39, -2.967120578749082e-39, -5.307523031015069e-39, 9.526333844843794e-39, 9.492109932449589e-39, -9.214572962500808e-39, -6.280077414598136e-39, 2.460715135815987e-39, -1.2279452326016583e-38, 2.8438875891994292e-39, -1.745517622996958e-39, 1.3513186322574367e-38, -1.0938647916396668e-39, 8.787885987904687e-39, 9.081085270789226e-39, -1.3897747462735955e-38, -1.1875291224234483e-38, -3.169891269133812e-40, 5.220562652214464e-39, -1.1665194545478264e-38, 5.594954569420447e-39, -2.9349930088575072e-39, 2.7186016973995403e-39, -1.689364790934534e-39, -1.3535209129239696e-38, -6.497400589534879e-40, -1.351166731503904e-38, 7.92180226164102e-39, 1.0840454729106035e-38, -1.230923832617427e-38, -6.453291917773327e-39, -1.359083086918414e-38, -7.597540395697793e-39, 7.40114841592267e-39, -8.001272700149809e-39, -5.707579729595161e-39, 2.857187312924336e-39, -1.1582261498464128e-38, -1.308343891213216e-38, 1.1818647937709546e-38, 1.2899109309537946e-38, 1.3787958530653034e-38, -1.3370253879213236e-38, 5.810764342015719e-41, -7.622979568019145e-40, -1.1578068813458868e-38, -3.7790259024865597e-39, -1.204962536488267e-40, 1.3340500108920227e-38, -1.3836964740547402e-38, -8.203390385450163e-39, -8.366312351404888e-39, -3.24048027797571e-39, -6.243537155842402e-39, -9.839707621719217e-39, -7.606556350017259e-39, 9.990707340339466e-39, -6.807287935831062e-39, 2.3423068168790042e-39, -1.3514370419776721e-38, -1.3509282305052758e-38, -1.7357603817898644e-39, -2.8952017376645397e-39, 6.890889402212681e-39, -7.812237537312391e-39, -8.312495483882493e-39, -1.2898581020016895e-38, 5.823696925542973e-39, -3.130119616119345e-39, 3.184618915993866e-39, 1.3795585798194354e-38, -2.0241560135386977e-39, 9.085859494657181e-39, -6.392021543719189e-39, -9.762959906126611e-39, -1.2656943915425652e-38, -7.759152147588374e-39, -1.2759666099352983e-38, 2.6819591438559106e-40, -8.429852828971232e-39, -7.651849118981165e-39, 1.260069159117226e-38, -3.692659674234828e-39, 5.425407264326394e-41, 6.054464157946448e-40, -3.149796649155394e-39, -7.309968727445982e-39, 7.443190172449343e-39, 1.3761126467658143e-38, -1.3471080106318335e-38, -1.3310512321783676e-38, -4.584981312944514e-39, 5.970049938455521e-39, -6.104271910562409e-39, -6.719392890954753e-39, -1.385394287274116e-38, -6.37183583934059e-39, 1.0201448616389275e-38, -9.479103080103726e-39, -1.2288260888163329e-38, 9.218472776127024e-39, -8.177449548278582e-39, -3.055489262506334e-40, -6.371608828989369e-39, -1.1933372242983818e-38, -9.618082460496997e-39, -5.927220652191897e-39, 1.2909286940284337e-38, 6.87724495906555e-39, 2.4072864279682103e-39, -6.330193452876249e-39, 2.7185512506548246e-39, 4.038107771660182e-40, 3.730194854900233e-39, 1.3785689828439292e-38, 6.364801321049679e-39, 2.2888640960465843e-39, 2.324277710837001e-39, 1.297988435691702e-38, 1.0044321019584534e-38, -1.0480563448408885e-38, -1.3877690677816074e-38, -7.773378129598199e-39, -1.3059901301826897e-38, -8.360452121227081e-39, -1.35517612667003e-38, -2.079374179525417e-39, 2.7981688255023677e-39, 9.160163345728004e-39, -2.7670459866097135e-40, -9.544355944393475e-39, -1.1394773369131325e-38, 1.3356954155488329e-38, 1.262780811775541e-38, -8.946581637691009e-39, 1.0884597032030731e-38, -6.8247439108011566e-40, 8.252232643424204e-39, -4.739098920647886e-39, 4.2673097536790065e-39, -3.233681177826806e-39, -1.3587410299632724e-39, -1.3110488176389023e-38, -1.346829852886665e-38, -3.3139587642510464e-40, 3.699454570488339e-39, 5.1737102380597636e-39, -1.3858820792695476e-38, 3.6118187658279295e-40, 1.0169253784171413e-38, 5.051563254819962e-39, -2.1231843747140682e-39, -4.043012316285319e-39, 4.622795352004319e-39, 1.9639422185266603e-39, 9.393133419317398e-39, 1.0161438742635873e-38, -9.552741314403995e-39, 6.304658992259322e-39, 9.867711170230284e-39, 6.506200743890839e-40, 6.382966353042722e-39, -3.627454454092866e-39, -1.3049454621775355e-38, 2.487074961228401e-39, 6.910751406646021e-39, -1.9990643632364975e-39, -5.158678509432951e-39, 1.0666807224705368e-38, 1.1553069648855313e-38, -1.07472894007054e-38, -2.3596338723903805e-39, 9.928589180714411e-39, 4.824942464572424e-39, -1.3809272280295415e-38, 1.285722870233467e-38, -1.2538063358906192e-38, 5.294109802114552e-39, 1.204763972495872e-38, -7.606199018908856e-39, -1.132558846135068e-38, -1.1630701583778908e-38, -4.4580026525997206e-39, 8.096621251557862e-39, 1.2461601508200308e-38, -4.979274470940838e-39, -8.738708819597672e-39, -9.437268715749773e-39, -5.074896275549435e-39, 1.248137663212886e-38, 8.127194781452501e-39, 8.90247716982485e-40], [0.0028079738840460777, -0.20667092502117157, -0.040803052484989166, 0.05041593313217163, -0.3412282466888428, -0.0330796018242836, 0.12797456979751587, -0.08653559535741806, -0.4122940003871918, -0.24408681690692902, 0.14517848193645477, -0.4782726466655731, 0.1940658986568451, 0.006924693938344717, -0.06810814142227173, 0.04911187291145325, 0.12251976877450943, -0.17693102359771729, 0.5052747130393982, 0.12627622485160828, -0.4096536934375763, -0.1648947149515152, -0.3703348934650421, 0.1610240936279297, 0.06973285228013992, -0.0297226719558239, -0.014797390438616276, -0.07247330993413925, -0.1439632922410965, -0.12477178126573563, -0.38298875093460083, -0.49079766869544983, 0.16949079930782318, 0.13834409415721893, 0.15086007118225098, -0.0326329804956913, 0.028757471591234207, -0.048562463372945786, 0.2186492681503296, -0.015873854979872704, 0.14541707932949066, -0.2838756740093231, 0.07453353703022003, -0.07790432125329971, -0.2822473645210266, -0.13658393919467926, 0.014476459473371506, 0.14939752221107483, 0.24823637306690216, -0.4427383244037628, -0.234288290143013, 0.06617074459791183, -0.2708183825016022, 0.11209620535373688, -0.06982506811618805, 0.0776495486497879, 0.0880962610244751, 0.009482989087700844, -0.08439083397388458, -0.08708817511796951, -0.1437668800354004, -0.22019417583942413, 0.21872465312480927, 0.06285945326089859, 0.19467775523662567, -0.14191710948944092, -0.3757813274860382, 0.0013745788019150496, 0.0046942695043981075, -0.1013498306274414, 0.14502066373825073, -0.22486457228660583, -0.13185514509677887, -0.006217207759618759, -0.720602810382843, -0.02875324711203575, 0.10448488593101501, 0.10513821989297867, 0.2702908217906952, 0.1235245019197464, -0.3178023397922516, 0.15949739515781403, -0.21099255979061127, -0.15220457315444946, -0.052519213408231735, 0.052522674202919006, -0.28661760687828064, 0.22306738793849945, 0.2877912223339081, 0.2724399268627167, -0.04210593178868294, -0.12100808322429657, -0.048300664871931076, 0.09527675807476044, 0.31324779987335205, 0.15673047304153442, -0.060183532536029816, -0.0186624713242054, -0.2804718613624573, -0.04413895308971405, -0.16903896629810333, -0.4905708134174347, 0.065923772752285, 0.3386215567588806, -0.09758147597312927, -0.04159189760684967, -0.033811528235673904, -0.27626311779022217, 0.037571828812360764, 0.2697698473930359, -0.2601639926433563, -0.155682772397995, -0.027479780837893486, -0.28080230951309204, 0.2108299434185028, -0.13369408249855042, -0.03872611001133919, -0.16416996717453003, -0.32119202613830566, -0.08917143940925598, -0.10638223588466644, -0.02852916345000267, 0.14898395538330078, 0.0772257000207901, 0.37194377183914185, -0.21251113712787628, 0.10578113049268723, 0.1413107067346573, -0.22017601132392883, 0.3044302463531494, -0.35838958621025085, -0.09880934655666351, 0.19939476251602173, 0.024998323991894722, -0.02508038654923439, -0.1488889455795288, -0.032174959778785706, 0.569716215133667, -0.20940108597278595, -0.05547052249312401, -0.3593055009841919, -0.0032051499001681805, 0.10315759479999542, 0.27058857679367065, 0.19913175702095032, -0.30642762780189514, 0.12618866562843323, 0.2047758847475052, 0.07550022751092911, 0.5961994528770447, 0.25730985403060913, -0.2012368142604828, -0.11663016676902771, 0.0740678459405899, 0.2696879208087921, -0.23076710104942322, -0.162838876247406, -0.06458880007266998, 0.42355769872665405, -0.05075801908969879, 0.18835052847862244, -0.17815038561820984, -0.01728440821170807, 0.32414042949676514, -0.05956031754612923, -0.04014373943209648, 0.06595316529273987, -0.20331808924674988, -0.163777694106102, -0.17036102712154388, -0.008655425161123276, 0.368654727935791, -0.35944032669067383, 0.29398438334465027, -0.17772674560546875, 0.32072392106056213, -0.03829650208353996, 0.5803422927856445, 0.0650705099105835, 0.2886364459991455, -0.13821494579315186, -0.2489526867866516, 0.053344618529081345, 0.04225433990359306, -0.41894739866256714, -0.1946250945329666, -0.12478023022413254, 0.02396678738296032, -0.5206964015960693, -0.2680620849132538, 0.5334565043449402, 0.2135009616613388, -0.08990386873483658, 0.0021540638990700245, -0.023750249296426773, 0.19178393483161926, -0.10897756367921829, -0.4625408947467804, 0.22665266692638397, 0.20064783096313477, 0.2135448008775711, 0.10623083263635635, 0.013739529065787792, 0.6763288974761963, 0.46421509981155396, -0.33567482233047485, -0.006806759629398584, -0.07023296505212784, -0.05404067412018776, 0.100674569606781, -0.09632948786020279, -0.03037404641509056, -0.10041520744562149, 0.2463168501853943, -0.35388144850730896, -0.4822826683521271, -0.46431076526641846, 0.04570811614394188, 0.04701201990246773, 0.46787214279174805, -0.032561350613832474, 0.589260995388031, -0.11430004984140396, -0.3269193768501282, -0.22494997084140778, -0.26705896854400635, -0.013160479255020618, -0.1814105212688446, -0.4713444709777832, 0.2794657349586487, -0.05923379957675934, 0.2349688857793808, -0.18501025438308716, -0.025076275691390038, -0.024013539776206017, 0.1698734611272812, -0.017659956589341164, -0.3455181121826172, -0.07457440346479416, -0.472015380859375, 0.34892046451568604, 0.4037664532661438, 0.18475960195064545, 0.13492514193058014, 0.015092472545802593, -0.020851101726293564, 0.02707069367170334, 0.3504822552204132, -0.35142773389816284, -0.18827009201049805, 0.5829267501831055, 0.12923312187194824, 0.052795592695474625, -0.20089766383171082, 0.2920493185520172, 0.7584757804870605, 0.17391258478164673, 0.20787154138088226, -0.37209275364875793, -0.03525086119771004, -0.1154898852109909, -0.12136976420879364, -0.3872808814048767, -0.15776440501213074, 0.07900682091712952, -0.4848754107952118, -0.1097804382443428, -0.008570428937673569, 0.2009819746017456, -0.3523169457912445, 0.033321645110845566, -0.5552113652229309, -0.275467187166214, -0.0923815593123436, -0.027757422998547554, 0.13471277058124542, -0.3063333034515381, -0.04944787174463272, -0.30111610889434814, 0.2053227573633194, 0.5785183906555176, -0.20838598906993866, 0.13712982833385468, -0.004280994180589914, 0.004652828443795443, -0.13495393097400665, 0.4282338321208954, -0.11476229131221771, 0.05259755253791809, -0.11197496950626373, 0.025633271783590317, 0.20182088017463684, -0.10366711765527725, -0.2399340122938156, 0.2477894425392151, 0.036850862205028534, -0.18935608863830566, -0.24338087439537048, -0.3884304463863373, 0.021273694932460785, 0.09657678008079529, -0.12534673511981964, -0.012189170345664024, -0.27929580211639404, 0.02654840797185898, 0.24912914633750916, -0.01582052744925022, 0.2122677117586136, 0.6329653263092041, 0.18354837596416473, 0.02566719800233841, -0.2576185166835785, 0.03271745890378952, -0.2136579304933548, -0.010009028017520905, 0.052431944757699966, 0.05396560952067375, -0.20247124135494232, 0.1155339702963829, -0.2039916068315506, 0.09432479739189148, 0.20495937764644623, 0.30070438981056213, -0.018758825957775116, 0.05477967485785484, -0.12583178281784058, -0.141453817486763, -0.18103744089603424, 0.28603023290634155, -0.45024845004081726, 0.22492200136184692, -0.2432408481836319, 0.3210485279560089, 0.12709158658981323, 0.08707769215106964, 0.37002551555633545, 0.10357378423213959, -0.017221905291080475, 0.019093627110123634, -0.08604282140731812, 0.11574923992156982, 0.276399165391922, 0.22551484405994415, 0.14831088483333588, -0.188917338848114, 0.16860438883304596, -0.18692202866077423, -0.029901651665568352, -0.05729396268725395, 0.3774910569190979, -0.1721559762954712, 0.11735764890909195, -0.0736805722117424, 0.1452462375164032, -0.040976010262966156, 0.14776533842086792, -0.1696891039609909, 0.6249286532402039, 0.14486849308013916, -0.09257502853870392, -0.23132309317588806, 0.5516961812973022, 0.2396320253610611, 0.20144793391227722, 0.1164465993642807, -0.1932297796010971, 0.11631637811660767, -0.4403064250946045, 0.15647850930690765, -0.22196392714977264, 0.15726642310619354, -0.013654899783432484, 0.7094226479530334, -0.5132216215133667, -0.6457253098487854, 0.0928744450211525, -0.3013145923614502, -0.1843821257352829, -0.10792312771081924, 0.46251994371414185, 0.4690575897693634, 0.24564103782176971, -0.03995295614004135, 0.5133270621299744], [-0.13976219296455383, 0.05073724314570427, -0.5820050835609436, -0.11937929689884186, 0.09365198761224747, 0.027805550023913383, 0.046875450760126114, -0.41330087184906006, 0.48944851756095886, -0.39101144671440125, -0.09570808708667755, -0.6702337861061096, -0.16105808317661285, -0.8438001275062561, 0.5375947952270508, -0.7707958221435547, -0.06731600314378738, -0.2731327414512634, -0.31220006942749023, -0.684053897857666, 1.4361462593078613, -1.0851844549179077, -0.037906333804130554, -0.5122737288475037, 0.08353061228990555, 0.1391662359237671, -0.07385257631540298, -0.548714280128479, 0.3999370038509369, -0.013543031178414822, 0.198634073138237, -0.1993342638015747, 0.26234307885169983, -0.45225125551223755, -0.09582709521055222, 0.34176191687583923, -0.13411276042461395, -0.1430130898952484, 0.005710257217288017, 0.038736265152692795, -0.846360981464386, 0.5313338041305542, 0.5076178908348083, 0.8515866994857788, 0.22132150828838348, 0.582507848739624, 0.36878758668899536, -0.03436127305030823, -0.019196081906557083, 0.5044299960136414, 0.4652230143547058, -0.040084511041641235, -0.5286558866500854, 0.2565513253211975, -0.2721101641654968, 0.17398180067539215, -0.18808282911777496, -0.106275275349617, -0.6136371493339539, 0.4372572898864746, -0.3689936399459839, 0.14609883725643158, 1.4618308544158936, 0.019972901791334152, -0.014418170787394047, 0.83116215467453, 0.07967159897089005, 0.4279072880744934, 0.4284266233444214, -0.4599994421005249, 0.5060257911682129, -0.06545031815767288, -0.8398993611335754, 0.4401416778564453, -1.0659059286117554, 0.3842582106590271, 0.545670211315155, 0.07491878420114517, 0.25885865092277527, 0.16662923991680145, 0.04408503323793411, 0.30422744154930115, -0.7203606963157654, 0.026634439826011658, -0.2454024851322174, -0.17308786511421204, 0.4682622253894806, -0.208918035030365, -0.625527560710907, -0.5155721306800842, 0.3480450510978699, 0.02438250184059143, 0.7127819061279297, -0.244765967130661, 0.000535365252289921, -0.14281879365444183, 0.7045879364013672, 0.08007978647947311, 0.2978861331939697, 0.9988636374473572, 0.1810055673122406, -0.002902667038142681, 0.21547670662403107, 0.2330501526594162, 0.722942054271698, -0.14403149485588074, -0.31232693791389465, 0.38868406414985657, 0.2109399139881134, 0.11740833520889282, 0.36621415615081787, 0.022599924355745316, 0.14187823235988617, 0.1799401342868805, 0.48181650042533875, -0.7047730088233948, 0.22754263877868652, -0.14725123345851898, -0.2240993082523346, -0.11094971001148224, -0.13995587825775146, 1.2017124891281128, 0.0014800659846514463, -0.02989201247692108, 0.4375723898410797, -0.027318721637129784, 0.03511827439069748, -0.07403257489204407, -0.11070799827575684, -0.14912793040275574, 0.2012425810098648, 0.6772511005401611, 0.28520435094833374, -0.2928982377052307, -0.1740746647119522, 0.053052227944135666, 0.04854905977845192, -0.18987436592578888, -0.7097613215446472, -0.18585841357707977, 0.26607567071914673, -0.017237422987818718, 0.048493318259716034, -0.09287256002426147, 0.2740006446838379, -0.20726211369037628, -0.27631399035453796, 0.5294680595397949, -0.06637386232614517, -0.17785359919071198, 0.21440640091896057, -0.7891353368759155, 0.22848637402057648, 0.6059437394142151, 0.2322142869234085, -0.2597372233867645, -0.6207469701766968, -0.17117252945899963, 0.10155656933784485, -0.12381970137357712, 0.4408949911594391, -0.18395382165908813, 0.06924200057983398, 0.3040575087070465, 0.12244144827127457, 0.5396465063095093, -0.3368748426437378, -0.2990351915359497, 0.23528411984443665, 1.4038344621658325, -0.7366132140159607, 0.6796945929527283, -0.023346563801169395, 0.9436163306236267, 0.9238200187683105, 0.6324371695518494, 0.5683097839355469, -0.7219268679618835, 0.06731114536523819, 0.20012712478637695, -0.4753611087799072, 0.03125285729765892, -0.13142170011997223, 0.02221580035984516, 0.3300114870071411, -0.01650165393948555, -0.4770064651966095, -0.26442351937294006, 0.1500794142484665, 0.44263002276420593, -0.7262929677963257, -0.10021253675222397, 0.17815043032169342, 0.16556137800216675, 0.12327149510383606, 0.1434037685394287, -0.17972315847873688, 0.5171000361442566, -0.28789398074150085, -0.027509154751896858, -0.3199344575405121, 0.6967526078224182, -0.26707378029823303, 0.15647096931934357, -0.5404236912727356, -0.3069324195384979, 0.05851518735289574, 0.22101786732673645, -0.8117398619651794, 0.7443757057189941, -0.7066854238510132, 0.03364423289895058, -0.08733312040567398, -0.09701385349035263, 0.46150678396224976, -0.26190444827079773, -0.5637660622596741, 0.023590533062815666, -0.45889368653297424, 0.21333886682987213, -0.5048962831497192, -0.3873891234397888, -0.19278877973556519, 0.08345696330070496, -0.0500594861805439, 0.5608415007591248, 0.08135488629341125, -0.6333380341529846, 0.035503990948200226, -0.0604211799800396, -0.0784146711230278, -0.21786068379878998, 0.18819743394851685, -0.40816643834114075, -0.09265318512916565, -0.12897293269634247, 0.7187869548797607, 0.133334219455719, -0.02117082290351391, 0.2720277011394501, -0.38260558247566223, -0.0741061270236969, -0.509297251701355, -0.002111064037308097, -0.31410741806030273, 0.3196013867855072, -0.256880521774292, -0.05911818519234657, -1.4121671915054321, -0.3622361421585083, 0.6017636060714722, 0.28857311606407166, 0.03060355968773365, 0.24975959956645966, -0.0903332456946373, 0.2802339494228363, -0.003191400319337845, 0.18225495517253876, -0.11652622371912003, 0.016925165429711342, 0.36178186535835266, -0.4784539043903351, -0.014157472178339958, -0.7943936586380005, -0.28432023525238037, -0.5623902678489685, -0.07534585148096085, 0.2615201771259308, -0.1441950500011444, 0.22080117464065552, -0.13374988734722137, 0.40304240584373474, 0.11057925969362259, 0.1381482630968094, 0.5750558376312256, 0.14490906894207, 0.05412150174379349, 0.603444516658783, -0.13746528327465057, 0.1564636528491974, 0.07917769998311996, -0.4529261589050293, -0.40688958764076233, 0.4511796236038208, -0.09056884050369263, -0.7647162675857544, -0.5922665596008301, 0.15878479182720184, 0.2329806089401245, 0.6220285296440125, 0.3973211646080017, -0.32945331931114197, 0.5242950320243835, -1.0828993320465088, 0.07113709300756454, 0.28290319442749023, -0.48879119753837585, -0.12216785550117493, -0.33543696999549866, -0.09532543271780014, -0.9837128520011902, -0.22267958521842957, -0.44308677315711975, 0.27408483624458313, 0.26892584562301636, -0.03364313766360283, 0.04650888219475746, -0.23151811957359314, 0.5311993956565857, 0.17454159259796143, 0.4217269718647003, 0.6294909715652466, -0.24129943549633026, -0.1853640079498291, -0.7931018471717834, -0.42158594727516174, 0.3491458594799042, -0.39311039447784424, -0.479611337184906, -0.17936283349990845, -0.2782961428165436, -0.5514270663261414, -0.00036880833795294166, -0.18243390321731567, 0.8567233085632324, 0.04584355652332306, 0.23367266356945038, 0.10467328876256943, -0.15860755741596222, -0.6879008412361145, -0.4307415187358856, 0.3033924400806427, 0.6153852939605713, 0.46365445852279663, -0.1346689760684967, -0.707004725933075, 0.19745714962482452, 0.2714906632900238, -0.5990307927131653, -0.018983343616127968, -0.27979880571365356, -0.8956616520881653, -0.23428650200366974, -0.5261386632919312, 0.5616745352745056, 0.052937380969524384, -0.4320611357688904, -0.5038061738014221, 0.3753308951854706, -0.3684990108013153, -0.03020068258047104, 0.22724346816539764, -0.11549057811498642, -0.29122036695480347, 0.0970105305314064, 0.16518759727478027, 0.3539253771305084, 0.101814866065979, -0.6426995396614075, -0.5569466948509216, 0.32680433988571167, 0.13398034870624542, -0.5194865465164185, 0.25344419479370117, 0.11402130872011185, 0.27613502740859985, -0.015663158148527145, -0.4180904030799866, -0.26715120673179626, 0.31604868173599243, 0.1286352276802063, -0.3302827477455139, -0.7130522131919861, -0.1172410175204277, -1.6093624830245972, 1.1225244998931885, 0.08635340631008148, -0.4080210030078888, -0.283147931098938, -0.5260165929794312, 0.09388869255781174, 0.4747815728187561, -0.6866869330406189, -0.588114321231842], [0.10710781812667847, 0.07449260354042053, -0.07743187993764877, 0.1306024044752121, 0.17641058564186096, 0.17060276865959167, -0.5630459189414978, 0.00891861692070961, -0.3470574617385864, -0.14923182129859924, -0.14066411554813385, 0.12891370058059692, -0.32300832867622375, -0.36134928464889526, -0.2055283784866333, 0.5800502300262451, 0.027100777253508568, 0.14140190184116364, 0.10891549289226532, 0.5047520399093628, 0.5584285259246826, 0.2594360411167145, 0.11001202464103699, 0.6027489304542542, -0.18156899511814117, 0.23804235458374023, 0.7057356834411621, -0.26990801095962524, -0.5575376152992249, -0.029358526691794395, 0.1557798683643341, -0.5149213671684265, 0.4060053825378418, 0.14296860992908478, 0.16554170846939087, -0.2199828177690506, -0.08220060914754868, -0.020077619701623917, 0.2055598497390747, 0.48811376094818115, 0.09285487979650497, -0.19274470210075378, -0.07465304434299469, -0.02095244638621807, 0.4145892858505249, -0.3051981031894684, -0.15402120351791382, -0.2511013150215149, 0.13465529680252075, 0.0623333640396595, -0.14768941700458527, -0.07570487260818481, 1.2044193744659424, 0.020388280972838402, -0.2635829746723175, -0.23618806898593903, 0.13782329857349396, -0.135016530752182, -0.3101688027381897, -0.24094972014427185, 0.21551766991615295, -0.3561873137950897, -0.42581769824028015, 0.27662035822868347, 0.05691661313176155, -0.07917360216379166, 0.11193811893463135, 0.004536786582320929, 0.12771505117416382, -0.28360089659690857, 0.05847292020916939, -0.10669538378715515, 0.15868620574474335, -0.19032461941242218, -0.7826192378997803, -0.13560263812541962, -0.17149576544761658, 0.23008164763450623, 0.29685813188552856, 0.03277042880654335, 0.31035685539245605, -0.094962939620018, -0.6005800366401672, -0.27118319272994995, -0.11285021901130676, -0.2290082573890686, 0.23496399819850922, -0.12391606718301773, -0.314249187707901, -0.06643760949373245, 0.8003430962562561, -0.17001229524612427, 0.8524146676063538, -0.040338993072509766, 0.2895215153694153, 0.26792773604393005, -0.17265678942203522, 0.2699883282184601, -0.08119933307170868, -0.2305043339729309, 0.3627040386199951, -0.7238084673881531, 0.3983139097690582, -0.0538325235247612, 0.07284903526306152, 0.12344294041395187, -0.17475131154060364, -0.1762728989124298, -0.21489259600639343, -0.049813028424978256, 0.31319719552993774, 0.4198038578033447, -0.29026857018470764, -0.17315326631069183, 0.09858343750238419, 0.5988426804542542, -0.548565149307251, -0.21592344343662262, -0.41204193234443665, -0.34453898668289185, -0.09985525161027908, -0.27410632371902466, -0.021399658173322678, 0.053883083164691925, 0.04878264665603638, -0.3322194218635559, 0.6382663249969482, 0.19105595350265503, 0.39988434314727783, 0.016981137916445732, 0.0476691797375679, 0.2248937338590622, -0.15926365554332733, 0.4553601145744324, -0.5361963510513306, -0.08546768128871918, 0.18156272172927856, 0.26626330614089966, 0.1282905489206314, -0.23722955584526062, -0.37160125374794006, 0.07604871690273285, 0.03289914131164551, 0.029766835272312164, 0.061330221593379974, -0.7597751617431641, -0.1870197355747223, 0.12623576819896698, 0.2532174289226532, -0.7101694941520691, 0.6682904958724976, -0.7149329781532288, 0.08838992565870285, 0.9006949067115784, -0.1679219752550125, 0.09367456287145615, -0.13337121903896332, 0.21098670363426208, 0.0359724760055542, -0.08429759740829468, -0.010891295038163662, 0.17919883131980896, 0.03357136249542236, 0.46161141991615295, -0.12312958389520645, 0.061577148735523224, 0.18548735976219177, -0.21669843792915344, 0.3999752104282379, 0.4641532897949219, -0.12358652055263519, -0.4355452358722687, -0.6520248651504517, -0.17743974924087524, 0.3060137629508972, 0.586206316947937, 0.1214667558670044, 0.04891212657094002, 0.22060641646385193, 0.11744697391986847, -0.07643698900938034, -0.5603420734405518, 0.06873218715190887, -0.3455718159675598, -0.07507921010255814, -0.7219080924987793, 0.09031908959150314, -0.2596301734447479, 0.5306994318962097, 0.6028521656990051, 0.2902620732784271, 0.32592305541038513, -0.2651936709880829, 0.05099860578775406, -0.2582840621471405, -0.20620769262313843, -0.823911726474762, 0.0903673768043518, 0.3895389437675476, 0.2826782464981079, 0.343560129404068, 0.10228206217288971, -0.42852944135665894, 0.590384304523468, 0.08700177073478699, -0.006294591352343559, 0.35552114248275757, -0.6370980739593506, -0.12304092943668365, -0.08777327090501785, -0.5202856063842773, 0.07252780348062515, -0.40722325444221497, 0.25841519236564636, -0.510038435459137, 0.19678278267383575, -0.18829254806041718, -0.10285348445177078, -0.0011656919959932566, -0.21706713736057281, 0.2764587998390198, 0.07984422147274017, -0.28939318656921387, -0.23969845473766327, 0.284283310174942, 0.1905398964881897, -0.08352381736040115, 0.18118597567081451, -0.5921643376350403, 0.3303297162055969, -0.8478025794029236, -0.1804378628730774, 0.20835086703300476, -0.26012831926345825, 0.014055106788873672, 0.1618359088897705, 0.1478891670703888, -0.2848235070705414, 0.03272683173418045, 0.124057337641716, 0.3249776363372803, -0.0410798154771328, -0.030955903232097626, 0.19141194224357605, -0.06369922310113907, 0.1097688153386116, -0.5975578427314758, -0.299281507730484, -0.39833173155784607, 0.2487979382276535, 0.8499889969825745, -0.12139950692653656, -0.009566319175064564, 0.08274537324905396, 0.2739950120449066, 0.5160829424858093, 0.09611473977565765, -0.295369952917099, -0.18874678015708923, 0.2506304085254669, 0.5045325756072998, 0.19354255497455597, -0.2517896890640259, -0.38928842544555664, -0.11147908121347427, 0.41627976298332214, 0.6191989183425903, 0.38537514209747314, 0.06317021697759628, -0.16683700680732727, 0.29263049364089966, 0.35131770372390747, -0.116081103682518, -0.4941137433052063, -0.38576626777648926, 0.2153240293264389, 0.011525924317538738, 0.0297243632376194, 0.3611495792865753, 0.9888487458229065, 0.4571405351161957, -0.7238695025444031, -0.14382849633693695, 0.06543999165296555, -0.12092948704957962, -0.0696045458316803, -0.7403748631477356, -0.189780592918396, 0.42581093311309814, 0.2785663902759552, 0.24525654315948486, 0.025646617636084557, -0.1711735725402832, -0.37477201223373413, 0.24093924462795258, -0.6466102004051208, 0.33344608545303345, -0.24219784140586853, 0.14478115737438202, -0.11055360734462738, -0.036745522171258926, -0.24537010490894318, 0.09040651470422745, -0.47479742765426636, 0.0279916413128376, -0.19929806888103485, 1.0084946155548096, -0.44557175040245056, -0.1668941080570221, -0.1554185152053833, 0.35696494579315186, -0.132881298661232, 0.21104297041893005, -0.17382201552391052, -0.11445243656635284, -0.0008366563706658781, -0.4099024534225464, 0.8374317288398743, 0.3884669840335846, -0.5390821099281311, -0.012361477129161358, -0.4369904100894928, -0.1411852091550827, -0.17912214994430542, 0.01261450070887804, -0.021929029375314713, 0.13542483747005463, -0.0473058857023716, -0.3728843927383423, -0.07032033801078796, 0.12174656242132187, -0.2828299105167389, 0.11610910296440125, 0.667238712310791, -0.22504761815071106, -0.7452161908149719, 0.24240754544734955, 0.16337262094020844, -0.05428101494908333, -0.08779358863830566, 0.3709176182746887, 0.09574703127145767, 0.6922590732574463, -0.14714506268501282, -0.5492333769798279, -0.3458090126514435, 0.08337947726249695, 0.25107699632644653, -0.30660778284072876, 0.05885835736989975, 0.12901228666305542, 0.14780962467193604, -0.1522086262702942, -0.10963225364685059, 0.5728071928024292, 0.36706921458244324, -0.42400145530700684, 0.2475850135087967, -0.546019971370697, 0.14352145791053772, -0.41038697957992554, 0.6614899635314941, -0.13610461354255676, 0.2231256663799286, 0.5684264302253723, 0.11810465902090073, -0.1927078366279602, 1.1511192321777344, -0.5467556715011597, -0.2763502597808838, 0.1613207757472992, -0.4826388955116272, 0.10933772474527359, -0.6748740673065186, -0.11082985252141953, 0.4903791844844818, -0.26914605498313904, -0.988006055355072, -0.15032941102981567, -0.060883499681949615, -0.6918809413909912, -0.13668100535869598, -0.3321996331214905, 0.4501931369304657], [5.0015635243143885e-39, -4.552815907994402e-39, 7.475200033269914e-39, -9.093659121909613e-39, -3.6219865874850704e-39, 6.222056651682767e-39, 2.904663304895661e-39, -9.12967249244276e-39, -6.032700591497019e-39, -1.2351892450129854e-38, 7.983976473204647e-39, -1.1386001240744651e-38, -2.706624799424956e-39, -8.456107556998822e-39, -1.253923904831776e-40, -3.6567163686248966e-39, 3.820714531800223e-39, 2.15320158911837e-39, -8.262092179419194e-39, -6.193269777330143e-39, 1.2324669424863416e-38, 3.508576700170334e-39, -3.891443670488554e-39, 3.06763852019203e-40, -4.7462161155481916e-39, 7.759192785243839e-39, -9.377588815452643e-39, 1.351810908407954e-38, 7.151941497027144e-39, 2.9197777101318683e-39, -7.160452983899453e-40, -7.827855008697291e-39, -1.2954794107913285e-39, 9.853532832368245e-39, 1.3528534744654117e-38, -1.8683988866320656e-39, 1.3683769187233555e-38, 5.1903842884867646e-39, 5.145001836421141e-39, 7.921110020199643e-39, 1.2266226871110285e-38, 4.876904012928053e-39, -5.470302064526433e-39, -1.2143341403579785e-38, 4.1238616324830036e-39, -1.2737102391480425e-39, 3.657400202275487e-39, 4.0354999552180736e-39, 2.4990518592029852e-39, 1.1576221902082888e-38, -8.263808770037992e-39, 9.450303594064922e-39, 1.511696961239719e-39, -4.3378371053884745e-39, -1.286124342243496e-38, -1.3260998841845223e-38, 5.7382891854408394e-40, 5.098533378045666e-39, 1.0589636316976536e-38, -1.2699101979724864e-38, -1.0649644121114318e-39, 1.3658877922611754e-38, -3.477767752133689e-39, 1.399285639210661e-38, 1.3371789702330136e-38, 6.12923744400282e-39, 9.364441833260347e-39, -6.837945543633561e-39, 1.3701342871274653e-38, 6.715033451432238e-39, 1.3062509118269005e-38, -1.3286665024517796e-38, 8.925539739950707e-39, 6.372938661232013e-39, -1.3502104854318486e-38, 4.128387826522773e-39, 1.3919044396796764e-38, -1.2212063882867202e-39, 9.204773682339785e-39, -1.1894273213232227e-38, -1.1164401302894789e-38, -8.882979502992234e-39, 8.174966447399798e-39, 7.551275125599644e-39, 8.630106787314035e-40, -1.528047311721461e-39, 9.059859802950098e-39, -3.516756079306598e-39, -4.786387138624991e-39, 7.33583389450049e-39, 6.491323158095103e-39, 9.903796006985112e-39, -8.960182640585745e-40, -1.1434718783155368e-38, 4.331256607800005e-39, -1.8887835753925988e-39, 1.157428811020212e-38, 1.2562465570363944e-38, -1.1486666318526353e-38, -1.3231341761146252e-38, -1.1779215398923445e-38, 8.309754544086274e-39, -1.0175594659722482e-38, 2.3585604777667077e-39, 3.1214063422681733e-40, 7.348745458550779e-39, 4.48014877352991e-39, 1.51761044075917e-39, -1.1071364893952871e-38, 1.434943640453256e-39, -1.1427579167479633e-38, -5.738057971194226e-39, 5.1096835099262984e-39, 8.946822661026873e-39, 1.3223423023524353e-38, -1.3470232320747418e-38, 1.190692974096201e-38, -1.895148273017562e-39, -5.216315316569095e-39, 3.6543733975925455e-39, -9.008670370048313e-39, 2.6442740242548233e-39, 1.3379858378887718e-38, -6.392577859209526e-39, 6.270718142154911e-39, 8.549565756778501e-39, 1.3708646438870714e-38, -1.3152410822546228e-38, -4.4471916349474546e-39, 1.334349188114156e-38, 1.1491241558012374e-38, 2.0018725653590045e-39, 2.5826869567477476e-39, -9.848710964352504e-39, -8.666680677232912e-40, -1.201222470886984e-39, -5.0739546029814085e-39, -3.617896197267706e-39, -5.637610094674494e-39, 1.3414827782064944e-38, 8.384845924894048e-39, -9.686912839766167e-39, 2.8612706966493786e-39, -5.3155538725141145e-39, 3.5617657859807114e-39, -1.0546900917710022e-38, -8.866298446072911e-39, 7.575806256516115e-39, 1.0376861756854992e-38, 1.2560208078537917e-38, 1.0857273113274862e-38, 9.027457578559515e-39, 6.780195231321806e-39, -9.228159952410902e-39, -1.252412324178309e-38, -1.3444448429003842e-38, 1.296447427770484e-38, -3.381411667129786e-39, 7.710269251958867e-39, -1.6631703187409102e-39, 1.1869400165490462e-38, 1.7204553999625088e-39, -1.3359304133013001e-38, 1.310376754895412e-38, 1.0837339642619841e-38, -1.0667070668816661e-38, -9.466858534122455e-39, 5.759771090898939e-40, -1.3723210133810442e-38, -3.4924982015906713e-39, -8.184898850914933e-39, 1.192869751130683e-38, 6.09430867848106e-39, 6.25885895325133e-39, -4.41727391273412e-39, -4.1524383120659796e-39, 1.3345878292426305e-38, 1.2321084903391673e-38, -3.466613416357663e-39, 4.7238808193253184e-39, -1.8764703657865766e-39, -1.2571952360967423e-38, -7.965759593168425e-39, 4.2103595827903816e-39, -2.7361795853360308e-39, 2.4999080525646877e-39, -8.568861636632254e-39, 3.4644834426918896e-39, -1.2739389310574203e-38, -5.680037208278857e-40, 6.39199912294376e-39, 1.2514188035671026e-38, -1.0853439160676469e-38, -4.377848380440341e-39, 1.1111904458525788e-38, 1.0770969943454025e-38, 2.16896479554356e-39, -5.94145223939558e-39, -5.600485494459137e-40, -9.888114075870853e-39, 9.156971187826272e-39, 1.0479611966751609e-38, -4.3520392653244065e-39, -9.480793046051701e-39, 1.1393861123831049e-38, 1.03428690587074e-38, 6.097126689692817e-39, 9.341515189085529e-39, 9.180916575984655e-39, -8.32546450116982e-40, 4.62176539763304e-39, -7.24808458466447e-39, 1.0085705567131438e-39, 9.50395650966699e-40, -7.171143489883787e-39, 8.22689016069689e-39, -1.7753891023609702e-40, 7.564841096032773e-39, -1.1847523093865423e-38, -7.282836786579725e-39, 3.7158147300593315e-39, 9.172773630608463e-40, -1.2482427605977104e-38, -1.3928885715911717e-38, -1.1916635134125923e-38, 1.2226739681684076e-38, -6.447484936937165e-39, 5.93642017661019e-39, 1.0935036770254103e-38, -4.147814027133708e-39, -8.131261349595972e-39, -2.4619945213139155e-39, -1.918177211980276e-39, -1.0640745875865855e-38, -1.0492234863318247e-38, -5.928927433721445e-39, 8.891074804220638e-39, 1.0720018731291174e-38, 8.369748335239412e-39, 6.934115255941709e-39, 6.734256463765846e-39, -6.771634699003246e-40, 4.027612046162389e-40, -1.235663444413313e-38, 1.1315814404562014e-38, 9.373887986208361e-40, -4.258052776023677e-39, -1.318402551719986e-38, 1.3837645771601064e-38, 1.1024064064289587e-38, 1.1301574409567545e-38, -5.459423784547879e-39, -1.3502072624453807e-38, 6.90104040828825e-39, 7.396454066067181e-39, -1.5325118486288e-39, 4.075673780891802e-39, 2.6349035414238833e-39, -1.0429720136227788e-38, -1.0369710930791542e-38, 5.420104750937389e-39, -1.1094260709561475e-38, 2.232416991306652e-39, 2.4187294312278867e-39, 1.244960359074876e-38, 2.422005667037478e-39, 7.870975765041494e-39, -1.1521023354274669e-38, 6.215932977393668e-39, 3.910620439972839e-39, -3.067879543527894e-39, -2.3247121133609418e-40, -2.5905762671018963e-39, -5.043133043258584e-39, -1.2486143849504493e-38, -1.3842855799291423e-38, 1.2925013712949454e-38, -4.668895268883677e-39, 1.1529408724285189e-38, -5.279164953992528e-39, -1.1915693461557896e-38, -1.30456585042355e-38, -5.8212544623196545e-39, 4.645298804042911e-39, 6.557912861119818e-39, 1.3507401762513634e-38, -8.689043999425072e-39, -9.403637552605977e-39, -1.3878539864685455e-38, -1.3224462786984882e-38, -7.347596393810032e-39, -5.01810164879035e-39, 8.547695023328628e-39, -2.532558306783456e-39, 6.148241853775993e-39, -1.1775998017649355e-38, 5.5154140659884416e-39, 5.951202474110352e-40, -1.329312360913987e-38, -1.3213916614742373e-38, -1.355264548603129e-38, 1.2805485756539476e-39, -2.3924088421724737e-39, 5.24570474926138e-40, -1.2503505937477478e-38, -1.1633711572880278e-38, -4.801606641246023e-39, -7.316502982185129e-39, -1.478313827924109e-40, -1.5746208674817607e-39, 9.867352437823417e-39, 5.1681022416055357e-39, 5.4103699305057246e-39, -1.0639165211198097e-38, 6.739868664115467e-39, -7.399441634393122e-39, 7.50816698094162e-39, -1.200088119780113e-38, -6.486599380971864e-39, -1.398233264063953e-38, 1.3442670181252613e-38, -3.052630613639111e-39, -1.6194119715954392e-39, -1.0097440040471694e-38, 9.528144322459701e-39, 1.2481513959378364e-38, -7.818547584297245e-39, -1.2355741817011354e-38, -8.999246637875728e-39, -3.517204494815182e-39, 7.0939613717672404e-40, 6.08050588860746e-39, 2.8368320514315537e-39, 1.022724792241596e-38, -8.940564462085198e-41, -5.21745737481752e-39, 1.3246066605409377e-38, -1.2438181606966048e-38, 1.1620477710183194e-38, 4.699590711744712e-39, -2.9503834698911866e-39, 2.1622203460347646e-39, -2.8018388261804344e-39, -4.365760779887075e-39, 1.1596858824567e-38, -2.328426955589867e-39, 1.2957085230902456e-38, -3.0792805078336406e-39, -4.252133691310369e-39, 2.3534947838181735e-39, 1.3585602624613745e-39, -4.0107067814887746e-39, 7.365625499852035e-39, 7.22657325193862e-39, 4.323279015642604e-39, -1.6512901103603644e-40, -8.240083385738508e-39, -2.5040348765421243e-39, -7.884156378396933e-39, -6.844933819075149e-39, 5.3080555244315124e-39, 6.002327447282779e-39, -6.6320793849411375e-40, -8.41048268029887e-39, -3.9366327433661005e-39, -3.39077374216994e-39, 1.459120242858252e-39, 2.1710247042861175e-39, 2.1294439749542072e-39, -1.564380178304475e-39, -1.315788709694481e-38, 1.3558659859040171e-38, -9.661908069968755e-39, 3.853143380861628e-39, 8.715944726044716e-39, 1.175767043503445e-38, -3.482254709816457e-40, -2.2868630418395285e-39, -6.614563154137077e-39, 2.13220873682432e-39, 2.6102224715717303e-39, 6.734528315667925e-40, -1.3388009732054695e-38, 6.575293165972839e-39], [-0.11761632561683655, -0.1394481658935547, 0.4531116187572479, 0.18288271129131317, 0.7101330757141113, -0.40451279282569885, 0.2691795527935028, 0.13228048384189606, 0.17915932834148407, 0.2933700382709503, -0.17124873399734497, 0.6305330991744995, -0.42008718848228455, -0.25671815872192383, 0.5802728533744812, 0.9169793725013733, 0.2200360745191574, 0.3785528540611267, -0.04176616668701172, 0.18564358353614807, 0.37280556559562683, -0.7825561761856079, 0.5814304947853088, -0.2863657474517822, 0.4121720492839813, -0.09836445748806, 0.3568253517150879, -0.7218301892280579, -0.6466643214225769, 0.2409067153930664, 0.2032950073480606, -0.6732487082481384, -0.6144249439239502, 0.39422693848609924, -0.38440361618995667, 0.21624140441417694, -0.5095707178115845, -0.36192193627357483, 0.20211711525917053, -0.0797414481639862, 0.2024296522140503, -0.4191378057003021, 0.02678065374493599, 0.3880317509174347, -0.18746374547481537, 0.12797880172729492, 0.3076225221157074, -0.02772691659629345, 0.3552638292312622, -0.41584837436676025, 0.4626401364803314, 0.08528812974691391, -0.6572165489196777, -0.05020337179303169, 0.28131309151649475, -0.1207135021686554, 0.21692553162574768, 0.13175788521766663, -0.15716251730918884, 0.3659903407096863, 0.1397830992937088, -0.5154179930686951, -0.6773331761360168, 0.15725195407867432, 0.07521899044513702, 0.2704734802246094, 0.44889307022094727, 0.10993892699480057, -0.5334755182266235, -0.037733376026153564, 0.5150865316390991, -0.26794707775115967, -1.4742166996002197, -0.8565981388092041, 0.21018008887767792, -0.6838750839233398, 0.47104233503341675, -0.06218896433711052, -0.055594589561223984, -0.13403335213661194, -0.5438551902770996, 0.32328370213508606, -0.14245183765888214, -0.8559798002243042, -0.41400346159935, -0.14075779914855957, 0.21118572354316711, 0.1127268522977829, -0.31310969591140747, -0.9232338070869446, -0.08672569692134857, -0.21367116272449493, -1.0259722471237183, -0.5161900520324707, -0.3319283127784729, 0.3697698414325714, -0.2440224587917328, -0.04062546417117119, -0.06362034380435944, 0.4783976674079895, 0.0974871888756752, 0.5895260572433472, -0.2944154143333435, -0.4724864363670349, -0.5043691396713257, 0.05399182811379433, -0.0687016099691391, -0.3188638985157013, 0.1543620228767395, -0.20882761478424072, 0.1394764930009842, 0.5186964869499207, 0.5159499049186707, 0.202264666557312, -0.19493377208709717, -0.04475167766213417, 0.06558484584093094, 0.5106056332588196, 0.5342497825622559, 0.38114073872566223, -0.05893988534808159, 0.25840288400650024, -0.28436240553855896, 0.351180762052536, 0.2249954342842102, -0.7741152048110962, 0.017031362280249596, 0.06356459110975266, 0.0720401406288147, 0.018915144726634026, 0.013987994752824306, 0.528243899345398, 0.47652679681777954, -0.1981324553489685, 0.08299887925386429, -0.42862510681152344, -0.6647090911865234, -0.008321383967995644, -0.23406487703323364, -0.4764620363712311, 0.7814393043518066, -0.30864718556404114, -0.25346216559410095, 0.11291775107383728, 0.14929969608783722, -0.26753905415534973, -0.32219311594963074, -0.7867580652236938, -0.00859071221202612, 0.07149951905012131, 0.5323631167411804, 0.722529947757721, -0.14236022531986237, 0.31501463055610657, -0.03391645476222038, -0.2634170949459076, 0.014228835701942444, -0.3125968277454376, -0.45991015434265137, -0.11030950397253036, -0.28975754976272583, -0.0882837176322937, -0.1285153180360794, -0.6624237298965454, 0.08864769339561462, 0.5399574041366577, 0.024252651259303093, -0.0546763651072979, -0.22012966871261597, 0.2510949671268463, -0.4310331344604492, 0.47573649883270264, -0.06749820709228516, 1.0291001796722412, -0.3931801915168762, -0.5822633504867554, 0.08945468068122864, -0.5508363842964172, -0.6522905230522156, -0.24828112125396729, 0.5874504446983337, -0.31636035442352295, 0.3136359453201294, -0.13346555829048157, 0.15483105182647705, 0.432230144739151, 0.3403266370296478, -0.27385178208351135, -0.3274288773536682, 0.8995758295059204, 0.10621291399002075, 0.2895797789096832, 0.7470468282699585, -0.2119005173444748, 0.00665426766499877, 0.18030619621276855, -0.08252640068531036, -0.013234902173280716, -0.18291868269443512, 0.07315754145383835, -0.01075008511543274, -0.2717781066894531, 0.2672581076622009, 0.896209716796875, -0.4188331961631775, -0.7327133417129517, 0.13999341428279877, -0.07062750309705734, -0.26600581407546997, -0.06321091204881668, -0.24786517024040222, 0.11592648178339005, -0.013223087415099144, -0.7154008746147156, 1.0177416801452637, 1.162116289138794, 0.939254105091095, -0.2550638020038605, -0.2739412784576416, 0.47920170426368713, 0.011918195523321629, 0.10906226187944412, -0.20426523685455322, -0.09218743443489075, -0.020492713898420334, -0.14660532772541046, -0.15524497628211975, -0.3065684139728546, 0.19617687165737152, 0.176354318857193, 1.0639169216156006, -0.15261118113994598, 0.05132853239774704, -0.02377363108098507, -0.008814927190542221, -0.33555495738983154, 0.7318626046180725, -0.5151885747909546, 0.18800370395183563, 0.3084390461444855, -0.8572359085083008, -0.5703028440475464, -0.18005117774009705, -0.030229372903704643, 0.07137656956911087, -0.17778033018112183, -0.03923949599266052, -0.5913060903549194, 0.7177670001983643, 0.00024194706929847598, -0.7356657385826111, -0.19565711915493011, 0.21936678886413574, 0.07023956626653671, 0.988795816898346, 