{"type": "mlp_multilabel", "dim": 384, "classes": ["analytical", "descriptive", "formal", "informal", "inquisitive"], "activation": "sigmoid_output", "macro_auroc": 0.9499, "layers": [{"W": [[-0.125661, 0.11491, -0.00456359, -0.0939851, 0.114862, -0.146574, -0.0676095, -0.192924, 0.0240678, 0.0889359, -0.0147406, -0.157611, 0.0632356, -0.0811756, -0.19262, -0.114772, -0.0407476, 0.0267303, -0.00914035, 0.089762, -0.111001, -0.127606, 0.022756, 0.0910178, -0.124512, 0.00276643, -0.0884594, 0.17735, -0.209357, 0.0176849, -0.0179271, 0.0932467, -0.107737, 0.0308677, -0.119828, -0.0896921, -0.00191986, 0.0878142, -0.061749, 0.153526, -0.0371288, -0.162941, -0.0586073, 0.057939, 0.0404339, 0.0886176, -0.0960179, 0.048026, -0.199911, -0.0634828, 0.0263085, -0.0777905, 0.0395799, 0.130997, -0.0781017, -0.0525325, -0.0601848, 0.0845479, 0.0510841, 0.0579443, 0.0258765, 0.165603, -0.112359, 0.0685561, 0.0213825, -0.00676876, -0.0531277, 0.151939, 0.0101572, 0.131566, -0.07087, -0.0614811, -0.0169595, 0.129669, 0.348929, 0.074345, -0.0753178, 0.00162658, 0.155592, 0.110554, 0.0768247, -0.00960405, 0.0797016, 0.0341127, 0.182327, 0.0955431, 0.00705857, -0.103086, 0.0596099, -0.0620813, 0.000271849, 0.0656365, 0.045841, -0.00664598, -0.170898, -0.0910401, 0.01504, 0.067705, -0.0011921, -0.132614, -0.0682578, -0.12479, -0.00442372, -0.049291, -0.210541, -0.158551, -0.121327, 0.230517, -0.0951157, -0.00190017, -0.0219072, -0.129065, -0.1452, 0.130039, -0.0568308, 0.078467, -0.0257477, 0.0388766, -0.0277947, 0.105072, -0.0536393, 0.1092, -0.226537, 0.0852644, -0.128689, 0.0153636, -0.0956293, 0.0324461, -0.00735093, 0.0501945, -0.00575821, -0.0389293, -0.157138, -0.0640362, 0.0727372, 0.0564867, 0.0593291, 0.116335, 0.137392, -0.0771704, 0.00306329, 0.0027103, 0.142157, 0.120528, 0.0851987, 0.161139, -0.0663798, 0.224076, 0.0177303, 0.0911533, -0.0979082, -0.017904, -0.104324, 0.0884139, 0.00183391, -0.178755, 0.0648253, 0.0185124, -0.0107742, -0.0725827, -0.16706, -0.126717, 0.12537, 0.0925331, 0.0540814, -0.0950662, -0.0868754, 0.0864808, -0.0439446, 0.011748, -0.14385, -0.114908, -0.00870102, -0.0297746, -0.0320732, 0.0619617, -0.0264337, -0.154452, 0.112696, 0.0206986, 0.0542835, 0.194149, 0.0159902, -0.00519747, -0.210883, 0.00667035, 0.101348, 0.183119, 0.162579, 0.0247534, 0.264404, -0.0540317, -0.00214751, -0.112626, 0.157084, -0.043681, 0.0316945, 0.0540656, 0.0217718, 0.0598332, 0.247704, -0.0735236, 0.226239, 0.166313, 0.0476325, 0.0136328, -0.110042, 0.0507512, -0.00521475, 0.130394, 0.0696474, 0.137885, -0.0408936, -0.131327, 0.0303806, -0.0964528, -0.143484, -0.110184, 0.123314, -0.370509, 0.184725, 0.130807, 0.0688556, 0.134992, -0.0175537, -0.0306443, 0.169944, 0.0104578, -0.0258795, -0.0343873, -0.0800378, -0.0691088, 0.100493, 8.95636e-06, 0.0855325, -0.0259449, 0.249243, 0.0146222, 0.160624, -0.0892506, -0.0287114, 0.191261, 0.198062, 0.188066, 0.125368, -0.0366721, 0.107024, 0.0325777, 0.184738, -0.0235924, -0.0658458, -0.137212, -0.127694, -0.0112572, -0.028681, 0.00881801, -0.0679569, -0.0528143, -0.0731354, -0.243501, 0.108414, -0.0845232, 0.0548673, -0.0608536, -0.0478259, -0.0866317, 0.200658, -0.036579, -0.0561462, 0.0334263, -0.0588888, -0.0106492, 0.0952764, 0.0496609, -0.0462167, -0.0085746, 0.0596478, -0.152314, -0.14166, 0.0979607, -0.145662, 0.0709507, 0.0577107, 0.126122, -0.113841, 0.11199, 0.336422, -0.0197178, 0.041135, -0.106479, 0.149666, -0.148655, 0.0553909, 0.124468, 0.0414729, -0.200102, 0.0437947, 0.139666, 0.0153259, -0.0865693, 0.0425653, 0.0425294, 0.0235778, -0.097996, 0.147395, 0.16331, -0.164819, 0.056682, -0.229989, 0.00733232, -0.0788944, 0.0494415, -0.230322, 0.265414, -0.0930873, 0.0580299, -0.0355926, 0.181559, -0.0967906, 0.0133517, -0.180365, 0.163567, -0.0956179, 0.0750005, -0.174902, 0.204492, 0.00815139, 0.0850048, 0.0580714, 0.0962462, 0.116673, 0.155256, -0.0774257, -0.155522, -0.116693, -0.313963, -0.161785, 0.0919568, 0.0646125, -0.211423, -0.0184807, -0.0161532, -0.0446854, 0.154641, -0.134031, 0.19211, -0.0836422, -0.171217, -0.0342413, 0.144205, 0.181658, -0.128725, 0.277408, 0.0488566, 0.0466127, -0.103958, 0.00475101, -0.132345, 0.0266472, -0.0572357, -0.0950576, -0.0945884, -0.136392, -0.0697407, 0.0140314, 0.0793632, 0.168451, 0.0224909, 0.0441819, 0.0825456, 0.0884183, 0.111474, 0.252801, 0.0877655, -0.0796714, 0.0689366, -0.03771, -0.0319381, -0.0977174, 0.0432659, -0.0328388, -0.137565, -0.0435277, -0.0834821], [7.87894e-156, 1.57471e-158, 7.26159e-157, -5.85834e-158, -1.11896e-159, -7.7109e-159, -5.75823e-159, -3.90603e-159, 1.26776e-157, 1.99113e-159, 3.83933e-159, 3.82369e-156, -2.33408e-158, -1.52029e-159, 6.15378e-159, 2.14801e-155, 3.32426e-157, -4.18537e-157, -2.72392e-159, 9.41182e-160, -7.17181e-157, -1.65426e-159, -9.90988e-158, 9.20892e-160, 5.99526e-158, 2.69888e-157, -3.54799e-159, -3.28253e-158, -1.30962e-158, -2.17818e-159, 1.73288e-159, 4.84397e-161, 3.59357e-158, 3.07558e-158, -3.4774e-162, 3.11377e-160, 9.6854e-157, 4.2379e-158, 1.75296e-157, -3.6537e-159, -1.52942e-158, 3.21364e-160, -4.809e-159, 1.9357e-159, 2.6309e-157, 2.58538e-155, -2.08674e-159, 1.39958e-159, 1.49082e-155, 8.24571e-157, -3.16263e-156, 2.06828e-155, 3.76205e-159, -1.96564e-157, -1.82522e-158, -2.09438e-158, 2.11233e-156, -1.277e-159, -4.66937e-159, 5.48958e-157, -7.72488e-156, -1.10819e-158, 3.86749e-161, 4.32119e-159, -3.84656e-159, -5.34974e-159, 2.71199e-159, -2.79669e-159, 1.17289e-159, -7.5889e-158, -3.42061e-156, 1.65438e-159, 4.98379e-159, 1.92173e-159, 2.10313e-155, 5.79729e-159, 1.18445e-155, 1.08131e-155, 1.31312e-158, -9.67542e-160, 1.57957e-156, -6.37397e-156, 2.08145e-155, -2.7953e-158, -1.96109e-159, -2.68447e-159, 6.72113e-159, -1.55979e-156, -2.59398e-158, -1.73574e-158, 8.5464e-158, 9.81523e-156, -1.11199e-157, 1.99285e-158, -6.64306e-159, 5.10284e-159, -1.61079e-157, -7.42779e-158, -8.59976e-160, -2.26473e-159, 1.9797e-159, 5.04626e-159, 5.07999e-159, 1.71412e-158, 3.29232e-158, -2.16093e-158, -4.77516e-159, -5.48583e-157, 2.31541e-158, 1.39417e-158, 4.10489e-158, 1.60199e-157, -6.05327e-159, 1.65485e-156, 1.21429e-156, -1.57865e-159, 1.72517e-158, -1.18845e-157, 9.61494e-159, -2.43275e-158, 3.52944e-158, 3.58632e-158, -9.33474e-156, -5.32725e-159, 1.13361e-157, -3.25649e-155, -1.92371e-157, 7.37948e-159, -6.94432e-158, 4.86264e-159, 3.7958e-155, 4.9452e-158, -9.64066e-161, -1.8042e-159, 3.96515e-159, -8.32971e-159, -3.79081e-160, -2.03103e-159, 1.54929e-158, -4.70122e-158, 2.97177e-157, -1.10894e-159, 2.73103e-158, -3.77897e-156, 6.06676e-157, 2.09079e-159, 5.56842e-159, 5.18581e-158, -8.14393e-158, 5.7956e-156, -3.89746e-158, -2.4609e-159, 2.30043e-158, -2.98317e-158, 3.78515e-158, -3.33467e-157, -7.94239e-158, -5.52581e-158, 8.31945e-160, 4.08398e-160, 1.0736e-158, -3.02269e-158, -9.24504e-161, -3.46503e-157, -1.49222e-158, 1.04352e-156, -9.91119e-158, -4.56039e-159, -1.61276e-159, 2.74822e-157, 1.89265e-158, -3.05548e-159, -7.64564e-160, -4.12003e-155, 7.39212e-157, -5.633e-156, 1.59665e-159, 1.455e-159, -1.6165e-155, -3.12548e-159, -1.31048e-155, 4.62618e-157, -3.37182e-158, 3.31001e-159, -9.77741e-159, -1.55866e-159, -1.1243e-156, 2.84461e-158, 1.96616e-155, -2.59858e-158, 9.05337e-158, 1.00511e-159, 1.99121e-159, -1.87872e-159, -1.06982e-156, -3.42056e-157, 2.35804e-159, -4.12342e-158, -2.18381e-158, -4.86381e-156, 1.53575e-158, 9.98301e-156, -9.31604e-159, -6.70839e-159, -1.6145e-159, -5.38418e-157, -2.93491e-160, -2.85476e-158, 8.68393e-159, -5.15659e-159, -2.97583e-159, -6.11104e-157, 3.19384e-159, 1.68625e-157, 1.67846e-159, -8.53642e-161, -1.80764e-156, 6.63371e-159, 1.23243e-157, 1.56818e-156, -7.11776e-160, 4.18595e-157, 3.0459e-156, -2.63943e-159, -4.5588e-160, -1.67953e-160, -6.45314e-159, 1.51514e-159, 4.4941e-156, 7.00945e-159, 1.17208e-159, 2.00076e-157, 2.05613e-161, -1.28646e-157, 1.60364e-155, 1.15179e-156, 3.85793e-157, 2.9127e-160, 1.00542e-158, 1.73294e-159, -1.939e-156, -3.31628e-159, -1.49675e-159, -5.96925e-159, -1.73568e-156, 6.62993e-159, -8.09961e-157, -2.58753e-155, -2.06058e-157, 1.48894e-158, -2.98222e-155, 7.58256e-157, 7.05526e-158, 1.27337e-158, 4.51963e-159, -2.105e-157, -4.60663e-159, 6.52916e-161, 8.25857e-157, -8.26951e-159, 1.14551e-159, 1.90642e-157, -4.67361e-159, -3.90166e-159, -2.57894e-158, 2.18704e-155, 6.21298e-158, 4.59797e-156, -3.94528e-159, 7.98805e-159, 4.58375e-159, -1.62447e-157, 1.01812e-156, 1.30215e-157, -9.63142e-159, 1.03528e-158, -6.42585e-159, 1.78341e-158, 3.0136e-159, 2.36217e-156, -8.12525e-160, -3.36689e-158, 2.33406e-159, -5.91527e-159, -4.49896e-159, 1.18187e-156, -2.15492e-159, 1.20578e-159, -3.8321e-160, 1.64519e-157, 9.57518e-159, 5.88573e-159, 1.88105e-160, -1.08183e-159, 1.41449e-160, -2.16231e-159, -4.25129e-155, 9.58595e-158, 1.72081e-158, 2.01937e-156, 6.77597e-159, 8.25714e-157, 5.08111e-158, -3.11537e-159, 1.54839e-158, -2.18857e-157, -1.9546e-155, -3.996e-159, 3.11667e-160, -1.08595e-156, -5.15407e-160, -1.48167e-159, -1.74247e-156, -1.26018e-158, 7.28225e-159, -8.28581e-158, -8.37799e-157, -8.36496e-158, -1.74523e-160, -4.33009e-159, 2.53221e-158, 8.44447e-158, -7.67712e-159, -1.26703e-155, -3.95504e-159, -4.16813e-159, 9.03984e-158, -8.04711e-157, -3.33526e-159, -9.58258e-158, 6.62689e-159, -9.80521e-159, 5.82488e-156, -9.82562e-159, 1.4578e-157, 3.26058e-159, -1.43623e-159, -7.32604e-157, 3.30905e-157, 7.75167e-159, -6.74361e-157, -2.60109e-158, -1.38463e-156, 2.44091e-159, -2.27858e-156, 4.90258e-159, -1.32625e-158, 8.9022e-157, -1.9726e-157, 6.48043e-159, -4.0199e-159, -2.04938e-159, -7.65735e-159, 6.87063e-158, -3.12731e-158, -5.46786e-159, 4.58092e-158, 4.44319e-156, -3.44222e-159, 1.04968e-159, -4.05944e-157, 2.00493e-159, 1.37349e-159, -5.96476e-159, 1.60857e-159, -8.00285e-159, -2.00954e-157, 1.00322e-159, 4.75686e-160, -8.41433e-159, 1.72178e-156, -9.36438e-157, -1.55115e-155, 7.74152e-159, 1.86869e-158, 6.14592e-160, -3.57873e-159, -2.12131e-160, 1.92909e-160, -2.32377e-155, 1.89726e-156, -5.46193e-160, 1.10698e-156, -4.821e-158], [-0.0682371, 0.0727696, -0.24065, -0.138798, 0.17907, -0.212377, -0.127254, -0.359839, -0.0352662, -0.00803726, -0.107474, -0.0458642, 0.10295, 0.114332, -0.00603722, 0.0141594, -0.00744386, -0.00251097, -0.157528, 0.0775687, -0.0550286, 0.0556677, -0.0171704, 0.0104253, -0.124788, -0.0642098, -0.0453499, 0.119679, -0.0563928, -0.135197, -0.045557, 0.035915, -0.0867905, 0.130071, 0.103105, -0.0797798, 0.0429162, 0.0739438, -0.119988, 0.107587, -0.0452315, -0.0867343, 0.0493913, -0.0269562, 0.0914885, 0.00203176, 0.0533507, 0.0861141, -0.14548, -0.0232685, 0.0871451, 0.125965, 0.00418722, 0.0116366, -0.0335432, 0.105232, -0.205166, 0.0424878, 0.0981696, -0.192593, -0.0742909, 0.398539, -0.0681712, -0.0122007, -0.0698332, 0.0572082, 0.169307, 0.129823, 0.0216917, 0.0553288, 0.0759334, -0.0354835, 0.145821, 0.128328, 0.143461, 0.17032, -0.0443753, -0.033075, 0.00796755, 0.0322512, 0.0613353, 0.0463795, 0.148337, 0.154283, 0.0997744, -0.0157691, 0.149814, -0.0485949, -0.020088, -0.0512163, 0.0763848, -0.0327632, -0.0465404, -0.00503325, -0.129778, -0.10918, -0.0104693, 0.0482607, -0.121311, -0.0171399, 0.1114, 0.0881803, -0.155418, -0.0646934, 0.10105, -0.103561, -0.15007, -0.125502, -0.12503, -0.00771077, -0.0239575, -0.149701, -0.02818, -0.109651, -0.0196331, 0.0324856, -0.0577587, 0.16449, -0.0126173, -0.0718497, -0.0441994, 0.179006, -0.227579, -0.0431723, -0.045754, 0.124072, -0.0909486, 0.0933011, 0.0793033, 0.00486494, -0.0662104, 0.0433651, -0.161767, 0.071693, -0.0622857, 0.00471524, 0.0547818, 0.166048, 0.173994, -0.0560006, 0.0182506, 0.0195086, 0.118213, 0.0171928, 0.146751, 0.235956, -0.13636, -0.0247265, 0.0309771, 0.0301281, -0.0988632, -0.0433721, -0.150994, 0.0246035, -0.117762, 0.0346887, -0.107293, 0.0506695, -0.000634763, -0.115694, -0.0611788, -0.246738, 0.132306, 0.108032, -0.107529, -0.0213746, 0.0294235, -0.101685, 0.0469425, 0.20444, -0.0957944, -0.151363, 0.0565591, -0.165411, -0.0462258, 0.108819, -0.0453698, -0.00207962, 0.0914419, -0.0574092, -0.0579787, -0.0688673, -0.159184, 0.0523614, -0.0666127, -0.0259671, 0.0702896, 0.0944754, 0.108502, -0.0888835, -0.0415926, -0.137838, -0.0556925, -0.20223, -0.0421258, -0.259073, 0.153265, -0.0527873, -0.0862639, -0.0822829, 0.0994509, -0.101925, 0.150485, 0.048476, -0.0155476, -0.0312218, -0.235645, 0.0062265, 0.161773, 0.0322909, 0.0746358, 0.120279, -0.106616, -0.0312214, 0.0371423, -0.0495076, -0.0636719, -0.0375369, 0.079474, -0.409671, 0.0161846, 0.197478, 0.134484, 0.0255454, 0.0627242, -0.0707536, 0.0675218, -0.0502701, -0.0908361, 0.071754, -0.155533, 0.0635696, -0.158556, 0.0573869, 0.0816408, 0.0184911, 0.104519, 0.120842, -0.0748607, -0.0220455, -0.0242965, 0.129888, -0.0549416, 0.257118, -0.0153482, -0.0105778, -0.0651163, -0.196737, 0.0604069, 0.052907, -0.0227202, 0.0420901, -0.173304, 0.0609465, 0.0490956, 0.188263, 0.0544563, -0.0591993, 0.0706606, 0.00469415, 0.0127849, 0.0205127, 0.0747533, -0.0746918, -0.102521, -0.0523485, 0.105803, -0.0752899, -0.0214647, -0.129175, -0.178956, -0.12526, 0.0924598, -0.0440352, -0.0214097, -0.0951034, 0.0661062, -0.0669353, -0.159851, 0.0384471, -0.200098, -0.139714, -0.0730708, 0.0421697, 0.0542317, 0.0944317, 0.306, 0.0175287, 0.0750025, -0.152085, 0.201976, 0.0718289, 0.0854538, -0.11494, -0.000935319, -0.0345895, 0.0418447, 0.176333, -0.19482, -0.154312, -0.0376942, 0.149637, 0.0927739, -0.0779858, 0.197064, 0.121199, -0.0589482, 0.127329, -0.187565, -0.00677501, -0.0104313, 0.0179769, -0.156613, 0.0857605, -0.0650669, 0.0137734, -0.168805, -0.00608531, 0.00475918, 0.103279, -0.012786, 0.10507, 0.0174048, 0.202729, -0.199547, 0.171123, -0.133208, 0.0196785, 0.153896, 0.0684261, 0.0241925, 0.0869799, 0.0233647, -0.055122, -0.0876819, -0.134799, -0.0109812, 0.0143283, 0.234275, -0.10616, 0.0666287, 0.0347742, -0.0255833, 0.163081, -0.0165457, 0.0973256, -0.0695207, 0.0250135, -0.0836908, 0.130431, 0.180164, -0.111479, -0.150283, 0.0529869, 0.0800655, 0.0137038, -0.074594, -0.101419, -0.0510632, -0.0346897, -0.0702283, -0.0420804, 0.0160075, 0.0459817, -0.018876, 0.131834, 0.231923, 0.177079, -0.0752028, -0.0198155, 0.0416045, -0.0183268, 0.204972, -0.0647334, 0.166039, 0.0260661, 0.132161, 0.0217005, -0.0592288, -0.0966917, -0.0529801, -0.0398538, -0.119318, 0.0400038], [-1.10769e-112, -1.12437e-113, -6.08849e-79, -2.24883e-96, -2.61217e-121, 1.36701e-109, 1.19536e-100, 8.19216e-115, -3.92668e-139, 2.81006e-120, 4.77376e-118, 3.3186e-147, -3.30044e-92, -1.2563e-146, -4.18345e-145, 5.37883e-122, -1.42585e-99, 4.93301e-156, 3.70394e-102, 6.83544e-99, -2.44686e-158, 2.13792e-134, 1.01038e-128, 8.38852e-113, -5.2091e-122, -3.14743e-107, -2.5623e-110, -9.9738e-136, 2.66006e-150, 4.77703e-94, 8.44414e-112, 9.93062e-142, -2.19965e-123, 9.68643e-123, 8.241e-125, 5.8127e-117, -5.42776e-107, 2.97161e-138, 1.76231e-123, 3.20514e-126, -6.72465e-112, -1.61977e-155, -1.1141e-121, 2.82814e-127, 2.00652e-114, -1.22345e-119, 4.07108e-112, -1.42514e-128, -3.75079e-112, -2.5846e-136, -3.02249e-94, -8.86535e-129, 5.32656e-155, 1.29511e-102, -3.50425e-145, 5.33303e-105, -5.82756e-106, -7.58191e-114, 1.00556e-149, 2.16182e-118, 1.15682e-145, -1.17523e-127, -1.54357e-154, -3.32076e-145, -1.89809e-119, 3.70374e-93, -2.68544e-107, 4.61211e-115, -4.1875e-105, -2.37082e-102, 4.83322e-126, 2.31962e-135, 3.84377e-132, -3.48682e-127, -1.30965e-141, -2.11093e-144, -1.21643e-107, 1.32166e-113, -9.45344e-146, 7.84526e-105, 7.35143e-137, -4.6354e-127, 8.21583e-108, -5.8777e-118, -9.8981e-108, 2.49239e-99, 1.75911e-108, -4.06672e-155, -4.07e-111, 6.22246e-98, -1.19426e-147, 2.0622e-113, 2.83441e-105, 2.73256e-107, -1.88403e-85, 5.90615e-156, -2.84296e-103, -6.02721e-120, 4.91693e-102, 1.33166e-138, -2.36056e-112, -4.67349e-148, 1.12627e-114, -4.46582e-131, -1.86867e-154, -8.78357e-117, 2.8535e-127, 6.65033e-131, 5.97027e-100, -1.0608e-101, -1.82829e-155, 2.27952e-115, -2.37848e-118, 5.53072e-131, -5.25096e-142, -2.44802e-104, -9.47367e-145, -5.64662e-103, -1.77377e-156, -3.35029e-116, 3.17813e-98, -2.5189e-139, 2.32118e-131, -6.91554e-91, -5.79058e-117, 5.02616e-134, -8.08247e-119, 3.10928e-82, -4.6133e-114, 3.04874e-128, 1.88467e-112, 1.29475e-125, 1.0607e-121, 5.74081e-123, -1.80727e-138, 7.97079e-90, -2.17796e-148, -1.1887e-148, -3.00416e-134, 1.7908e-152, 1.65744e-111, 1.78744e-138, 6.77709e-143, 5.23104e-136, 5.86489e-112, -1.9251e-122, 1.52077e-110, 2.08993e-146, 1.66463e-128, -6.55819e-105, 3.35987e-125, -3.30618e-144, 2.0561e-92, 4.2898e-139, -4.76455e-101, 2.19926e-152, -1.37428e-94, -4.38548e-92, 2.51742e-96, -7.70714e-92, -1.7012e-105, 2.42704e-128, -7.80119e-96, 1.10181e-124, -2.66041e-117, 3.05669e-116, 7.71001e-136, -1.69024e-97, -5.54498e-141, -2.1849e-138, -3.50531e-113, 3.7132e-134, 2.49777e-136, 3.7347e-140, -8.92495e-150, -6.45043e-140, -6.05767e-129, 1.37977e-130, 4.60698e-93, 4.11634e-133, -3.51295e-150, -6.13013e-143, 8.46983e-128, -9.30888e-107, -2.23113e-140, -1.90995e-117, -1.57577e-101, 2.38931e-140, -7.96269e-140, -1.96698e-147, 4.96888e-140, -4.87222e-141, -3.28607e-149, -1.328e-113, -4.67776e-105, 4.83212e-90, 4.55373e-128, 1.89271e-111, -2.13927e-111, 1.64099e-132, 5.20479e-112, -1.36138e-115, -7.05265e-157, 7.54259e-146, 3.22474e-117, 3.63325e-127, 3.96809e-140, 7.35109e-97, 2.53839e-134, -3.05119e-93, 4.22067e-103, 2.97398e-89, 4.93544e-105, 7.45548e-138, 2.17269e-110, 1.55301e-110, -1.70719e-108, -4.25912e-133, -2.73156e-96, -1.9473e-131, -4.48706e-96, -2.33824e-136, -2.01683e-129, -3.5861e-103, 1.54993e-141, -3.40791e-143, 1.1665e-121, 1.77789e-125, -2.21204e-134, -2.92793e-135, -2.10187e-136, 5.52754e-120, -2.97602e-110, -5.73443e-106, -2.24161e-144, -1.3396e-101, 1.97595e-134, 3.69195e-125, -1.52718e-115, 6.31395e-117, 1.74856e-143, -2.11618e-107, 3.07524e-140, 2.55393e-86, 4.6738e-102, 4.0564e-101, 2.41585e-117, 4.3444e-122, -1.65236e-140, -3.80842e-114, -4.56992e-115, 1.44299e-109, 1.18922e-139, -1.90896e-134, 8.38543e-109, -4.76838e-133, -7.04331e-142, -2.6524e-98, 1.18671e-95, -1.88833e-132, 4.11339e-110, -3.02519e-136, 4.378e-95, 4.29992e-104, 3.94574e-121, 1.33814e-107, -1.95357e-154, 1.03518e-110, 1.61101e-110, 3.57891e-135, 7.47085e-106, -3.21583e-150, -3.80291e-124, 1.00049e-149, -1.29545e-153, -1.75119e-108, -2.37248e-145, 3.73292e-98, 1.83669e-115, -4.27231e-141, 4.75739e-104, -1.44686e-113, 3.63234e-144, -7.46048e-140, 2.37536e-128, 1.10476e-142, -1.51736e-138, 6.0012e-103, -1.51773e-129, 1.37241e-121, -2.37103e-150, 8.87974e-106, -4.18012e-115, -6.65326e-151, 4.53102e-90, 1.0366e-150, 6.61778e-106, -1.55941e-115, -2.47686e-141, 2.94691e-132, -2.90354e-146, -1.28195e-138, 6.3257e-130, -8.60441e-108, 2.24359e-119, -5.09231e-112, 1.14499e-152, -1.60655e-138, -3.85516e-154, 5.6483e-124, 3.1111e-108, 1.6581e-111, -1.13271e-102, -3.15457e-114, -2.4289e-155, 2.1146e-125, 7.00063e-125, -4.05672e-140, -4.70497e-98, -6.14956e-140, -3.20027e-112, -1.88663e-119, 1.71508e-139, 2.93181e-96, 2.04113e-130, -4.38237e-127, -1.07024e-123, 1.12816e-135, -3.93287e-108, 1.81401e-149, 2.93219e-123, 2.50858e-113, -2.42993e-118, 2.61636e-118, -6.69662e-125, 1.57353e-156, -2.90096e-109, 4.83423e-105, 6.52354e-141, -7.12772e-122, 2.4321e-135, -2.30355e-138, 5.8914e-135, 7.64189e-102, -2.81762e-118, -2.03548e-124, -2.53912e-128, -1.48877e-137, 1.90176e-138, 8.61612e-136, -1.96932e-114, 3.67842e-81, 3.2932e-117, -1.87289e-124, 1.97287e-128, -4.15365e-151, 2.01879e-106, -2.49885e-118, -9.89491e-150, 1.39252e-131, -3.21453e-112, 7.82596e-99, 4.41184e-91, 5.34787e-133, 1.01354e-147, 1.20903e-122, -2.98242e-145, -1.15322e-132, -1.38487e-132, -2.44387e-119, -4.28842e-113, 1.92573e-106, -8.76338e-146, 1.48426e-150, -3.94782e-143, 2.52031e-123, 3.04837e-146, 9.57845e-121, 1.65655e-100, -3.21569e-127, -3.9088e-100, 7.43412e-116, 4.73049e-120, 3.96679e-127], [-0.00449994, 0.000165078, -0.00246882, -0.0141024, -0.00801577, -0.00103461, 0.00470134, 0.000292052, -0.0113007, -0.000107344, -0.000645355, 9.37783e-06, 0.0166223, -0.00104343, -0.00161292, -0.00252375, 0.00216292, -0.00188628, 0.000360843, 0.00244487, 6.26921e-05, -1.00898e-11, 0.000413675, -0.00146403, 0.00129332, -0.0114604, 0.00144845, -0.000427688, -0.000389135, 0.0081621, -0.00822813, -0.000668713, 0.00160885, 0.00739031, -0.00769561, 2.99264e-05, -0.011605, 0.0124915, -0.0011661, -0.0161309, -0.00149647, -1.06497e-06, -0.00216334, 0.0107332, 0.0101444, 0.000329328, -0.00140124, -0.00457092, 0.0157937, 0.0014217, 0.00397694, 0.00437941, -8.30764e-07, 0.0163226, -0.000714748, -0.00908186, -0.00205207, 0.0109097, 0.00878799, 0.000678027, 0.00766529, -3.71344e-06, -0.000101477, 0.000400082, -0.00726188, -0.00280281, -0.00273259, 0.00229087, -0.00597259, 0.000293406, -0.00177197, 0.00537856, -6.01661e-25, 0.00189097, 2.88072e-06, -0.0016715, -0.00252361, -0.0120349, -4.46354e-05, 0.000794693, 0.00367475, 0.00605107, 0.00284526, -0.00359665, 0.00268899, 0.00119324, 0.00310146, -0.00356673, 0.0127735, 0.00342207, -0.000223721, -0.00484071, 0.0016579, 0.00153702, 0.0263597, 0.00939151, 0.00167581, 0.00222836, -0.00875186, -0.00146414, 0.0041111, 1.37406e-07, -0.00973942, 3.48071e-05, -0.000355473, 0.000480005, 8.92375e-06, -0.000645313, -0.00306927, 0.00221996, 0.00473147, 0.00124036, -0.00105893, 0.000207792, 0.00554285, 0.00169725, -4.08242e-05, -0.00315668, -0.000911154, -0.000905142, 0.00876489, 0.00152862, -0.00194802, 0.00126859, 0.00866066, 0.0069077, -0.000123074, 0.00337017, -0.00434086, -0.00250431, -0.00911418, 0.000961979, -0.000818273, 2.81788e-06, -0.00760041, -0.00372096, -3.97236e-12, -1.2826e-14, -1.19583e-07, 0.000825571, 0.00157513, -0.00691346, 2.56369e-05, 0.0028436, -0.0132862, -0.00148689, -0.011676, -0.00045238, 0.0141188, 0.000544962, 0.00590485, -1.21453e-35, -0.00178567, 4.48486e-05, -0.0117762, 0.00689717, 0.0178703, -0.00878576, -0.00810852, -0.00564851, 0.00256719, 0.00142334, 0.0208251, -3.38926e-17, -0.00734906, -0.00471674, -0.00233773, 0.00863168, 0.0019029, -0.0042683, -0.00809957, 0.000138507, -0.000128175, 0.00748207, 3.7686e-35, 0.00188067, -0.00251354, 0.000582465, 0.00468962, -0.00052712, -0.000133898, 3.08144e-06, -0.0019371, 0.00220146, 0.00376592, 0.00143208, 0.00720142, -0.000291158, 0.000884243, -0.0012773, -1.29427e-21, -0.00135007, 0.0022291, 0.00353417, -0.00676208, -0.00517889, 0.00100066, -0.0106562, -0.00345647, -0.00226534, 1.60986e-08, 0.00263385, -0.000189019, 3.37918e-05, 0.000588569, -3.56365e-08, 0.000645327, -0.0109705, -0.00358206, 0.00449652, -0.00333346, -0.00527408, -0.00902459, 0.00215691, 0.000469072, -0.00413525, 4.79432e-08, 0.00232015, -0.012918, -3.02663e-17, -0.00855628, -6.97516e-05, -0.0053116, -0.00345719, 0.000283918, 0.00143863, -0.0138021, -0.00409336, 0.00477285, 0.00111879, -0.00222441, 0.000138928, -0.00556353, -0.00494311, 0.000440845, 0.017676, -0.00136231, -0.00143509, -0.00715959, -0.00420537, 0.00963737, 0.000934708, 0.00273655, 0.0199068, -0.00799499, -0.00314812, -9.04177e-06, -0.000479162, -1.83098e-05, 0.00217632, -0.00299241, 0.00462966, 0.00165442, -0.00730419, -0.00106602, 0.00110943, -0.00571137, -0.00373274, 0.0115429, 0.00246114, 0.00112637, -0.000162608, 0.00350617, 0.000166649, -0.00990761, -0.000167455, -0.00027943, 0.00128667, 0.0166765, 0.00112433, -0.0125663, -0.000142035, -0.00138586, -0.000925685, -0.000286681, -0.00301679, -2.96613e-05, 0.00763001, -0.0051134, 0.00542396, 0.00190335, 5.15966e-06, 0.00258672, -0.00780289, 0.000557039, -3.24973e-07, 1.31447e-05, -0.0226103, 0.000368607, 0.00191772, 3.63751e-05, 0.0159752, -0.000866896, -0.00033837, -0.00453329, -0.000881117, 0.000682754, -0.00463071, 0.00109356, 0.00363053, -5.91294e-24, 0.00232835, 0.00326096, 0.00609148, -0.00479542, 0.0017001, -8.9993e-06, -0.000807167, 0.000104545, 0.000692982, 0.00219871, -0.00276905, -0.00474369, -0.00359233, 0.00518505, -0.00336261, -0.00129907, -1.01345e-05, -0.00254513, 0.00721491, 0.00227817, -0.00357693, 3.23655e-07, 0.0128776, 0.000940427, -0.00292144, -0.00144634, 0.000546564, 0.00269789, -1.07134e-05, -0.00179121, 0.000823335, 0.00762111, 5.41692e-05, -0.00790636, -4.83521e-13, 0.000470965, -0.00252142, 0.00210965, -0.00467798, -0.00122448, -0.000224573, -0.00391897, 0.00221351, -1.92269e-05, -0.000651493, 0.00547195, -0.000313779, -0.00264219, -0.00666777, 0.0017482, -0.0213362, -3.81184e-05, 0.0018222, 0.00691172, -0.00468776, -0.0101756, 0.000102766, -0.00132485, -0.000160055, -0.00676713, -0.00305251, -0.00158157, 0.00537163, 0.00238029, -0.00723639, -0.000146806, -1.2307e-35, -0.00244847, -0.00271586, -0.00403181, -0.00640948, -0.000320696, 3.98038e-43, 1.76789e-07, -0.00525988, 4.07184e-05, 0.00549207, -0.00298181, 0.000393169, 0.00426429, 0.00491517, -0.000654666, -0.00168457], [4.97371e-157, -1.37601e-155, -5.22017e-158, 2.79821e-159, 1.75534e-157, -4.76404e-160, 3.50062e-157, -1.39098e-156, -1.54608e-156, 6.0484e-159, 8.22252e-160, 5.17572e-158, 2.25318e-157, 1.71623e-158, 6.38048e-159, 5.9776e-159, 5.63236e-159, -2.72851e-159, -9.89479e-157, -4.64998e-158, -6.03706e-159, -2.34887e-161, 1.7819e-157, -4.2619e-159, -2.76349e-156, -6.61279e-158, 3.31488e-159, 8.91948e-157, 2.04024e-158, 4.54703e-159, -4.46994e-159, 5.7132e-159, -5.11597e-159, 4.22665e-159, 3.1122e-159, 1.12668e-158, 1.82263e-159, -1.21285e-156, -4.39146e-158, -1.05216e-157, -2.18553e-155, 1.30255e-155, -6.48571e-159, 1.65733e-158, -8.30743e-159, -1.72377e-158, -4.65918e-159, -1.63427e-157, -1.77157e-159, -3.89249e-157, 4.39275e-158, 1.90383e-158, -7.82136e-160, 1.53552e-159, -1.02282e-161, 2.24391e-159, -5.79446e-158, -1.96173e-155, 1.91006e-158, -1.12046e-157, 1.95508e-155, -1.27473e-157, 8.91178e-156, -7.22729e-156, 2.6156e-155, 8.95614e-156, 2.47422e-157, -4.74877e-159, -1.8967e-158, -4.67818e-159, -4.31142e-158, 2.47788e-158, -7.33058e-159, -9.73025e-161, 1.08036e-161, -5.2323e-158, -6.24336e-158, 1.06896e-157, -1.963e-157, -9.06033e-156, -2.48001e-159, -2.4715e-159, 1.02058e-159, -1.06637e-159, 6.24024e-159, 3.52005e-155, 2.68491e-159, -9.1131e-156, -5.28342e-159, -8.60336e-157, 9.7987e-159, -9.20727e-159, -2.18416e-158, 1.65399e-158, 7.37324e-162, 8.83152e-157, 7.0053e-156, -1.8481e-158, -3.71954e-159, 6.83205e-160, -2.51658e-158, -3.0222e-155, 4.29445e-160, -1.25713e-157, 5.98243e-156, 3.90049e-159, 1.0209e-156, 7.09635e-156, -6.54454e-159, -5.6728e-156, -1.78481e-158, -3.71152e-159, -6.44166e-156, -2.7215e-155, 2.2157e-157, -1.87853e-159, 1.66247e-159, 1.15676e-156, -4.75302e-159, 4.56785e-158, -3.45739e-159, -7.0678e-156, 5.24786e-159, -3.54357e-155, 9.85163e-156, -3.8992e-159, -1.81056e-157, -4.03774e-158, 8.89459e-158, 1.84973e-156, 3.33246e-157, -3.14636e-158, 1.62077e-159, 4.39037e-155, -1.81372e-160, 7.1441e-159, 2.52472e-158, -2.40529e-159, -6.96607e-158, -1.02449e-159, 3.06492e-159, 7.72096e-160, -8.56834e-158, 5.54734e-159, -3.16215e-160, -4.20257e-159, -1.66455e-158, 3.24448e-159, -2.80933e-159, 7.90956e-159, 1.63577e-158, -4.16983e-159, -2.07786e-159, -1.42272e-156, 1.93234e-155, -3.91588e-160, 2.24604e-160, 4.16797e-159, 1.12174e-155, -3.10309e-158, 1.67154e-158, 9.18863e-156, -2.99663e-159, 1.05438e-158, 4.19718e-157, 3.05902e-159, -7.41551e-158, 7.01777e-160, 3.88974e-160, 5.39428e-160, 1.03475e-158, 4.00576e-156, 1.09509e-159, 1.66479e-160, 3.47136e-159, -3.02488e-157, -5.12245e-160, -7.14068e-159, -2.57114e-155, 2.41228e-156, -6.82029e-156, 1.26236e-159, -5.54465e-159, 2.0241e-160, -1.20673e-157, -1.72414e-156, -6.68658e-162, -5.10788e-158, 1.14903e-157, 4.39965e-155, 7.33308e-159, 1.10521e-158, -8.31024e-156, 1.07922e-159, -2.37582e-160, -6.2354e-156, 2.35504e-159, -7.69949e-157, 5.9981e-157, -5.02102e-157, 1.18894e-157, 3.31988e-159, -3.34854e-160, -1.14093e-156, 1.59778e-158, 2.21989e-157, 6.10127e-159, 2.5567e-160, -2.86372e-157, 7.86799e-159, -2.32681e-155, 1.18615e-158, 3.8829e-160, 1.01711e-158, 1.23828e-155, -1.07948e-155, -2.36926e-156, -2.8845e-156, -3.60519e-158, 9.21833e-157, -3.17267e-160, 2.80234e-159, 2.88078e-159, 6.40873e-161, 9.10325e-161, -1.78887e-158, 2.83751e-157, -7.89024e-158, -7.94456e-160, -3.82063e-158, -7.33979e-158, 2.13388e-159, -6.0129e-159, 3.0958e-161, 1.02841e-157, 8.88546e-160, -1.23535e-161, 6.33834e-157, 9.04129e-156, -1.1973e-157, 3.06551e-159, -1.05334e-156, -3.62941e-160, -2.54599e-157, -5.83564e-159, -1.97601e-157, 3.14673e-155, -2.43407e-159, -1.11373e-156, -1.16745e-158, -1.12652e-156, 3.05113e-159, 2.42662e-159, -1.93934e-158, 1.83208e-159, -1.93914e-158, 2.41916e-160, -2.19496e-158, -3.61682e-158, 2.05891e-158, 1.24951e-156, -1.59783e-159, 7.91989e-158, 7.23925e-160, -4.67989e-157, -1.63423e-158, -1.57819e-156, -9.95866e-157, -1.03327e-157, 7.23863e-159, 1.10397e-156, -3.98899e-159, 1.07896e-159, 2.53836e-159, 1.4891e-157, -5.98708e-158, 2.07048e-157, 7.2776e-160, 1.40871e-156, -2.39983e-158, 2.02199e-159, 3.11975e-160, -1.19096e-159, 4.52464e-159, 3.61412e-157, -7.22169e-160, -4.04036e-162, 5.43342e-158, -9.75535e-159, 1.33763e-163, -2.11449e-157, -2.35426e-157, 1.504e-156, -1.0446e-157, -1.58835e-159, 2.9752e-159, -2.94579e-159, 4.59195e-158, 1.44312e-159, -8.2479e-159, -1.7781e-160, -1.19528e-158, -1.11787e-157, -4.46407e-159, -3.40749e-157, 4.69618e-157, -9.71547e-159, 3.4572e-157, -2.39375e-158, -1.06193e-157, 1.07583e-158, 8.38874e-157, 1.51797e-158, 1.86988e-157, 2.90894e-158, 3.90692e-162, -2.24781e-158, 2.24512e-158, -5.93813e-160, -5.20482e-159, 3.78867e-161, -1.58624e-157, -1.98463e-159, 1.16371e-158, -4.58489e-159, -5.68748e-159, -7.87981e-158, -2.53844e-161, 2.93229e-158, 9.68364e-157, -2.36472e-160, -2.30953e-157, 5.95236e-156, -4.05459e-157, -2.12207e-159, 4.29421e-157, 7.00204e-159, 1.24326e-158, -1.96626e-157, -1.59461e-157, -1.57857e-156, 7.86149e-159, 3.01971e-161, 1.26967e-158, -4.98928e-161, 4.28383e-159, 1.11806e-157, 1.65457e-160, 2.63087e-156, -1.55786e-157, 2.25162e-156, -1.84938e-158, -5.96718e-158, 2.10672e-159, -1.26897e-159, 1.1776e-155, 2.38768e-156, -2.52383e-155, 1.2626e-155, 6.25907e-159, -2.17032e-158, -4.8398e-160, -2.41781e-158, 7.53568e-159, -2.06558e-158, 2.26286e-156, 4.45211e-155, -7.30433e-159, 2.07e-157, -8.85546e-159, -2.05799e-158, 2.05026e-159, -2.78927e-157, 4.22536e-158, 1.23193e-156, 2.23989e-162, 7.44823e-160, -2.39612e-157, -1.07128e-158, -1.20503e-158, -1.58909e-159, 6.18876e-162, 6.73518e-159, 8.50371e-159], [0.132102, -0.0928046, 0.121484, 0.169885, -0.324261, -0.365563, 0.0596499, -0.489109, -0.126317, 0.0741962, 0.0984726, -0.109149, -0.00697269, 0.0743117, -0.177086, 0.167211, -0.140416, 0.0909068, -0.129395, -0.0592398, -0.254462, 0.381905, -0.254688, 0.276513, -0.274102, 0.0184974, -0.238999, -0.119277, 0.0110416, -0.0211636, 0.179535, 0.0240136, 0.0815515, 0.187955, 0.135888, 0.022839, 0.138827, 0.0150661, -0.0743463, 0.0299923, -0.330838, 0.227016, -0.102537, -0.0191616, -0.232178, -0.32244, 0.0930267, 0.145288, -0.0345688, -0.0753981, 0.105549, -0.0242184, 0.541034, 0.136291, -0.176635, 0.0888297, -0.318308, -0.0318867, 0.23974, 0.154296, 0.194479, 0.400181, -0.332831, -0.107864, -0.184611, -0.0274728, -0.26432, 0.283514, -0.15345, 0.054221, -0.114669, 0.0982929, 0.0662501, 0.0339038, 0.787459, 0.2316, 0.181184, 0.105876, 0.0306962, 0.227061, -0.130399, 0.188553, -0.114185, -0.175949, -0.00887064, 0.228174, -0.097828, 0.0842175, 0.0322229, -0.007999, 0.0609909, -0.365346, 0.0345851, 0.111469, 0.010169, -0.0211807, 0.0235637, -0.00381848, -0.00647614, -0.0499337, 0.269537, 0.197698, -0.193758, -0.102626, -0.0120304, 0.0810855, -0.0827843, -0.334039, -0.0724859, -0.0873594, 0.073208, -0.226004, 0.131336, -0.282125, -0.0658012, 0.15943, 0.147785, 0.193395, 0.437204, -0.0365762, -0.225547, -0.131672, -0.212423, -0.140527, -0.0472149, -0.082789, -0.498896, 0.0142353, -0.0673424, 0.211174, 0.247194, 0.0408292, -0.0473865, 0.481327, 0.0714947, -0.233476, -0.190572, 0.113775, -0.27373, -0.172858, 0.0177208, 0.0163116, -0.183834, -0.0295343, 0.147975, 0.176785, -0.0213349, -0.0637372, 0.0198429, 0.0493527, 0.291835, -0.206898, 0.0274931, 0.174345, 0.297233, 0.0444952, 0.0396662, -0.107753, -0.142417, 0.0286282, 0.1521, -0.0932805, -0.102443, -0.0234989, 0.160993, 0.148325, -0.00881639, -0.153004, -0.0278263, 0.0303106, -0.0600642, -0.00181139, 0.205438, -0.328555, 0.0815657, 0.102903, 0.0366092, 0.0799087, 0.17197, -0.175768, -0.0923908, 0.291602, 0.102926, -0.191124, 0.00326742, 0.0508407, 0.0688921, -0.159608, -0.0586245, -0.0401834, -0.14004, -0.32397, 0.117329, -0.0193439, 0.0850787, 0.140897, 0.0796543, 0.129454, -0.125778, 0.175735, 0.192308, -0.348014, 0.16711, 0.291702, 0.2342, 0.0537472, 0.14773, 0.0251733, -0.0205458, -0.0686609, 0.0980607, 0.0284974, 0.069808, 0.139656, 0.326158, 0.0406272, -0.317374, -0.147031, -0.332788, -0.183366, 0.296559, -0.0909361, -0.0824308, -0.241417, -0.193443, 0.113512, 0.256265, 0.229138, 0.188939, -0.0258007, -0.344886, -0.0524883, -0.160469, 0.0493195, 0.350486, -0.0284677, 0.13937, -0.124182, 0.322281, -0.218413, -0.0628802, 0.249825, -0.00958997, -0.133374, 0.229811, -0.0680961, 0.14498, 0.0695391, -0.147639, -0.318218, 0.0352975, 0.0265876, -0.124841, 0.124962, -0.275794, -0.0511455, 0.107838, 0.105441, -0.106458, -0.21349, 0.305141, -0.114926, -0.210421, 0.195545, -0.184491, -0.0159108, 0.0887087, -0.147394, 0.14021, 0.0295364, 0.151122, -0.133788, -0.0786321, -0.114347, 0.364044, -0.154462, 0.0889655, -0.183749, -0.322731, 0.0943376, -0.0910127, -0.211102, -0.011044, 0.576584, -0.074515, -0.396096, 0.150635, 0.190094, -0.0244878, -0.542665, 0.0798279, -0.118744, -0.140298, -0.45189, 0.179811, 0.108376, -0.157128, -0.121377, 0.0595328, -0.254322, 0.223249, 0.0634213, 0.0316643, -0.129587, 0.160577, 0.295264, -0.495176, 0.0558061, -0.452361, 0.385999, 0.0994054, 0.0345347, -0.101095, 0.0802135, -0.231544, -0.236282, -0.406294, 0.236646, 0.201406, -0.0289065, -0.24767, 0.138971, -0.390652, 0.187919, -0.313739, 0.157083, 0.111854, 0.0250664, 0.330416, 0.395909, -0.142338, -0.190384, -0.409308, 0.016337, -0.0988419, -0.10038, -0.373062, 0.289547, -0.265201, -0.0233378, -0.302234, -0.402472, 0.0110305, 0.212343, -0.13618, 0.105093, -0.0432922, -0.0774973, 0.0865841, 0.185628, 0.0823006, 0.135218, 0.135432, -0.231984, -0.122567, -0.0935477, -0.248629, -0.395873, -0.203278, 0.194919, 0.0783551, -0.207599, 0.204215, 0.0953854, -0.201355, 0.204382, 0.0905479, 0.159559, -0.0181575, 0.199235, -0.0332668, 0.218312, 0.247612, -0.15579, 0.0903931, 0.0782192, -0.268326, 0.0626994, 0.150488, 0.158231, -0.010585, 0.0825677, 0.0747859, -0.176878], [0.000102642, 2.90111e-16, -0.000489688, -0.00115855, 0.000105974, -1.42987e-05, -0.000312609, -2.79067e-09, 3.13351e-05, 1.903e-08, -1.9205e-05, 1.66756e-47, 0.00127159, 2.67655e-08, -2.18945e-07, 3.81938e-09, -0.000285632, -4.86427e-06, -2.33009e-05, -0.00014083, -4.63981e-15, 3.61599e-61, -2.82186e-07, -0.00013876, -3.06423e-07, -0.000208994, 1.44261e-05, -2.87758e-08, -7.05896e-09, 2.01381e-06, -7.17577e-05, -1.52083e-05, -1.31267e-05, -0.000130938, -9.68235e-06, 3.46519e-05, -0.000316804, -0.000194154, 2.43242e-06, -0.000157963, 1.83834e-05, -5.47747e-21, 1.50676e-06, 0.000108561, -0.000120363, 0.000151296, 4.74631e-07, -7.23218e-07, 0.000405889, -1.10289e-05, -3.03429e-05, 4.35809e-05, 4.38973e-29, 0.000906384, -1.45045e-07, -0.000214041, 6.2278e-05, 0.000224608, 5.59221e-05, 0.000287278, -3.04326e-05, 9.20328e-08, -1.34493e-07, -1.28315e-08, -0.00028259, -0.000757286, -1.85128e-05, -1.65176e-07, 5.64107e-06, 4.43048e-06, -8.35333e-05, -7.47845e-05, 2.37655e-19, -3.57493e-07, -1.94639e-10, 3.08916e-05, 8.38038e-06, -0.000113573, 1.48149e-06, -6.46833e-07, 1.13444e-10, 1.45713e-05, -1.60623e-07, -7.06157e-06, 6.28227e-05, 0.000185639, 4.17216e-05, -1.507e-05, 0.000165144, 2.19212e-05, -7.5623e-07, 0.000148418, -4.09376e-05, 0.00026724, -0.00279716, -6.67102e-05, 0.00027579, 6.98052e-05, -0.00100106, 9.73535e-08, 1.1641e-05, -1.07126e-10, -0.000158237, -8.73618e-06, -5.11429e-08, 1.89983e-06, -2.54515e-06, -4.44013e-08, -0.000348661, -3.56867e-05, 9.24504e-07, -4.26946e-06, -0.000117248, 1.09211e-07, -8.17789e-06, 5.81103e-06, 6.91972e-09, 2.34075e-06, -8.43159e-07, -2.40535e-05, -0.00051407, -3.62892e-06, 3.99892e-05, 0.000126644, -2.7196e-05, 4.26877e-05, 5.57985e-07, -0.000241431, 0.000107432, 2.93832e-05, -0.000114392, -4.33643e-06, -6.82947e-06, 3.55615e-10, 3.0638e-06, 0.00062519, -1.00459e-13, -6.5207e-15, 1.58718e-39, -8.53999e-09, 0.000400699, -2.03084e-05, -9.44741e-06, 3.33819e-07, 0.000331953, 7.84501e-06, 7.68294e-05, -1.72666e-09, -0.000556385, -5.87894e-05, 5.97327e-06, -2.08365e-84, -0.00019082, 2.31435e-11, -0.000204914, -4.55546e-05, 0.000684713, -0.000238112, -3.39292e-05, -8.4297e-05, 7.40364e-05, 7.95086e-09, -0.00114883, 1.1147e-46, 0.000130115, -5.98666e-05, 4.27971e-10, -0.000182623, 2.04636e-05, 1.3914e-07, 0.0001884, -3.45219e-08, -3.19285e-07, -3.28098e-05, 5.21667e-64, -1.11348e-06, -4.70498e-05, 1.62357e-06, 3.87028e-05, -1.14911e-11, 9.74655e-14, -2.22296e-14, 1.38417e-07, -7.86553e-05, 1.57475e-06, 6.71823e-06, -0.000178075, 8.51111e-08, -6.02976e-11, -5.01302e-10, 4.57505e-25, -2.27571e-07, -1.54444e-06, 0.000711158, 2.29079e-06, -4.22177e-05, -8.13316e-12, 0.00016881, -4.94874e-06, -6.97388e-07, -8.41528e-32, 8.39264e-05, 1.47517e-34, 2.1514e-14, -2.36285e-07, 2.86643e-28, 1.72618e-05, -0.000234566, -4.96484e-08, -3.01434e-06, 1.16093e-05, -0.00031244, 0.00024218, -5.18203e-06, 9.85348e-06, 4.44934e-05, 7.73985e-10, -5.71452e-05, -0.000166798, -2.72743e-21, -0.000747773, -4.72292e-09, 3.32526e-06, -0.000150091, -7.61273e-06, 5.95818e-08, 3.76275e-05, -4.8661e-05, -8.48965e-05, 1.05378e-05, -1.72564e-06, 3.27601e-11, -2.46593e-06, -0.000667417, -2.73728e-07, -0.00155711, 1.09576e-07, -6.29047e-08, -1.65903e-05, -5.37435e-05, 2.90246e-05, 4.19728e-06, 2.94381e-06, -0.000367925, -0.000101164, 1.67406e-05, 6.63544e-08, 1.72035e-06, 4.37642e-15, -8.91501e-06, -2.92975e-06, -9.24915e-07, -6.14306e-05, -0.000110397, -2.08153e-07, -1.1122e-07, -8.3616e-06, -5.59416e-05, -4.43258e-05, -1.4711e-08, -1.67784e-06, -7.58221e-09, 0.000458054, 9.32899e-05, -2.89717e-05, -1.18269e-07, -3.76738e-10, -0.000114975, 0.000376017, 2.10473e-08, 3.5576e-05, 2.94133e-11, -0.000192787, 3.34852e-08, -8.31672e-09, -0.000102407, 5.64836e-07, 0.000329658, -0.000483615, -2.02557e-06, -3.75568e-06, 2.094e-10, 2.23021e-07, -2.11779e-06, 2.43171e-05, 2.31013e-14, 6.70694e-20, -0.000330798, 0.000119705, -2.50209e-06, 4.0637e-38, -0.000396753, 1.61374e-05, 4.31935e-06, 5.2065e-05, -6.93063e-07, 1.73107e-06, 5.03235e-05, -5.50811e-06, -6.98258e-05, 4.91722e-14, 3.51721e-06, 4.5054e-06, -3.51696e-05, 6.84246e-05, -2.28351e-06, -3.1307e-35, -1.23245e-06, -1.87765e-12, 5.48017e-10, 9.3076e-06, -0.000319664, -0.000288982, -5.61853e-06, 7.11416e-05, 9.18818e-06, -3.33439e-06, -5.07645e-13, 8.92527e-06, 4.01063e-05, 3.0103e-06, -1.59251e-05, 3.46991e-13, -0.000430758, 4.97045e-14, -1.2508e-06, -1.43418e-06, 9.65933e-09, 4.23308e-07, 2.617e-14, -1.47843e-05, 3.26186e-07, 4.43193e-05, 3.87122e-07, 0.000710888, -6.07815e-28, 5.18989e-06, 3.15006e-05, 5.48105e-06, -0.000442134, -2.14568e-09, -1.58021e-06, 4.08899e-05, -1.50048e-05, 3.1366e-06, 1.31096e-06, -1.09324e-05, -3.75519e-05, -2.99701e-06, -4.81615e-05, -6.46763e-05, -0.00362817, 1.56346e-07, -3.66946e-06, -1.26092e-05, -1.31503e-07, -2.15079e-05, 1.82426e-12, 3.41232e-07, 2.9569e-07, -2.36253e-05, 3.26678e-05, 9.25497e-06, -6.46851e-05, 1.29978e-06, 1.55672e-06, -4.56495e-10, -3.22986e-11, -7.57828e-06, 1.09354e-05, -5.73405e-05, -3.68988e-05, -1.94428e-08, 9.40058e-20, 1.20261e-16, 2.40549e-06, -2.6248e-80, -5.01561e-06, 9.42223e-05, 2.81458e-07, -3.12283e-05, -0.000268296, -1.78468e-05, 3.83896e-05], [0.217287, 0.0932213, -0.0609585, 0.12912, -0.289663, -0.320849, 0.0548074, -0.31184, -0.211803, 0.0540735, 0.233708, -0.126737, 0.112749, -0.0198189, -0.0847036, 0.0777902, -0.212561, 0.0318283, 0.0199375, -0.0291255, -0.310469, 0.488754, -0.179057, 0.285739, -0.328078, 0.0614397, -0.0729232, -0.0267482, 0.373144, -0.0411186, 0.108777, -0.147234, -0.027816, 0.13942, 0.165513, -0.0316165, 0.137613, 0.146386, -0.0229615, 0.0765229, 0.108466, 0.245146, -0.146309, -0.137223, -0.154957, -0.185393, 0.0759069, 0.0089944, -0.0711762, -0.116109, 0.0831747, -0.0916145, 0.349124, 0.0523209, -0.229323, -0.0702553, -0.102317, -0.0951915, 0.180023, 0.295642, -0.063992, 0.231949, -0.255428, 0.0876108, -0.0723243, -0.126997, -0.261161, 0.215766, -0.0730543, 0.165676, -0.119155, -0.0393121, -0.268942, 0.0424362, 0.360946, 0.209289, 0.0182577, -0.0426346, -0.150805, 0.194801, -0.032212, 0.142485, -0.0164806, -0.321977, -0.0843975, 0.0376687, -0.120047, 0.0732102, -0.0388218, -0.104739, 0.0968857, -0.237486, 0.167944, 0.109239, -0.113037, -0.0260139, -0.00276585, -0.051306, -0.0454368, -0.136167, 0.181934, 0.216574, -0.11145, 0.0362816, 0.172513, 0.161678, 0.113121, -0.0744511, -0.00387032, -0.0781601, 0.0204336, -0.0582606, -0.00467128, -0.170738, -0.0872189, 0.0770305, -0.0261349, 0.317813, 0.170935, -0.0284934, -0.250209, -0.104566, -0.138177, -0.0211851, -0.116012, 0.00316937, -0.41245, -0.117226, -0.0155125, 0.222274, -0.0277473, 0.00487744, -0.0708438, 0.462289, -0.0434283, -0.0944429, -0.192016, 0.171514, -0.154656, -0.034221, -0.0403388, 0.0429967, -0.0183283, 0.0264435, 0.042331, 0.187086, 0.0600829, -0.123315, 0.0738273, -0.00188738, 0.102744, -0.199147, -0.0278521, 0.27645, 0.0527183, 0.0598195, -0.122319, -0.0870825, -0.195665, -0.0915815, 0.0530043, -0.176963, -0.15941, -0.0976826, 0.257112, 0.149023, -0.280461, -0.0221298, 0.0782365, 0.0684509, 0.109524, -0.0384022, 0.220693, -0.254651, 0.307647, -0.0124404, 0.0794559, 0.11612, 0.129794, 0.0733463, 0.203663, 0.191923, 0.0450438, -0.149628, -0.0608399, 0.0523089, -0.0673023, -0.208336, -0.049441, -0.0642242, -0.267134, -0.350856, 0.0869132, -0.0207311, -0.0138153, 0.0697218, 0.116675, 0.0440003, -0.00447392, 0.106597, -0.0405006, 0.05349, 0.0821731, 0.487138, 0.205333, 0.11695, -0.0613448, 0.138916, 0.00950451, 0.015555, 0.205859, -0.0431583, -0.106683, 0.138359, 0.23436, -0.0454905, -0.250318, -0.0255032, -0.185792, 0.123523, 0.0753659, -0.0621628, -0.0194053, -0.0432198, -0.242714, 0.154076, 0.297107, 0.026007, 0.198754, -0.0853644, -0.309531, 0.0954176, -0.181563, -0.01552, 0.416645, 0.0291939, -0.0510442, -0.215244, 0.276828, -0.026995, 0.00104146, 0.107478, 0.0135103, -0.028872, 0.229599, -0.103051, 0.0443267, 0.382239, -0.232391, -0.381291, 0.0436893, 0.123478, -0.11106, 0.186273, -0.192979, -0.0565608, 0.0278036, 0.205465, -0.0236963, -0.0960363, 0.142215, -0.150656, 0.0268655, 0.376844, -0.0227251, -0.110285, 0.116993, -0.125601, 0.203203, -0.220778, 0.12934, -0.300951, -0.0603698, -0.123797, 0.157479, -0.162182, 0.0849788, 0.0148724, -0.0765857, 0.0101467, -0.000305732, -0.135003, -0.00737015, 0.392368, -0.0999156, -0.137622, 0.0040909, 0.04214, 0.123057, -0.314791, 0.25629, -0.176513, -0.166752, -0.326512, 0.0612267, 0.197019, 0.143377, 0.0335551, -0.0425204, -0.142466, 0.0545968, 0.0765754, -0.00366375, -0.0267581, 0.0701013, 0.207413, -0.507015, 0.296687, -0.148499, 0.496772, -0.0850343, -0.0513833, -0.11457, 0.12667, -0.0899637, -0.211678, -0.368939, 0.0414962, 0.147583, -0.103703, -0.17545, 0.0535147, 0.0771618, 0.0163738, -0.467936, 0.168828, 0.132722, 0.0534188, -0.103616, 0.411653, 0.088434, -0.0348047, -0.394186, 0.112623, 0.0880407, 0.021965, -0.281682, 0.0660064, -0.164386, 0.0164111, -0.267199, -0.320214, 0.0404762, 0.426171, -0.287322, -0.146779, 0.121904, -0.0330809, 0.120899, 0.249814, -0.102676, 0.0795442, 0.150089, 0.0112146, -0.0533564, -0.162975, -0.148313, -0.339467, -0.231555, 0.119049, 0.109165, -0.217701, 0.019798, 0.0431483, -0.00722169, 0.267315, 0.109501, 0.129461, -0.121279, 0.0339722, -0.132664, 0.0816648, 0.0981205, -0.189275, 0.0538927, 0.00686121, -0.197514, -0.00281451, 0.0409376, 0.139516, 0.0657681, 0.048349, 0.0346145, -0.00958623], [0.0960649, -0.0182413, 0.141281, 0.0771815, -0.202876, 0.0851946, 0.0799328, 0.204237, 0.0273038, -0.0424443, 0.12731, 0.136802, 0.00651301, -0.072552, -0.0582179, -0.0813553, 0.0104956, 0.0779711, 0.162597, -0.109222, 0.0609796, -0.0108886, 0.0211267, 0.0914066, 0.0290464, 0.132794, -0.0528322, -0.290026, 0.0238963, -0.00546598, 0.10732, -0.14859, 0.0958019, -0.0877237, -0.0332861, 0.0467659, 0.100854, -0.0421398, -0.0759194, -0.0807599, -0.169576, -0.0144318, -0.160605, 0.124178, -0.186061, -0.0998025, 0.0804582, -0.0228151, 0.147604, 0.0396284, -0.00126921, 0.00832311, 0.0469606, -0.0245144, 0.147272, 0.00692967, 0.0851062, -0.132119, 0.0295988, -0.0145983, -0.0106578, -0.196849, 0.0578567, 0.0645198, -0.129991, -0.0599522, -0.0268098, 0.0115215, -0.0912256, -0.0899567, 0.00567053, 0.00368995, 0.0579829, -0.120913, -0.0621594, 0.0215383, 0.000621646, -0.0579369, -0.0780509, 0.0101735, -0.148903, 0.0330531, -0.161922, -0.109655, -0.0384993, 0.0544249, -0.16559, 0.0711072, 0.0455426, 0.0606545, 0.120037, -0.145352, 0.0394511, -0.0117476, -0.0541858, -0.0485581, -0.0237076, -0.0700645, 0.189012, 0.0657706, -0.0340684, -0.0597427, -0.0223964, 0.00573095, -0.0437266, 0.0841113, 0.0624589, 0.0537445, 0.0571295, -0.0409278, -0.110379, 0.0537969, 0.120909, -0.0674935, 0.0208324, -0.0744856, 0.253799, -0.105861, 0.0190646, -0.0709008, 0.00641385, -0.356833, 0.158175, -0.0492565, 0.0548287, -0.0806124, -0.0464411, -0.126136, -0.0661488, 0.1263, 0.0830973, 0.0476758, 0.131042, -0.117576, 0.11163, 0.0402998, 0.0829828, -0.219784, -0.29038, -0.0573027, -0.0560386, 0.0322467, -0.0656737, 0.0124621, -0.0672355, -0.0517475, 0.063949, -0.0193987, -0.0496443, 0.048037, 0.0561573, 0.105578, 0.0415947, -0.0236519, 0.0752118, -0.0496174, -0.0114902, 0.0411271, -0.109353, 0.0916493, 0.039068, 0.176424, -0.0660406, -0.0816892, 0.0452618, 0.120062, -0.0275777, -0.0521153, -0.0883422, -0.148397, -0.0158269, 0.11572, -0.154085, 0.0467002, 0.134305, 0.0796083, 0.0739996, 0.0248672, -0.0346503, 0.106727, -0.0210861, 0.0888838, 0.0865824, -0.0677766, -0.0325685, 0.0175561, -0.0552438, -0.0858926, -0.276331, 0.0211665, -0.0111964, -0.0199257, 0.0778042, 0.0499519, -0.0058152, 0.111194, -0.0637603, 0.0433289, 0.0358929, -0.0789453, 0.0345095, 0.195065, -0.0541431, 0.0630658, 0.0602782, 0.155947, 0.189976, 0.0189928, -0.214474, -0.016724, 0.0733362, -0.0318076, 0.0862856, 0.0207859, 0.214505, 0.00639536, -0.0123666, 0.106474, -0.259707, 0.0532829, 0.0853672, -0.0519321, -0.118822, -0.0897028, -0.0746233, 0.0462765, -0.0117138, -0.0546974, 0.119492, -0.158579, 0.201736, -0.0295887, 0.066163, -0.00308589, -0.120611, 0.0543703, -0.0411033, -0.0975607, 0.0124125, -0.0139338, -0.0907241, -0.0448475, -0.0938549, -0.276358, 0.0834885, 0.0181261, -0.0322223, 0.107187, 0.0193163, -0.0595271, -0.127787, 0.0968706, 0.0888997, 0.0455218, -0.180498, -0.22231, -0.0220685, 0.150345, -0.0787094, 0.0159816, 0.0386129, 0.0322835, 0.0172109, 0.0623522, 0.00383873, 0.00600069, -0.0200582, -0.0354338, -0.0218225, 0.0853977, 0.0879583, 0.0820651, -0.0633076, 0.00114603, 0.202452, -0.0403273, 0.0160321, 0.00961221, 0.121933, -0.0667175, 0.175115, -0.0728327, 0.0693602, 0.13574, -0.0281895, -0.0970168, -0.198061, 0.0142549, -0.079165, 0.0242141, -0.323415, -0.0302982, -0.0918494, 0.0140148, -0.0638604, -0.00406493, -0.160777, -0.0630958, 0.0132317, 0.0752584, 0.0512991, -0.137056, 0.0268747, -0.0384908, -0.0301958, 0.0335358, 0.00826601, -0.242457, 0.177366, 0.0185219, 0.0588485, -0.0941851, 0.272297, 0.01932, 0.123339, 0.026103, 0.112313, 0.0686133, 0.0712148, -0.0941453, -0.000473926, -0.0614884, 0.0997885, -0.0408896, 0.2513, -0.039709, 0.101377, -0.103045, 0.060842, -0.237406, -0.11431, -0.131163, -0.00294246, 0.0741991, 0.040832, 0.113567, -0.0218833, -0.123772, -0.252796, 0.229799, -0.0516957, 0.0229342, 0.113136, 0.0963883, 0.0658272, 0.0847499, 0.0709254, 0.0479507, 0.0928383, -0.0520417, -0.0636439, 0.128797, 0.0507656, -0.114008, -0.0988609, -0.0410072, -0.0539872, 0.0845864, 0.0181511, -0.0550467, 0.0627694, 0.069961, -0.114334, 0.0438909, 0.0634306, -0.135472, -0.0763384, -0.113374, -0.0539193, -0.0561031, -0.00345615, -0.011412, -0.143753, -0.146904, 0.0989691, 0.0146835, -0.205923, 0.1192, 0.126824, 0.206505, 0.121735, 0.0685144, 0.196366, -0.011787], [9.56928e-86, -5.56342e-128, 1.84807e-67, 2.11585e-57, 2.66774e-73, 1.57439e-88, 2.4095e-72, 1.1385e-131, 2.95179e-78, -4.17733e-125, 4.65342e-158, -2.4317e-152, -7.53724e-76, -2.10821e-104, 7.70584e-88, 4.38263e-98, 4.019e-78, -6.96449e-129, -8.14937e-90, 3.37491e-71, -3.16468e-155, -6.74583e-101, 8.91925e-128, -4.69056e-84, 1.51521e-84, 1.842e-101, -5.65863e-90, -2.49957e-106, -5.66843e-118, 4.53639e-84, -1.35474e-89, -8.54647e-138, 1.15552e-119, -1.24322e-80, 7.35384e-142, -1.18459e-79, 1.17868e-79, 1.71188e-85, -1.40274e-123, -3.00017e-91, -7.45606e-97, 2.98019e-121, -1.37685e-93, 5.448e-112, 6.70549e-103, -1.14472e-68, 3.5025e-116, -9.19584e-98, 1.49335e-111, -1.61102e-84, 5.45682e-110, -9.74934e-72, -8.54042e-100, -2.91565e-84, -2.95216e-126, 1.6111e-79, 3.21776e-84, 2.41741e-82, 5.06389e-118, -6.68151e-74, -4.66965e-87, 2.11452e-105, 2.39022e-75, 4.96496e-109, -2.27916e-80, 1.13019e-78, -2.6438e-99, -1.60726e-114, 7.08851e-134, -5.91272e-85, 3.11413e-120, -5.15638e-103, -7.2752e-113, -3.07248e-88, 1.34226e-134, 3.89644e-90, -1.25401e-78, 2.44641e-119, -9.85647e-101, -1.65957e-97, -1.79655e-113, 3.85466e-127, 1.62374e-91, 6.07007e-96, 4.29715e-84, -3.42691e-101, -3.76442e-107, 2.86218e-117, -1.82697e-118, 8.45014e-99, -1.12301e-101, 7.93671e-96, 1.00234e-83, -1.51391e-145, -7.26713e-66, -1.74641e-88, -3.705e-87, 1.72178e-100, -7.73448e-84, -4.3552e-158, -6.10499e-109, -3.51916e-116, -6.66425e-89, 2.40202e-128, 7.73805e-140, -8.53199e-95, 6.90489e-127, -2.77281e-127, -2.19287e-71, -7.56887e-71, 7.66433e-128, 2.47072e-124, -1.08736e-76, 6.18687e-110, 7.16457e-111, -2.23932e-85, 1.38944e-133, -1.56343e-86, 1.95863e-92, 3.61782e-85, -1.00856e-69, -1.29609e-105, 1.25935e-78, -5.93067e-76, 8.27419e-86, -6.04091e-88, -1.02256e-111, 8.30725e-70, 5.69453e-78, 4.00515e-78, 4.44346e-120, -1.38261e-105, -8.45051e-100, 3.38077e-102, -1.07028e-99, 4.86678e-85, -6.22709e-92, -2.76998e-127, -2.47925e-149, -2.0348e-108, -2.8886e-78, -1.46337e-90, 3.51281e-102, 2.38028e-143, -1.95519e-72, -2.06825e-116, -2.86045e-93, 6.15621e-122, -5.44686e-96, -1.16388e-121, 3.29941e-94, -3.50779e-157, -1.44229e-71, -3.26707e-91, -2.66579e-98, 3.86729e-103, -1.10821e-79, -8.48129e-135, -2.02367e-88, -8.95828e-155, 1.92144e-82, 8.72915e-102, -1.09799e-77, -6.7784e-140, -2.19326e-112, -1.6662e-111, -1.15594e-121, -4.68861e-69, 6.56588e-81, -5.1057e-147, -1.66349e-110, 7.54741e-100, 2.15619e-73, -1.26206e-100, -1.05099e-119, -1.83921e-73, -7.34435e-90, -5.36712e-102, -1.14861e-71, 4.74041e-124, -7.34156e-149, 6.85791e-123, -1.48572e-120, 3.78638e-96, -1.35422e-97, -1.36971e-96, -3.43782e-79, 9.98649e-119, -1.46845e-153, -1.09988e-159, 3.09498e-98, -9.82328e-81, 2.07607e-91, -4.0703e-93, -2.30046e-99, 5.68477e-91, -7.52475e-102, -5.09921e-66, 2.48293e-90, 6.16379e-99, -1.11224e-102, -1.63649e-104, -9.06752e-150, -3.29508e-135, 1.88282e-118, -2.12792e-149, 1.57595e-121, -2.15324e-91, -2.86178e-141, 4.77067e-138, 3.50212e-111, 8.77252e-78, 2.47187e-119, 3.42942e-157, -3.08656e-159, 1.18845e-88, -8.18637e-121, 3.00673e-78, -1.06781e-76, -1.34179e-147, 1.75248e-71, 2.03763e-133, -2.7976e-90, 2.5627e-71, 1.16023e-94, 3.34636e-131, -5.45957e-84, -2.16668e-88, -4.48826e-98, -1.25125e-93, -4.03187e-112, 6.20228e-141, -1.49404e-89, -2.34965e-103, 1.08791e-126, 2.22847e-80, 1.12893e-147, 5.30091e-155, -1.08666e-125, 1.22376e-113, -2.18295e-86, -6.43015e-112, 1.23601e-122, -6.10123e-94, 3.36595e-96, 6.20805e-68, 7.49572e-86, -4.6842e-134, 1.84365e-137, 2.6331e-153, 1.55476e-155, -5.51238e-115, -2.60346e-89, -6.92361e-100, -5.58563e-99, 2.27767e-117, -8.54364e-107, -5.86263e-102, -3.85504e-80, -7.71583e-154, 4.87976e-124, -1.02557e-133, 1.51562e-94, -5.268e-144, -3.89954e-109, 8.7588e-136, -2.30046e-157, 1.72143e-97, -1.35009e-101, 1.57704e-147, 3.83335e-73, 4.56737e-110, -3.84193e-90, -2.57093e-154, 1.23001e-150, 1.62192e-92, 2.60993e-96, 4.96056e-78, -2.23573e-73, -2.49736e-95, 6.70673e-102, 2.85879e-146, -1.27431e-95, 1.05487e-97, -8.03251e-149, 2.11829e-120, -1.16593e-154, 1.24183e-102, 2.01913e-83, -4.2262e-124, 1.60778e-124, 4.76793e-101, 2.18156e-102, -3.84739e-157, 5.37076e-77, 3.32926e-121, -1.73656e-98, 8.46064e-116, -2.97825e-91, -1.09307e-158, -1.68363e-116, -4.59254e-152, 9.7477e-100, -1.08307e-106, -7.62452e-78, 1.42371e-91, 3.21031e-125, -3.93071e-82, -1.22581e-125, 7.14499e-120, -3.17976e-88, 1.61095e-105, 2.31662e-93, 1.16224e-129, 6.76676e-110, 6.46739e-83, 1.6665e-131, -1.06472e-94, -5.78087e-96, -1.74587e-87, -6.55779e-115, -1.62003e-127, -1.73976e-140, -1.90195e-66, 3.6812e-97, -2.61718e-102, -1.54907e-104, -4.16588e-133, 6.74952e-82, 2.68919e-125, -6.36964e-71, 2.896e-114, -2.7959e-127, 9.01115e-123, 4.49288e-83, 5.55169e-138, 1.07567e-106, 1.69604e-86, 4.87004e-140, -5.51066e-66, -1.26736e-101, -9.71888e-145, 1.248e-109, -2.00964e-99, 8.52665e-92, 1.905e-87, 1.03009e-104, 4.05972e-92, 1.70994e-126, -7.53633e-115, -1.31039e-73, 6.21333e-66, 2.19847e-63, 7.8849e-114, 8.33175e-120, 2.11867e-82, -3.50778e-63, -1.12044e-158, 1.94373e-110, 1.78618e-125, 4.4065e-91, 1.30446e-113, 1.38997e-117, 4.226e-97, 2.60177e-116, 6.90689e-94, -4.5119e-134, 1.00045e-94, -1.2618e-158, 1.27851e-86, -4.8527e-86, 4.19746e-121, 9.42213e-119, 3.0259e-143, 7.28071e-158, 6.35443e-86, 1.99971e-139, 7.86246e-142, 1.04056e-78, 7.57813e-133, -2.11912e-105, -2.56702e-66, -1.64112e-97, 3.81227e-102], [0.0765663, 0.253374, -0.0755365, 0.0146209, 0.0530439, -0.210418, -0.0849803, -0.392462, -0.0313148, -0.0415196, 0.126726, -0.244279, 0.0923939, 0.0259173, -0.0633146, -0.318594, -0.127224, 0.00184069, -0.0687803, 0.122351, -0.0955942, 0.0819853, -0.0798447, 0.0919796, -0.31039, -0.0178317, 0.0482088, 0.122186, 0.176506, 0.118068, -0.00711392, 0.0965289, -0.0801811, 0.116425, 0.0982683, -0.089663, 0.0414177, 0.134923, 0.0886275, 0.279267, -0.0440026, -0.0505873, -0.0620783, 0.0849954, -0.0825909, -0.0732362, 0.048203, -0.0881692, -0.223027, 0.0179103, -0.0471946, -0.0285299, 0.0223221, 0.156556, -5.58435e-05, -0.0336335, -0.227373, -0.0015561, 0.0976017, 0.138212, -0.0296065, 0.198111, -0.255732, 0.10711, -0.0108642, -0.100395, -0.126687, 0.149263, 0.088305, 0.165774, -0.0951221, -0.0536602, -0.427783, 0.0866883, 0.375473, 0.33566, -0.0172604, -0.0497516, 0.0979458, 0.0737448, -0.0626885, 0.0200717, -0.00859542, 0.0608885, 0.0621321, 0.0350498, -0.0483353, -0.0802898, -0.0843614, -0.0816994, -0.0952713, -0.117741, 0.162633, 0.151762, -0.136186, -0.177455, -0.0708063, -0.0384766, -0.0360181, -0.257359, 0.0726375, 0.269154, -0.0324561, -0.0430999, 0.116097, 0.0299569, 0.00669959, 0.0832284, -0.0976256, 0.108363, -0.163302, 0.0124139, -0.159856, 0.00743216, -0.0433967, 0.172635, -0.15466, 0.278746, -0.045489, 0.159164, -0.0646812, 0.0643995, -0.10192, -0.0252106, -0.218009, 0.149515, -0.138558, -0.0750752, 0.0294674, 0.0517645, -0.0566739, 0.0169741, -0.139317, 0.194875, 0.0381828, -0.113512, 0.0371758, 0.073791, 0.248345, 0.00255029, 0.141994, 0.140551, 0.117744, -0.0226283, 0.122739, 0.147085, 0.036486, 0.269218, -0.0323546, 0.207893, -0.187658, -0.0959861, -0.0879876, 0.201744, -0.120821, -0.0300029, -0.0673207, -0.0677805, -0.231851, -0.148478, -0.255793, -0.17335, 0.194216, -0.0104571, 0.0665863, -0.081399, 0.0521285, -0.0336305, -0.146008, 0.103111, 0.0233341, -0.202962, 0.028646, -0.15993, 0.0828409, -0.0243951, -0.081901, 0.0794102, -0.0882609, 0.0303068, -0.021331, -0.0334665, -0.172331, -0.0607608, -0.148013, -0.135294, -0.0912836, 0.266969, 0.0555988, 0.0242003, -0.20701, -0.107956, -0.0762778, -0.184558, 0.025637, -0.214196, 0.116062, 0.0351864, 0.0622747, 0.194383, -0.00148964, -0.0203813, -0.0511266, 0.189214, 0.123333, 0.0983825, -0.0680594, 0.106214, 0.0845817, 0.123566, 0.117885, 0.127583, -0.196799, -0.143651, -0.0511766, 0.020016, 0.046749, -0.0774784, 0.0961938, -0.267143, 0.0253154, 0.178364, 0.0942717, 0.0770193, -0.0817078, 0.0861997, 0.0594235, -0.0731287, -0.0837686, 0.0400771, -0.197118, 0.0253904, 0.0593323, 0.00967771, 0.129022, 0.0988498, 0.150642, -0.0783995, 0.126064, 0.0850309, -0.0624664, 0.113196, 0.0443288, 0.102569, 0.0470696, 0.0806693, 0.0165771, 0.090213, -0.2874, -0.153383, -0.0743959, -0.036461, -0.0697974, 0.0299126, 0.125292, 0.160233, 0.062491, -0.131359, 0.122107, -0.0279355, 0.249896, -0.105693, 0.0812884, 0.049799, 0.0447465, -0.0297793, 0.201271, 0.054438, 0.0785584, -0.316738, 0.0414434, -0.373356, 0.108545, -0.0431456, 0.00158342, 0.06257, -0.1048, -0.077181, -0.154052, 0.051123, 0.0704547, 0.035047, -0.0672443, 0.0938082, -0.0207958, -0.0724404, 0.281604, -0.0571182, 0.224314, -0.185949, 0.213123, -0.0521429, -0.10221, 0.0427828, -0.0529768, 0.102617, 0.0935827, 0.117234, -0.0106121, -0.102148, -0.0943269, 0.057019, -0.00732314, 0.079547, 0.0880023, -0.0365922, -0.221315, 0.144026, -0.0602282, 0.171603, 0.0611468, 0.0727679, -0.246538, 0.246001, -0.257482, -0.160313, -0.038893, -0.120718, -0.00381472, -0.158811, -0.163525, 0.0462154, 0.137035, 0.0575559, -0.158079, 0.100607, 0.00655063, 0.0970403, -0.106715, 0.142249, 0.0972209, -0.00274218, -0.132571, 0.097665, -0.149395, -0.177094, -0.147945, -0.0374929, 0.128664, -0.126364, -0.0313903, 0.131124, 0.0934828, 0.338304, -0.387841, -0.138315, 0.122624, -0.0194276, 0.052156, 0.224515, 0.124941, -0.092204, 0.0236913, 0.0528835, 0.0303333, -0.00322493, -0.135869, 0.0261084, -0.196092, 0.0676292, 0.0318993, -0.00542992, -0.102887, -0.0326558, -0.0284577, 0.143577, 0.226911, 0.167298, 0.0549809, 0.121669, -0.0057238, 0.168507, 0.168554, 0.0709511, -0.0423204, 0.0650545, -0.116699, 0.0615576, -0.170553, -0.0617171, -0.112857, 0.10339, -0.199058, -0.0716223], [0.108405, -0.0650063, 0.181636, -0.0105292, -0.031663, 0.189453, -0.049699, 0.0291642, 0.0131792, -0.072138, -0.0474531, 0.0759486, -0.0493892, -0.0322205, -0.124117, -0.00787285, 0.0393434, 0.0974677, -0.053176, 0.0756184, -0.0148964, 0.123944, 3.71851e-05, 0.122105, 0.175257, 0.168986, -0.20438, -0.0640755, -0.218916, -0.0189741, -0.0636904, -0.0758467, 0.140778, 0.054393, 0.00878286, 0.107717, -0.0515165, 0.0281827, -0.145639, -0.0342379, -0.189126, 0.0339125, -0.135162, 0.187671, -0.0665566, -0.134522, 0.0584739, 0.0173729, 0.0844413, 0.0895009, -0.0867676, 0.085233, 0.0454558, 0.00257735, 0.0839985, -0.0566134, 0.0345469, -0.05779, -0.0403792, 0.0869169, 0.141545, -0.0059673, 0.0110027, -0.00243946, -0.0566272, 0.0445665, -0.00598305, 0.0680336, 0.105744, -0.0164384, -0.0409813, 0.0106883, 0.139867, -0.0776365, -0.265276, 0.0395627, 0.109418, -0.0415081, 0.08636, -0.125361, -0.0777012, -0.0827405, -0.194976, -0.0192458, -0.102571, 0.0486878, -0.0340449, 0.0907546, 0.0660783, 0.193159, 0.133374, -0.0836918, 0.0347566, 0.0206187, -0.0957289, 0.0878072, -0.00567451, -0.144781, 0.0354354, -0.186035, -0.0969857, 0.0640303, -0.0966119, -0.260933, 0.00361218, 0.158788, 0.0243373, 0.128725, 0.0306397, -0.00637843, -0.0222695, 0.01014, 0.105575, -0.10106, -0.0110432, -0.00852355, 0.121009, 0.146807, 0.0742586, 0.135414, 0.0279076, -0.354846, -0.0579929, -0.0151132, -0.0150266, -0.141391, 0.0226404, -0.145307, -0.142151, 0.13621, 0.197054, 0.0771038, -0.00444738, -0.1262, 0.0023303, 0.147927, 0.318522, -0.392807, -0.243766, -0.17276, 0.0678469, 0.0481167, -0.0298539, -0.0971126, -0.124906, -0.156593, -0.0194907, 0.00940675, 0.0382525, 0.102861, -0.0779224, 0.114169, 0.0360517, 0.0980344, 0.186008, -0.0683677, 0.0411207, 0.0518555, 0.00178096, 0.00728414, 0.0562832, 0.0591252, -0.168802, 0.145286, 0.0329282, 0.0121544, -0.00685695, -0.018995, -0.172261, -0.173735, -0.01582, -0.0820532, -0.0602789, -0.0585737, 0.230102, 0.0210608, -0.107205, 0.0207761, -0.0538027, -0.0265638, 0.065977, 0.177281, 0.117734, -0.125039, -0.229677, -0.0563391, -0.143518, 0.0998259, -0.148528, 0.0768393, 0.104886, -0.0672395, 0.168156, -0.107897, -0.00888624, 0.119924, 0.00669839, -0.0687012, 0.0637362, -0.0964191, 0.129493, 0.217053, 0.043679, -0.160864, 0.158332, 0.176355, -0.00249183, 0.18215, -0.0153552, -0.110968, 0.00748431, -0.00554218, -0.0092845, 0.0790245, -0.0450083, -0.111408, 0.132124, 0.160465, -0.187058, -0.0210203, 0.132587, 0.00856, -0.129298, 0.0196594, -0.065514, 0.0811487, 0.0438805, -0.126619, -0.0400793, -0.0662684, 0.15702, 0.0421728, 0.165093, -0.0980468, -0.0857084, 0.0242415, 0.119214, 0.0357093, -0.0107065, -0.0152856, 0.0773767, -0.0200493, -0.0145777, -0.0830384, 0.000651106, 0.0149515, -0.0751577, 0.143392, 0.00793851, 0.122191, -0.422368, -0.0182978, -0.0212543, 0.100445, 0.054837, -0.339765, 0.064329, 0.0596994, -0.00810304, -0.0426305, 0.0704865, 0.0685563, -0.0210491, 0.0838145, 0.0632308, -0.0419929, 0.123627, 0.150232, 0.0822716, -0.155156, 0.05634, 0.308803, -0.0959514, 0.0767292, 0.204785, -0.102555, -0.126192, 0.0512582, 0.0697307, 0.0245575, -0.0709535, -0.139813, 0.0972629, 0.0542085, -0.0271707, 0.130403, -0.205504, -0.088194, -0.0880882, 0.0600079, -0.174093, -0.0488799, -0.0563598, -0.027376, 0.0158988, 0.0176631, -0.0782662, 0.00485686, 0.0464074, 0.0954017, 0.397996, -0.129661, 0.14125, 0.0161898, -0.00438067, -0.0782436, -0.0413601, -0.0791197, 0.0293736, -0.136972, 0.0451298, -0.120245, 0.142463, -0.110682, 0.15882, 0.0643901, 0.139121, 0.0306911, 0.130028, -0.160683, 0.0399615, 0.0421177, 0.175866, 0.0953585, 0.0893536, -0.112748, 0.222892, -0.0532271, 0.00845797, -0.246218, 0.034719, -0.029049, -0.0235873, 0.0286849, -0.0596196, 0.0507751, -0.110886, 0.0120322, -0.168701, -0.0152439, -0.147165, -0.0550543, 0.23749, 0.166479, 0.175959, -0.0330187, 0.132454, -0.143483, 0.0226961, 0.137721, -0.0150701, 0.0422242, 0.0335499, -0.16091, -0.0529089, -0.178588, -0.105237, -0.0179621, 0.00450811, -0.0100974, -0.0555616, -0.0587214, -0.0258572, 0.109506, -0.0101622, -0.207455, -0.037848, -0.00363768, -0.0267391, -0.0449459, -0.0699116, -0.12212, 0.112003, -0.0817369, 0.0328718, -0.111348, -0.130844, 0.0468727, 0.0317852, 0.127662, 0.0826161, 0.0242468, 0.0746078, -0.119738], [0.154076, 0.00587987, 0.132235, -0.0620604, 0.0664773, 0.163517, 0.104103, 0.149262, 0.0302881, -0.0594668, 0.00389838, -0.0429281, 0.0133071, -0.0592346, -0.214018, -0.108622, -0.0212703, 0.161627, -0.106608, 0.116186, -0.0935385, 0.0529232, 0.00287866, 0.170594, 0.123483, 0.0401625, -0.328863, -0.163627, -0.194966, 0.00563103, -0.00516278, -0.0940252, -0.0279064, 0.0714533, 0.00526086, 0.0940702, -0.0453734, -0.0258997, -0.141387, 0.0227548, -0.177309, -0.253193, -0.25864, 0.0246843, 0.0330534, -0.267648, 0.140006, -0.0313202, 0.0638694, 0.0771787, -0.112371, 0.0306723, -0.0466692, -0.0126116, -0.0574698, 0.0199518, 0.0885102, -0.0725839, -0.0639761, 0.199717, 0.0401122, -0.0190625, -0.247567, -0.0256415, 0.0441906, 0.130012, -0.210386, 0.0900852, 0.0224314, -0.0448443, -0.169774, 0.203178, -0.0476543, 0.056277, 0.0839129, 0.0269686, 0.137284, 0.0518864, 0.110502, 0.183409, -0.00858641, -0.171074, -0.0945988, 0.0548654, -0.0323841, 0.0358453, -0.088976, 0.0764189, -0.0885557, 0.0848054, 0.107002, -0.0488346, 0.161211, 0.129758, -0.0964935, 0.00279876, -0.00191408, -0.13046, 0.211136, 0.0342547, -0.15126, 0.187533, -0.0819405, -0.234634, -0.120547, 0.20061, 0.0173529, 0.275908, 0.147416, -0.0583054, -0.0422265, 0.0721234, -0.102304, -0.0867195, -0.0911822, -0.0221232, -0.0128821, 0.0722731, 0.162306, 0.119119, -0.0286914, -0.318874, 0.0016146, 0.230847, -0.0754012, 0.0182734, -0.0362677, -0.0125667, -0.117922, 0.196774, 0.141424, 0.182411, -0.0158678, 0.0782976, 0.0154013, 0.176501, 0.387851, -0.0443632, 0.0132102, -0.186079, 0.0629671, 0.0507007, 0.0624331, 0.0033969, -0.164041, -0.187187, -0.0244626, 0.044053, -0.0345602, 0.0941781, -0.0428188, 0.246329, 0.00119024, -0.00216736, 0.148713, -0.0739326, -0.0550315, -0.0868403, -0.177738, 0.0185075, 0.132292, 0.173313, -0.0548093, 0.0503387, 0.0285015, -0.0623223, -0.0487065, 0.121813, -0.268422, -0.0838544, -0.0107339, -0.0551674, 0.0544872, -0.0869198, 0.237626, 0.071696, -0.0868, -0.0737279, 0.0781276, -0.177293, 0.131457, 0.159576, 0.226928, -0.158768, -0.22272, -0.0304924, -0.0233464, 0.258135, -0.253089, -0.108909, 0.309111, -0.0644499, 0.0161488, -0.104006, -0.0138587, 0.22756, -0.03642, 0.0170783, 0.0809579, -0.0699465, 0.104766, 0.053013, 0.0973969, -0.17976, 0.156091, 0.190924, -0.00354174, 0.114, -0.142184, -0.0707457, -0.0866525, 0.0683028, 0.0185967, 0.0823045, 0.0528169, -0.0970011, 0.238317, 0.0463637, -0.152814, -0.0740349, 0.150082, -0.00625279, 0.0817683, -0.000751862, -0.0698288, 0.245152, 0.14053, 0.0242281, 0.166156, -0.0642868, -0.0229847, 0.119597, 0.199909, -0.128735, -0.0308486, -0.0396064, 0.0797009, -0.164832, 0.0273166, -0.0237856, -0.0450299, 0.0643966, -0.055606, -0.154558, -0.00501279, -0.0487786, 0.0261877, 0.145127, -0.185801, 0.144042, -0.228334, -0.174689, -0.0419121, 0.0753532, -0.0149604, -0.390274, 0.155264, -0.0852817, -0.156744, -0.0291648, 0.0865015, 0.0235293, -0.0963425, -0.0190424, 0.155466, -0.0684683, 0.110481, 0.139314, -0.0344191, 0.0775943, 0.123055, 0.215948, -0.228823, 0.13518, 0.198337, -0.135741, -0.0287124, 0.0780656, 0.104007, -0.0899792, 0.0231552, -0.148434, 0.0588639, 0.149567, -0.1723, -0.0665613, 0.186943, 0.0377402, -0.0986571, -0.0333642, -0.215919, -0.108736, -0.0335377, -0.0291317, -0.0365534, 0.0284341, -0.146767, -0.00597839, 0.0284742, -0.115186, 0.381219, -0.0977318, 0.10882, -0.0957411, -0.15571, -0.00723776, -0.0130097, -0.0026307, -0.160775, 0.0650485, -0.0694407, -0.0150436, 0.0353677, 0.0647817, 0.126455, -0.108729, 0.160013, -0.0686926, 0.0867482, -0.139466, -0.0728288, 0.0562133, 0.311644, 0.0982486, 0.268793, 0.0350668, 0.309246, 0.185767, 0.0682606, 0.0347308, 0.141468, -0.0683096, -0.068326, -0.195835, -0.0345379, -0.0572631, -0.163997, 0.0232171, -0.214257, -0.0935145, -0.07679, 0.00916639, 0.322626, 0.0165945, 0.114233, 0.057979, 0.0880955, -0.0538099, 0.120809, 0.122696, -0.0421341, -0.0662719, -0.0728707, -0.226927, -0.00666717, 0.0406322, -0.0874377, -0.0119389, -0.00478102, -0.0627633, -0.00521349, 0.0611314, -0.138808, 0.0737333, 7.28182e-05, -0.0351824, -0.12719, -0.0341569, 0.106058, 0.0994051, -0.037864, -0.00197549, 0.123603, -0.131023, 0.263143, -0.0625932, -0.170972, 0.103532, 0.148065, 0.13897, -0.00124045, -0.0429174, 0.0957859, -0.163401], [1.87527e-89, 2.20828e-151, -3.47066e-92, 2.36259e-84, 8.09971e-100, -4.12952e-99, -2.41072e-84, 4.00503e-107, 4.42872e-90, -6.45798e-129, 1.15893e-122, -5.77368e-144, 5.6856e-88, 5.54993e-125, 1.16718e-86, -1.32705e-156, -5.70885e-100, -5.14267e-140, -3.31655e-121, 2.71018e-88, -3.59543e-124, 1.15217e-118, 1.74602e-90, 2.92739e-105, 1.16693e-109, -2.9254e-118, 2.67908e-99, -3.44933e-140, 2.09237e-104, 9.90199e-120, -7.24913e-113, -4.25115e-121, -5.24941e-117, 2.43297e-78, 2.52773e-155, -4.03597e-84, -7.43864e-91, 5.03478e-114, -1.59929e-106, -5.75767e-109, 2.96833e-93, 2.33822e-127, 2.12574e-105, 2.68054e-112, 8.71296e-96, -1.57646e-98, -4.46515e-151, 4.24777e-108, 2.79591e-118, -1.47195e-136, 6.18445e-91, 2.92789e-99, -2.82356e-157, -2.46446e-112, 6.41757e-94, 2.94955e-89, -3.64993e-118, 1.82405e-98, 1.03248e-106, 2.29687e-96, -1.92531e-126, 6.07953e-154, 3.16675e-110, -1.69263e-97, -3.48301e-103, -2.15205e-90, -6.84237e-103, -2.04541e-137, 8.63974e-107, 4.24922e-96, -7.02968e-117, 1.96381e-126, 2.60204e-157, 2.35299e-113, 9.39959e-97, 1.25646e-112, 6.86835e-116, 2.34771e-110, 3.52698e-101, 1.91447e-119, -8.96291e-103, 1.17263e-121, -5.66741e-122, 2.20277e-94, 4.78737e-95, -5.93886e-103, 6.71557e-92, 2.04584e-128, 4.0951e-133, -1.74326e-100, 2.50129e-141, 3.3862e-107, -1.45411e-87, -1.44128e-102, 2.70849e-80, -8.09937e-102, -1.41269e-109, 2.11135e-115, 1.32623e-93, 1.141e-139, -1.82215e-103, -2.13014e-110, -3.89453e-106, 2.38696e-122, -4.00893e-120, 5.03218e-146, -4.47047e-142, 6.37709e-136, -5.54408e-87, -1.48685e-81, -2.77505e-139, 4.30298e-132, -1.25947e-84, -1.44251e-105, 1.2809e-135, -1.03351e-124, 3.3267e-146, -6.43159e-126, 2.15418e-119, -3.99256e-87, -1.97846e-86, 3.74299e-120, -6.19889e-98, 4.39202e-81, 6.74332e-102, -2.93274e-143, 1.92015e-138, 1.48934e-90, -1.30033e-121, 7.79811e-131, 2.5295e-99, -4.89029e-100, -7.74372e-102, 2.46723e-140, 1.56413e-95, -2.66463e-85, 1.56933e-103, 4.4784e-109, -1.06088e-139, 2.70153e-143, 5.84253e-110, -2.26418e-117, 4.53062e-104, -1.49388e-148, -4.10427e-92, -4.71042e-105, 2.58289e-99, 7.43783e-114, 5.70929e-109, -3.65755e-92, 3.53582e-93, -5.58976e-118, -7.76268e-89, 1.77867e-115, -3.41894e-87, 3.49841e-113, -2.99036e-81, 1.75825e-107, 1.44514e-86, 5.05564e-114, 8.8322e-92, -2.65956e-108, -2.13869e-90, 2.55743e-113, -7.87421e-119, 8.85716e-109, 1.53325e-82, -2.34665e-92, 4.36676e-91, 1.61946e-131, -7.80279e-96, -1.38349e-123, 2.33345e-109, -2.94394e-104, -6.41502e-137, -1.21093e-105, -3.86921e-74, -1.59806e-112, 2.7368e-85, -5.79096e-109, 5.81292e-130, 5.69722e-110, 2.50919e-143, 9.35028e-93, 5.60866e-125, 9.49164e-122, 3.64707e-108, 1.45223e-146, 2.7615e-155, 3.16616e-134, 1.19123e-154, 4.68888e-98, 6.70657e-107, -1.90804e-91, -1.05309e-112, 2.42118e-99, 1.68641e-103, -1.03527e-112, -9.49472e-100, -6.00357e-139, 1.57548e-148, -9.42375e-109, -6.61523e-145, 9.17238e-105, -5.33837e-128, 1.96875e-151, -6.71298e-103, 2.51215e-127, 3.45944e-127, 8.76874e-101, 7.90221e-94, 3.76906e-94, -2.50634e-94, 8.90901e-116, -9.83268e-136, -2.3854e-112, -7.89222e-114, 2.40797e-84, 9.79212e-87, -6.12055e-109, 1.23809e-109, -1.85941e-116, -7.54209e-95, 2.79689e-80, -6.31001e-131, 2.29302e-121, -1.44648e-103, -3.48399e-83, -5.28637e-104, 5.36543e-77, 1.86717e-109, 8.53663e-108, -5.26921e-99, -2.13032e-110, -6.1916e-96, -3.4538e-79, 6.64431e-152, 8.82446e-101, 1.85219e-134, 6.07533e-83, -5.03039e-99, -2.7369e-118, 2.4392e-144, -7.15269e-86, -5.57299e-108, -8.55222e-92, -1.18417e-131, -1.61483e-156, 7.48625e-132, 1.39768e-124, -1.18281e-109, 4.64381e-111, 2.88727e-112, 1.70344e-122, 2.68244e-105, 4.35612e-110, -2.3125e-142, 5.56144e-126, -5.71117e-83, 2.10372e-154, -1.46767e-133, -1.48832e-122, 1.52895e-99, 2.32471e-103, -4.96678e-110, 1.55131e-98, 5.68941e-156, 4.7955e-112, -6.69436e-87, -2.78115e-91, -4.75325e-78, -3.1138e-147, 4.73636e-89, -2.0673e-142, 3.45477e-123, -6.70034e-95, 1.81997e-126, -5.79021e-85, 1.85886e-75, 1.03129e-107, -2.48566e-99, -5.80002e-148, 3.91594e-115, -1.25531e-122, 4.5976e-124, -4.83992e-105, 8.99821e-139, -2.74348e-94, -9.47954e-116, -3.86002e-108, -1.06674e-110, -5.79389e-97, 2.3072e-108, 2.33149e-150, 8.82186e-78, -1.41203e-98, 1.92445e-118, -1.04696e-124, -8.83807e-125, -2.91295e-115, -1.43102e-154, -4.20878e-153, -2.26084e-117, 4.78363e-91, -1.69197e-130, 2.53461e-92, -5.71183e-136, 4.60424e-127, -1.62145e-127, -5.145e-115, -1.98001e-100, -1.19006e-90, -4.51382e-107, 2.75442e-138, 8.37884e-141, -2.55938e-96, -5.2215e-123, -1.31861e-130, 3.57514e-124, 5.57241e-129, -1.4933e-121, -3.71883e-116, 6.17497e-123, 3.0046e-92, 2.17879e-101, 5.2986e-94, -1.01289e-151, -2.29498e-143, 1.84306e-91, -2.23363e-106, 1.48795e-122, 3.15945e-88, -3.95348e-105, 1.67462e-141, 1.22101e-102, -4.03401e-142, 1.34813e-132, 3.38391e-129, 1.39029e-100, 3.22556e-87, -9.25969e-143, -2.10869e-91, -9.21303e-112, -2.90865e-154, -1.15931e-123, -1.1777e-132, -1.33652e-143, -2.98028e-133, 9.39563e-104, 1.64128e-72, -1.83182e-94, 1.08183e-75, -3.8398e-117, -4.18054e-123, 1.9692e-100, -2.60506e-109, 1.18659e-86, -1.89261e-124, 1.21329e-123, 1.2069e-96, -5.20112e-107, -3.33947e-98, 1.56712e-124, 1.44193e-114, 6.42647e-105, -1.20542e-97, -6.20527e-141, 2.6241e-135, 1.89346e-112, -5.01976e-98, 4.57621e-92, 2.70143e-112, -2.50918e-131, 4.23181e-105, -3.0098e-134, 4.78758e-127, -2.75229e-125, 1.50531e-92, -1.64525e-101, -1.87864e-155, 6.48262e-124, -3.55782e-82, 4.07509e-113, 1.1124e-116], [-0.240672, 0.0490783, -0.113887, -0.00596296, 0.0376399, -0.12189, -0.0348575, -0.0313041, -0.0496445, -0.0295661, -0.0313379, 0.0160619, -0.0324317, 0.0109694, 0.148433, -0.010815, 0.111419, -0.14373, 0.145141, 0.0112047, 0.0280507, -0.287805, 0.114735, -0.131787, 0.0114098, -0.0808871, 0.138779, 0.107989, 0.0473951, -0.136026, -0.0110453, -0.0376688, -0.190213, 0.0550858, -0.0342022, -0.0788663, -0.0527257, -0.0714026, 0.0939895, -0.015036, -0.0304803, -0.0527358, 0.100653, -0.0341957, 0.0799521, 0.271847, -0.194402, 0.055924, -0.0174399, -0.013335, -0.0734373, 0.0858682, -0.205992, -0.00588054, 0.114896, 0.0726401, -0.0353783, 0.113636, 0.0348348, -0.0983723, -0.0519443, -0.104074, 0.029407, 0.0998586, 0.172586, -0.00761934, 0.18644, 0.0857754, 0.0894685, -0.0609908, 0.0721335, -0.0953931, -0.10171, 0.0764606, -0.0274471, -0.124538, 0.0552327, -0.115247, -0.10681, -0.0662996, 0.128169, 0.0240192, -0.0502019, 0.0616013, 0.0554936, 0.00252575, 0.086076, 0.0142885, 0.137766, -0.192968, -0.174556, 0.19367, -0.144113, 0.0328217, -0.0392497, 0.053559, 0.0230617, -0.0377296, -0.151133, -0.0105211, -0.0176945, -0.099377, 0.0103644, 0.199932, -0.040837, -0.150817, -0.0471605, -0.0212853, -0.129939, -0.0090265, 0.0845581, -0.0879582, 0.0336788, 0.102506, 0.118013, -0.0456821, -0.122924, -0.13341, -0.201143, 0.031739, 0.0401768, 0.34776, -0.0871934, -0.150463, 0.0900243, -0.00818549, 0.160128, 0.0976871, 0.0978217, -0.188464, -0.131169, -0.150692, -0.0495519, -0.228359, -0.106885, 0.0310657, -0.120274, -0.13934, -0.141322, 0.198224, 0.0876587, 0.058332, 0.0837302, 0.13689, 0.14103, 0.133785, 0.0104394, 0.061838, -0.0305318, 0.076767, 0.048044, -0.0427831, -0.0442214, -0.10121, -0.0554393, 0.0374951, 0.117609, 0.0310146, 0.166482, -0.074652, -0.081692, -0.0751211, 0.140563, -0.0118137, -0.00365748, 0.0234455, -0.0825322, -0.070219, 0.0217313, 0.0436888, 0.0105747, 0.220227, -0.0908472, 0.0761596, -0.0553941, -0.0432908, 0.108357, 0.114317, -0.120746, 0.0350085, -0.116319, -0.197346, -0.0842502, 0.154545, 0.0219428, -0.124977, 0.110572, 0.0621536, 0.112664, -0.140399, -0.132308, -0.00923645, -0.127318, 0.0131532, -0.0643523, -0.012487, 0.0159219, 0.0266021, -0.0266304, 0.117713, -0.0744661, 0.0183067, -0.0522721, 0.0858256, -0.154656, -0.134948, -0.064144, -0.109936, 0.0759037, -0.0512146, 0.0235174, -0.111755, -0.0734897, -0.159233, -0.152324, -0.0385452, -0.142292, 0.0546128, 0.233833, 0.200605, -0.062582, 0.0347068, 0.00135084, 0.072468, 0.0827837, -0.12608, -0.234573, -0.0845993, -0.116602, 0.0877165, 0.0355049, 0.00999464, -0.178453, 0.184535, 0.0437838, 0.0378122, -0.0590842, -0.02744, 0.0471233, 0.0427124, 0.00441803, -0.11391, 0.0668854, 0.00523022, 0.0129175, -0.014441, -0.0980446, -0.0315073, 0.0512031, -0.0704448, 0.266465, 0.00877768, -0.0988137, -0.100602, 0.0502667, 0.154066, 0.0475239, 0.0164612, 0.0470357, 0.0188284, 0.0207235, 0.0708389, 0.041563, -0.0190926, -0.148739, 0.113337, -0.0674447, -0.0396625, -0.133237, -0.0305272, -0.203284, 0.0216537, 0.0963718, -0.0630049, -0.27484, 0.181036, 0.0429113, 0.0673282, -0.0518467, 0.131333, 0.0236163, 0.143183, 0.0431776, -0.015187, -0.0781448, 0.137904, -0.0890022, 0.0951303, -0.0138004, 0.12748, 0.18308, 0.177859, 0.0515454, 0.261567, 0.0516004, 0.00379995, 0.0785964, 0.0544874, 0.114113, 0.0507933, -0.384294, 0.105816, 0.0839163, 0.0844398, -0.0174292, 0.069823, 0.158215, 0.0522211, 0.041779, 0.00322516, -0.0109848, 0.088587, -0.022907, -0.054911, -0.0199376, 0.0495029, 0.0633295, -0.11422, -0.0337815, 0.126185, -0.0818188, 0.00619311, -0.0151242, 0.0360902, -0.147697, 0.103212, -0.126871, -0.00336295, -0.190391, 0.0996591, -0.0112229, 0.0783338, 0.0477369, -0.2173, -0.0339013, 0.057874, 0.126389, 0.0927684, 0.235939, -0.0443656, 0.274952, 0.162755, -0.163325, -0.063536, 0.0284396, 0.0381845, 0.0123682, 0.0558772, -0.0450913, -0.188708, 0.12357, -0.101088, -0.0310586, 0.138893, -0.122424, 0.117163, 0.17191, -0.04053, -0.0158494, 0.0425381, 0.0352112, -0.132184, 0.0907343, -0.0521367, 0.0671667, -0.0475069, 0.0353327, 0.0921036, -0.0926295, 0.039657, 0.10013, 0.184255, 0.0814215, 0.0395071, -0.00581286, 0.109301, 0.219883, -0.0659749, -0.0463895, -0.0772856, -0.0594725, -0.00948927, -0.0397169, 0.14606], [-1.31244e-158, 2.75728e-157, -7.00031e-156, -1.68673e-157, 3.58646e-159, 1.3181e-157, 1.23613e-157, 1.02179e-157, -2.12144e-156, -1.13832e-157, 3.28862e-155, 5.90333e-157, 8.95668e-160, -1.61926e-159, -2.10886e-157, -1.00364e-159, 9.26361e-157, -2.58447e-158, 1.37594e-156, -5.47872e-158, -9.38721e-160, -1.07226e-157, -2.72365e-159, -4.5775e-157, 3.70543e-157, 8.17766e-159, -4.84048e-159, -6.4721e-159, 7.34758e-158, 3.84876e-159, -3.00446e-160, -1.87324e-159, 2.12933e-159, 8.88501e-157, -2.78581e-159, 2.46499e-159, 1.42022e-156, 2.46056e-157, -2.77452e-158, 3.67607e-159, 8.20915e-161, -4.95789e-160, 2.78741e-160, -3.65085e-159, 2.90223e-159, -1.93775e-156, 3.16697e-155, -6.5593e-158, 1.64557e-156, -1.82178e-158, -1.73253e-158, -1.4662e-157, -9.1812e-159, 2.81011e-159, -3.20884e-157, -7.11433e-159, -1.23611e-158, 1.26451e-160, -1.60966e-158, -2.52548e-159, 4.80183e-158, 2.96785e-155, -5.40884e-160, -5.8182e-161, -6.78216e-160, -1.66545e-159, 1.51608e-156, -1.29384e-157, -4.563e-159, 8.68482e-161, 6.43613e-159, -2.10443e-158, 2.60566e-159, -8.89678e-157, 3.40773e-159, 3.44924e-157, 4.58602e-157, -1.84092e-158, -5.03144e-159, -8.89281e-159, 9.49993e-160, 7.61236e-159, -5.26297e-156, 5.92536e-159, 1.05789e-155, -5.16757e-156, -4.82582e-159, -1.17625e-157, 1.44584e-157, 1.28563e-155, -1.77495e-156, 3.86384e-157, -7.77256e-160, 1.32652e-155, 1.03759e-157, 1.26901e-158, -4.83339e-157, 1.08538e-155, -1.55753e-159, 6.61439e-161, -3.37442e-157, 2.66774e-155, -1.89771e-159, -6.85691e-160, -2.19436e-161, 7.551e-157, -4.43704e-157, 4.28484e-156, 3.38933e-158, 1.3217e-157, 1.46183e-157, 4.81379e-159, -2.55341e-159, -7.00105e-160, 8.21793e-159, 1.40438e-157, -7.93148e-158, 6.96087e-157, 2.52138e-160, -1.77341e-158, 2.27135e-158, -9.19956e-158, 3.92703e-157, 1.9354e-155, 1.46332e-156, 7.25323e-158, -1.83603e-155, 2.59022e-155, 1.15109e-158, -1.78247e-156, -5.64566e-158, 3.56773e-158, 2.3452e-160, 1.51386e-161, -4.08468e-159, 8.37584e-160, -1.29089e-157, 2.38062e-156, -1.39546e-159, -2.17259e-156, 6.02912e-156, 6.64631e-159, 3.80435e-157, -1.73376e-160, 3.32567e-157, 8.64284e-160, 1.27666e-156, -1.31724e-160, -6.40136e-157, 7.51062e-158, 4.89492e-159, 2.05723e-159, 1.41035e-158, -2.03678e-158, -7.31963e-158, 1.4628e-157, -1.72146e-158, -1.47493e-156, 1.53859e-156, 5.21767e-157, 1.00335e-157, -8.46277e-156, -2.10007e-156, 9.53763e-159, -2.87372e-156, 8.19553e-160, 1.64439e-161, -5.16492e-160, 2.77602e-159, -4.34365e-159, -8.48723e-158, -1.21507e-161, 4.27325e-160, -4.87053e-159, -7.36224e-156, 3.79865e-157, -4.03258e-157, 2.37342e-160, -5.00996e-157, 7.73491e-158, -5.93211e-161, -2.17717e-160, -5.26051e-160, -1.10583e-156, 8.49634e-159, -1.14455e-159, 1.61886e-158, 1.03885e-159, 2.18596e-158, 4.69752e-160, 2.66667e-159, 5.19724e-159, 3.61187e-158, 3.33321e-158, -1.98209e-158, 4.78501e-158, -2.62105e-159, 9.94011e-157, -4.53198e-157, -1.90187e-159, 9.53833e-160, -3.95849e-157, 3.91514e-158, -2.77824e-159, -4.4406e-159, -1.70238e-158, 2.01556e-159, 1.94424e-156, 6.05753e-159, 8.28972e-159, -7.79807e-159, -4.67821e-158, 1.20378e-157, 1.51743e-157, -1.56576e-155, -7.05837e-157, -1.44672e-160, 2.7489e-157, -5.95225e-159, -1.24952e-158, -2.10886e-156, -9.27036e-162, 1.19317e-158, 1.49437e-157, -4.9851e-158, 3.95225e-159, 5.47758e-160, 2.50605e-158, -1.27749e-155, -3.55157e-159, 5.79149e-156, 1.62098e-158, 3.56475e-155, -3.47739e-159, 5.15102e-159, -5.35799e-160, -7.0962e-157, -5.97432e-157, -3.90497e-159, -5.46415e-159, -2.05883e-160, 5.67314e-157, 4.01044e-155, -3.01284e-159, 1.4322e-157, 1.31627e-158, -2.52927e-157, -8.37699e-157, 5.47596e-158, 6.17944e-159, 1.46756e-158, 2.09945e-155, 4.9519e-159, 4.59501e-158, -5.62455e-158, -6.11016e-158, 1.59972e-158, 1.21281e-159, 1.78618e-159, -4.40745e-159, -3.0013e-159, 9.42513e-159, -1.94949e-159, -8.53055e-158, 1.17149e-159, -1.44593e-159, 1.65664e-157, 3.78652e-159, 1.23644e-156, -2.06867e-157, -2.12442e-157, -3.84583e-158, -4.17891e-157, -1.81904e-158, 1.35548e-158, -2.62854e-156, -7.6258e-159, -8.86062e-158, -1.30281e-155, -2.76179e-159, 4.24982e-160, 9.48895e-160, -5.7197e-160, -1.03563e-156, 3.02886e-158, -1.26812e-155, 6.43717e-159, -3.30395e-159, -5.49902e-159, -1.30213e-158, 9.16904e-156, 4.89266e-158, 1.34892e-156, 1.38718e-160, -1.76348e-157, 7.09865e-161, 5.86651e-156, -5.46391e-159, 5.83222e-160, 3.10933e-157, -3.20484e-159, -1.94878e-159, -1.80359e-158, -4.18642e-156, -9.54646e-161, 6.24352e-159, -2.22149e-160, 4.29227e-158, -4.91098e-160, 3.87775e-158, -7.90543e-159, 8.15929e-156, -2.30741e-159, -8.28868e-157, 5.98199e-157, -6.81379e-156, 8.18883e-160, -1.52933e-158, -2.91922e-159, -1.01678e-156, -5.88346e-159, -2.14542e-159, 2.65109e-160, 1.37274e-157, 3.10913e-159, 3.8857e-158, -6.2836e-159, 2.71693e-159, 1.02053e-158, -7.95355e-160, -1.11025e-157, -2.88434e-159, 9.57131e-157, 2.11093e-159, -5.84684e-158, -2.70223e-157, -8.17469e-159, 2.90443e-161, -5.70502e-159, -9.69674e-158, 9.66388e-156, -1.35273e-156, 1.86757e-157, 1.33634e-158, -4.24058e-160, 1.39559e-156, -4.72264e-158, 1.57518e-159, 9.59679e-160, 6.19612e-159, 5.50362e-158, -1.55633e-159, 3.21485e-158, 1.00012e-158, 1.25508e-159, -4.91115e-158, -6.93508e-156, 3.44189e-159, -4.09127e-156, 1.35794e-155, -1.14182e-163, 1.15116e-156, -1.12663e-156, 2.8652e-159, 6.31155e-160, -6.65062e-159, -7.3999e-158, -6.06628e-160, -8.72433e-161, -7.76502e-156, 1.77058e-157, -1.46558e-157, -3.89265e-160, 1.23691e-159, -3.74392e-159, 1.0117e-159, -8.11968e-159, 1.11022e-158, -2.44396e-158, 3.58594e-155, 1.65762e-159, 5.09845e-159, 8.4376e-158, -6.60826e-159], [-0.000438299, -0.0179174, 0.00137707, 0.00762638, -0.00532692, 0.00400008, -0.00736304, -0.00227339, -0.00225127, -0.0221716, 0.0219411, -0.0102823, -0.00278969, -0.0015445, -0.00207447, -0.0186565, -0.00447358, 0.00542456, 0.000397264, 0.00191763, -0.0233306, 5.46218e-05, 0.00682268, -0.00774713, -0.00523171, 0.000292986, 0.00769046, -0.00977779, 0.000923181, 0.000215338, 0.00229554, 0.00335233, -0.00556501, 0.0114519, -0.00414059, 0.00145344, 0.00469679, -0.00527643, 0.00591788, 0.00243416, 0.0150072, -0.000668452, -0.0144117, -0.00335232, -0.0116718, -0.0156509, -0.00718506, -0.00445006, 0.0136986, 0.0105992, 0.0100748, -0.0060772, -0.0149825, -0.0118757, -0.010234, 0.00378236, 0.00715658, -0.00358143, 0.0158487, -0.000642895, -0.00193872, -0.0103249, -0.0132473, -0.00446706, 0.00751177, -0.0161075, 0.00148226, -0.00168319, 0.00361231, 0.00269768, 0.00456077, 0.00592731, 0.00021392, 0.0145952, -0.000598576, -0.00222585, -0.011192, -0.0174059, 0.00113797, 0.0205491, -0.00101878, -0.0115622, 0.00319483, -0.017073, 0.00477162, -0.00284499, -0.0112237, 0.00232818, -0.000963481, 0.010366, -0.0132407, -0.0076674, 0.000711169, 0.00143021, -0.000902223, 0.00169342, 0.00510659, -0.0144543, -0.00620959, 0.00463831, -0.00822321, -0.0189889, -0.011112, 0.00698976, 0.00782245, -0.00393112, -0.0187657, 0.00733404, -0.0041551, 0.0128591, 0.00895462, -0.0122354, 0.00168207, -0.0121116, 0.00829077, -0.00746994, 0.00477219, 0.00952624, -0.0111482, 0.00480875, -0.00596894, 0.00497496, -0.0100124, 0.0068488, 0.00441467, 0.00848496, -0.00289079, -0.0100217, -0.0149139, -0.00252342, -0.00915008, -0.0173352, 0.00590511, 0.047765, -0.0127891, -0.0126623, -0.0156193, -0.00896418, -0.0578959, -0.00100561, 0.00793669, -0.0111051, 0.0320566, -0.00160417, -0.00275405, -0.00807703, -0.0098095, 0.0126992, -0.00404173, 0.0160879, -0.00500079, 0.0469893, -0.00169341, -0.00754355, 0.00186075, 0.00203278, 0.00306402, 0.00634541, -0.0052432, -0.00644649, -0.00134481, 0.00393108, 0.00793812, 0.00337894, 0.00940046, 0.00957884, 0.00120703, -6.98192e-05, 0.000756992, 0.0220592, 0.00921789, 0.0249826, 0.00727133, -0.00403616, 0.0288875, -0.0132979, -0.00500193, 0.00450539, -0.0047223, -0.00600316, 0.00864094, 0.0439534, 0.00415271, 0.0109955, -0.000824335, 0.0152944, -0.000818487, 0.00621745, 0.00906579, 0.00421132, -1.79923e-05, -0.0139598, 0.00942414, 0.00885253, -0.000280574, -0.01158, -0.0186444, -0.00295996, -0.00803839, -0.00592651, -0.00118525, 0.0229292, 0.0102051, 0.0122568, 0.00606503, 0.0228821, 0.0027548, -0.00827336, 0.000121022, 0.000820201, 0.000323683, 0.0138684, -0.000539007, 0.00250907, 0.0175865, 0.0104708, -0.0297454, -0.00188759, 0.00730613, 0.0310264, -0.0137525, 0.0237339, 0.00996367, 0.00751006, 0.0207904, 0.0024488, -0.00385014, 0.0109767, 0.0129644, -0.0085806, -0.0266438, 0.00742578, 0.0198219, 0.0173998, -0.000871091, 0.00308444, -0.0106667, -0.00481819, -0.00218526, 0.00257221, 0.00749142, 0.010919, -0.00959637, 0.0139565, -0.00733799, -0.00285108, 0.0158098, 0.00620326, 0.0117364, 0.000247221, -0.0219836, -0.00144297, -0.0107276, -0.0117858, -0.0179543, 0.0172523, -0.00361082, -0.000695116, 0.00507141, -0.00607087, -0.00119957, -0.0259954, 0.00550637, -0.000504864, -0.00992234, -0.00518748, -0.00143592, -0.00197019, 0.00335523, 0.0172177, 0.00862627, 0.0117195, -0.0063163, 0.0248179, -0.0396826, 0.00605732, 0.0301095, -0.00637686, 0.0105222, -0.0097801, -0.00894201, -0.0476339, 0.00538479, -0.00124435, 0.000401106, 0.00907318, 0.0328239, -0.0127906, 0.0185009, -0.00545048, 0.0372016, 0.00510662, 0.00772921, 0.00147411, -0.0120275, -0.00898395, 0.0105257, -0.00614566, 0.00516133, 0.00930893, -0.0157482, 0.00572263, 0.00826685, -0.00441297, 0.00275089, -0.00598856, -0.011852, -0.0202081, -0.0193257, -0.00821751, -0.00356618, -0.00685163, -0.0047143, 0.00514298, -0.00212326, -0.0057654, -0.00228097, -0.0266926, 0.016146, 0.0113822, -0.000494201, -0.000685464, -0.00650047, 0.00252876, 0.00308003, 0.00874245, 0.00220203, -0.00900948, -0.0052546, -0.0565079, -0.00818343, -0.00631853, 0.000285201, 0.0214553, 0.0098437, 0.00445658, 0.00489581, -0.00392059, 0.00862155, 0.0152793, -0.00169926, -0.0283215, 0.00208761, 0.00368996, 0.00380809, 0.0159053, 0.00819166, 0.00527553, 0.0193859, 0.00123061, -0.0109919, 0.00775974, 0.0223791, 0.0101285, -0.00510288, -0.0147151, 0.000870419, -0.0103278, -0.0112562, -0.00040129, -0.00899605, 0.0174791, -0.000536017, -0.00314331, -0.00668157, -0.00201485, -0.0168528, -0.0205115, -0.00476349, 0.0144324, -0.00291338, -0.00429338, 0.0330508, -0.0503414, 0.0273706, 0.00486453, -0.0490027, -0.0132567, 0.00161266, 0.0381661, -0.0116008, -0.0125628, -0.00263918, -0.0085817], [-0.316126, -0.248209, -0.00642539, -0.0632764, 0.118452, -0.183307, -0.0319551, 0.106845, -0.121018, 0.119527, -0.168058, 0.131786, -0.0191401, 0.0992197, -0.102982, -0.256253, 0.00712547, -0.148849, -0.0926547, -0.0400323, -0.00252853, -0.196815, 0.172156, -0.0223899, -0.159088, 0.00267695, -0.0639176, 0.138914, -0.0886104, -0.123998, -0.110844, -0.0169208, -0.082257, 0.0627531, -0.175077, -0.0183838, 0.151038, -0.0263721, -0.0304986, -0.00073828, 0.0370247, -0.192356, 0.126905, -0.0779496, 0.0578356, 0.16035, -0.0553382, -0.0214551, -0.133588, -0.112541, -0.000321883, 0.243855, 0.0870889, 0.172692, -0.0460355, -0.07861, -0.187385, 0.194946, 0.100173, -0.127257, 0.0819251, 0.42044, -0.266727, 0.126748, 0.0427981, -0.122433, 0.0312971, -0.0593054, -0.0777826, -0.0812592, -0.00266149, -0.0688826, -0.0655564, 0.214052, 0.328687, 0.291093, 0.032842, -0.0232406, -0.000988223, 0.039734, 0.145387, 0.0228539, 0.0623515, 0.0369993, -0.00522729, -0.0083523, 0.0440631, -0.112615, 0.0345931, -0.0718401, 0.00980659, 0.063967, -0.156161, 0.116814, -0.203191, -0.163321, 0.00239856, 0.141687, -0.0507939, 0.0559795, -0.207208, 0.354994, -0.00637315, 0.103024, 0.215194, -0.191361, -0.165301, 0.306078, -0.244702, 0.135807, -0.215256, -0.217231, -0.035247, 0.0749469, -0.154171, 0.122728, 0.0680284, -0.149517, 0.16443, -0.0512669, -0.147311, 0.15955, -0.231821, -0.1019, -0.127567, 0.1204, -0.150827, 0.0189476, -0.0103631, -0.00214773, 0.0109071, -0.013777, -0.0790524, 0.00695779, -0.0941718, -0.00693752, 0.255085, 0.365374, -0.238547, 0.196566, 0.149736, -0.0689302, 0.112937, -0.111214, -0.01346, -0.0112108, 0.0413624, -0.0297578, 0.0398536, 0.187013, -0.0764637, 0.329272, 0.0371915, 0.0758782, 0.0621417, 0.0881254, 0.115201, 0.105966, -0.00506637, 0.0149654, -0.206971, -0.089293, 0.063688, -0.0337646, -0.105747, 0.0407801, 0.0774484, -0.0773098, -0.179059, 0.264662, -0.198018, -0.160773, -0.000748793, 0.078075, -0.0127053, -0.164159, -0.0740055, 0.108366, 0.151314, 0.161964, -0.0125053, 0.136307, 0.0707241, -0.00162501, -0.22171, -0.113409, -0.0821075, -0.00876199, -0.165235, -0.00478297, 0.0474375, 0.00195575, 0.193261, -0.185385, 0.167724, 0.0229711, 0.0340421, 0.123906, -0.166416, 0.154987, 0.252515, -0.0677691, -0.270415, 0.139537, -0.310481, -0.11181, -0.0740203, 0.145749, 0.0725696, 0.0500356, -0.0989818, -0.0329068, 0.0638114, -0.120368, 0.383154, -0.047347, -0.260894, 0.00823663, 0.117464, -0.193509, 0.0237072, 0.309113, 0.118626, 0.174344, -0.204278, -0.138858, 0.32975, -0.000927932, 0.104772, 0.143719, -0.083297, 0.434671, -0.0257624, -0.0144653, 0.161734, -0.051925, 0.0920731, 0.0888727, 0.031634, 0.0882011, -0.191865, -0.0293576, 0.207369, 0.267452, 0.189478, 0.013192, 0.154911, -0.218513, -0.081108, -0.238635, 0.0110631, -0.0822856, -0.0889739, 0.013842, 0.110258, -0.150744, 0.210194, -0.0330958, 0.0782341, -0.0850811, 0.0930306, -0.0861856, 0.00736087, -0.0644361, 0.0718953, -0.0131881, 0.296183, -0.0862591, 0.00174859, 0.0185055, -0.150882, -0.082345, -0.0480696, 0.116651, -0.0154139, 0.156614, 0.206601, 0.0439533, -0.0840232, 0.141628, -0.062172, -0.0380139, -0.126762, 0.239999, -0.118381, 0.337196, 0.0320767, -0.033984, 0.103418, 0.0170402, 0.0872789, -0.0490231, 0.134037, 0.128011, 0.0796721, -0.238609, -0.0772485, 0.192258, 0.129259, 0.0285094, 0.228747, 0.134326, 0.11996, 0.0457733, 0.0194644, 0.11685, 0.0498078, -0.146945, -0.341735, 0.0449637, 0.0547688, -0.0152755, -0.189252, 0.0826294, -0.207171, -0.00545734, 0.0232373, -0.0366522, 0.120469, -0.0812456, -0.250609, 0.221769, 0.342879, 0.1842, -0.0809907, 0.291183, -0.0500003, 0.10848, 0.0143637, 0.0314998, 0.0327586, 0.15647, 0.0332566, -0.281473, -0.215806, 0.0393388, -0.105857, -0.095905, 0.274953, -0.198347, -0.0251482, -0.0312587, 0.0233379, 0.176578, -0.0683576, 0.183154, -0.132028, -0.128812, 0.149771, 0.00317844, 0.159675, -0.15434, 0.131993, 0.117332, 0.072153, 0.0473391, 0.144286, 0.363139, 0.0540516, -0.192847, -0.21773, -0.0836145, 0.0244605, -0.0492377, 0.0252305, -0.0883301, -0.212194, 0.252308, 0.0477585, 0.098092, 0.0842175, 0.00761842, 0.155738, -0.159606, -0.104483, -0.00584234, 0.115675, 0.0257966, -0.0633197, 0.100335, -0.106938, -0.0365003, 0.0178437, 0.103484], [-0.247003, -0.0463964, 0.0589921, -0.0943013, 0.203517, 0.102236, -0.0954508, 0.227272, 0.0438962, -0.107424, -0.169765, 0.07535, 0.124366, -0.0549674, -0.0376861, 0.0547303, 0.0903175, -0.107548, -0.054392, 0.0436774, 0.188433, -0.294339, 0.202679, -0.0984466, -0.0112762, -0.0508465, 0.0934655, 0.074493, -0.391699, -0.00959669, -0.180727, 0.0318563, 0.0176866, -0.0256924, -0.115945, -0.0306455, -0.0350353, -0.255305, -0.0751035, -0.00834107, -0.049676, -0.162033, 0.0926486, 0.130479, -0.0111657, 0.235078, 0.00296694, -0.0702822, -0.00113901, 0.162902, 0.00873742, 0.0761092, -0.279478, -0.0727729, 0.0748052, 0.0509576, 0.0135811, 0.0852021, -0.0962503, -0.18923, -0.0257212, -0.187566, -0.0047865, -0.0457391, 0.0942985, -0.0378109, 0.2276, -0.0900251, -0.0149846, -0.142298, 0.103396, 0.0210196, 0.0597761, 0.155184, -0.326296, -0.133895, -0.0151381, 0.00937201, 0.0191379, -0.0108164, 0.115663, -0.132594, 0.0326338, 0.253452, -0.104455, -0.122408, 0.0303628, -0.0146473, 0.0454638, 0.0739165, -0.178555, 0.233989, -0.00586483, -0.000975784, -0.0218544, 0.05814, 0.0664202, 0.0932695, 0.00119035, 0.0982571, -0.0152448, -0.276603, 0.0910246, 0.00160055, 0.00517743, -0.0911284, -0.0403347, -0.034867, -0.102346, 0.0853462, -0.115079, 0.106708, -0.110737, 0.0753295, 0.0428526, -0.0886963, -0.00237997, -0.115056, -0.103905, 0.124641, 0.0209164, 0.21025, -0.10642, -0.00534984, 0.0781783, 0.00196131, 0.0486363, 0.0349895, -0.0149789, 0.0427661, -0.0911899, -0.00234124, -0.0400955, -0.270983, -0.0563816, 0.105169, 0.223544, -0.229906, 0.0830525, 0.0414822, 0.0515068, 0.0300756, 0.149987, 0.0377361, 0.0435015, -0.0178422, -0.0865704, -0.00546215, -0.0717751, 0.0830728, 0.0699049, 0.0497545, 0.0914979, -0.0930256, -0.0500421, -0.0331841, 0.0722833, 0.0880986, 0.16354, -0.00928804, -0.0243929, 0.100719, 0.13182, 0.149229, -0.136137, -0.0894079, 0.0905935, 0.0593515, -0.115317, 0.0707631, -0.0225061, 0.0713474, -0.0648542, 0.0058569, -0.088983, 0.00735726, -0.10832, 0.00317479, 0.0657274, -0.0282574, -0.189851, -0.156788, 0.0223761, 0.154549, 0.00859002, -0.0232575, 0.0248328, 0.0861945, 0.295131, -0.0313821, 0.292956, 0.258831, -0.146978, -0.0326016, 0.00622381, -0.0456155, -0.136722, -0.00588501, 0.0848375, -0.141273, 0.00528157, -0.092467, -0.100155, -0.193222, -0.0679813, 0.047832, -0.156318, 0.0170453, -0.0333498, 0.112467, -0.123661, -0.115738, -0.0837829, -0.103536, -0.119611, -0.0357822, -0.00765597, 0.0292281, 0.192225, 0.060068, -0.0627507, 0.103035, 0.124736, 0.0345011, 0.0707311, 0.0422465, -0.0230262, -0.122216, -0.0697983, 0.150094, 0.0312564, 0.11204, 0.082151, 0.0796036, -0.0503116, 0.0611555, -0.0905007, 0.129391, -0.167872, -0.0616673, 0.022031, -0.149017, 0.090469, 0.21397, -0.124869, 0.0630401, 0.000463812, -0.142148, 0.0875974, 0.204448, -0.0102325, -0.192082, 0.0265079, 0.0472146, 0.247327, -0.0887629, 0.0883883, -0.0251023, 0.0320556, 0.0810879, -0.06522, 0.0514738, 0.000780747, -0.201427, -0.0298246, 0.144892, 0.100005, 0.0828218, -0.167755, -0.0531983, -0.0836741, 0.342609, 0.0680298, 0.125787, -0.0446594, 0.0560703, -0.0496596, 0.0158305, -0.070691, 0.0973438, -0.0579462, 0.12316, -0.0966747, -0.0720586, 0.0800223, 0.175709, -0.0628709, 0.061457, -0.0441068, 0.178824, -0.00222648, 0.0765683, 0.0870236, 0.340584, 0.0598603, -0.17786, 0.106243, 0.0926138, 0.142945, 0.0772193, 0.0684877, 0.0703751, 0.21955, -0.0300629, 0.0623243, 0.0455118, 0.279188, -0.106023, -0.0513241, -0.193694, 0.0393964, 0.100633, -0.173043, -0.145878, 0.115562, 0.00788428, -0.00695548, -0.0282894, -0.145609, -0.0911455, 0.0291819, -0.0584783, 0.00301078, 0.0244203, -0.0628792, 0.0445246, -0.218371, 0.0250501, -0.0593882, -0.125323, -0.0561687, 0.0421101, 0.193369, -0.197761, -0.0487276, -0.127576, -0.00439104, 0.108702, 0.13477, -0.0663768, 0.308238, 0.188018, -0.145364, -0.120147, 0.131631, 0.0821341, -0.0878838, -0.0648258, -0.0437326, 0.0728418, 0.191107, -0.166136, -0.0664716, -0.0143349, 0.171266, 0.061024, -0.0399424, 0.0094187, -0.0665562, -0.121777, -0.0891497, -0.0423619, -0.0142906, -0.0540622, -0.00182191, -0.183937, 0.0454735, 0.113205, 0.095322, -0.0946027, -0.00228293, 0.104411, 0.0911511, 0.100949, 0.141903, -0.014175, 0.118932, -0.125964, -0.0197497, -0.127465, 0.0266257, -0.0196901, -0.0201683, -0.0437392], [-0.115069, -0.0957893, 0.0450559, -0.111334, 0.192713, -0.202512, 0.0878231, -0.0753194, -0.0477602, 0.0207698, -0.23977, 0.064584, 0.187862, -0.246162, -0.224879, -0.0335822, 0.0771197, 0.110269, -0.242265, 0.182381, -0.189341, -0.580631, -0.0324272, 0.158051, -0.252861, 0.0230343, -0.061737, -0.00357502, 0.0547299, -0.0403174, -0.177889, 0.119296, -0.110474, 0.187465, 0.142512, 0.154522, -0.235121, -0.0654879, -0.14114, 0.0167672, -0.0273932, -0.253098, -0.174121, 0.118609, 0.111267, -0.0214233, 0.0439835, 0.058633, -0.200239, 0.0404056, 0.00459688, 0.0756916, 0.244892, -0.136593, -0.170049, -0.0457787, 0.101637, 0.104475, -0.0267406, 0.00576872, 0.00524793, 0.625389, -0.135369, 0.118297, 0.0438983, 0.0150454, -0.0885833, -0.00416955, 0.175735, 0.158581, -0.064359, 0.178138, -0.0871273, 0.236236, 0.275517, 0.262492, 0.0790771, 0.0923042, 0.185349, 0.125834, 0.0979476, 0.0179769, -0.0518216, 0.492085, 0.207064, -0.0782281, -0.0817626, -0.0270623, 0.0597176, -0.0962531, -0.292517, -0.00608082, 0.242776, -0.0206767, -0.0979609, -0.0346948, 0.0609776, -0.0292787, 0.128911, 0.0742778, -0.0358197, 0.154006, 0.0881664, -0.151809, -0.254414, 0.0303242, -0.416215, 0.468524, -0.136683, 0.161775, -0.172876, -0.123176, -0.440009, -0.0603139, -0.0506889, 0.115944, -0.136011, 0.162002, 0.00629723, 0.171554, -0.107468, -0.143818, -0.285142, 0.181277, -0.135031, -0.0614549, -0.135304, -0.031256, -0.174254, 0.259504, -0.0196236, 0.141606, -0.145688, -0.151384, 0.158612, 0.199777, 0.154445, 0.327457, -0.214968, 0.00373662, 0.0370917, 0.0413879, 0.203704, 0.254168, 0.223221, -0.167275, -0.0711067, 0.147548, 0.143038, 0.220373, 0.0518321, 0.63937, -0.167797, 0.107276, -0.0931095, -0.0694681, -0.00900773, 0.0354743, -0.113036, 0.0392461, -0.194657, -0.0249037, 0.0830508, -0.396732, 0.097057, -0.266629, -0.100501, 0.0279493, -0.00585553, 0.117814, 0.0427581, -0.206089, 0.150476, -0.0762715, 0.304007, -0.0698007, -0.0380405, 0.0315765, 0.117849, -0.0172464, 0.204688, 0.164756, 0.151244, -0.264396, -0.441459, -0.0218811, 0.0956322, 0.25678, -0.16949, 0.12894, 0.367359, -0.340614, 0.0697863, -0.114655, 0.0943268, 0.0953679, 0.0396356, -0.0531214, 0.219273, 0.128751, 0.0285285, -0.0339928, -0.363199, 0.456463, 0.118457, 0.0165867, -0.216506, 0.245404, -0.018132, 0.120151, 0.117724, 0.126602, 0.0230225, -0.0162729, 0.0808706, -0.106597, 0.236645, -0.0324366, -0.244083, -0.626423, 0.0299895, 0.182436, 0.243842, -0.053207, -0.248816, 0.0278772, 0.128863, 0.0191191, 0.00990179, -0.0456846, -0.203888, 0.0279509, 0.152932, -0.190306, 0.199697, -0.0771512, 0.229534, 0.279894, 0.0950478, 0.0463302, -0.212479, -0.0152244, 0.0267697, 0.256602, -0.00293781, 0.195184, -0.0663925, -0.0362106, -0.16607, 0.112431, -0.199879, -0.216492, -0.250894, 0.0359421, 0.186656, -0.206094, 0.0130789, -0.14871, -0.12478, -0.0250341, 0.114902, 0.0352122, -0.121454, -0.28278, 0.0790982, -0.152834, 0.237162, 0.108124, -0.00562599, 0.11163, 0.145154, 0.114318, 0.0608243, 0.199182, 0.267866, 0.0654202, -0.0874478, -0.00821703, 0.0856298, 0.311327, 0.19571, -0.0133692, -0.0195098, 0.0647908, -0.0794986, 0.0578704, 0.330174, 0.132691, 0.189003, 0.155651, 0.0686812, -0.228645, -0.0878807, -0.0446895, 0.080229, -0.160278, -0.0289175, 0.15967, 0.0237646, -0.118604, 0.0189555, -0.0699157, 0.229341, -0.0864907, -0.045593, 0.00446112, 0.031651, -0.00293987, -0.432412, 0.187921, 0.00449382, 0.308721, -0.354087, 0.328825, -0.241836, 0.0626691, 0.0375847, 0.0812689, -0.114614, -0.251125, -0.324727, 0.160567, -0.0453548, 0.202204, 0.0319539, 0.105978, 0.0955118, 0.264051, 0.165232, -0.0880023, 0.349613, 0.113281, -0.131039, -0.439266, -0.21498, -0.171971, -0.39641, 0.0919783, 0.155371, -0.127937, -0.0724437, 0.143634, -0.00240913, 0.305886, 0.131088, 0.325771, 0.130052, -0.441967, -0.113708, 0.442618, 0.294157, -0.0743698, 0.186707, -0.00300723, -0.0752141, 0.020562, -0.309154, -0.0834093, 0.0543202, 0.0182051, -0.18169, -0.0356999, -0.274825, -0.0734516, 0.157357, 0.121719, 0.101431, 0.117858, 0.0399045, 0.16741, -0.0408038, 0.125231, 0.454863, -0.359513, 0.220762, -0.0585784, -0.285426, -0.0626563, -0.0729336, 0.0411056, 0.177682, -0.0967484, 0.0594655, -0.200336], [-5.17491e-154, -6.38235e-157, -1.99778e-150, -4.38762e-143, 1.43031e-152, -2.35507e-151, 7.36611e-155, -3.4778e-155, 1.65075e-144, 9.10011e-154, -5.18568e-157, 6.05797e-148, -1.10547e-144, -4.54904e-152, 4.70769e-155, 1.06129e-152, -1.71943e-153, -1.10326e-151, 1.22547e-157, 2.10904e-155, -2.85604e-157, -4.74084e-154, -7.68758e-156, -8.72049e-149, -6.21499e-151, 2.1672e-151, 8.35743e-156, -6.44475e-154, -6.03856e-159, -1.82756e-146, 3.44135e-147, -2.5837e-148, 1.02411e-158, -2.70589e-144, -5.02142e-152, 2.42911e-153, -6.85538e-144, -1.62723e-141, 3.23946e-145, 2.76033e-145, -1.89948e-156, -6.35591e-159, 1.73155e-155, 1.21042e-144, 1.05111e-152, -1.04647e-151, 1.28897e-148, 4.00578e-147, -1.27963e-155, 4.32702e-151, -4.31392e-156, 9.51207e-154, 2.79374e-153, -3.00416e-152, 8.38305e-153, 5.15849e-146, -6.75268e-159, 4.72892e-153, 1.62763e-145, 6.43033e-148, -3.88176e-150, 1.62661e-154, -2.5665e-160, -8.42083e-157, 1.33637e-146, -1.24468e-142, -2.53903e-156, -9.7088e-147, -2.26449e-144, -1.54691e-150, -2.27824e-149, 5.36215e-149, -2.27623e-155, -1.78549e-150, -9.02611e-158, 5.83414e-143, -2.88502e-147, 3.75666e-148, -2.74848e-148, -2.42692e-155, -3.10128e-151, 2.57738e-145, 1.66917e-144, 3.12576e-157, -1.4692e-152, 1.0124e-145, -9.68015e-149, -4.27483e-152, -2.77412e-146, -2.01331e-156, -6.08593e-156, -5.29995e-156, 2.14906e-149, -3.29474e-153, -2.09101e-141, 1.27353e-144, -2.81101e-153, -5.17494e-153, -4.14732e-145, 1.39252e-156, 