{"type": "mlp_multilabel", "dim": 768, "classes": ["analytical", "descriptive", "formal", "informal", "inquisitive"], "activation": "sigmoid_output", "macro_auroc": 0.961, "layers": [{"W": [[0.145692, -0.0636116, -0.0361408, 0.0962891, -0.227823, 0.0747836, -0.0854331, 0.170623, 0.0151296, -0.33565, 0.286095, -0.0774405, 0.0403337, -0.0411559, -0.0802041, 0.0181936, 0.00715195, -0.0383387, -0.030424, -0.132544, -0.0148939, -0.0257916, -0.0375849, 0.247173, 0.0579233, -0.107048, -0.0246107, 0.0283639, -0.176501, -0.0516191, 0.173845, 0.0198368, 0.0798859, 0.0562429, 0.0364517, -0.0513137, -0.194302, 0.0115677, 0.0742279, -0.0960977, 0.00399257, -0.164464, 0.0895792, 0.140675, -0.339961, -0.00784442, -0.0441967, 0.0718862, -0.173378, -0.00553255, -0.160541, -0.302661, 0.127488, 0.0381357, -0.00721324, 0.000525136, 0.0559555, -0.0455151, 0.153575, 0.178072, 0.0663106, 0.117568, -0.0400235, 0.0193642, 0.0652708, 0.108879, 0.074995, 0.0171854, -0.20109, -0.0368959, -0.0430439, 0.0724592, -0.187158, -0.00509477, -0.0949607, 0.0426601, -0.0864451, 0.13081, 0.0930133, 0.105405, 0.0903266, 0.124901, 0.245536, -0.0502136, 0.136249, 0.201392, 0.0768439, 0.0657143, 0.0824468, -0.0725431, 0.185177, -0.0283665, -0.218295, -0.00458585, -0.176081, 0.348478, 0.111595, -0.136337, -0.0103394, 0.0367024, -0.0149259, 0.103299, -0.0759206, -0.0484877, -0.0678573, -0.180084, 0.0119535, 0.19923, 0.0447139, -0.109585, 0.0287208, -0.0454365, 0.0578937, 0.0150498, 0.0270498, -0.0393301, -0.0826654, 0.0528277, -0.00769012, -0.0207569, -0.0861217, 0.0731486, 0.134624, -0.218665, -0.160059, -0.261116, -0.0138449, 0.0629237, 0.0721063, 0.0935241, -0.0802374, -0.0408928, -0.135747, -0.0468577, -0.0932042, 0.0664766, 0.157084, -0.0425626, -0.0547365, 0.145999, -0.0221197, 0.0222376, -0.242423, -0.0401295, 0.00841798, 0.0406471, -0.0688691, -0.0976124, -0.0659146, -0.0543935, -0.033015, -0.108608, 0.0344615, -0.096935, -0.0531093, -0.021207, 0.00140374, 0.0560664, 0.0605356, 0.0275576, 0.110306, -0.0425963, 0.144238, 0.00423918, 0.0166664, -0.0749851, 0.128086, -0.151626, 0.0542664, -0.00804431, -0.0638288, -0.00406668, 0.0411316, 0.0640315, -0.192316, 0.0695868, 0.0863327, -0.104775, -0.0109505, 0.0247106, 0.0164034, 0.122395, 0.0956557, 0.0488918, 0.264984, 0.0845, 0.0826237, -0.0224128, 0.135006, -0.00684794, -0.0604894, 0.0912783, -0.111391, -0.0366413, 0.0335011, 0.0690284, -0.117187, 0.0478309, 0.0110155, -0.160609, 0.0171829, 0.0847835, 0.125894, -0.0656361, -0.181042, 0.0648207, 0.0581985, -0.0457264, 0.0130901, 0.00296025, -0.0679881, 0.144893, 0.134593, 0.090743, 0.166013, -0.0439779, -0.0953345, 0.131977, 0.00828887, -0.00761599, 0.25327, 0.0611071, -0.101157, -0.165166, -0.00622829, -0.372235, 0.131567, 0.102235, 0.116695, -0.0669812, 0.0453495, -0.049295, 0.0619487, 0.187482, -0.23709, 0.033231, 0.0791135, -0.063059, 0.0784237, -0.120949, -0.111786, 0.0194627, 0.0561139, 0.0836393, -0.0435046, -0.111888, 0.027076, 0.113196, 0.0146992, -0.0676415, -0.270278, -0.0120746, 0.0079366, 0.0349141, 0.226093, -0.145462, -0.0949069, -0.103821, -0.0101336, 0.0941348, -0.12172, -0.0777502, 0.178885, -0.00183198, 0.0338239, 0.043837, 0.117264, 0.0506633, -0.175854, 0.0781871, 0.0297466, 0.115953, -0.0198094, -0.0836647, -0.210364, 0.0223541, -0.0227856, -0.0771641, -0.134999, -0.0204352, 0.173945, -0.0325252, 0.131104, 0.062912, 0.057522, -0.0274685, 0.00900011, -0.0982616, -0.0500919, 0.178448, 0.0741128, -0.0254815, -0.0315362, 0.0329366, 0.0677952, 0.0434056, -0.0880633, 0.0206504, 0.231755, -0.033709, -0.347859, -0.0293423, 0.0521526, 0.0647295, -0.0409281, 0.219361, 0.116841, -0.0770777, 0.00290374, -0.10976, 0.106099, 0.274857, -0.0929387, -0.038323, 0.0360961, 0.165651, -0.116038, -0.0299215, -0.130256, 0.0706696, -0.00135646, 0.115921, 0.000349346, -0.12188, -0.00911468, 0.0870421, -0.00274936, 0.111009, -0.15246, -0.0130017, 0.0484315, 0.05724, 0.110579, 0.215309, -0.0696765, -0.065988, 0.0460786, -0.138419, -0.0573687, -0.115296, -0.00444117, 0.0379662, 0.0313012, 0.0581756, -0.0446338, 0.0188794, 0.0304959, 0.0158869, -0.00625813, 0.000104328, -0.0363571, -0.101998, 0.144579, 0.0288496, -0.0747717, -0.126103, 0.0674259, 0.178935, 0.190368, -0.0792863, 0.12739, 0.0736466, -0.105089, -0.273602, -0.0181943, 0.0598731, -0.00136244, -0.0898286, -0.425003, -0.178981, 0.106823, 0.0874947, 0.158333, 0.265007, 0.0545282, -0.152617, -0.0913291, 0.0170059, 0.4303, -0.0244469, 0.111421, -0.0668668, 0.118233, 0.0248144, -0.236839, 0.0574351, 0.0825, 0.0392195, 0.09668, 0.231351, 0.0705718, -0.0744321, 0.0304893, -0.0157319, -0.0383688, 0.0309305, -0.00498625, 0.275913, 0.202069, -0.166329, 0.074497, -0.234115, 0.166942, -0.0652731, -0.0118284, 0.000733169, -0.135816, -0.0573253, 0.0519243, 0.0611927, -0.0895274, -0.173469, 0.127696, 0.114171, 0.112184, 0.17436, -0.126545, -0.0896076, -0.207232, 0.0416343, -0.104487, 0.0383709, -0.060119, -0.0541284, 0.0745891, 0.0156241, -0.152942, 0.0785123, -0.0193217, -0.101915, -0.0992295, 0.191095, 0.19755, 0.533562, 0.0112676, -0.0389115, -0.196017, -0.106491, 0.204525, 0.198667, -0.183447, 0.00186261, 0.00323365, 0.0474407, 0.110235, -0.149838, -0.0257366, -0.0269943, 0.0862867, -0.109798, -0.0127404, 0.117937, -0.16104, 0.0879996, 0.00972221, 0.0300816, 0.149339, -0.0461892, -0.0242104, 0.0557541, -0.0595345, -0.0719372, -0.140571, -0.0558599, -0.130213, -0.0977646, 0.0385134, 0.0239728, -0.0651503, 0.174782, 0.196794, -8.12959e-05, -0.0912372, -0.126147, 0.0197245, -0.1407, -0.185238, 0.0458489, -0.0389382, -0.070693, -0.227381, -0.258018, -0.0685879, -0.10274, 0.013286, 0.00218053, 0.0713316, -0.0348536, -0.140919, 0.00534097, 0.0671163, -0.0875345, 0.222183, 0.0532629, 0.0822061, -0.0541212, 0.0585439, 0.0352383, -0.0999017, -0.0983232, 0.0996697, -0.107184, -0.0173089, -0.298289, -0.135383, -0.0151325, -0.105279, 0.229886, -0.0373415, -0.136988, 0.0544146, -0.106959, 0.148009, 0.049527, -0.268557, 0.0150025, 0.0112919, 0.0694055, 0.0411316, -0.0391469, -0.0564409, 0.0266401, -0.129162, -0.0114994, 0.0329073, -0.0156518, 0.152491, -0.140074, 0.0312467, 0.00444173, -0.020601, -0.0190979, -0.0276854, -0.100372, -0.147316, -0.0328629, -0.290681, -0.0847918, -0.0212118, 0.0315706, -0.107792, 0.188096, -0.137345, 0.156597, -0.0496871, -0.028069, 0.00931897, -0.00725503, -0.165367, 0.138045, 0.039003, 0.00553724, -0.04475, -0.0885363, 0.0422349, 0.0893067, 0.183485, 0.034744, 0.066213, 0.131583, 0.0650702, -0.0526334, -0.0854147, -0.0249, -0.0475348, -0.113771, 0.00652584, 0.0980737, -0.0739417, -0.0396553, -0.0435644, -0.0766049, -0.125445, 0.0770411, -0.00444152, 0.0205655, 0.0175703, 0.0384444, -0.026754, 0.0611148, -0.00518755, 0.0454655, 0.0520095, 0.00398624, -0.0929614, -0.0506087, -0.000671817, -0.0186455, -0.0153978, 0.0798628, -0.286859, -0.134178, -0.00472617, -0.0653346, 0.0655447, 0.122355, -0.120537, -0.0427281, 0.0778858, 0.0288505, -0.061501, -0.0648275, 0.0321218, -0.18019, 0.232493, -0.00404859, 0.172108, -0.0167548, 0.0074623, 0.0103356, -0.0399205, 0.123851, 0.00260932, 0.1087, -0.0593429, 0.0327589, 0.0183597, 0.0484382, 0.198725, 0.0349625, -0.125408, 0.0963488, -0.0224641, 0.0181964, 0.115313, 0.0217717, -0.00732216, 0.149569, -0.274352, -0.0184993, -0.0727199, -0.0221166, 0.105536, 0.00246134, -0.100259, -0.180282, 0.0770296, -0.155456, -0.0996015, 0.147103, 0.0261791, -0.198907, 0.0133772, -0.0249749, 0.0375259, 0.185752, -0.120016, -0.202226, -0.0330681, 0.0237398, -0.0963117, 0.066577, -0.203312, 0.161755, 0.0334519, 0.0230731, -0.11566, -0.00808882, -0.156865, 0.0421037, 0.0147987, -0.0063996, 0.162978, -0.124875, 0.0878742, 0.00232117, -0.0427401, -0.0235374, -0.0299119, 0.0252429, -0.0170656, -0.0173172, -0.0210498, 0.0103432, -0.0434614, -0.106555, -0.170654, 0.0044886, -0.0254626, 0.113882, -0.222312, -0.0792317, -0.047267, 0.060252, 0.352395, 0.0804455, 0.0385384, 0.018586, -0.0256045, 0.335175, -0.0680981, -0.0729658, 0.150928, -0.0309144, -0.0117837, -0.10438, -0.0879347, 0.0763088, -0.00960899, -0.230332, 0.0166398, -0.111394, 0.00844066, 0.0488634, 0.083367, 0.207791, 0.159859, 0.124646, -0.00702563, 0.0339693, 0.0685004, 0.014086, 0.125652, 0.111657, -0.0471338, -0.0743761, -0.0719029, 0.03589, 0.0336741, 0.094679, 0.0728176, 0.310083, -0.223898, 0.0663481, 0.0991147, -0.146568, -0.0408212, 0.152595, 0.0382955, -0.146104, 0.0719864, -0.0611077, 0.142742, 0.0621149, -0.147443, -0.162622, 0.0562369, 0.0754058, 0.131135, -0.0326594, -0.136999, 0.00120889, 0.0149976, 0.0326453, -0.277775, -0.0976562, 0.108656, -0.0577542, 0.135414, -0.159709, -0.025276, -0.144259, 0.257273, 0.0926089, 0.0675059, -0.201209, 0.170377, -0.00194024, -0.0328266, -0.0440335, 0.00163009, 0.138082, 0.0178456, 0.0719435, -0.121055, 0.0965755, 0.0648055, -0.0915344], [2.46417e-11, 9.71568e-05, 1.24523e-07, 1.87046e-06, -7.68721e-38, 0.000277839, 1.48448e-07, 2.43365e-08, -2.87518e-14, -5.16351e-15, 1.29766e-09, -4.3345e-25, -0.00576164, 3.21912e-05, -4.21965e-06, -0.000169149, -6.89775e-05, 2.54816e-05, -3.64212e-05, -7.06354e-40, 1.34859e-06, -1.43228e-05, -0.000294348, -1.89927e-33, -0.000246834, 4.68548e-08, -7.51463e-09, -7.44468e-05, -2.96719e-11, -9.10285e-05, -6.85427e-07, 5.18982e-05, -4.26403e-07, 3.13609e-05, -2.66608e-06, -1.92499e-06, -8.84112e-48, -7.93722e-06, -6.42656e-12, 1.02647e-09, -1.34588e-06, 4.47535e-10, 1.26376e-07, -3.72506e-06, 3.06295e-17, -4.77326e-06, 7.16201e-06, 4.97956e-07, -0.000769053, -1.10791e-06, -5.95802e-11, -6.01102e-09, 4.02031e-05, 5.10706e-89, -0.000800943, 0.000150736, 3.36839e-07, 1.05644e-05, -7.20548e-06, 0.000368507, -7.0036e-09, 0.000113363, 3.29988e-06, -2.39835e-05, -6.42904e-05, -9.17967e-06, 6.73293e-40, 7.34028e-07, 1.20046e-05, -3.64265e-10, 5.71714e-43, -4.76602e-08, 9.46213e-05, -9.36222e-08, 0.0008543, -3.61273e-08, -0.000649874, -4.18057e-14, 2.46983e-09, -5.99293e-08, -0.00023578, -1.74262e-07, -0.000174515, -6.74764e-06, -3.14146e-09, -5.07388e-09, -4.04889e-06, 0.00162706, 3.07455e-07, -0.000152851, -0.000184606, -4.24875e-06, -0.000290841, -4.77512e-06, 1.11153e-08, -4.59226e-16, 2.42242e-06, 7.91324e-06, -1.67666e-08, -0.000146434, -6.27924e-63, -0.000471306, 0.000239128, 2.77327e-05, -0.00161353, -8.71402e-18, 1.6783e-07, 3.2744e-07, 0.000100838, -0.000113426, 5.18015e-05, -5.13709e-06, -1.43469e-06, -0.0012162, -9.30871e-05, -1.15471e-07, -9.36005e-10, 0.0011005, 2.96028e-09, 5.30679e-07, -1.30648e-16, 0.0010742, -1.47149e-35, -1.95055e-21, 5.20956e-05, -1.32978e-08, -2.82586e-31, -7.01365e-08, 3.90364e-05, 0.000224242, 4.87462e-10, -0.000268568, 3.34041e-13, 1.1143e-06, -3.22631e-05, 9.35411e-05, -1.41818e-05, 1.37553e-05, 1.79357e-13, 4.51486e-18, -1.00873e-05, -8.06272e-06, 1.09099e-49, 0.000537136, -1.73375e-05, 0.00193744, -2.29931e-06, -1.4646e-17, 2.41423e-10, 1.31052e-05, 1.5251e-05, -8.82056e-12, 5.11643e-09, -9.81919e-05, -1.50542e-05, -1.19465e-08, -0.00133024, 3.50648e-17, -1.27853e-09, 7.78935e-07, 1.72442e-05, -5.37365e-07, -3.37593e-06, -2.84091e-13, -6.3561e-05, -4.87985e-05, -1.00055e-05, 1.11472e-06, 2.14709e-07, 2.31306e-06, 2.3522e-05, -4.51654e-05, -1.65973e-05, -2.16386e-05, 1.58101e-07, 7.40934e-08, -4.4345e-06, 7.65322e-07, -1.79568e-05, 0.000194545, 0.000294356, 2.53833e-08, -6.69423e-05, 1.55245e-05, 8.78473e-14, 2.96687e-08, 0.00013344, -1.22208e-11, -9.4597e-06, -5.83625e-09, 3.48086e-12, -0.000468338, -2.1545e-15, -7.25847e-10, -1.08201e-05, -2.88443e-05, -1.78244e-09, -1.64525e-15, 2.78848e-05, -0.000417982, -1.02937e-06, 1.07295e-13, -1.35704e-06, 3.41243e-06, 5.67946e-10, -0.00155733, 2.58212e-09, 0.000640195, 3.52729e-06, 1.26417e-05, 6.98109e-08, -0.000144187, -6.04076e-07, 7.3145e-08, 1.11791e-09, 8.75126e-05, 1.15763e-05, -2.17065e-05, -0.000160593, -9.69721e-07, -1.58416e-28, -0.00127758, -0.00014411, -2.38767e-57, 6.47402e-11, -1.81701e-44, -3.39629e-09, -8.74312e-11, 0.000357021, -1.38774e-07, -3.05189e-06, 0.000108992, 6.45286e-06, -8.48904e-06, 3.43735e-09, -0.000146737, -6.07094e-09, 5.61731e-31, -0.000131687, -0.00141891, -2.11634e-05, 3.71784e-06, 8.09146e-08, 2.87331e-08, -4.57506e-08, 8.6469e-05, 0.000553746, 6.65311e-05, -0.000566091, 6.28219e-10, 6.61036e-52, 1.32093e-08, 2.08635e-05, -4.08452e-05, 2.94427e-17, -1.20793e-13, 7.87149e-05, -1.14149e-07, 8.00234e-10, 9.6042e-17, 2.53429e-19, 5.19746e-05, -7.4537e-10, -5.00105e-05, 6.53757e-08, -6.79545e-09, -0.00832312, 3.45723e-07, 9.39673e-07, 2.51209e-05, 6.63127e-05, -9.96992e-14, 1.30033e-05, -0.000590568, 8.48975e-30, 2.53829e-06, 0.000169393, 3.4368e-07, -0.000254177, -2.54638e-10, 8.4295e-09, 0.0003812, -1.9367e-05, -4.44064e-06, -9.3376e-06, -1.45656e-05, -1.85521e-06, -6.84676e-08, 5.26419e-05, 2.68536e-05, -0.000526025, -9.58313e-05, 2.08474e-13, 3.89941e-06, -0.000125759, 2.98688e-07, -2.46677e-05, 1.39876e-05, -5.2507e-13, -6.86659e-12, -6.59525e-10, -0.000190555, -4.37151e-05, 0.000282188, -1.61005e-05, -6.41469e-06, -0.00811748, -2.53396e-05, -0.000101743, -9.66284e-07, -7.56939e-07, 4.757e-10, 0.000379601, -3.98683e-06, -1.85626e-09, 0.000158854, -5.66741e-08, 0.00112917, -7.66673e-08, 4.86273e-07, 2.08642e-05, -0.000555581, 7.98562e-09, 7.93248e-05, 2.38347e-06, 3.7157e-11, 9.20922e-05, 1.32231e-17, 1.33584e-05, -3.99974e-16, -2.48656e-07, -9.23725e-06, 1.79171e-12, -0.000256429, -0.00294594, 2.09857e-09, 2.00836e-05, -0.000204841, 0.00348638, 1.78086e-08, -2.75166e-06, -6.30303e-08, 5.54008e-14, -7.68245e-39, -0.00076297, 0.000800126, 5.1236e-09, -6.37306e-46, -0.0001621, 3.33965e-06, -1.70371e-05, -0.000479137, -2.34981e-06, -6.07293e-57, -0.000101499, 1.50288e-09, -6.77703e-05, 9.44137e-12, 1.50153e-05, 1.12321e-09, 7.70611e-06, 8.23084e-08, -6.9008e-13, 1.19544e-47, 5.11581e-08, 0.000134932, -7.21801e-07, 8.25066e-08, 3.48793e-13, -1.27867e-07, 0.00270449, 2.8123e-05, 2.63e-06, -3.01294e-13, 4.98439e-06, -6.04103e-07, 0.000296056, 0.000137923, 9.95711e-30, -4.42272e-11, -0.0011008, -9.56892e-06, -3.94484e-10, 2.27301e-06, -7.2085e-07, 6.54887e-07, -2.65188e-05, 0.00183647, -1.05618e-06, 1.64066e-16, 2.80657e-06, 0.000339879, -6.58477e-05, -9.51797e-10, 7.34477e-06, -6.89827e-08, 5.48788e-05, -1.87353e-09, -4.75201e-28, -2.71872e-05, -0.000277891, -1.57435e-06, 1.76626e-07, 5.46038e-05, 0.000218679, -0.000210546, 2.85138e-16, -0.00057126, -4.46329e-10, 9.08154e-05, 0.000198048, -4.70371e-24, 0.000736814, 3.26753e-87, -1.2551e-10, -5.51517e-07, 1.22632e-15, 1.49701e-06, 3.28847e-05, 1.14263e-06, 9.15152e-07, 1.60554e-07, -9.41619e-15, 3.17955e-08, -3.42585e-12, 0.00202856, -1.91641e-10, -7.38282e-22, 1.70058e-09, 0.000422749, 1.27178e-05, 2.65638e-08, 2.12399e-11, -1.87092e-19, 1.26115e-06, 7.74858e-05, 3.75514e-05, -7.01252e-05, 3.61299e-14, -5.41179e-08, -6.65709e-39, 3.13845e-08, 8.98981e-06, 4.54398e-22, -1.554e-11, 2.56359e-10, 6.79082e-05, 1.1651e-11, 4.50909e-06, -1.53692e-15, -4.79327e-11, -1.67418e-11, 7.37479e-09, -2.18534e-07, 6.42917e-06, 3.0509e-06, 2.66986e-11, -6.28367e-16, -2.75552e-25, 0.0116287, 9.56886e-06, 0.00108589, 1.27339e-33, -2.17186e-05, -9.48167e-05, -0.0002759, 3.86297e-06, 1.74673e-05, -2.59647e-05, 7.6733e-08, -6.72257e-07, 1.24218e-05, -5.19086e-06, -7.56113e-06, 6.39821e-07, -7.19548e-05, -9.8639e-56, 2.08384e-05, -5.95788e-05, -5.94834e-07, -1.59522e-30, -1.28025e-07, -0.00021636, -9.08331e-08, 9.84674e-05, 6.72975e-05, -0.0020688, -5.63685e-05, 4.85755e-47, -8.15084e-05, -5.11994e-11, -6.31681e-10, -4.34285e-05, -0.000120792, 3.65597e-06, 2.57967e-06, 5.32497e-09, 6.28958e-05, 0.000851414, 3.24096e-05, 5.11878e-52, 3.28812e-05, 0.000360606, -2.29325e-80, 0.0015428, -4.06485e-05, 2.55997e-11, 2.12837e-06, -6.92813e-07, -8.16351e-09, 0.00406351, -2.97195e-05, -2.08386e-06, 1.06608e-08, -2.78843e-40, -1.73012e-08, 7.10315e-06, -2.72488e-09, 8.06403e-06, -0.000241497, -1.22356e-14, 2.27272e-14, -5.12426e-05, 6.34912e-07, -5.85542e-05, -3.33898e-06, -1.13292e-24, -0.000105136, -7.89856e-05, -0.000219821, 5.62525e-06, 5.58152e-05, 2.21126e-05, 0.00271808, -0.00128059, 8.98549e-06, -5.56749e-09, -6.84811e-48, 7.14332e-05, -1.49585e-18, 8.68991e-12, 1.28393e-09, -4.28637e-09, 1.7469e-92, -1.51514e-06, -6.70593e-06, -3.93561e-09, -3.0497e-05, 8.59917e-07, 7.60971e-20, 2.38664e-06, -1.01613e-06, 1.07388e-10, -0.000380724, 4.0426e-05, 1.63719e-07, -1.64564e-20, 9.42434e-13, -6.71014e-08, 1.0294e-08, 1.52648e-10, 2.34032e-05, -2.8927e-09, -0.000415431, -1.6877e-08, 2.77748e-08, 5.72691e-07, 4.12045e-60, 0.000167523, -0.000233774, -2.56528e-05, 1.66913e-06, 2.35446e-09, -2.07024e-06, 9.08138e-05, 1.66511e-07, 2.32788e-07, -3.9608e-60, 1.7829e-05, 0.000448109, -7.4537e-05, 1.21127e-05, 1.93001e-06, -3.02974e-05, -1.1123e-05, 2.17964e-07, -2.60691e-08, 2.4209e-07, 0.0149679, -2.84537e-05, -4.42698e-09, -2.13485e-07, -4.30687e-10, -4.70234e-06, 1.49195e-12, -3.25491e-15, 1.02978e-08, 1.07125e-08, 5.65559e-05, 9.56098e-07, 2.97479e-06, -4.70245e-06, -0.000391768, -2.10386e-73, -2.88077e-63, -9.63812e-05, 3.42041e-07, -6.80742e-07, 8.79617e-10, -2.20247e-05, 0.000861903, -5.45111e-06, -1.46584e-05, -1.03869e-13, -2.81033e-06, 2.58204e-06, -2.05874e-06, 1.84836e-05, -4.56625e-07, 1.24971e-08, 0.000293857, -6.27695e-07, -1.98355e-06, -1.95059e-06, -2.81119e-05, 1.45164e-08, 0.000359173, 0.00202248, 4.4126e-48, 0.000444151, 0.00109313, 2.19964e-07, -1.64452e-54, 0.000852504, -2.30129e-05, 5.63266e-10, 6.37612e-06, 3.80016e-13, -2.99098e-06, -2.44363e-09, 0.00621812, 5.9591e-21, -6.45253e-08, -5.02273e-05, 3.70305e-05, -2.9148e-07, 7.53569e-05, -9.94277e-10, -2.87784e-06, 2.8144e-06, -3.8476e-11, 7.91229e-05, -1.31292e-11, 7.34912e-08, 1.23947e-05, -3.65541e-06, -5.89895e-06, 1.53327e-52, -8.17978e-05, -1.20045e-05, 3.44365e-05, -1.88562e-06, 1.89086e-08, 1.12203e-35, 9.46885e-09, -1.76625e-07, 0.00129642, -2.00697e-05, 6.25619e-06, -0.000499803, -3.02114e-08, 7.21678e-13, -1.02405e-05, -2.16064e-05, 3.60057e-07, 4.1874e-21, -4.08857e-07, -1.45779e-07, -1.63994e-09, 8.6994e-05, -9.20538e-14, 8.07733e-27, -2.08682e-07, -1.68732e-05, -1.33433e-64, 0.00013764, -1.49498e-06, 2.10285e-05, -1.66462e-26, 2.01354e-13, 1.06865e-28, 5.03084e-06, 3.31552e-05, -1.13591e-07, -0.00102093, 8.38175e-05, 1.01785e-06, 4.73974e-07, 3.14031e-08, -1.57559e-06, 0.000158099, 1.69188e-05, 2.38054e-10, -1.48427e-08, 8.17087e-05, -7.76189e-12, 5.19037e-05, -0.000337264, 1.86462e-05, 1.21924e-06, 2.41436e-06, -1.89208e-07, 0.000293735, -9.95999e-05, -1.06089e-18, -3.88947e-07, -3.12732e-06, 2.22839e-44, -0.000491856, 0.000369061, -0.000682434, 3.55991e-19, -2.44403e-05, -0.000547812, -1.78858e-09, -4.03982e-22, -7.66883e-06, -5.54566e-06, 0.000943376, -0.00012466, 1.69741e-05, -2.84736e-05, 3.26217e-07, 1.47395e-08, 1.0439e-05, -1.09202e-06, -2.63665e-06, 3.13691e-26, 2.64524e-09, -0.000159547, 1.04875e-12, -1.54721e-08, -3.44089e-07, 1.54881e-06, 1.45945e-07, -3.49497e-13, -2.36016e-09, 5.20431e-09, 0.000336259, -0.00223498, -0.000125477, -3.03732e-09, -1.01612e-10, 2.53131e-49, 3.98654e-06, -6.06783e-08, -1.56024e-12, -5.29891e-06, -1.59858e-05, -4.21851e-07, 2.79193e-06, 5.81359e-07, -1.82809e-14, -9.35364e-49, 0.000846647, 1.04747e-19, -0.000189735, -0.000421372], [1.26857e-05, 0.000264433, -6.25618e-05, -0.00123942, -8.75686e-34, 0.00130698, -0.000118163, -6.77336e-06, -2.33384e-07, -8.87861e-10, -5.25188e-05, -5.25866e-12, 0.0033402, 0.000478884, 1.28829e-06, 0.00027653, -0.00263006, 0.000444966, -0.0016122, -5.69349e-10, -8.80595e-05, 0.00212064, -0.00550483, 1.49382e-69, -0.000388045, -0.000253761, -1.6193e-05, -0.00137156, 1.86435e-10, -0.00445353, 0.00033127, -0.000791342, -0.00012692, 0.000691524, 0.000741092, -0.000256882, 3.98009e-31, 0.00137226, -9.8439e-06, -2.43717e-05, -9.59866e-05, -5.34853e-05, -0.000627353, 0.000278162, 1.3374e-11, -0.000544183, 0.0042076, 0.0018787, -0.000424997, 0.00027815, 1.15014e-06, 9.71702e-05, -0.000395447, -7.73525e-16, 0.00104612, 0.00788488, -9.36243e-05, -0.000871564, 0.00183952, -0.00994806, -1.99845e-07, 0.00528032, 1.17227e-05, 0.00185123, -0.00384017, 0.00115988, 7.38934e-82, 0.000612809, -0.00399325, 2.7099e-06, 6.82879e-96, 2.78383e-05, 0.00079313, 0.000200805, -0.00728959, 3.47658e-05, -0.00391936, -3.31996e-05, -8.03508e-05, -4.27869e-05, 0.00372629, -0.000262348, -0.000708077, 0.00102178, 2.28513e-05, 1.02691e-05, 0.00273641, 0.0105614, -0.000506643, 0.000904108, 0.00165371, -0.000106685, -0.00430599, -0.000355109, -5.29671e-05, -4.4541e-14, -0.000265767, 0.000180682, 4.46969e-05, 0.00277332, 9.52295e-15, 0.0149982, -0.00560745, -0.00160414, 0.0142717, 2.08261e-10, 1.64249e-05, -5.3075e-05, -0.000387518, -0.00347395, -0.000903264, -0.00101112, 0.00165212, -0.00820732, -0.000874085, -7.08597e-06, 1.89739e-05, 0.00681828, 0.000102603, -0.000335599, -9.73906e-10, -0.00890086, -1.34185e-15, -1.38325e-15, -0.000812098, -0.000162083, -9.9726e-21, 5.7382e-05, 0.000817151, 0.00347042, 2.17679e-06, 0.000371086, -5.07953e-05, 1.75845e-05, -0.00300381, 0.00282123, 0.00231755, 0.000529208, -4.38934e-08, 5.24823e-16, 0.000110109, -0.00155635, 1.13211e-23, -0.00723713, 0.00117845, 0.0159523, -0.000134804, -8.51692e-12, -2.07223e-06, 0.00134302, -0.00148976, 5.84348e-05, -5.72829e-06, 0.00238504, -0.00198612, 3.62903e-06, -0.00989386, 9.29002e-06, -4.95941e-05, -0.0013002, 0.00187379, -0.000174975, 0.000864267, 9.5389e-06, -0.0032997, 0.00133411, -0.000164333, -0.00111781, 1.97803e-05, 0.000203259, 1.45838e-05, 0.0022418, -0.00273251, -0.000924358, -2.67501e-05, 0.00065824, -0.00146465, 0.000687346, 0.000872225, -0.00269241, -0.00488932, -8.20825e-05, 0.000305557, 0.00170448, -8.64643e-06, 0.000166511, 0.000539224, 9.67719e-07, -0.00101592, -0.000135168, 7.52871e-07, -0.00448704, 2.20675e-07, -5.05405e-05, -0.00108202, -0.00382369, 0.000192393, -7.87378e-10, -0.000713867, -0.00328871, -2.93136e-05, 9.01625e-11, -2.8569e-06, -1.43155e-05, 1.58187e-06, -0.0117187, -0.000392331, -0.0069058, 0.000640023, -0.000337928, 0.000264249, 0.0040481, 0.00108532, -0.000107651, 1.50044e-05, -0.000506112, 0.000896702, 0.000739348, -0.00209834, -0.000449656, -2.90148e-08, 0.00962393, 0.000612822, -7.0002e-08, 3.14022e-06, -6.57823e-13, -1.49651e-05, -2.16742e-07, 0.00278538, -0.000403252, -0.000388703, 0.000446704, -0.00116555, -0.000507689, 1.72478e-05, 0.000663576, 0.00041569, 7.36368e-13, -0.000807652, -0.024588, 0.000343593, 0.00091022, -0.000433178, 8.60651e-05, -2.17133e-05, 0.000225868, 0.00357084, -0.00369124, 0.00454257, 2.93298e-07, 4.37878e-40, 2.39072e-05, -0.00237132, 0.0022556, -4.44837e-08, -1.6257e-07, 0.00197362, -3.04232e-06, 7.36753e-05, -4.89819e-05, -1.59877e-20, 0.0021435, 4.62118e-05, 0.00244631, -1.65956e-05, -0.000195131, 0.0223187, -4.05053e-05, 1.11307e-05, -0.000587304, -0.00349564, -1.09586e-05, -0.000200979, 0.00205915, -2.62605e-12, -0.00114825, -0.00306055, -0.000517464, 0.00435775, -2.08145e-05, -1.47791e-05, -0.00672815, 0.000735656, -0.00135562, -0.00172161, 0.00109002, 0.00246892, -0.000484334, -0.00372003, -9.87365e-05, 0.00285558, 0.00587168, 4.54384e-07, -0.000869957, -0.00116909, 0.000406482, -0.00154646, 0.000592599, -5.38492e-09, -5.52964e-08, -1.13388e-05, 0.00542483, -0.000111345, -0.00421691, 0.000490739, 0.000248627, -0.0134565, -8.69098e-06, 0.00673025, -0.000531017, -3.15403e-05, -1.98265e-06, 0.00297447, -0.000450402, 0.000144887, 2.90396e-05, -4.24695e-05, 0.00117645, -0.000104653, 0.0009847, 0.00121088, 0.00877964, 0.000189352, 0.00177588, 4.65814e-05, 5.73003e-07, -0.00245718, -5.10715e-10, 0.00405439, -8.04984e-07, -0.000118086, -0.00136932, -3.04466e-06, -0.00140906, 0.00275442, -7.06977e-05, 0.00147138, -0.00474359, 0.0151433, 9.37521e-05, 0.000571226, -4.05458e-06, 1.88273e-05, 2.04175e-06, 0.00916641, 0.0103661, -3.34082e-05, 1.54183e-40, 0.00129334, 0.000317182, -0.000103923, -0.0180946, -0.000366324, -3.77477e-08, 0.00311086, -1.73776e-06, -0.00121784, -2.94834e-11, 0.000247173, -0.000157687, -0.000368858, 3.3141e-05, -4.65185e-07, 1.48201e-11, -3.36599e-05, 0.00580488, 0.000250639, 4.18828e-05, -1.78501e-10, 6.09576e-06, 0.00714816, -0.00239343, 0.000142333, -7.97591e-07, 0.00029059, -0.000359609, -0.0123177, 0.00687865, 2.64862e-18, -1.41931e-10, 0.0046451, -0.00201269, -0.000129263, 0.000745202, 0.000132277, -0.00266913, -0.000394586, -0.0131204, -0.000518992, 2.46103e-09, 0.000176189, -0.00146118, 0.00485318, 0.000247864, -0.0010113, 0.000261211, -0.00149009, 1.73076e-06, 4.75322e-19, -0.000893357, -0.00297671, -0.00083641, -2.1512e-05, 0.00131331, -0.00307997, -0.000543023, -5.31065e-09, -0.00294889, 2.97346e-05, -0.00373839, -0.0115358, 2.15769e-07, 0.00538507, -1.64383e-34, 1.83189e-05, -8.16274e-05, -6.90997e-07, 5.18407e-05, 0.000663793, -0.00067509, -0.000453941, -0.000346725, -6.4039e-06, -7.65441e-05, 2.65433e-05, 0.0142108, 0.000100127, -9.73884e-09, -2.94995e-05, -0.00279184, 0.000974511, -6.04506e-06, 1.03039e-05, -2.6484e-29, -0.000622675, 0.000785792, -0.00195128, -0.000204247, 5.2613e-08, 6.19307e-05, 2.58649e-30, -1.06022e-10, 0.000229357, -4.00617e-06, -5.58069e-09, 1.19035e-05, -0.00167572, -1.58868e-05, 0.00222892, -4.18216e-06, -7.64475e-06, 5.84268e-05, -0.000147574, 1.06658e-05, 0.000207961, -0.00107098, 1.71649e-06, 7.02313e-08, -1.05402e-07, 0.0107472, -0.000743934, -0.0131563, -9.16266e-63, -0.000788508, 0.00387535, -0.00665304, -0.000166358, 0.00150252, 0.0025475, -5.81852e-05, 0.00100359, -0.00128888, -0.00171638, -0.000508735, -0.000280337, -0.00354096, 4.65769e-78, 0.000174764, 0.00470166, -0.000245926, -1.90813e-08, 8.32934e-05, -0.00321835, 3.1704e-05, -0.00313049, 0.000679592, 0.0196185, -0.00609318, -7.55715e-10, -0.00141888, -3.22263e-05, 1.66193e-05, -0.00274026, 0.0023517, -0.000240412, 0.000753733, 6.10148e-05, -0.00049207, -0.00157725, -0.00206848, -2.61007e-30, -0.000888454, 0.000323646, -6.06852e-19, -0.00793351, 0.00614799, 6.44794e-06, 0.000179916, 0.000329216, 7.21964e-05, -0.0251776, 8.85822e-05, 8.85322e-05, 0.000773957, 9.03477e-62, -6.97141e-06, -0.00143692, 1.98242e-05, -0.00145536, 0.00572786, -1.49426e-08, -9.89953e-11, -0.000133595, -0.00042533, 0.00296387, 0.00032844, 5.5772e-19, -0.00263765, 0.0027704, 0.00168231, 0.000302174, 0.0106291, 0.00132642, 0.00750902, 0.000436369, -0.00174939, 2.33015e-08, -1.31787e-19, -0.000951577, -8.53677e-09, -5.11675e-11, 1.30446e-05, -0.000259143, 8.71505e-20, -3.55182e-06, 0.000160668, -0.000121298, 0.00108999, -1.09011e-05, -5.60867e-21, 0.000252292, -0.000102861, 2.8632e-05, -0.000880224, 0.00565637, 0.0010868, -1.26114e-06, -1.12263e-05, -2.95582e-05, -6.02203e-05, -1.87624e-06, 0.00787945, 2.08005e-05, -0.00591151, -2.47493e-07, -1.12931e-05, -0.000257285, 2.79944e-35, -0.00229945, -0.0042682, -0.00191713, -0.000471901, -7.57765e-05, 0.00338068, -0.00112741, -0.000509034, -0.00165363, 3.23944e-14, -0.00125299, 0.00312455, 0.00137544, 0.00522354, 0.000217113, -0.00265514, -0.00212179, 0.000366919, 1.8172e-05, 0.000742249, -0.0319746, -0.000426324, 4.75821e-06, 5.62325e-05, -1.02605e-05, -0.000755593, -1.25318e-07, -9.1623e-09, -2.73636e-05, 1.78744e-05, -0.00588348, 7.87798e-05, 0.00205811, 0.00081991, -0.00413793, 5.987e-19, -1.46861e-08, -0.00202898, 0.000463615, -0.000507108, 0.000116227, 0.000153351, -0.00471746, 0.000161978, 0.00393255, -5.2288e-06, 0.00026716, -0.000347277, 0.00103878, 0.00289378, -0.000365876, 4.8571e-05, -0.0061135, 0.000130733, -0.000201965, 0.00105484, -0.00113668, -3.3349e-05, -0.00740383, 0.00904251, -2.45681e-26, -0.000281941, -0.00228719, -4.30281e-05, -3.62381e-18, 0.00648045, 0.00095514, 1.67586e-08, -0.000233096, 2.23932e-05, 0.000317974, -0.000120529, -0.0224859, -3.38694e-09, 0.000348619, -0.00301989, 0.000240844, -0.000124819, -0.00294722, -0.000165625, -0.00255735, -0.000579785, -1.7139e-06, -0.00253674, -2.7601e-07, -0.000131637, 0.00245682, 0.00025717, 0.00166049, 6.21281e-46, -0.00045774, 0.00300311, 0.00179376, 9.85565e-05, 4.9355e-05, -1.09684e-23, 0.000138262, 6.7496e-05, -0.00868563, -0.00265085, 0.000535981, -0.00208743, 0.00011079, -4.46813e-05, -0.000756381, -0.000562178, -0.00079832, 4.87074e-22, 0.000196967, 0.000104061, -3.61212e-05, -0.000441925, 3.69093e-07, 3.11187e-13, -3.24769e-05, -0.00110552, 3.79593e-26, 0.00747886, -9.38775e-06, -0.00143366, -3.5012e-09, 1.208e-11, -7.42987e-08, 0.000819346, 0.00416294, 4.32711e-05, 0.0105155, 0.00150482, -0.000352279, -0.000445213, 7.88393e-05, -6.07045e-05, -0.000733709, 0.000148268, -6.41849e-06, -7.74964e-05, 0.00275304, -3.04029e-05, -0.000598913, -0.00260457, -0.000468511, -7.22341e-05, -0.000167185, -0.000403336, -0.00462279, -0.00174018, -1.38687e-20, -0.000211103, -0.000413734, -2.98202e-10, -0.00748294, -0.0103732, -0.00169141, -3.813e-16, 0.00279683, -0.00216245, -6.47322e-06, -1.80806e-11, 0.00179851, -0.000895546, -0.0198864, 0.0031453, 0.00112858, 0.000620771, -0.000178126, -3.3397e-06, -0.000882446, 1.3416e-05, 0.00096989, -7.29809e-16, -5.1229e-05, 0.00513776, -1.57759e-07, 0.000147743, -0.000177284, -0.00113265, 9.1881e-06, 5.47709e-06, 9.6278e-06, 9.13934e-05, 0.00283192, 0.0161022, -0.00369265, 8.32823e-06, 4.27217e-06, 1.38393e-06, -0.000967172, 0.000125593, 6.30349e-06, -0.00100948, -0.000508882, 0.000151656, -7.11602e-05, 0.000239424, 6.48043e-06, 2.28474e-09, -0.00252262, 1.21204e-06, -0.0033203, 0.00723609], [0.00434629, -0.0300347, 0.010125, -0.00615447, 0.00046232, 0.00755787, 0.00620848, 0.00492478, -0.0007874, 0.00768304, 0.00234908, -0.000118569, 0.00836778, -0.0115346, 0.0145203, 0.0149763, -0.0212542, 0.0118603, -0.0185503, 0.00252727, -0.0123128, 0.00899259, -0.0264188, -9.55132e-06, -0.0161851, 0.00800053, 0.00341827, -0.0108044, 0.00180523, -0.0186304, -0.0172821, 0.0169035, -0.00500609, -0.0100435, -0.00312244, -0.0172943, -0.000450141, 0.0125832, -0.00628774, -0.0064101, -0.00802911, -0.00217211, -0.00525751, 0.0088684, -0.00375674, 0.00851928, -0.0116211, -0.0103692, 0.0127292, 0.00608162, -0.00246067, -0.00884696, -0.0261354, -0.000286921, 0.00215927, 0.0100248, -0.0107196, -0.00510828, 0.0153739, -0.0177603, 0.00394826, -0.0144479, 0.0101207, -0.00461475, -0.00780515, 0.00894769, -0.00203503, 0.0106534, 0.0134114, 0.00301691, -0.000314745, 0.00187432, -0.0180363, 0.00923892, 0.0243774, 0.00648338, 0.00861484, -0.0081933, -0.0126948, 0.0082733, -0.0134247, -0.00364591, -0.0181, -0.0183321, -0.00411944, -0.00108595, 0.0102598, -0.0148488, -0.00105711, -0.00744809, -0.0091924, 0.0138833, 0.0216238, -0.0168142, -0.00735853, -0.000490454, -0.00690973, -0.00824814, -0.00666373, 0.00640503, -0.00268618, 0.0326241, 0.00588563, 0.00848362, 0.0301924, 0.00397611, 0.00485913, 0.0060218, -0.026536, 0.0132944, 0.00883121, -0.00736044, -0.00849034, 0.012986, -0.00967799, 0.00554358, 0.000890447, 0.0228724, -0.0106539, 0.00587583, 0.00816491, -0.010132, 0.00167185, 0.000802716, -0.0177036, 0.00602494, 0.00159109, 0.0060136, -0.0103677, 0.0138204, 0.00484387, 0.0136302, 0.00864473, -0.00844568, 0.0194173, -0.00698348, -0.0166131, -0.0209158, 0.00325308, -0.000138523, -0.0120696, 0.0272085, -0.00186498, -0.0234509, -0.0163875, 0.0227595, -0.00584835, -0.00331263, -3.2209e-05, -0.0122473, -0.00631173, 0.00521584, -0.00471812, 0.0198954, -0.0102147, 0.000265012, 0.0345946, 0.00551228, 0.00992076, -0.00197566, -0.0166076, -0.00724011, -0.0140968, 0.00651922, -0.0117392, 0.0139054, 0.0108752, -0.0089722, 0.010119, 0.00848183, 0.00975478, 0.0140294, 0.0122222, -0.0147199, -0.0103391, 0.00954693, 0.010723, 0.0159985, 0.0168599, 0.0203482, 0.0214016, 0.00883394, 0.0115171, -0.0161892, 0.00240304, 0.00766986, 0.0194231, 0.0110907, -0.00818012, 0.00760523, 0.00730318, -0.0230267, -0.00493109, -0.000737059, -0.0114312, -0.00979025, -0.00999039, -0.00241254, 0.0040135, 0.0127405, -0.00992351, 0.000831776, -0.00330035, -0.0166111, -0.00512887, 0.0131044, -0.00640214, -0.000803905, -0.0141035, -0.00559999, 0.00506598, -0.00355443, 0.0102943, -0.00595338, 0.00515236, 0.021919, -0.00594166, -0.0125097, 0.0185096, -0.00868444, -0.0013506, 0.0173087, -0.0135831, -0.00209143, -0.00145696, 0.000548532, -0.0126401, 0.00363471, -0.0112511, -0.00892458, -0.011145, -0.0190559, 0.0211844, -0.00483246, 0.00300544, 0.0190342, -0.0133403, -0.000723633, 0.0172672, 0.0479786, 0.0148723, -0.0145847, -0.0115405, 0.00857941, -0.00752664, 0.0159068, 0.00251869, -0.0171989, 0.0129882, -4.45656e-05, 0.00046655, 0.0111771, -0.0107394, 0.0140594, -3.02264e-05, -0.00597192, 0.00592436, -0.00429025, -0.0112486, -0.01292, 0.00267517, 0.0104354, 0.0093246, 0.00647691, -0.0115969, -0.00113861, 0.00255816, 0.010964, 0.00638181, 0.00429254, 0.0180156, 0.00254751, 0.00807089, -0.0072954, 0.00151689, 0.0132458, 0.00433761, -0.0111103, 0.0146617, 0.0021903, 0.00960219, -0.0221973, 0.0110535, 0.013619, 0.0072947, -0.00584962, 0.00789474, -0.0103544, 0.00212252, -0.0130361, -0.0118554, -0.000518453, -0.000651233, -0.00934876, -0.0118727, -0.013525, -0.0104267, -0.0171, 0.00140537, -0.00230884, 0.00498569, 0.00272824, -0.00616345, 0.0221259, 0.0120234, -0.0141852, -0.0159908, -0.00997686, 0.0231685, -0.00612409, 0.0154497, 0.000159139, 0.0125156, -0.0114166, -0.0166409, 0.00931001, -0.00399641, -0.0170207, -0.00296852, -0.0106692, 0.0158469, 0.00346717, 0.0122724, 0.0075432, -0.0108741, 0.00815977, -0.0102224, -0.00317316, -0.0167633, 0.000776283, 0.00298178, -0.00998937, 0.00272373, -0.0148842, 0.00970333, -0.00571992, 0.0160659, 0.0174173, -0.0341178, -0.00880825, 0.0107835, -0.0021236, -0.00784309, 0.00106747, -0.0326677, 0.0295129, 0.00992334, 0.00356082, 0.0257025, -0.0103154, -0.0128101, 0.0454009, -0.0071382, 0.000152311, 0.0138077, -0.00109077, -0.0122152, 0.000184719, 0.00383189, 0.00207319, 0.0060416, -0.00516967, 0.000529352, 0.0027337, -0.00548005, -0.0212796, 0.0147328, 0.00576726, -0.000454473, 0.00914395, -0.0206137, -0.018121, 0.0103565, -0.00390459, -0.010519, 0.0105578, -0.00360935, 0.0369846, 0.00192046, -0.00346078, -0.00447686, -0.010071, -0.00554728, -0.0123082, 0.00867509, -0.0203986, -0.017517, 0.0372339, -0.0100821, 0.00345388, -0.0110795, 0.00182726, 0.0193342, -0.0119177, -0.00933606, 0.00607658, -0.0215673, 0.000939258, 0.000655698, 0.0168667, -0.0159515, -0.0118649, 0.00424574, -0.0115246, -0.0122243, -0.0161923, -0.00377415, -0.0067541, 0.0023121, 0.0155405, -0.00458822, 0.00244782, -0.025158, -6.20293e-05, -0.0104667, 0.0048325, 0.0063015, -0.0046317, -0.00816143, -0.0064851, 0.0106058, -0.021395, -0.00299124, -0.00408169, -0.00922445, 0.0414746, 0.00879931, -0.00457286, -0.00544506, 0.007443, 0.0134759, -0.00501936, -0.0020451, -0.00523201, -0.0107471, 0.00858597, -0.0141219, -0.0135375, 0.00308915, -0.00739809, 0.0071175, -0.000250284, -0.00906321, 0.0052679, 0.000926747, 0.00895733, 0.0111999, -0.00620426, 0.00944351, -0.000868712, -0.0101218, -0.010659, -0.00583408, 0.00634748, -0.00565676, 0.00962834, -0.00951022, 0.00685722, -0.00454631, 0.0549945, -0.00554599, -0.0349762, 0.00224083, 0.00568525, 0.0153901, 0.022498, -0.00555743, 0.0182858, -0.00639255, 0.000597881, 0.0161736, 0.00918025, -0.011294, -0.00772252, -0.0129258, -0.0104311, -0.0025234, -0.00619948, -0.0201206, 0.0163805, -0.000241382, 0.00725469, 0.0146846, -0.00504433, -0.0247371, -0.0215856, 0.00975683, 0.00194029, -0.00759378, 0.0250067, 0.00235774, -0.000909391, -0.0219769, 0.0088735, -0.00653396, -0.020718, 0.00555692, 0.0106251, -0.00622637, -0.0178212, 0.00168391, 0.00756203, 0.0208242, 1.63069e-05, 0.0101819, -0.00569256, 0.0118727, -0.01198, -0.00701986, 0.0069792, -0.0167121, 0.0106162, 0.010193, 0.00422227, 0.00507117, -0.00947186, 0.0117013, -0.00923877, -0.00975482, 0.0129682, 0.00217625, -0.00106863, 0.0168195, 0.00340346, -0.00947565, 0.0133073, -0.00164082, 0.0225119, -0.0163139, 0.0169373, -0.00702935, 0.00224761, -0.0249299, 0.00965589, 0.0340744, -0.0190296, 0.000801356, -0.00111122, -0.00106718, -0.00211887, 0.00564882, 0.0108627, -0.00811625, 0.000150177, -0.0105261, 0.0119208, -0.00065954, 0.0101983, -0.0093194, 0.00152934, -0.0139447, 0.0103215, 0.0101778, -0.00832954, 0.00168428, -0.0103247, -0.00705557, -0.000489664, -0.00666679, 0.0041052, -0.00287994, 0.0267302, -0.00666421, -0.0186039, 0.00484912, -0.00675787, -0.00854815, -0.000166345, 0.0200862, -0.00664387, 0.00221331, -0.00837307, -0.00699237, 0.0162737, -0.00818529, -0.00881152, 0.0137395, 0.00612909, -0.0183016, 0.00475081, 0.0107286, 0.00542477, 0.0160389, -0.00797447, -0.0124348, -0.00316533, -0.00690489, 0.00358623, 0.0697999, -0.0136798, 0.00734953, 0.0122344, 0.000460944, -0.0134715, -0.000531357, 0.00138874, -0.0081538, -0.00252746, -0.0148894, 0.00975108, -0.014958, 0.00817355, 0.0240851, 1.11082e-05, -0.0050425, 0.00661762, -0.0125133, -0.0134566, 0.00698017, -0.0142523, 0.0259568, 0.0061567, 0.00345764, -0.000230714, 0.0123517, -0.010258, -0.00945253, -0.00546262, -0.00852042, -0.00609047, -0.00470511, -0.0128774, 0.0136081, 0.0178366, 0.0228209, -0.00977147, -0.000129454, 0.00444698, -0.000228094, -0.00193421, 0.0303739, -0.00750889, 0.000702976, -0.0326108, -0.0138039, -6.93675e-05, 0.0151241, 0.00802844, -0.0077551, -0.00792018, 0.00256219, -0.00240265, 0.0122408, -0.01789, -0.014658, -0.00300051, -0.0161803, 0.0128154, -0.0207191, -0.000771377, 0.00802915, -0.0135906, -0.00176034, 0.0153893, -0.0156662, 0.0109041, 0.00429725, 0.00347556, -0.0122372, 0.00796662, 0.0128719, -0.00756851, -0.00792192, 6.31834e-05, -0.0131585, 0.0085039, 0.0056718, -0.0161075, 0.00887271, 0.0202167, -0.00731045, 0.000115693, 0.0142383, 0.0100646, 0.0180229, 0.00184389, -0.00811906, -0.00777688, 0.00479423, 0.00918565, 0.000315903, 0.00191487, -0.0132678, 0.0174216, 0.0079009, -0.0225507, -0.00728465, 0.0179782, 0.00271468, 0.000219733, 0.00894471, -0.0111397, -0.00873995, 0.0132481, 0.00122258, -0.00712212, 0.00888076, 0.0162125, -0.0119964, -0.00582809, -0.0253046, 0.012748, -0.00245276, 0.00393254, -0.0167359, 0.00650659, 0.00710546, 0.0160289, 0.0086623, 0.00852336, -0.00563759, 0.0107706, -0.00778095, 0.0105925, -1.0797e-05, -0.00984575, -0.0114711, 0.00165272, 0.00183505, 0.0121363, -0.0194348, 8.43545e-05, 0.0193175, -0.0112677, -0.00909041, 0.00102575, -0.0124813, -0.0105723, -0.0347285, 0.0274857, 0.00634859, -0.0171933, 0.0128678, -0.0044557, -0.0117466, 0.0145785, -0.00715027, 6.42738e-05, 0.0205061, 0.0326205, -0.00178148, 0.00792188, 0.00428425, -0.0171889, -0.00766168, -0.00731993, 0.00258213, -0.0104238, 0.0121473, -0.00940125, -0.0215887, -0.00327594, -0.0057227, 0.00222384, 0.0101253, 0.0112123, -0.00306788, -0.0104474, 0.018524, -0.0146286, -0.00921499, -0.00830939, -0.00323244, -0.00233465, -0.0145321, 0.00326695, 0.00909093, -0.0306653], [-0.123519, 0.100591, 0.130061, -0.16755, 0.0788982, -0.0257769, 0.130291, -0.0840918, -0.0427746, 0.145947, -0.0905834, -0.0261403, 0.040629, -0.157015, -0.044823, -0.0977703, 0.0189583, -0.0568207, 0.0139862, -0.0198152, -0.00551813, 0.0645645, -0.0141516, 0.0598377, 0.0335981, -0.101822, -0.0235716, -0.0971501, -0.140469, 0.187601, -0.0611597, 0.010977, 0.0369371, 0.00423644, -0.0948776, -0.0114157, -0.0769679, 0.109013, -0.182917, -0.00942409, -0.0290089, -0.0344877, -0.177738, 0.0467844, 0.0501075, -0.076132, -0.0147099, -0.0886449, 0.0990328, 0.104205, -0.0610307, 0.0807481, -0.145208, 0.0443054, -0.0674919, -0.1862, -0.00393462, 0.217586, 0.0406972, 0.00257737, -0.0998997, -0.0231039, -0.0271499, 0.0459953, -0.0699767, 0.0329731, 0.0150089, -0.0560232, 0.0448776, 0.00875904, -0.115959, 0.086576, 0.0553257, 0.0898372, 0.0436542, -0.143481, -0.0474712, -0.0299036, 0.125241, -0.0530753, 0.016007, -0.0234383, -0.0587173, -0.0643291, 0.0483186, 0.0369097, -0.0146603, 0.051873, 0.0223049, 0.0827472, -0.109934, -0.104844, 0.0381152, -0.0375373, 0.021792, -0.130674, 0.0513704, 0.0469157, -0.0031362, -0.025243, 0.195773, -0.0188573, -0.0749054, 0.00453043, -0.0314636, -0.0219544, -0.144367, -0.194917, 0.142846, 0.0569325, 0.0257724, -0.0321201, -0.0446619, 0.0349252, -0.0443494, -0.0761403, -0.0868584, -0.194392, 0.00789697, -0.0742698, -0.0400126, 0.000618654, -0.109996, 0.102766, 0.0547892, 0.0970013, -0.0666352, 0.124927, -0.105989, -0.176622, -0.00369722, -0.00576576, 0.161595, 0.0497133, -0.0567226, 0.0314073, -0.0195953, -0.0734346, -0.123438, 0.0496484, 0.0999021, -0.0372285, -0.0344118, 0.110475, -0.120843, -0.0278774, -0.121854, 0.0972389, 0.178487, 0.0654203, 0.0041918, 0.221101, 0.0335488, 0.0308664, -0.117307, 0.0303469, 0.136379, 0.0651382, -0.0102357, 0.01547, -0.115341, 0.0189488, 0.0804948, -0.113184, -0.0336408, -0.0867694, -0.202564, 0.151391, 0.0909968, 0.0210311, -0.120025, 0.0698327, -0.127448, -0.0321542, -0.0234948, -0.0172332, -0.0028543, 0.0977109, 0.0121708, -0.0321826, -0.022487, 0.0175946, -0.0628453, 0.025928, 0.0639491, -0.0677144, 0.0140318, -0.00311475, 0.0594036, -0.0336956, -0.111446, -0.00045368, -0.0569793, -0.0836806, 0.0197183, -0.15425, -0.00441466, 0.0335025, 0.0620784, 0.0108139, -0.0283611, 0.0930028, -0.0318766, 0.0735548, 0.10778, -0.138499, -0.0376105, 0.00325092, -0.119855, 0.127437, -0.0166265, -0.123424, -0.118382, 0.0825785, -0.128721, -0.00408289, 0.177725, -0.0752399, -0.0659522, 0.0392458, -0.0881793, -0.0673557, -0.0609585, 0.0651218, -0.108475, 0.358815, -0.144737, -0.00671935, -0.0254033, 0.0971175, -0.0411756, 0.029327, -0.102928, -0.148253, -0.0483806, -0.0314719, 0.00884573, -0.0831424, -0.03307, -0.0373214, 0.0879663, 0.0299366, 0.0492034, -0.0233138, -0.0781754, -0.0887805, 0.0156128, -0.071652, 0.0306198, 0.0317901, 0.0371261, 0.0506153, 0.0420163, -0.0569099, -0.0746792, -0.0231997, -0.0109727, -0.0423353, -0.0137597, -0.155143, 0.0756686, 0.010491, -0.0960115, 0.103368, -0.176235, -0.0383714, -0.0939139, 0.116626, -0.0031538, 0.0416462, -0.0614094, -0.167739, 0.0177396, 0.00205827, -0.0798809, -0.0920894, 0.0224343, 0.0415598, 0.0483282, 0.144332, -0.0438605, 0.0621987, -0.0451923, -0.0285322, 0.00681436, 0.0133558, 0.0205746, -0.123095, 0.00476767, 0.0129769, 0.0383994, -0.00910416, 0.0660258, -0.134698, -0.0126471, -0.0604699, -0.00925635, 0.111194, 0.0257512, 0.0591493, 0.0733046, -0.0223076, -0.0714829, 0.0138002, -0.144667, -0.0117619, -0.0644531, 0.0247353, 0.0391913, 0.037871, 0.0200164, -0.215863, 0.0243908, 0.15258, 0.0583327, -0.0276732, 0.110657, 0.0385913, -0.106739, 0.0819636, 0.130396, -0.156517, -0.0756954, 0.0372827, 0.0560512, 0.0292747, -0.0488078, 0.0443307, 0.0824028, -0.25, -0.0125234, -0.00440172, -0.0477193, 0.000856576, 0.000164216, 0.0656474, 0.0301907, 0.145999, 0.068359, -0.0474699, -0.199946, -0.0874902, -0.0933781, 0.00170866, -0.00351328, -0.0976595, 0.0850925, 0.0691846, -0.0742535, 0.0064688, 0.101054, -0.0322328, -0.111812, -0.0158105, 0.021168, -0.11769, -0.0403309, -0.0171676, -0.118741, 0.114597, -0.139405, -0.0226088, -0.12035, 0.103345, 0.135598, -0.088299, -0.0236459, 0.227151, 0.179633, 0.00360389, 0.013269, -0.089752, -0.139848, -0.131052, -0.0492551, 0.0063359, 0.0474287, 0.054398, -0.0617876, -0.0571138, -0.0118115, 0.0817459, -0.072288, 0.0206599, 0.161098, 0.0124065, -0.0775769, -0.0800719, 0.126887, -0.0599368, 0.14373, -0.00742359, -0.0191498, -0.108144, 0.0637459, 0.115717, 0.0549851, -0.0632471, -0.0899324, 0.0690413, -0.0569875, 0.173956, -0.0349885, -0.0170416, 0.0778097, -0.0364269, -0.00395663, 0.0022437, 0.17538, -0.0913289, 0.0419679, 0.241225, -0.0529395, -0.00269271, 0.0301789, -0.176579, -0.0201264, -0.0325398, 0.126965, 0.0602614, -0.0687353, -0.144209, 0.149095, 0.0421494, 0.055377, -0.0463763, -0.103415, 0.0334358, 0.126546, 0.104968, 0.125765, -0.0414412, -0.229927, 0.117884, 0.0677214, 0.0774317, 0.138382, -0.148746, -0.0169885, -0.111496, 0.00851851, 0.0151096, 0.0931705, -0.0729051, -0.0403488, -0.121411, -0.0266567, -0.0743982, -0.20339, -0.141456, 0.0173648, -0.00833194, -0.139384, 0.110633, 0.0558006, -0.0631447, -0.0188683, 0.127579, -0.0371978, 0.00317517, -0.0734897, 0.0921619, 0.0594339, 0.0267015, -0.0715223, 0.108093, 0.0368439, -0.0374101, 0.11311, -0.0392429, -0.160376, -0.0861521, 0.0629964, -0.0081335, -0.118796, 0.0363582, -0.168523, 0.0744804, 0.11768, -0.0572595, -0.0910822, 0.0698235, 0.0801359, -0.0716511, -0.0789889, -0.00590201, -0.050764, -0.00860936, -0.131754, 0.0306159, 0.0704043, 0.0645601, -0.00135579, 0.0954164, -0.00888391, 0.023312, -0.0676242, -0.00745532, 0.0596174, 0.0283656, 0.105873, 0.0772719, -0.109194, -0.16074, 0.0224521, -0.0599139, 0.0538968, -0.139082, 0.0200354, 0.103784, -0.0151221, 0.0335534, 0.0444972, -0.0481317, -0.168628, 0.184931, -0.0621764, 0.0511922, -0.0180897, -0.0637447, -0.0568392, -0.0115853, -0.0693842, -0.00282408, 0.105844, 0.0475882, -0.00322993, 0.0476313, 0.110947, 0.0616806, -0.020328, 0.096784, -0.00183799, 0.0226511, 0.0526274, -0.00988077, 0.00182941, 0.193261, -0.00168773, 0.125646, 0.106076, -0.129707, 0.139292, -0.00624011, 0.0871136, 0.110762, -0.00791751, 0.0483536, 0.0511947, -0.0638832, -0.0414084, -0.0435231, -0.00227079, 0.0746754, -0.0655922, -0.0432336, -0.032323, 0.122066, 0.0817504, -0.163147, -0.0634649, -0.0943612, -0.114412, 0.0667727, -0.193768, 0.00201873, 0.135847, 0.0772557, 0.053039, -0.00519527, -0.0271498, 0.0878505, 0.030534, -0.0559378, -0.104957, -0.0805582, -0.00846893, 0.0227213, -0.050408, 0.0628601, 0.0537999, 0.0195808, -0.076252, 0.066306, 0.0892442, 0.126991, 0.13287, 0.0240845, 0.0220208, 0.182802, 0.0433003, 0.0154157, 0.0219082, -0.105704, -0.0389243, 0.160068, 0.0249976, -0.131286, -0.109276, 0.0804896, 0.00359015, 0.170075, -0.0687071, 0.20909, -0.305617, 0.0375452, -0.0067194, -0.0786907, -0.0323497, -0.188537, -0.00185217, -0.019473, -0.149853, -0.0105384, 0.201778, 0.0853966, -0.00850544, 0.0553405, -0.110118, 0.0978564, -0.032663, -0.0254712, -0.100109, 0.0834632, -0.00997906, -0.0140643, 0.00146256, 0.0319535, 0.145909, -0.0430283, 0.0441665, 0.0429799, -0.050994, -0.014653, 0.0509557, -0.0713195, -0.0915976, -0.00599078, 0.0291439, 0.0167893, 0.0213379, -0.0576384, -0.0657933, -0.0421878, 0.0913998, -0.0719723, -0.0207755, 0.0434395, -0.0388917, -0.133257, 0.00617214, -0.0559032, 0.0536886, -0.170435, 0.0401789, -0.00856075, 0.00688456, -0.00246608, 0.0885149, -0.156683, -0.072687, 0.126043, -0.0505082, 0.170361, -0.117824, -0.114113, 0.0696827, 0.0310134, -0.00190199, 0.027895, -0.0760028, -0.0272103, -0.012464, -0.00430282, 0.102479, -0.0550035, 0.0354912, -0.0475164, 0.00947016, -0.118795, -0.173943, 0.0925659, -0.00736631, -0.00794295, -0.18048, -0.0232321, -0.08197, -0.0632155, -0.040748, -0.0129821, 0.034285, -0.0353595, 0.0107758, -0.0266207, -0.0747521, -0.109719, 0.0296866, 0.031763, 0.0761781, -0.0359231, -0.080683, 0.051355, 0.004826, 0.102463, -0.0501037, -0.182823, -0.0156932, -0.0488802, -0.1653, -0.11153, 0.0825283, 0.0624139, -0.00788236, 0.0685887, 0.0435577, -0.0747089, 0.237795, -0.039784, 0.019249, 0.0765794, 0.0195485, 0.365408, -0.0482296, -0.194462, 0.00274848, 0.179777, -0.0105953, 0.0164249, -0.00287785, 0.043021, 0.0956619, 0.0338948, 0.0659897, -0.0922161, -0.0208203, 0.0156456, 0.0584129, 0.0662893, -0.117231, 0.036638, -0.0880417, 0.021083, 0.00400035, -0.121295, 0.00710154, -0.0480841, 0.0505126, -0.095636, 0.139068, 0.0693647, -0.0186372, -0.0671695, 0.0386044, -0.0200149, -0.20567, -0.050578, 0.00914127, -0.0955317, 0.0410902, -0.0424314, -0.0734017, 0.00197829, 0.0972589, 0.0545557, 0.0594816, 0.130886, 0.085597, 0.11807], [0.0682871, 0.138972, 0.100786, -0.158818, 0.258055, 0.0276379, 0.00931849, -0.304624, 0.157572, 0.0438842, 0.0139714, -0.0869117, -0.115718, -0.149428, -0.0423322, -0.00902556, -0.00206924, 6.95835e-05, -0.0470572, -0.0342987, -0.098356, 0.0954294, 0.0667985, -0.0212738, 0.0835967, 0.0334635, -0.110692, -0.0119752, 0.0261048, 0.131757, -0.00308986, 0.000635475, -0.075716, -0.0552821, 0.0142213, 0.0182537, -0.133156, 0.0904669, -0.177872, 0.107321, -0.00506041, 0.0313338, -0.101586, -0.00085904, -0.166842, -0.0493525, 0.01061, -0.0421573, 0.0306861, 0.176871, -0.0627912, 0.0046686, -0.0561328, 0.064798, -0.0288118, -0.173396, 0.00262708, 0.264265, -0.029647, -0.0478661, -0.00969785, 0.0556496, -0.0732059, -0.0562581, -0.0621571, -0.0208177, 0.103926, -0.0610588, 0.0318092, -0.0383339, -0.216816, -0.0372282, 0.0861247, 0.139178, 0.0182073, -0.0604017, 0.0166603, 0.172273, 0.046435, 0.0534616, -0.0273164, 0.0575921, -0.142587, -0.0286795, 0.110441, 0.146388, -0.0483986, 0.157326, -0.055381, 0.112284, -0.134646, -0.0735273, -0.0233184, 0.00641592, -0.119148, 0.120787, -0.00577965, 0.0510395, -0.0321237, 0.00899965, 0.30962, -0.0468646, 0.0326029, -0.00128595, -0.00972746, 0.178376, -0.242862, -0.0883914, 0.144708, 0.0825368, -0.0633026, -0.0826634, -0.0646115, -0.0811597, -0.107628, -0.203917, -0.102309, -0.0488593, -0.0208626, 0.0297984, -0.2039, 0.0509813, -0.194167, -0.105301, 0.052046, 0.0788529, -0.0549677, 0.225895, 0.0050048, -0.161925, 0.0536369, -0.0522181, 0.264785, 0.140808, -0.0197854, -0.017315, -0.0155724, -0.0423758, 0.0298632, 0.00188492, 0.157965, -0.0427725, 0.0843486, -0.0129936, -0.064586, -0.0379976, -0.0824386, 0.194708, 0.0346248, 0.0834163, 0.0610542, 0.06198, 0.0571677, 0.0530388, -0.134318, -0.0929479, 0.0813663, 0.152736, 0.0705094, 0.0748238, -0.152994, -0.0575977, 0.0292779, -0.0987885, 0.0939181, 0.0271196, -0.230283, 0.0738127, 0.0720432, 0.124474, -0.0247167, 0.183404, -0.0297794, -0.115307, -0.0121524, -0.0117836, 0.0458584, 0.138329, 0.123944, -0.0742294, -0.0683339, -0.056943, 0.0315304, 0.00918344, -0.0158081, -0.0877766, -0.0103177, 0.110695, -0.0427877, 0.134521, -0.207225, 0.0687029, -0.0325362, 0.00153886, 0.115795, -0.211345, -0.0427355, -0.0378296, 0.13858, -0.0129643, -0.121116, 0.191117, -0.0511584, -0.0181518, 0.019446, -0.00299904, -0.0279383, 0.0647346, 0.122979, 0.0618469, 0.00248991, -0.0430771, -0.128971, 0.0308458, -0.238153, 0.130555, 0.0636478, 0.00580976, -0.0998129, 0.113905, -0.042112, -0.00530671, -0.106093, 0.015855, 0.0426317, 0.295703, 0.0307248, 0.117044, -0.0161306, 0.075462, -0.00384427, 0.0061719, -0.0359508, -0.106264, -0.157467, -0.0069884, -0.0705278, -0.0231652, 0.161905, -0.0660842, 0.121263, 0.0953616, 0.0464438, -0.109717, -0.0508491, -0.0570134, 0.145856, 0.0221494, 0.143518, -0.0046922, -0.0642744, 0.00246744, -0.054964, -0.0129021, 0.00763407, -0.016704, 0.0144063, -0.0446637, 0.196206, -0.295752, 0.0671437, 0.055479, -0.12442, 0.0355238, -0.0778211, -0.121664, -0.00764743, 0.237928, -0.0662888, -0.0398509, 0.019658, -0.175806, 0.0366215, 0.0926252, 0.0029049, 0.0379161, 0.0635133, 0.073127, 0.122147, -0.0653675, -0.0755881, 0.0364349, -0.139844, 0.0724476, 0.0963923, 0.00923401, -0.0743152, -0.193443, -0.0026144, -0.115761, 0.0313375, -0.0279154, -0.00258132, -0.11756, 0.0187807, -0.00138776, -0.0531694, 0.0991589, 0.0160943, 0.17418, 0.123505, 0.00654847, -0.176857, -0.0502245, -0.0970963, -0.073638, 0.0121385, -0.00434181, -0.0188421, -0.0403094, 0.107669, 0.102118, 0.0905763, 0.224885, -0.0886551, 0.0495198, 0.228018, -0.0318775, -0.0771381, 0.162798, 0.13082, -0.139067, -0.180954, -0.112787, -0.0661851, -0.0175971, -0.0490451, 0.0223419, 0.0342015, -0.0455166, 0.00254091, -0.0298862, -0.0197772, 0.0251878, 0.0302669, 0.142934, 0.0192193, 0.205828, 0.0842337, 0.0243466, -0.204217, -0.104472, -0.102825, 0.0345073, 0.0178755, -0.106085, 0.0542948, 0.0855387, -0.101729, 0.0501857, 0.0924198, 0.10005, -0.132579, 0.000388502, -0.105189, -0.164345, 0.12642, 0.0332237, 0.0497959, 0.00885758, -0.130553, 0.0299338, 0.0587139, -0.080588, 0.0687188, 0.0560158, 0.0857062, 0.226238, 0.102632, -0.00921843, 0.0189495, 0.0274018, -0.00131969, 0.00402942, -0.116137, 0.0910568, -0.0145783, -0.0180275, 0.0908305, 0.0881617, -0.103732, 0.0555757, -0.11986, 0.0743417, 0.212727, -0.0616232, -0.063829, -0.181722, -0.0808698, 0.308037, 0.0825827, -0.135673, 0.0368857, -0.0378315, -0.0268611, -0.000445677, -0.0995287, -0.176662, 0.0785689, 0.147938, 0.00755974, 0.144583, -0.0885396, 0.0931494, 0.0247809, -0.0201981, 0.0469405, 0.0403292, 0.126821, -0.154278, 0.0631977, 0.0166405, -0.00413737, -0.0263113, 0.124255, -0.0659335, 0.00211297, 0.0174054, 0.115783, 0.0800255, -0.0678609, -0.042019, 0.241873, -0.0559288, 0.0705533, -0.0646391, -0.11394, -0.0376207, 0.103437, -0.00122563, 0.089523, 0.0106892, -0.0460866, 0.0317203, 0.00485763, 0.140296, 0.180396, 0.0171981, 0.0499015, -0.138279, -0.144782, 0.0899344, 0.0411982, 0.0285816, -0.0182098, -0.208511, -0.0118915, -0.0666751, -0.169562, -0.293451, 0.0518383, 0.0154436, -0.0143522, 0.291532, -0.00522801, -0.0323815, -0.0844464, 0.0734134, -0.0526017, -0.103013, 0.0208037, 0.110114, -0.0548635, 0.0708237, 0.024327, 0.0838539, -0.0838051, -0.0314138, 0.18053, -0.0506448, -0.245429, -0.0830032, 0.0163355, -0.0591606, -0.0404462, 0.0428899, 0.0471905, -0.018958, 0.0544584, 0.0328298, 0.0228272, 0.000922086, 0.12653, -0.143308, 0.0616229, -0.0103525, -0.043996, -0.118025, -0.0124306, 0.0888434, 0.154714, -0.0983346, 0.192148, 0.0065027, 0.124822, -0.00357267, 0.0303868, 0.088433, 0.0442931, 0.0334398, 0.316138, 0.0341262, 0.0132265, -0.061574, 0.0384419, 0.0616774, 0.0511563, -0.0612581, 0.0460153, 0.172447, 0.0211767, -0.00596135, 0.309455, -0.0426893, -0.121327, 0.204458, 0.00427785, -0.0334604, 0.0805053, -0.0477418, -0.263902, -0.0623145, -0.0362776, 0.0931133, -0.0513588, -0.026447, 0.210835, 0.0130054, -0.0524261, -0.0346203, -0.0796222, -0.0262536, -0.0857028, 0.0790441, 0.0022384, -0.0434473, 0.127377, 0.236684, -0.062767, 0.118291, -0.00133437, -0.166285, 0.191985, 0.0154445, 0.0137169, 0.0631024, 0.128658, 0.0382271, -0.0243075, -0.0972789, -0.0693696, 0.0709677, -0.0542018, 0.0360607, -0.0885685, -0.168543, -0.103115, 0.0150424, 0.184806, -0.0994988, -0.0215827, 0.0138076, -0.121861, -0.00587686, -0.0917464, 0.138774, 0.0582335, 0.336942, 0.112019, 0.0215084, 0.0128948, 0.0478087, -0.00940367, -0.204913, -0.117678, -0.0277803, -0.0335037, 0.224982, -0.0786723, 0.0397138, -0.0330544, 0.157103, -0.171862, 0.0558846, 0.0807618, 0.0825876, 0.17127, -0.103598, -0.00976895, 0.0243029, -0.00138288, -0.0230571, -0.0123204, -0.073837, -0.208519, 0.170291, -0.0666805, 0.106663, -0.149117, 0.139013, 0.0913266, 0.185075, -0.0672535, 0.332234, -0.170757, -0.0323469, 0.059664, 0.0849363, -0.00753443, -0.116473, 0.045569, 0.01078, -0.00290522, 0.112383, 0.0626093, -0.0310064, -0.0860389, 0.073013, -0.0852145, -0.114002, -0.110779, -0.0727328, -0.178405, -0.055022, -0.0173968, -0.115288, -0.0268125, -0.0301966, -0.0218212, -0.0129228, 0.0946583, 0.146993, 0.134213, -0.00864802, 0.0608571, -0.181726, -0.0129595, 0.0217612, -0.0289987, -0.0124654, 0.0967792, -0.0378508, -0.0822318, 0.0229799, 0.137873, -0.0177183, -0.0365355, 0.163031, -0.113265, -0.0997765, -0.0367991, -0.115605, 0.184276, 0.0263163, 0.115983, 0.0659516, 0.11948, -0.0444783, 0.0672769, -0.0750401, 0.160868, -0.0122315, -0.0177535, 0.177385, -0.217205, -0.117023, -0.0076693, 0.000385841, 0.0251532, -0.0206072, -0.0691001, -0.0181819, 0.0368653, 0.0339017, 0.0506017, 0.0606614, 0.189583, 0.111674, -0.0585415, -0.00678851, -0.33265, 0.201432, 0.1119, -0.0710295, -0.206898, 0.0317556, 0.0803293, -0.0526158, 0.0859344, 0.136419, 0.127994, -0.0422513, -0.0468449, -0.131129, -0.0965286, 0.0215288, -0.0489652, 0.128777, 0.0419617, -0.0663214, -0.103588, -0.008581, 0.0158619, 0.201628, 0.0500746, -0.324089, 0.112296, -0.0581938, -0.123013, -0.00565743, 0.0161239, 0.136329, 0.0451162, -0.000986253, -0.0141744, -0.152716, 0.0971932, -0.0473643, -0.0969888, -0.0258844, 0.135469, 0.153848, 0.031595, -0.0784561, 0.065935, -0.00163182, 0.011762, 0.017912, -0.0262341, 0.187708, 0.200911, 0.110667, 0.0168044, -0.177096, 0.040036, 0.057464, -0.0419006, 0.0416864, -0.310123, 0.0300645, -0.191403, 0.00223442, -0.116084, -0.0841633, 0.0871411, -0.0123624, 0.0458549, -0.0418215, 0.102422, 0.194345, 0.0652982, -0.153886, 0.0170398, -0.227746, -0.187113, -0.037897, 0.00154185, -0.0275362, 0.148891, 0.00498863, -0.00686733, -0.0278116, 0.154033, 0.0165495, -0.0206571, 0.255175, 0.0656155, 0.0358812], [-0.0468441, -0.182432, -0.0676677, 0.175334, -0.136729, 0.152224, 0.223963, -0.107346, 0.175433, -0.0454657, 0.0635607, 0.0845905, -0.0143428, 0.00488026, -0.0435905, 0.0563804, -0.014499, -0.0439897, -0.077319, 0.127485, -0.114102, -0.0663424, -0.157691, 0.124197, 0.0746208, -0.152128, -0.298343, 0.172603, -0.297926, -0.0128524, 0.0961197, -0.101455, 0.213831, 0.0995417, -0.0141739, -0.0472452, 0.0166575, -0.120513, 0.0921408, -0.119736, -0.0565198, -0.124578, 0.200243, 0.031383, -0.217857, 0.0584336, -0.0671975, -0.1128, -0.160471, 0.109193, -0.301515, 0.0223447, 0.147799, 0.223933, -0.10735, 0.0836283, 0.14648, 0.0758852, 0.264813, 0.0976022, 0.230041, 0.034029, 0.258891, -0.200039, -0.0456446, 0.0132337, 0.247268, 0.0843032, -0.201242, -0.120278, -0.380601, 0.0763095, 0.00268854, -0.0261595, 0.0241038, -0.244067, 0.0296894, 0.342449, 0.298839, -0.0929752, -0.150974, 0.066731, -0.0105048, -0.000783322, 0.146175, 0.196714, -0.141444, 0.166912, 0.137124, 0.055629, 0.0288639, 0.0254313, -0.059563, -0.048671, -0.00267825, -0.0181616, 0.199203, -0.000427201, -0.0118684, 0.0989203, -0.0877359, 0.175538, -0.0413165, -0.0970655, -0.0374676, -0.0573877, 0.128063, 0.0420402, 0.0610298, -0.222179, 0.1081, -0.143301, -0.0488878, -0.112876, -0.00656957, 0.070191, -0.0495582, -0.101039, 0.174678, -0.148003, -0.313053, -0.0422773, -0.0806213, -0.077528, -0.178873, -0.139574, -0.324849, 0.263463, 0.0586297, -0.154453, 0.111506, 0.194401, 0.067606, 0.372484, -0.141495, -0.0587429, -0.0765461, 0.0757293, -0.287976, -0.0569201, 0.277146, 0.0502455, -0.141064, 0.0368401, -0.139249, 0.0985204, -0.108483, 0.0806431, -0.0918869, -0.046737, 0.0171351, -0.00595344, -0.309315, -0.125864, -0.0672319, -0.184149, 0.0082018, 0.183433, 0.0647215, 0.186058, 0.0795965, 0.145048, 0.138532, 0.0303201, 0.146276, 0.0735064, -0.0416011, -0.0536126, 0.243375, 0.224508, -0.15933, 0.149503, -0.0113456, -0.0586905, 0.00807061, -0.00999765, 0.119645, 0.0942241, 0.0345979, -0.0175421, -0.0527334, 0.0605168, 0.106093, 0.000334589, -0.0838121, 0.0535421, -0.0967662, -0.148815, 0.104347, 0.183297, -0.155151, 0.020013, 0.208897, -0.0168813, 0.140768, 0.034757, -0.183482, 0.298938, 0.12798, 0.0407204, 0.147501, 0.15089, 0.0569652, -0.179619, -0.291629, -0.107424, 0.185744, 0.0172224, 0.154266, -0.109754, -0.184039, -0.0264257, 0.192616, -0.00592298, -0.264335, 0.0938991, 0.0471166, -0.140372, -0.161197, 0.0737674, -0.0518235, -0.0720057, -0.102317, -0.183352, -0.194334, -0.151423, -0.128487, -0.101941, -0.0310468, -0.0698634, 0.00593057, 0.0599717, -0.080828, 0.0997065, 0.132078, 0.0370667, -0.0162802, 0.0635196, 0.0290839, -0.123764, -0.0574152, 0.0478464, -0.0694458, 0.231666, -0.28172, -0.022027, 0.0722671, -0.117787, 0.0332006, 0.216161, -0.119112, -0.145053, 0.131177, -0.0476301, 0.119017, -0.235753, -0.063272, -0.137648, 0.0175662, 0.0700633, 0.00265821, 0.0466743, -0.127002, -0.0445264, 0.0112697, -0.163766, 0.0992432, 0.106691, 0.0150826, -0.0607411, 0.0142489, -0.526476, 0.190038, 0.0167696, 0.0898676, 0.133889, -0.172024, -0.0425864, -0.0389097, -0.119636, 0.307347, -0.0706895, -0.12613, 0.0801643, 0.137614, 0.0883919, -0.0156963, -0.276702, -0.0820548, 0.0742322, 0.00569322, -0.0173531, 0.0711358, -0.218544, 0.105809, 0.265929, -0.172581, -0.0561124, 0.451286, -0.258057, 0.140034, 0.00243527, -0.00165376, 0.110259, 0.084129, 0.0943607, 0.00660218, -0.0645685, -0.176394, -0.0893557, 0.351566, 0.275068, 0.161963, 0.0346616, -0.266295, 0.0100459, 0.253075, -0.120359, 0.0560659, 0.0967647, 0.227829, 0.0259085, -0.050456, -0.0847966, 0.0242005, 0.438443, -0.0882533, -0.146823, -0.182654, -0.155617, -0.0291067, 0.092379, -0.215426, 0.1089, -0.0655393, 0.215763, 0.0439148, 0.113802, 0.0867391, -0.0381938, 0.0452968, 0.0588155, 0.160846, -0.251841, 0.0859946, -0.186471, -0.113037, 0.22045, -0.0634015, -0.0101606, 0.111457, 0.0353857, 0.0680168, -0.288789, -0.168866, -0.114549, -0.0716295, 0.0584825, 0.0926961, 0.130695, 0.113864, 0.143923, 0.00720031, -0.0536344, 0.315552, -0.0656959, -0.0166172, 0.136373, -0.0309375, 0.0315449, 0.131222, 0.040615, 0.0409847, -0.0476037, -0.105286, -0.231416, 0.284968, -0.0886924, 0.498929, 0.107366, -0.0443525, 0.0399004, 0.125512, 0.160638, 0.309864, -0.107148, -0.136736, 0.0157051, 0.0322541, 0.174573, 0.180637, -0.192178, 0.046718, -0.0474923, -0.0361165, -0.138363, -0.0855106, 0.22382, 0.0102715, -0.100435, 0.137303, -0.0155926, -0.000143396, -0.135167, 0.157387, -0.0986273, -0.057814, 0.0510557, -0.235255, -0.000164695, 0.0852445, 0.00580675, -0.0682809, -0.0907517, 0.100394, 0.137036, -0.10261, 0.124835, 0.126133, 0.137661, -0.138304, -0.131119, -0.0721892, -0.19391, 0.167818, -0.0299038, -0.285329, 0.10163, 0.210075, -0.0409265, -0.115931, 0.100293, 0.462844, 0.369545, -0.0829161, 0.180475, 0.0680876, -0.205986, 0.339668, 0.0715497, 0.196482, -0.0520164, 0.0587181, -0.319972, 0.271684, -0.0881401, -0.0245722, 0.051622, -0.264946, -0.228699, 0.16136, 0.0243184, -0.261266, 0.124672, 0.0525948, 0.0368934, -0.02805, 0.175512, -0.164867, -0.0727754, 0.167235, 0.0389131, -0.166642, 0.139558, -0.133381, -0.0766777, 0.087434, -0.082708, 0.0284182, 0.0905021, -0.379543, -0.120867, -0.0916633, -0.218183, 0.0618048, -0.0525973, -0.267434, 0.183724, -0.0267066, -0.0161132, -0.355176, -0.050431, -0.0437597, -0.061914, 0.0699505, 0.0856778, 0.00462894, 0.0146424, 0.200636, -0.0919174, 0.206904, -0.0379157, 0.40273, -0.0467653, 0.015804, 0.075027, -0.0761528, 0.108357, 0.0107351, -0.198402, 0.0558826, -0.0919778, 0.034545, -0.354319, 0.0175318, -0.090994, -0.238879, -0.283687, 0.138736, 0.26121, 0.0177562, 0.0586474, 0.49935, -0.191245, -0.130799, 0.386314, -0.0938951, 0.246935, 0.135206, 0.183291, -0.0335816, 0.157222, 0.0325757, 0.0826926, 0.123863, -0.0750081, -0.0341878, 0.067559, 0.12762, 0.0696903, -0.0902631, 0.100352, 0.0592169, 0.0623357, -4.38427e-05, -0.018184, -0.333126, 0.203279, 0.0702383, -0.10763, 0.0491059, 0.162914, 0.0155514, 0.0888129, 0.0838637, -0.0361662, 0.0441011, -0.188583, 0.1138, -0.0664657, 0.239671, 0.0874468, -0.166332, -0.0284657, -0.109638, -0.0954259, -0.0332668, 0.497886, 0.336583, -0.0567559, 0.176944, -0.155732, -0.197841, -0.105136, -0.355914, 0.0791454, 0.0857005, 0.45135, -0.00167702, -0.0836691, -0.021763, -0.222527, -0.0781176, 0.0451908, -0.0900996, 0.0366451, -0.250545, 0.0572481, 0.0818767, 0.0678532, -0.145041, 0.0343759, -0.204023, 0.0726245, -0.0539886, 0.110201, 0.0652658, -0.124162, -0.0508125, 0.140631, -0.0176982, -0.240468, -0.0796533, -0.235043, -0.37644, 0.064623, -0.259594, -0.229095, -0.102061, -0.172826, 0.0214436, -0.0429871, -0.0977207, 0.0569228, 0.0152439, 0.0796974, 0.106439, 0.0295536, -0.160621, -0.141924, 0.0486462, -0.0298094, -0.150622, 0.0027215, -0.0401159, 0.094914, 0.141993, 0.31533, -0.0445479, 0.118832, -0.155159, -0.215256, -0.195225, 0.109266, 0.24398, 0.0371295, 0.00668189, -0.0425336, -0.0021783, -0.0347376, -0.0578326, 0.0230665, 0.180773, 0.028662, -0.013572, -0.249682, 0.0543087, -0.159483, 0.0155567, -0.050923, 0.0160354, -0.134871, 0.089219, -0.064579, 0.241139, 0.15831, -0.0232213, 0.101687, -0.0430731, 0.0474795, -0.156908, 0.0573218, -0.138595, 0.0831086, -0.0153632, -0.0625358, 0.13026, -0.141365, -0.032926, -0.160286, -0.0387641, 0.12292, 0.197673, 0.0334503, -0.0572211, -0.0754967, 0.0487394, 0.00232333, -0.0895522, -0.0117523, -0.159734, 0.0125163, 0.00663858, -0.212302, 0.198224, 0.216763, -0.0611761, 0.231405, 0.176718, -0.0885207, -0.0975591, 0.274467, 0.0326729, -0.155458, 0.072853, -0.112439, -0.26691, -0.157649, 0.0019727, 0.282951, 0.119171, -0.085322, 0.056743, -0.0711427, 0.0717031, 0.00185314, -0.256585, 0.194631, -0.0337303, -0.327579, -0.198221, -0.242094, 0.0231911, 0.183554, 0.0808339, 0.238152, 0.151689, -0.0238201, -0.0427798, 0.0704259, 0.128234, 0.139542, 0.0266917, 0.0856654, -0.426061, 0.0353186, -0.109533, 0.0616613, -0.0767644, 0.0261561, 0.149457, 0.291981, -0.14137, -0.252607, -0.181605, 0.129641, 0.104965, 0.408253, 0.00814953, 0.0242935, 0.334074, -0.0058402, 0.222235, 0.0267047, 0.0791467, -0.106152, -0.137448, 0.0955382, -0.209949, 0.0265953, 0.0943688, -0.0982143, 0.114777, 0.0154147, 0.125621, 0.0312491, 0.110094, -0.10431, 0.184053, 0.0492368, 0.166472, -0.155128, 0.120182, 0.400045, -0.192013, -0.169731, 0.10083, 0.0176672, -0.00809591, -0.312559, 0.0577914, -0.342574, 0.0401782, -0.217173, -0.105801, 0.00529568, 0.0531729, -0.0819556], [-6.90025e-78, 7.01584e-47, 4.71961e-93, -3.63692e-68, 2.70249e-106, 9.20794e-61, 1.33886e-71, 4.66255e-73, 1.61141e-80, -6.19408e-90, -1.09026e-80, 1.23481e-97, 8.55371e-15, 7.00693e-66, -7.39245e-56, 4.00589e-56, 1.06627e-57, -8.07158e-70, 1.33657e-51, -3.48313e-63, -2.2728e-70, 1.5395e-57, -4.22205e-38, 4.15392e-99, -2.99291e-45, 6.7307e-60, -1.94797e-92, -1.54937e-80, -2.50991e-113, -1.63435e-50, -3.40886e-70, -1.37749e-72, 1.34852e-92, 4.23956e-78, -3.72287e-61, 1.53315e-61, 4.36464e-109, 1.98125e-66, 9.62184e-96, -1.742e-80, 6.72151e-70, 5.9014e-67, -1.36571e-64, 3.71663e-83, 5.45231e-78, -1.21294e-70, 1.03838e-42, 2.02301e-66, -1.38047e-51, 4.31879e-81, -8.19679e-82, 1.49802e-100, 1.35617e-54, 8.93745e-107, -2.42074e-29, 2.38844e-54, -1.01911e-69, 4.35898e-46, -3.90781e-54, 3.90924e-37, 7.37481e-85, -1.84738e-52, 2.89948e-92, 2.92294e-45, -2.15061e-56, -4.48148e-51, 6.82086e-97, 1.17475e-71, -8.74949e-35, -6.96763e-83, -5.43564e-115, -8.68939e-92, 2.02399e-72, -1.31045e-61, -6.03558e-31, 2.61257e-101, -1.48848e-52, -5.57405e-85, -2.66396e-64, 6.20375e-87, 1.46324e-65, 1.24039e-81, 6.43246e-52, 2.17e-66, 2.71499e-83, -1.12233e-97, 4.13662e-59, 3.0842e-40, 1.13223e-71, -8.25026e-60, 3.54884e-45, -2.37226e-72, -2.87822e-47, 2.88162e-63, -4.08471e-97, -6.50168e-88, 2.69938e-83, 8.26776e-82, -2.09164e-71, -2.12657e-66, -6.55846e-104, 2.21797e-35, 1.21076e-64, 6.41425e-55, -4.68061e-26, -3.30645e-115, 1.80334e-58, -2.01905e-72, 1.5243e-44, 1.60831e-58, -6.56687e-57, -2.28242e-70, -1.60661e-67, 7.26427e-29, 1.46502e-57, -7.29953e-95, 1.02922e-84, -2.98232e-36, 7.06546e-76, 5.3054e-69, 2.66238e-109, -1.07234e-26, 3.4025e-118, 2.4874e-100, 3.38309e-57, 1.36134e-58, -5.41116e-83, -3.90972e-80, 8.41495e-55, -1.57935e-66, -2.40582e-80, -4.14259e-56, -3.29761e-99, 5.73648e-61, -1.73264e-55, 2.16745e-53, 1.2579e-60, -6.99365e-61, -3.1957e-95, -2.02009e-126, 2.78486e-69, 1.42376e-34, -1.8973e-104, -1.25641e-37, -9.787e-58, 7.06315e-29, -6.23169e-61, -6.01929e-108, 1.4795e-64, -2.35863e-67, 7.46933e-94, 5.39379e-75, 5.17248e-101, 5.424e-54, 8.92925e-60, 1.12622e-103, 9.41556e-30, 3.04683e-92, -1.42701e-97, -6.35487e-74, -8.40599e-61, 5.20608e-80, 1.39284e-59, 7.604e-101, 3.75773e-85, -1.98155e-84, -4.34576e-76, -3.53899e-63, 2.39901e-61, -1.04928e-88, 1.56561e-59, -1.80571e-57, 1.73828e-56, -1.64816e-63, -2.41872e-54, -1.85273e-71, 2.91031e-51, 1.50146e-69, 2.25485e-67, 1.02371e-33, -2.94126e-55, -9.82507e-64, -6.13664e-63, -1.67626e-55, 7.79772e-132, -2.76904e-76, -2.38233e-77, 1.27023e-94, 6.18488e-57, -9.45737e-74, 1.28312e-80, -8.91529e-39, 3.18678e-112, -2.42696e-83, -4.7542e-69, 9.11846e-61, -3.56169e-89, 9.64513e-93, -3.89759e-65, 3.65848e-63, -4.37964e-71, -1.88943e-89, -2.31256e-80, 8.57901e-88, 1.33808e-84, 8.51093e-23, -5.3464e-60, -1.08495e-32, -1.14733e-75, -4.60921e-55, 1.28334e-87, 3.95627e-46, -2.51291e-67, 1.5427e-109, -9.11507e-109, 3.27542e-56, 4.23892e-72, -4.37279e-67, -4.01784e-59, 1.96886e-79, 9.62168e-123, 3.03495e-36, 1.92241e-61, -1.64446e-101, 1.30689e-120, 1.90733e-96, 1.63281e-61, -7.33993e-77, -2.50618e-80, -7.96496e-69, -1.34764e-73, 6.8399e-50, 3.04021e-49, -1.88338e-78, -1.99354e-81, -2.79033e-38, 3.77577e-72, 7.03825e-88, -1.48771e-46, -1.59727e-14, 3.3192e-71, 1.55042e-78, 3.82278e-77, 1.73445e-74, -4.20576e-92, -5.58443e-55, -2.94065e-51, 2.75258e-59, -3.66074e-49, 6.58651e-95, -4.06323e-89, 3.18437e-98, -4.80945e-53, 1.60645e-54, 3.28888e-91, -4.13089e-88, -7.24658e-59, 1.82191e-91, -2.51738e-83, 5.61889e-82, -7.31797e-95, -4.49174e-53, -8.36127e-83, -2.10873e-51, 1.06778e-81, -1.48504e-53, -2.87365e-16, -2.5897e-73, 8.52214e-99, 2.69975e-75, 7.68956e-58, 8.09236e-85, -2.18462e-77, -1.28833e-48, -8.50713e-105, 2.19889e-60, -1.67854e-36, -2.79694e-53, -2.06911e-43, -5.82131e-85, -4.7327e-75, -9.15281e-56, -7.14282e-49, 5.13927e-58, -4.59317e-55, 1.40712e-82, 5.8631e-57, -6.90861e-56, -6.95593e-45, -1.77558e-84, -6.51524e-36, 4.58978e-45, 2.39423e-112, -1.62214e-63, -5.65336e-47, 6.83051e-94, -1.94633e-64, -9.42016e-75, 3.29805e-87, 4.11062e-88, 1.84549e-67, 8.27444e-59, -1.43486e-72, -1.89955e-48, 7.39636e-59, 1.20523e-57, 5.81399e-19, 1.20718e-66, -2.74131e-37, -6.45375e-73, -4.64438e-65, -1.19959e-80, 5.44361e-48, 1.23166e-66, -1.8023e-72, -1.01377e-62, -1.82435e-71, -7.64006e-40, 1.03183e-77, 1.82243e-84, 2.04192e-71, -1.20442e-46, 5.61264e-79, 5.32878e-49, 9.3676e-66, 3.47546e-83, -6.50713e-60, 9.43161e-100, 2.925e-47, 8.6653e-96, -7.61436e-70, -1.47009e-44, 5.64721e-90, 3.29183e-45, 1.01038e-22, 5.76427e-86, 5.24072e-89, -1.41875e-68, 5.01742e-30, 1.89849e-76, 1.48965e-48, 3.97268e-87, -4.48756e-103, 3.91841e-98, 5.31319e-37, -1.82427e-34, -3.86539e-77, 2.847e-97, -1.6363e-50, -1.77231e-61, 8.17311e-60, -1.4538e-21, 1.08419e-85, 2.57014e-74, -2.76589e-53, -4.98764e-86, -4.29438e-59, 2.62628e-108, -4.05673e-64, 2.4464e-75, -1.42932e-71, 1.57422e-69, 2.81021e-74, -3.96186e-97, -1.64865e-87, -2.34999e-52, -1.12054e-60, -1.93204e-83, 2.9043e-92, -2.83266e-105, -1.14149e-31, 1.92653e-65, -2.02265e-70, 2.02202e-91, -6.90977e-63, -3.44064e-73, 1.92093e-41, 1.57177e-40, -9.93075e-111, 6.38995e-109, 1.01426e-41, -5.65135e-50, -3.32343e-62, 1.29643e-58, 9.56687e-65, 9.28734e-40, 1.16074e-86, -4.08989e-35, -4.38401e-58, 2.5287e-108, -9.99261e-73, 5.06033e-40, 7.62667e-75, -7.40055e-79, 1.97423e-62, 1.13405e-68, -1.74285e-82, -4.46399e-100, 4.50849e-86, -4.70248e-68, 7.77442e-49, 4.27329e-87, 1.77558e-78, 6.27348e-56, -4.38566e-71, 6.23451e-41, 7.43114e-96, -2.42964e-37, -1.23584e-69, -6.08909e-69, 2.08529e-30, -3.0931e-89, -4.51427e-40, 2.21103e-75, 1.24622e-94, -5.53036e-85, -2.86809e-90, -9.79619e-70, 1.33004e-57, -2.75223e-55, -1.71879e-69, -5.61704e-62, -1.37653e-89, -2.28959e-89, -2.51682e-71, 5.90511e-25, -3.52426e-85, 4.32053e-78, 2.30751e-104, -2.39509e-51, -7.02853e-55, 5.10632e-86, 2.0778e-73, 4.25765e-114, -1.24087e-87, 5.63079e-52, 1.06002e-61, 4.37443e-54, -6.36143e-59, -3.72549e-69, 1.024e-102, -1.90008e-85, 4.52031e-66, -1.75263e-77, -2.92215e-101, -1.35431e-103, -2.55154e-46, 4.87314e-85, 5.72725e-70, 4.77154e-82, 6.27866e-78, -1.6903e-85, 1.09191e-81, 8.12464e-80, -3.83475e-57, 2.45064e-44, 4.94306e-71, -3.4358e-96, -1.01747e-65, -3.07963e-14, 1.35168e-59, 1.48481e-37, -2.32709e-93, 3.15331e-89, -1.14418e-60, 8.01572e-31, -2.49668e-98, -8.3188e-67, 9.15367e-57, 2.64579e-82, 2.25215e-80, 7.70374e-56, 1.6334e-68, -1.0544e-59, 8.23013e-82, 6.98617e-47, -2.8729e-97, -5.28276e-52, 4.50007e-37, -1.06486e-64, -3.26826e-80, 9.87645e-109, 1.11194e-56, 3.51382e-106, -6.3646e-37, -3.47569e-76, -1.42554e-25, 1.45926e-44, 4.65594e-106, -1.30906e-66, -8.03588e-90, -2.29069e-72, -3.47983e-51, -2.02469e-59, 2.05236e-94, 1.07989e-59, -1.23577e-76, 2.30619e-44, -2.91449e-44, 5.54961e-60, -3.24687e-104, 2.12528e-71, 4.87358e-43, -2.1246e-86, -3.86798e-34, -8.82877e-59, 5.0453e-95, 5.81739e-67, -1.50805e-64, 6.20145e-97, 9.71492e-22, -1.54802e-55, 2.43166e-77, -4.61712e-61, 1.05442e-85, -5.6718e-91, -1.79017e-48, -1.56753e-99, -6.25495e-70, 3.13844e-62, -3.75554e-97, 1.44086e-89, 4.35544e-41, -1.39572e-57, -2.14822e-53, 1.01107e-51, -2.414e-118, 5.60617e-53, -3.91515e-77, 1.2422e-53, 1.97332e-67, 4.45164e-47, -8.96504e-46, 2.95354e-26, -1.64478e-44, -8.82257e-78, 5.7504e-95, -3.30449e-83, 1.36027e-64, -8.73908e-96, -2.28295e-104, -6.24882e-91, -6.82539e-71, -7.61073e-119, 1.81752e-59, -1.11564e-96, 1.34573e-84, 6.2902e-68, -1.20795e-81, 3.93798e-94, 1.06181e-83, -7.47644e-71, 1.93924e-75, -1.98006e-42, -2.07063e-51, 1.5984e-54, -2.09796e-83, 2.33291e-85, -3.07484e-69, 2.31653e-105, 7.00105e-62, 2.07986e-47, -1.86956e-84, -1.42712e-42, 8.22451e-101, -3.57965e-58, -6.94835e-101, -5.65743e-103, 3.63677e-38, -2.31523e-38, 1.92193e-34, 3.60056e-73, -8.8534e-74, 5.2417e-50, -3.47478e-47, -4.10691e-78, 1.38441e-69, -6.264e-78, -5.08534e-48, 2.61627e-48, 5.12137e-66, 5.27382e-53, 1.87063e-62, 8.25524e-70, 3.27093e-54, 4.78752e-85, -5.73007e-105, 1.77241e-51, 1.93267e-11, -1.03114e-68, -1.73401e-77, 4.29247e-56, -8.25372e-122, -2.42447e-67, -6.43429e-98, 2.53093e-89, 1.08378e-81, 1.44679e-102, -1.33929e-59, 7.41041e-50, -3.49602e-44, -1.19279e-66, -7.12395e-53, -1.47752e-88, -1.90402e-97, 1.18417e-57, -1.33715e-81, 1.45815e-63, 1.8948e-75, -4.78153e-63, 7.41327e-31, -2.95721e-97, -5.83829e-67, -2.05543e-87, 2.33987e-48, -2.74912e-92, -5.72084e-68, 1.30004e-51, 1.98367e-65, 1.38855e-86, 1.49598e-48, 4.56147e-61, -2.05573e-59, -1.73711e-81, -1.34768e-55, 1.57353e-69, -2.55532e-42, -1.88167e-24, -8.46103e-84, 1.54308e-37, 9.59669e-42, 6.14824e-77, -5.534e-113, -2.27618e-44, 1.29203e-55, -1.57795e-72, -1.5879e-56, -1.05374e-78, -5.34772e-82, -1.9482e-77, -1.14523e-21, -6.4714e-88, -9.18041e-81, -2.10626e-57, 1.03955e-66, 4.22295e-85, -4.66599e-40, -6.27749e-82, 2.76077e-58, -1.61015e-58, 9.7643e-67, 7.36587e-61, 3.34316e-102, -5.37917e-71, -1.30914e-58, -6.50128e-65, -2.36247e-59, -1.02975e-95, -1.90644e-57, -9.61339e-61, 1.91125e-65, 7.9363e-79, 1.12805e-85, -2.36287e-116, -2.64988e-74, -8.18749e-71, 1.4149e-23, 1.37516e-55, -1.93537e-94, 5.0215e-52, -4.93081e-90, -1.20045e-68, 1.26959e-54, 1.06106e-46, 1.08753e-59, 1.08116e-98, -3.35996e-82, 9.78761e-95, -3.32313e-73, 1.87262e-67, 2.42309e-62, -3.94312e-64, 2.78084e-81, -1.34512e-78, 5.86917e-88, -1.3929e-47, 4.08477e-79, -6.00834e-58, -1.18211e-88, -2.81771e-83, -2.29513e-74, 3.0721e-67, -2.71507e-50, 3.48122e-70, 4.47625e-50, 1.30448e-57, -1.66284e-65, 6.09271e-65, -5.08313e-75, -1.80094e-66, -1.22074e-51, 9.09697e-64, -4.93189e-70, 4.22507e-69, -7.18014e-70, 8.52754e-90, 1.39396e-59, -3.41682e-49, -9.27265e-63, 4.54472e-67, -1.38166e-78, 8.66576e-75, 6.45215e-47, 1.03184e-58, 4.45753e-94, -1.25468e-83, 2.97387e-64, 3.47754e-106, 5.98867e-52, 6.08634e-48, -2.14024e-47, -1.46213e-111, 5.63592e-62, -1.5482e-35, -9.13272e-68, 2.41065e-115, 2.80074e-66, -3.39767e-72, 2.52424e-24, -2.80924e-38, 1.32933e-67, 1.1125e-84, -6.6566e-76, -7.85265e-109, 8.90808e-70, 1.03427e-70, -1.31487e-61, -6.5353e-111, 1.45534e-84, -5.10323e-45, 1.45208e-88, 3.18775e-87, -1.39601e-79, 2.48947e-75, -1.89552e-85, 1.76536e-83, 1.81241e-121, 8.47058e-67, -1.26795e-48, 1.56509e-20, 3.16957e-47, -3.5752e-85, 1.16598e-90, 5.70536e-103, -4.49565e-50, -1.3082e-68, -2.18679e-98, -2.4077e-82, 3.27198e-91, -1.4148e-71, 4.12727e-104, -7.29197e-66, 1.24643e-75, 5.65309e-69, -2.20749e-54, 1.13846e-106, -1.31902e-49, -9.36841e-37], [-0.000132514, 0.00556023, 0.000327634, -0.00178466, 1.4718e-06, -0.00536807, 0.000952233, 0.000621529, -0.000171588, -6.1426e-05, 0.000449427, -2.7641e-06, 0.0124483, 0.00285463, 0.00157588, 0.00470605, -0.00338617, -0.00241331, 0.0016849, 8.1794e-05, -0.000277189, 0.00207193, -0.000842647, 1.76606e-07, -0.00870469, 0.000381141, -5.45859e-05, 0.0031966, -0.000350057, -0.00656741, -0.00219038, -0.00120378, -0.000879402, 0.00048381, -0.000393987, -0.000513421, 4.74666e-07, -0.00175233, -3.26933e-05, -0.00017539, 0.000839431, -0.000442209, -0.00106329, 0.00106293, -2.04958e-05, 0.000469738, 0.00144072, 0.00091214, 0.00160428, 9.61196e-05, -0.000403772, -0.000593022, 0.00118928, 2.85609e-06, 0.00879273, -0.00741461, -6.34673e-05, -0.00800733, 0.000861836, 0.00772133, 9.11446e-05, -0.00263533, -0.000937604, -0.0023968, 0.000271431, -0.000216123, -7.43651e-07, 0.000446574, 0.00307321, -0.000285165, 1.43927e-06, 0.000699094, -0.00124832, 0.0021238, 0.0143128, -0.000149157, 0.0120447, -0.000315645, -0.00112952, 0.000962069, 0.00320465, -0.000326073, 0.00257423, -0.00202274, -0.00018707, 0.000364914, -0.00102965, -0.000577588, -0.000553543, -0.0026176, -0.00174398, 7.62405e-05, 0.0129248, -0.00101232, -0.000393101, -3.00169e-06, -0.000209911, -0.000748292, -0.00126851, 0.00446757, 4.01978e-06, -0.00712965, 0.00402169, 0.00232865, 0.00814475, -3.17957e-05, 0.00115821, 0.000558886, -0.00358434, 0.00184755, 0.00410488, -0.000306865, -0.00143084, 0.00201753, -0.00181522, 0.000174491, -0.000404225, -0.00993561, -0.000317084, 0.000171691, -4.30704e-05, -0.0106378, 3.60551e-06, 1.28626e-05, -0.00182903, 0.00105547, -7.85294e-10, -0.000241874, 0.00419426, 0.00478481, 0.000438165, 0.00223844, -0.000208562, -0.00223063, -0.00539355, 0.00776089, -0.00434785, 0.000568717, 5.90935e-05, -8.91481e-06, -0.0010382, 0.00466205, -3.76915e-09, 0.00993658, -0.00361348, 0.0217204, 0.000152873, -6.83616e-06, 0.000140071, -0.00350296, -0.00198423, -0.000147222, 5.30257e-05, 0.00603011, -0.00276604, 0.000173922, -0.00850419, -0.000138212, 0.0009924, -0.0024569, 0.00332145, -0.000452362, -0.00241743, 0.000277007, 0.000888442, 0.00151265, -0.000524457, 0.00186878, 0.00130004, 0.00120064, 0.00263604, 0.00427969, -0.00101824, -0.000161803, 0.000204279, 0.0013781, 0.0041313, 0.00101343, 0.00119523, 0.00845012, 0.00467051, 0.000524598, 0.00603387, -0.00364373, -0.000163596, -0.000167159, -0.00175224, 0.000479079, -0.00231652, 2.0301e-05, 0.000346994, 0.00360638, 7.30723e-05, -0.00034139, -0.00097218, 0.00109774, -0.000743367, -0.000114703, 0.0025608, 0.000554799, -0.000814704, 2.64819e-06, -0.000314466, -0.000149819, -6.28448e-05, 0.00665087, -0.00146576, 0.0102567, -0.00146289, 0.00274012, 0.000663283, -0.00776822, -0.00111253, -0.000633845, 0.000104577, -0.00484672, -0.00191731, 0.00106357, -0.00095576, 0.000125209, 2.87785e-05, -0.00707888, 0.0051881, 1.10618e-05, -8.48621e-05, -4.75357e-08, -0.000591343, -0.000157559, -0.000110714, -0.00171138, -0.00216579, 0.00419519, -0.00376131, -0.00194194, 0.0010476, -0.00156975, -0.00133422, 2.24281e-07, -0.00224588, 0.0177497, -0.000168398, -0.00262547, 8.58862e-05, 0.00127861, -0.000764583, -0.0047548, 0.0122885, 0.00449121, 0.00968579, -1.4043e-05, 4.47696e-05, -7.28291e-06, 0.00168568, 0.00601818, -0.000250657, -0.000196629, 0.000431667, 5.92131e-05, -0.000488195, -2.05893e-05, -3.63493e-06, 0.00376691, 0.000130024, 0.00804644, -0.000255221, -0.00124247, 0.0185484, -9.27799e-05, 0.000289441, -0.000318681, -0.00429627, 0.000191342, 0.00238318, 0.000268128, -0.000147136, 0.00228855, -0.0010723, 0.000190936, 0.0089389, 0.000373867, 7.55316e-07, -0.0132042, -0.00258061, 0.00162335, 0.000216504, 0.00104713, 0.00180101, -0.000907225, 0.0074286, 0.00114133, 0.00937286, -0.000270268, 0.000160782, -0.000612429, -0.00296124, 0.000786554, 0.00194043, 0.000137169, 8.22094e-05, -0.000240519, 0.000826333, 0.00542184, 0.00026937, 0.0065415, 0.00157043, 0.0012375, 0.018067, 0.00221238, -0.00319179, 0.00107071, -0.00149084, 8.83105e-05, 0.00194647, -0.0019815, -0.000552465, -0.000325518, -0.000600835, 0.00947874, 0.000226865, -0.000125904, 0.00159872, 0.00635152, -0.00038034, -0.00223914, -0.00420157, 5.52269e-05, 0.00117844, -6.02438e-06, -0.0100201, 5.03367e-05, 0.00165266, -0.00179007, -5.94458e-05, -0.0100454, -0.00083032, 0.000567886, 0.00223114, -0.000119277, 0.0197316, -1.20019e-05, 0.00215127, 0.000492688, -0.000610952, 0.000112098, -0.00859718, -0.0137118, 0.000265827, 1.36726e-17, -0.00387633, 0.00130446, -0.002139, 0.0159076, -0.0022838, -1.94323e-06, -0.00120654, -0.000185153, -0.00497194, -6.08928e-06, -0.00133086, -0.000245431, 0.00111076, -0.00147183, 9.21571e-05, 1.86311e-05, 0.00038632, 0.00293443, 0.000624354, -0.0004034, 4.4127e-05, -0.000401591, -0.0153778, -0.00521272, 0.000426637, 0.000278712, 0.00164956, -0.00190761, -0.0088329, -0.00660737, 1.00587e-05, 0.000394394, -0.00271326, -0.00446284, -0.00075999, -0.00127545, 0.000355973, 0.00195654, 0.00143874, 0.000187319, 0.000888398, -3.59347e-05, 0.000562632, 0.00687126, 0.00250934, -0.00178835, -0.000868345, 0.000738346, -0.00371486, 0.000661367, -3.21387e-05, 0.00523532, 0.00507726, -0.000111016, -5.24371e-05, 0.00219346, -0.00343942, -0.00669761, -0.000171982, -0.00981767, 0.000104986, 0.00357068, -0.0152749, 0.000369047, -0.00277403, -1.13203e-12, -0.000138152, -2.86211e-05, -0.000168618, -0.00101318, 0.00235005, -0.00222877, 0.000905729, -0.00293767, -0.000348069, -0.000967402, 4.00476e-05, -0.00465393, 0.000539469, -3.59645e-05, -0.000281724, 0.00956132, -0.0026668, -0.000664485, -0.000266257, 3.00373e-08, 0.00104162, 0.00703615, -0.00240481, 0.00314929, 0.000282505, -0.000462916, 1.20466e-07, 2.05442e-05, 0.000999835, 0.000166523, 0.000436146, 0.000556088, -0.00246239, -0.000130843, 0.000674825, 0.000248437, -0.000164326, -0.000430353, -0.000579926, -0.000419163, -0.00105405, -0.000982971, -0.000162845, 0.000187136, -0.00016914, 0.00971985, -0.00429316, -0.014077, 5.61328e-09, 0.000801225, 0.00670729, -0.0115714, -0.00104259, -0.00463237, 0.000610441, -0.000520486, 0.00096901, -8.97387e-06, -0.00139189, 0.000677829, -0.000525513, -0.00590436, -2.03951e-08, -0.00474237, 0.0104866, 0.000516277, -0.000262758, 0.000422751, 0.00069257, 0.000613875, -0.000781333, -0.00303316, 0.00101743, -0.0041968, -3.9497e-05, 0.00111473, 0.000413183, -0.000794613, 4.7165e-05, -0.00231087, 0.000161538, -0.000986877, 0.000142407, -0.00818309, -0.00487172, -0.00511582, -5.36297e-11, 0.00201099, -0.00555054, 1.65776e-07, -0.00138929, -0.0100865, 4.73918e-05, 0.00087884, -0.000682317, 0.000280416, -0.0278201, -0.00149332, 0.0005514, 0.00242646, -7.73033e-13, 1.92133e-05, -0.00250575, -5.96139e-05, -0.00220515, -0.00668452, 0.000170606, 5.28041e-05, 0.00493228, -0.000870114, -0.00763248, 0.00151684, -1.62697e-06, 0.00769807, -0.00551894, -0.00200432, -0.000293164, -0.00613501, -0.00128862, 0.00491337, 0.0146306, 0.00241754, 6.57248e-05, 1.83704e-05, 0.00208953, 4.97757e-05, 1.83166e-05, 0.00143677, -0.000370859, 4.82943e-06, 0.00100118, 0.00293319, -0.000135257, -0.00252412, -4.25969e-05, 5.0208e-08, -0.000182828, 0.00252931, 1.86348e-05, 0.00958629, 0.00815927, 0.00093888, 7.24855e-05, 0.000311611, -0.00033925, 0.000854877, -5.59584e-05, -0.00587454, -8.47682e-05, -0.00582652, -0.00033418, -0.000224369, -0.00147922, -5.96622e-08, 0.00748794, 0.00716646, -0.0088549, -0.0012613, -0.00077892, 0.0064516, -0.00325269, -0.00134826, 0.00287438, 1.8397e-05, 0.00387362, 0.0037798, -0.00228671, -0.000804961, 0.000667754, 0.00331723, -0.00334173, -0.000133451, -0.000127165, 0.000179607, -0.0233957, 0.00213434, 0.000541992, 0.00114048, 0.000106653, -3.22077e-05, -0.000192909, 3.83854e-05, 0.000480795, -0.000155495, -0.00846421, -0.0026458, 0.0023203, 0.000221196, 0.00970407, -1.88584e-16, -1.50128e-05, 0.000166398, -8.07883e-05, -0.00173257, 0.000322188, -0.00209748, -0.00157103, 0.00134564, -0.0057712, 8.70364e-05, 0.000918357, -0.000674023, -0.00219176, -0.00309097, -0.00101717, -0.000165621, 0.00466362, 0.000913954, -0.00204754, -0.000815142, -0.00471406, -0.000790422, 0.013648, -0.0150488, 4.07308e-06, 0.00361282, -0.000803026, -0.00022279, 9.07435e-16, -0.0037978, -0.00388383, -0.000208455, 0.00227155, 0.000529392, 0.000817573, -0.000996363, -0.00539488, 0.000168483, -0.000225886, -0.00130962, 0.000135705, -0.00030222, -0.003494, 0.000781532, -0.00590213, -0.00109888, 0.000857324, -0.00108603, 2.2792e-05, 8.12124e-06, 0.00148843, 0.0023204, -0.00127443, -2.85124e-07, -0.00532994, 0.000966639, 0.00401631, -0.00271506, -0.00115661, -1.00454e-15, 0.00016078, 0.000193815, -0.00206313, -0.000695159, -0.00211026, 0.00721937, 0.000218458, -0.000604772, 0.00377978, -0.000765791, 0.00197565, 8.2475e-08, -0.00161698, -0.00053271, 0.000289231, 0.00212832, 0.000191794, -9.13346e-05, -7.81662e-05, 0.000508881, -9.64496e-15, -0.00187926, -0.000295437, 0.000647276, 2.20824e-05, 2.14007e-05, 7.57464e-05, 0.000896196, 0.00224498, 0.00178278, -0.00258576, -0.00518959, -8.96422e-05, 0.00031557, -2.46191e-05, -0.000868656, -0.00687831, 0.00209901, -1.0095e-05, 0.000139413, -0.00255343, 0.000852338, 0.00141511, -0.00240593, -0.00251986, -0.000330526, -0.00170148, 0.00061729, 0.00171393, 0.000830319, -6.93787e-07, -0.000919138, 0.000305011, -2.53537e-06, 0.00136542, -0.00941154, 0.00110146, -1.48514e-14, -0.00462975, -0.0108512, -0.000188421, 7.20187e-05, -0.00460088, -0.000235791, -0.0205083, 7.70984e-05, 0.00148924, -0.00502311, 0.000743756, -4.35958e-05, -0.00138922, 0.00179347, -0.00153546, -5.19648e-06, 4.44544e-05, 0.00848906, -7.84222e-06, 0.000287179, -0.000240961, -0.000979884, 0.00108011, 0.000313664, -0.000108163, 0.000185539, 0.00769362, -0.00181389, 0.00158715, 0.000170708, -0.000176239, -5.39097e-06, 0.000933512, 0.00025183, -0.000236005, -0.00142482, -0.00370931, -2.80609e-05, 4.47918e-05, -0.00141333, -0.000430889, -1.18922e-05, 0.00810442, -4.02829e-05, -0.00378689, -0.00562001], [8.5966e-134, -3.55523e-133, -5.14534e-134, -1.10822e-133, 1.30721e-132, 3.76676e-133, 5.29945e-135, 1.51828e-133, -9.63595e-134, 4.82194e-133, 5.94929e-133, -9.72688e-133, 4.50963e-135, 7.40874e-134, 1.04736e-133, 5.7315e-132, 1.1145e-133, 1.92111e-134, -1.68853e-132, -1.91389e-133, 1.49019e-132, -4.33838e-135, -1.02828e-132, -1.35129e-133, -1.1544e-131, -7.8197e-132, 9.42148e-133, -7.40168e-133, 6.48392e-133, -9.16726e-133, 2.76975e-133, -3.6876e-133, -1.12038e-133, -1.57295e-133, -3.23234e-134, -1.68777e-132, 4.64206e-132, -1.16712e-133, 1.42795e-131, -1.02275e-132, -1.50199e-132, 6.08083e-135, -6.24988e-134, -5.81697e-132, -3.56958e-133, -3.18428e-134, -2.03276e-132, -8.53193e-134, 2.07346e-134, -1.41838e-133, 5.05674e-135, 3.7673e-134, 2.33186e-133, -1.96975e-134, -1.36914e-132, -3.94436e-134, 4.66415e-132, 3.66705e-133, -1.23262e-133, 1.0785e-131, -9.57413e-134, 8.55596e-134, -4.41011e-136, -1.07358e-133, 6.62256e-133, -7.54366e-134, -6.53584e-132, -9.98156e-134, -1.77681e-133, 1.07359e-132, 5.09127e-134, -1.32432e-132, -7.4185e-133, -1.81457e-133, 1.23677e-133, -1.03816e-131, 9.98879e-134, 4.03299e-134, -9.26816e-133, 9.72231e-133, -6.94695e-133, -2.04461e-131, -7.76898e-135, -1.89235e-133, -9.83314e-134, -1.50799e-137, -9.49596e-132, -9.59397e-134, -4.13574e-134, -5.17982e-134, -2.04021e-132, -5.51395e-134, 1.72952e-133, 1.3531e-133, -7.9748e-132, 1.06254e-133, -1.91303e-133, -6.07057e-133, 1.03622e-131, -3.41704e-133, -3.8218e-133, 9.07541e-133, 4.0974e-134, -1.63767e-132, 1.08437e-133, -5.02063e-134, -2.08876e-133, 2.57369e-134, 6.85709e-133, 5.83408e-134, -3.17493e-132, -6.44054e-135, -2.4779e-134, 4.59446e-134, 1.08579e-132, 6.99279e-132, -4.16463e-133, 1.04436e-132, 4.98287e-132, 1.41324e-132, -1.4762e-134, 4.34606e-132, -3.14781e-134, 1.96544e-133, 8.81756e-134, 3.68947e-132, 2.59454e-133, -5.17766e-133, 5.45095e-134, 1.32075e-134, 1.93213e-133, 1.42934e-134, -3.80569e-133, -1.30192e-132, -4.52531e-134, -4.50967e-134, 1.89167e-131, 5.80378e-133, -3.58593e-134, -4.38907e-134, 2.69903e-133, -1.98065e-136, 5.14867e-134, 5.3245e-133, 3.3259e-133, 9.03517e-132, 1.04788e-133, -2.21557e-134, -2.98727e-134, 4.78784e-134, 1.55149e-133, -1.50243e-133, -1.13568e-133, -5.65029e-134, 3.72665e-133, 3.19266e-135, -3.19591e-134, 2.13772e-134, 5.79826e-132, -9.31211e-135, -2.30763e-131, 1.48592e-133, -3.35469e-133, -1.08521e-133, -9.0757e-135, -4.54382e-134, 1.5693e-134, 5.405e-132, -6.99433e-134, -9.3096e-134, 9.8745e-133, 8.52927e-133, -1.60207e-133, 8.59565e-135, -3.84237e-132, -3.1146e-133, 9.34657e-133, 2.55797e-133, -1.92147e-132, -1.79077e-131, 2.42754e-134, 5.01107e-134, 9.3525e-134, -3.76565e-133, 1.37595e-132, -3.05549e-133, 1.3198e-134, 4.9186e-133, -2.67755e-132, 1.42204e-134, -2.23786e-131, 1.98308e-131, 7.25283e-134, 7.66901e-134, -2.49681e-134, 2.19816e-132, 3.47538e-133, -3.73745e-133, 5.15499e-134, -3.25859e-133, -3.46455e-134, 1.67269e-133, 2.94757e-134, -2.99741e-133, -9.70943e-135, 8.57911e-132, 4.4383e-133, 1.34044e-133, 4.03633e-133, 7.75092e-134, 2.68112e-133, -4.93033e-134, -4.2927e-133, -7.09335e-135, -4.78463e-132, 1.05477e-133, -6.47593e-134, 8.24088e-133, -2.64835e-132, 9.37986e-135, -1.6057e-131, -4.87816e-132, -5.7645e-134, 3.62717e-135, -8.23424e-133, 7.59407e-135, 1.1478e-133, -3.40842e-133, 9.67823e-134, -1.68335e-131, 8.94928e-134, -5.05411e-134, -1.82217e-134, 3.36473e-133, -3.05705e-132, -3.35106e-132, 1.06541e-133, -3.17594e-134, 5.80601e-134, 6.50776e-134, -6.98755e-133, -4.60892e-134, 1.22076e-133, 2.09831e-132, 2.04099e-132, 4.14625e-134, -1.53673e-131, 4.82273e-134, 4.02315e-134, -5.23964e-133, 2.35033e-134, -6.13236e-132, -1.06265e-133, -6.87804e-134, -8.595e-132, 9.14674e-134, 2.59725e-134, 8.71036e-134, -2.30843e-133, 5.3301e-134, 8.69334e-134, 1.22388e-133, 7.18353e-133, -1.18049e-133, -1.27738e-133, 2.60415e-133, 2.1515e-134, -9.15516e-132, 1.00263e-132, -7.29563e-134, -1.92466e-134, -5.06198e-134, 3.37557e-133, -1.97036e-133, -5.31216e-132, -3.75215e-133, 5.43205e-132, -5.36181e-134, -9.43083e-133, -5.13889e-134, 1.25166e-131, 8.62276e-133, 3.19651e-132, -8.46858e-132, 1.52658e-133, -9.95663e-135, 8.77398e-134, 7.49703e-135, -5.6294e-136, -2.19416e-133, 2.05562e-132, -1.13626e-133, -4.26817e-133, 7.91569e-133, 4.78399e-132, 1.03159e-132, -2.37397e-133, -7.59432e-133, 3.44433e-134, -4.58722e-134, -5.64871e-132, -4.35393e-134, 3.15108e-132, -6.03934e-135, -1.01358e-134, 6.98818e-134, 5.82682e-134, -2.41259e-131, 1.57579e-131, 4.0566e-134, -3.47758e-133, 1.78023e-135, -4.34399e-132, 7.47201e-132, -1.1582e-133, -5.85729e-134, 1.00436e-132, -9.33075e-134, 6.62034e-133, -5.56487e-135, 9.90533e-133, -9.85452e-133, 7.62531e-133, 8.7998e-136, 5.64087e-133, 2.82445e-133, 1.26522e-133, 1.30423e-131, 4.63094e-132, -7.62628e-132, -1.12665e-133, 3.7479e-134, 1.12826e-132, 4.53693e-134, -4.70203e-135, 5.17642e-136, 1.63092e-132, -8.45851e-134, -3.40296e-133, 1.47693e-132, 4.70615e-132, -4.45642e-133, -1.35263e-132, -3.03033e-132, 3.85296e-132, 2.96748e-135, -1.34977e-133, 3.45298e-134, -2.88881e-134, -4.60226e-133, 3.07908e-132, 1.10014e-131, 6.62618e-135, 3.25308e-133, 3.16548e-133, -1.29031e-131, 1.70776e-133, -8.36024e-134, 1.24162e-133, 9.53994e-134, -5.04865e-133, -1.07961e-133, 9.95384e-135, 4.3381e-134, -1.53254e-132, 1.19207e-134, -5.35295e-132, -2.84333e-133, -1.33756e-132, -1.55712e-132, 1.15265e-134, 6.47393e-134, 7.40631e-133, 3.82859e-134, 4.28326e-134, 2.66927e-134, 1.98865e-134, 2.71638e-133, -3.49587e-132, -1.97977e-134, -2.0959e-133, 2.28709e-133, -3.15479e-134, 1.38141e-134, -1.28709e-133, -2.94853e-134, 1.01818e-132, -3.14752e-133, 5.31922e-133, 1.62301e-134, -5.51557e-133, 2.09273e-132, -1.12904e-133, 3.92875e-133, -7.14612e-132, -4.26526e-132, -4.14278e-132, 1.64166e-131, 1.21183e-132, 1.95124e-134, -6.70124e-133, 6.84819e-135, 1.22993e-134, 1.68195e-134, -1.66897e-133, 2.38456e-132, -9.03183e-133, 4.03817e-134, -9.68657e-133, 4.39186e-134, -9.83632e-133, 7.96412e-134, 7.57466e-134, -5.13212e-134, 3.58344e-133, -2.88841e-134, -1.14519e-133, 3.82987e-132, 8.74848e-135, -1.50318e-131, 1.30287e-133, -1.00482e-135, 1.31737e-133, 7.80401e-135, 2.87953e-133, 1.51404e-133, -1.42921e-133, 3.75528e-132, -4.23786e-133, -1.14773e-133, 2.54856e-134, -9.44019e-134, 3.26323e-133, -2.42119e-132, 2.19281e-133, 2.05708e-131, -3.12527e-133, -2.16059e-132, 1.02101e-133, 1.77625e-133, 9.60686e-134, -7.39116e-134, 1.29872e-133, -7.58255e-132, 2.80398e-132, 2.66202e-134, 7.34054e-133, 3.5963e-133, -4.09041e-134, 7.85004e-132, 9.8408e-133, -1.64261e-132, 1.93355e-134, 1.55507e-133, 5.12511e-134, 5.21515e-132, 1.56632e-131, 1.98461e-135, 1.78029e-132, -5.55385e-134, -2.52577e-135, -3.74376e-135, -2.71545e-134, 6.70733e-133, 8.62954e-134, -9.98777e-135, 9.18676e-134, 5.23767e-133, 7.18635e-134, 1.41445e-133, -8.38782e-135, -2.57977e-133, -1.2315e-133, -1.48035e-131, 4.74747e-133, 5.64793e-134, 8.69121e-132, -1.57394e-132, 1.19702e-133, 1.43739e-133, 6.6697e-132, -2.60323e-133, -1.85543e-132, 3.36362e-134, 2.07049e-134, 1.9105e-131, 1.77885e-133, -4.68989e-132, -5.85445e-134, -8.76553e-132, -1.72358e-133, -3.55327e-134, 5.0079e-134, 2.89316e-135, -1.8821e-133, 1.86867e-133, -1.32374e-132, -5.72439e-134, -1.37551e-131, 9.06497e-133, -1.15915e-135, -6.56262e-132, 5.06303e-134, -1.32465e-134, -9.95107e-134, 1.51169e-134, 3.4604e-134, -7.79915e-134, 6.0913e-133, 4.86845e-134, -4.53778e-133, -9.76056e-133, 3.6787e-135, -7.65625e-134, -1.62153e-132, -1.09792e-134, -1.3254e-132, 1.86932e-134, 1.74422e-134, -8.10089e-132, 1.06165e-133, -3.80014e-133, -3.96694e-133, 1.19873e-133, 5.94562e-135, -1.81973e-133, 2.82443e-135, 3.05398e-134, -9.42016e-133, 6.88781e-134, -1.93041e-133, 1.97684e-133, -2.56796e-134, 5.42427e-134, -9.1254e-134, 3.32057e-133, -1.54999e-131, 4.32377e-134, 6.43324e-134, -9.10657e-134, 2.48837e-133, 8.86181e-134, -1.21173e-133, -1.19148e-132, 3.66905e-133, 1.08654e-133, 8.34741e-134, -2.59661e-133, 2.65911e-134, 1.07764e-134, 2.86164e-133, 1.87006e-133, -1.30716e-133, 3.86523e-135, -3.26247e-134, 7.8023e-134, 1.59302e-133, 4.38051e-134, 5.92136e-132, 1.26453e-133, -2.11897e-132, -6.08416e-132, -1.17972e-132, -8.2911e-133, 9.25439e-132, -1.41455e-133, 4.91991e-134, 1.26585e-133, -1.49434e-134, 1.84671e-134, -7.66305e-134, 4.17694e-134, 1.39955e-133, -1.88778e-133, -9.61577e-133, -1.33784e-133, 2.66833e-133, 6.23673e-134, -1.4459e-134, -6.98838e-133, 4.75982e-132, 9.9747e-134, -5.86299e-133, -8.67542e-133, 3.21659e-133, 6.45476e-133, 2.45764e-133, 1.0416e-133, -9.87977e-134, -3.80937e-133, 7.90701e-134, -1.94844e-133, -3.54034e-134, 1.54553e-132, 1.93726e-134, 9.23516e-134, 2.47775e-133, 8.06696e-132, 1.08419e-132, -3.74158e-133, -5.81453e-135, -1.17193e-133, -6.82766e-134, 1.48683e-131, -2.0975e-132, -2.55749e-133, -2.83952e-132, 4.39699e-134, -4.7514e-133, -6.10685e-132, 1.02051e-131, -5.73597e-132, -3.6597e-136, 3.61227e-134, -3.39684e-134, 2.66218e-132, 1.31075e-131, -1.39458e-133, -3.10687e-133, 9.04169e-134, 1.57375e-134, -3.64421e-134, -1.48586e-133, 5.2676e-133, -3.31369e-134, -5.44234e-133, 8.88377e-133, 2.90344e-135, 1.12035e-133, 1.40623e-133, -4.1261e-133, 1.00492e-134, -2.81877e-132, 8.59479e-133, -8.9881e-136, -3.22434e-135, 5.03445e-132, 1.31857e-136, 3.57093e-135, 6.52037e-132, 3.21409e-132, -3.97361e-132, 3.25813e-134, 7.24729e-134, 5.52272e-134, 1.86118e-134, 1.19481e-133, 7.00857e-135, 5.02599e-135, -1.4459e-133, -2.21567e-132, 3.47377e-134, -6.20674e-132, -2.74144e-133, -8.29192e-135, 1.77333e-133, 3.15557e-133, 1.46984e-133, -1.88989e-134, -4.98027e-133, -1.02284e-131, -4.34906e-135, -1.33875e-132, -3.58622e-134, -1.0687e-134, 1.79522e-133, 1.30611e-134, 3.66552e-134, -4.53089e-133, 6.3895e-133, -5.41732e-134, -1.4625e-133, -9.67891e-134, -3.18357e-133, -2.1485e-133, 6.26927e-134, -1.31685e-133, -1.33867e-132, -6.05446e-133, -4.17982e-134, -1.54063e-133, 1.24383e-132, 2.95159e-134, -2.48008e-133, 3.86132e-134, -1.482e-133, 3.93823e-133, 6.98636e-133, -1.87397e-133, 7.45663e-133, 1.20547e-133, -3.80195e-134, 3.3222e-132, 1.7891e-134, -4.03007e-136, 3.88322e-132, -7.51628e-134, 7.43439e-134, 3.9101e-132, -1.66538e-132, -8.39214e-133, -4.52533e-132, 7.88932e-134, 1.1426e-133, 2.70023e-132, 2.58241e-133, 2.45403e-133, 4.24992e-134, 3.36718e-135, -9.52482e-135, 2.51751e-132, -1.63285e-133, 1.4712e-132, 1.6541e-133, 6.6561e-135, -2.43614e-133, -1.86115e-133, 2.43806e-134, -4.93638e-133, -1.30906e-134, -1.2239e-132, 5.0277e-133, 2.97722e-133, -6.63549e-134, -3.22729e-133, -1.60848e-132, 1.14725e-135, -1.03787e-133, 1.24808e-132, -2.03363e-133, -4.03672e-134, 2.91788e-133, -4.94517e-134, 7.92926e-133, 4.07119e-133, 5.94642e-134, 8.49215e-133, 4.02609e-134, 2.28846e-133, 6.05646e-132, 1.54118e-133, -1.88414e-133, 5.12472e-132, 5.02005e-133, 6.66083e-134, -6.69464e-133, -2.39226e-134, 1.41039e-133, 8.01549e-134, 2.48918e-132, -1.00371e-133, -1.60298e-134, 3.6731e-132, 2.00499e-132, -5.28095e-133, -3.14957e-132, -8.37175e-133, 3.45095e-132, 5.53921e-134, 1.20423e-132, 1.32163e-132, -8.91389e-133, -1.72087e-131, 1.96867e-132, 3.24244e-134, -1.38067e-137, 3.96159e-133, -2.67946e-133], [0.198888, -0.104105, -0.0418874, 0.199803, -0.264292, 0.0941718, 0.162424, -0.124607, 0.13162, -0.326657, 0.18007, 0.0925587, 0.000171354, -0.0517322, -0.215564, 0.00467026, 0.195389, -0.119619, -0.0914111, -0.30809, -0.156488, -0.105462, -0.138268, 0.227504, -0.0753004, -0.304015, -0.136556, -0.0783479, -0.140271, -0.0255876, -0.0518526, 0.0180558, 0.0879112, 0.152953, 0.0697433, -0.307526, -0.56537, 0.0169456, 0.00816626, -0.250956, -0.136816, 0.0190376, 0.173459, 0.223158, -0.46605, -0.0248645, 0.0599907, 0.0190676, -0.272412, 0.224039, -0.269017, -0.520252, 0.186088, 0.278926, -0.0680323, 0.122102, 0.0172598, -0.0977148, 0.395251, 0.161742, 0.244736, 0.176052, 0.074425, -0.0811876, 0.124013, -0.11316, 0.181548, 0.0422187, -0.19354, 0.0938295, -0.435089, -0.0349353, 0.00552341, 0.155763, -0.173731, -0.179984, -0.00270459, 0.315103, 0.0950232, -0.0326727, 0.0753928, 0.241195, 0.269449, -0.0478906, 0.324791, 0.120157, -0.0105217, 0.215169, 0.0636275, -0.0984163, 0.198027, 0.0209038, -0.265158, 0.190215, -0.109929, 0.250623, 0.10877, -0.226718, -0.0009898, 0.0674834, -0.237573, 0.118372, -0.118584, -0.0762348, 0.0204416, 0.068582, 0.177998, 0.107675, 0.16514, -0.0112524, 0.177939, -0.130052, -0.0230495, -0.0568237, 0.0587556, 0.125325, -0.164497, -0.0645327, 0.130419, -0.172683, -0.277639, 0.111439, 0.103224, -0.118911, -0.275457, -0.229719, 0.0293317, 0.167621, 0.039164, 0.0977376, -0.0624333, 0.0846693, -0.117912, 0.271613, -0.238365, 0.00223379, 0.122292, 0.0431465, -0.243839, 0.0528023, 0.0104186, 0.0473601, -0.112867, -0.0146415, -0.115473, 0.0567774, -0.179172, 0.0255951, -0.0461243, -0.207086, -0.00739566, -0.148501, -0.198268, -0.270984, -0.150513, -0.103519, -0.0586442, 0.12363, -0.119932, 0.106916, 0.222441, 0.0214862, 0.111275, -0.00626421, 0.0762396, 0.0435647, 0.146265, -0.155584, 0.0817695, 0.288974, -0.104707, 0.0701417, 0.0984743, 0.0303042, -0.23894, -0.0838947, 0.209167, -0.0340811, 0.0510354, 0.0334559, -0.143145, -0.0924816, 0.224185, 0.0713378, 0.562701, 0.195995, 0.0771151, -0.0532236, 0.0791701, 0.169743, -0.100715, 0.0915834, -0.0373542, 0.120788, 0.0766702, 0.0026802, -0.30907, 0.0191321, -0.00980954, -0.184429, -0.0591892, -0.0119975, 0.0588888, -0.226121, -0.22796, 0.0314309, 0.242584, 0.0860739, 0.120302, -0.0727455, -0.299421, 0.121676, -9.67657e-05, 0.101147, 0.159817, 0.151833, -0.181681, -0.0134693, -0.132388, 0.0126703, 0.249104, 0.0289903, 0.0270214, -0.305399, -0.393668, -0.0236243, -0.0206, 0.0684546, 0.171927, 0.0409271, -0.0131379, -0.0901821, -0.0375587, 0.215422, -0.164072, 0.118765, -0.088185, -0.125206, 0.0633248, -0.20442, -0.132186, 0.0977739, -0.1733, 0.107369, -0.116342, -0.0459597, 0.0948054, 0.141988, 0.10366, 0.0917528, -0.284569, 0.104274, -0.0537751, 0.0419564, 0.390668, -0.139802, -0.0761379, -0.0185792, -0.00507913, 0.0305927, -0.246894, 0.013855, 0.00969267, 0.0353516, -0.18944, -0.14559, 0.101807, 0.349977, -0.169428, 0.0600846, -0.0225939, 0.0830424, -0.0934494, -0.0642852, -0.27103, 0.251373, -0.192851, 0.00266469, -0.163987, -0.0629391, 0.332191, 0.0288849, 0.000161811, 0.0911113, 0.212933, -0.168491, -0.172228, -0.231636, -0.0256139, 0.122217, 0.0908892, -0.0713808, -0.183312, -0.160311, -0.0542376, 0.304901, -0.294259, 0.101885, 0.321101, -0.303657, -0.0865376, -0.0399819, 0.274367, 0.136177, -0.118855, 0.358309, 0.000460094, -0.171967, -0.068438, -0.0411765, 0.332637, 0.348387, 0.194956, -0.010653, -0.177511, 0.0566058, -0.0517142, -0.0265274, -0.151036, 0.0694042, 0.051534, 0.139613, -0.0306969, -0.245412, 0.0270291, 0.100425, -0.121747, 0.194563, -0.117417, -0.148379, 0.0329351, 0.106033, 0.148539, 0.195685, -0.0290347, -0.0994285, 0.20653, 0.0741995, -0.0343356, -0.103116, -0.0791525, 0.0958087, -0.0717539, -0.0601634, 0.0584077, -0.0811723, 0.226817, 0.301485, -0.0538125, -0.0299848, -0.0161991, -0.0338911, 0.0637917, -0.0162057, 0.0601786, -0.213258, 0.0973967, 0.207657, 0.262153, -0.0106732, 0.32957, 0.0145277, -0.0742448, -0.0901283, -0.0117648, 0.0935642, -0.0956182, -0.0530372, -0.423959, -0.0533084, 0.17126, 0.107528, -0.000938147, 0.382964, 0.117628, -0.208054, 0.00276862, 0.12383, 0.474012, -0.112877, 0.0026621, -0.00695184, -0.0184935, 0.251695, -0.212522, -0.0116508, 0.136754, 0.0814681, 0.0950261, 0.359597, 0.300163, -0.294925, -0.111431, -0.0765623, -0.0822686, 0.232152, -0.0840213, 0.272099, 0.506507, -0.131971, 0.177437, -0.303193, 0.0882422, -0.0783571, 0.0703055, -0.0356911, -0.326679, -0.06804, 0.104425, 0.0574774, -0.0143044, -0.190164, 0.10215, 0.0829929, 0.126122, 0.224517, -0.337335, 0.0702373, -0.121492, 0.191034, -0.240003, -0.0366566, -0.0709792, -0.0225385, 0.302187, 0.0147595, -0.304905, 0.325095, 0.0665633, -0.1739, -0.10103, 0.216236, 0.45736, 0.185044, -0.0593476, -0.00599834, -0.152752, 