{"type": "mlp", "dim": 768, "T": 1.1346, "layers": [{"W": [[0.13122, 0.18215, 0.041169, -0.14426, -0.31147, -0.2513, 0.022883, 0.15111, -0.1069, 0.24801, -0.090292, -0.00091185, 0.055736, -0.038852, 0.13961, -0.053263, 0.14984, 0.071054, -0.11791, -0.12351, 0.24455, 0.058626, 0.090653, 0.03132, 0.17739, -0.11587, 0.13819, -0.14206, -0.012662, 0.044818, -0.10602, -0.23275, 0.12353, 0.096262, -0.020052, 0.18224, -0.029367, -0.13714, -0.061059, 0.082675, -0.088822, -0.015551, 0.074976, -0.38539, 0.16878, 0.18555, 0.039326, -0.069745, 0.13137, -0.029763, -0.084114, -0.28994, 0.32023, 0.24023, -0.10713, -0.075531, -0.16808, 0.018239, -0.19982, 0.15453, 0.18399, 0.052134, -0.14608, -0.12855, 0.026364, -0.23654, -0.001205, -0.1389, -0.17956, 0.45153, -0.62054, 0.22616, 0.15443, -0.21569, -0.097021, -0.20181, -0.07668, -0.098759, -0.012073, -0.14412, -0.037889, -0.032457, 0.041697, 0.0087032, 0.050758, -0.16534, -0.18473, 0.076162, 0.1861, 0.050335, 0.01226, -0.31839, -0.091204, -0.047036, 0.099515, -0.086228, 0.062773, -0.089546, 0.28388, 0.18566, 0.019067, 0.027765, -0.13576, 0.043238, 0.04504, -0.11477, -0.12837, 0.12582, -0.15249, -0.04921, -0.039673, 0.2025, -0.20375, 0.081859, 0.19758, 0.049226, 0.21241, -0.01762, 0.24915, 0.055511, -0.1073, 0.15366, 0.17926, -0.13433, 0.18568, -0.016238, -0.084015, 0.063527, 0.04867, -0.05655, -0.21585, 0.079409, -0.025962, 0.21716, -0.022823, 0.16492, -0.015639, 0.0079518, 0.043533, 0.18338, 0.086996, -0.011249, 0.26754, 0.16802, 0.0007404, 0.14493, -0.05994, -0.48882, 0.017727, -0.22002, -0.024302, -0.016645, 0.084983, 0.12529, -0.12681, -0.17043, -0.079711, -0.41629, 0.13295, -0.19534, -0.093668, -0.063233, -0.042242, 0.11083, -0.2046, 0.19056, 0.08225, 0.063135, 0.31973, -0.25608, 0.27424, 0.21964, 0.14574, 0.22516, -0.050023, -0.072341, -0.10387, 0.039267, 0.10576, -0.029484, 0.0067246, 0.12186, -0.53556, -0.044651, 0.01914, -0.35468, -0.24121, -0.056268, 0.22273, -0.035396, 0.017924, 0.15843, -0.19764, 0.29231, -0.0057965, 0.14544, 0.23948, -0.17917, 0.069742, -0.017023, 0.19933, 0.14689, 0.14556, 0.077132, 0.047224, 0.01146, -0.11521, 0.06635, -0.2539, 0.051888, 0.020051, 0.21006, 0.1216, -0.20686, -0.18661, 0.30043, -0.01739, 0.14389, 0.010457, 0.037327, -0.083048, 0.096934, -0.027847, -0.30805, -0.18001, 0.15269, -0.0094771, 0.028583, 0.19374, 0.22308, -0.18408, -0.14521, -0.11511, 0.045162, 0.015137, -0.12533, -0.0065337, 0.21384, 0.057463, 0.0014187, -0.23958, -0.14315, -0.15765, 0.11543, -0.026921, -0.037875, -0.1543, -0.019868, -0.0014364, 0.29244, -0.16683, -0.22558, 0.054838, -0.086367, 0.22618, 0.15483, -0.0087631, -0.048702, 0.070724, -0.10968, -0.34214, -0.058207, -0.44433, -0.055273, -0.07569, 0.10146, -0.062453, 0.092672, -0.052105, -0.068757, 0.24983, -0.078455, -0.15843, 0.027715, 0.13188, 0.16525, 0.023403, -0.1929, 0.04704, -0.10869, -0.0399, -0.057368, 0.12604, 0.13966, -0.00091417, 0.13825, 0.066462, -0.17302, 0.053976, 0.063533, -0.089274, -0.041785, -0.21306, -0.14909, -0.025685, 0.24634, -0.1208, 0.22691, 0.0080013, 0.10871, -0.19418, -0.098675, -0.037805, -0.018832, 0.18357, -0.060693, -0.04518, -0.11121, -0.081263, 0.0052811, -0.11712, 0.045726, 0.074764, -0.012245, 0.14123, 0.0057802, -0.012956, 0.082145, -0.070256, 0.017442, -0.041156, -0.075507, 0.40243, 0.20398, -0.12189, 0.16714, -0.098524, 0.065249, 0.10817, 0.39868, -0.11659, 0.0032182, -0.11105, -0.049584, 0.0076838, -0.089198, -0.20012, -0.14207, 0.1623, 0.16937, -0.1416, 0.0043101, -0.26843, -0.01877, -0.08817, 0.0032291, 0.14848, -0.28903, 0.04458, 0.028098, 0.15822, -0.27559, 0.032679, -0.095009, -0.15791, 0.015997, 0.030862, -0.36777, 0.14229, -0.35739, 0.070916, 0.079676, -0.030416, 0.31168, -0.094107, -0.064006, 0.084181, 0.024499, -0.18839, -0.10599, 0.023555, 0.13603, -0.048802, 0.0074921, -0.083863, -0.17518, 0.18002, -0.043697, -0.5688, -0.18605, 0.21299, -0.31549, -0.25292, 0.014521, 0.091566, 0.26907, 0.048766, 0.045727, 0.046533, 0.077663, -0.28813, 0.074233, -0.071789, 0.063185, -0.032186, 0.10782, -0.032108, -0.17649, 0.11314, 0.095192, 0.05663, 0.072803, -0.63648, -0.042811, -0.073132, -0.085084, -0.10752, -0.17331, -0.12123, 0.26763, -0.0016532, -0.19422, 0.097549, 0.25567, 0.015765, -0.049499, -0.1516, 0.16525, -0.065307, 0.039557, -0.098548, 0.018726, -0.1546, -0.038851, 0.36996, -0.019854, 0.37715, -0.11473, 0.067631, -0.0047104, 0.027397, 0.29699, -0.10079, -0.42866, 0.041411, 0.17015, 0.01524, -0.01074, 0.049985, 0.2879, -0.26805, -0.3365, -0.04278, -0.11717, -0.11678, -0.057021, -0.1248, 0.045276, -0.23885, -0.12927, -0.050222, 0.041118, -0.15998, 0.051893, -0.041818, 0.11012, 0.061614, 0.15239, -0.18299, -0.13533, -0.092318, 0.22488, -0.26977, -0.38148, -0.18352, -0.22077, 0.44382, -0.049715, -0.12797, -0.11581, -0.040079, 0.065407, 0.12499, -0.060137, -0.018808, 0.14473, 0.23262, -0.20756, 0.064967, -0.057265, 0.24253, 0.23184, -0.10922, -0.12105, -0.036221, -0.082081, -0.098754, 0.14005, 0.0062503, -0.19042, -0.27171, 0.40483, 0.081097, -0.37439, -0.089468, 0.38482, 0.079173, -0.25856, -0.077592, 0.039859, -0.17701, -0.4079, -0.24935, -0.063524, 0.10333, -0.089785, 0.091524, 0.053884, -0.082304, 0.046033, 0.10852, 0.093716, -0.40534, 0.14044, -0.25164, -0.13593, 0.10899, 0.30604, -0.11048, 0.073819, -0.34558, 0.076017, -0.049387, 0.061457, 0.12788, 0.119, 0.014021, -0.019704, 0.15053, 0.0091738, -0.078251, 0.029948, 0.12481, 0.032423, 0.027956, 0.33379, 0.26022, -0.061111, -0.072904, -0.086937, -0.035162, -0.048764, -0.29483, -0.038616, 0.15211, -0.031704, 0.026669, -0.3776, -0.0054046, -0.26311, -0.11929, 0.079402, 0.068075, 0.0094368, 0.034442, -0.043169, -0.23867, 0.26112, -0.18012, -0.45693, -0.19771, -0.05073, -0.18149, -0.026409, -0.25098, -0.13931, -0.054529, 0.10082, 0.0095223, -0.0084754, -0.022973, -0.043895, 0.14475, -0.20079, 0.21595, 0.010571, -0.14609, 0.089521, -0.063143, -0.012049, -0.090094, 0.052555, 0.18276, -0.055079, 0.18052, -0.13875, 0.19795, -0.014255, -0.069543, 0.18124, 0.059583, 0.17648, -0.01184, 0.040211, -0.029837, -0.0050958, -0.081288, 0.11334, 0.096296, 0.02518, 0.053722, 0.10574, -0.060171, -0.22436, 0.042754, 0.03425, 0.20112, -0.080374, 0.086176, 0.0097702, -0.20695, 0.24953, -0.26465, 0.39817, 0.02734, 0.14806, 0.359, 0.034628, 0.3109, -0.13401, -0.14683, 0.091722, 0.15445, -0.0638, 0.013245, -0.12224, -0.015975, 0.063982, 0.11782, 0.16971, 0.052277, -0.18263, -0.18661, 0.27271, -0.26478, 0.12147, 0.04318, -0.037052, -0.012024, 0.21722, 0.052347, -0.21643, -0.10088, 0.062024, 0.013984, 0.08851, 0.015249, -0.12705, -0.012947, -0.21856, -0.17624, 0.066218, 0.063432, -0.1519, -0.045884, -0.32419, 0.11479, 0.16739, -0.10331, 0.023465, -0.015754, 0.40312, -0.11824, 0.015807, 0.22928, 0.067486, 0.027709, -0.022334, -0.15049, 0.23345, -0.31961, -0.43001, 0.18156, 0.093129, -0.027196, 0.062493, 0.10734, 0.090492, 0.087495, 0.045782, -0.006852, -0.49747, -0.04535, -0.20822, 0.17141, 0.10552, -0.077855, -0.14585, -0.030564, -0.036702, 0.025251, -0.18269, -0.057252, 0.012411, 0.027418, 0.23691, 0.32088, 0.080068, 0.052203, 0.10463, 0.30218, -0.21579, 0.19669, 0.081867, -0.1503, -0.17635, -0.055818, -0.019317, 0.094395, 0.20885, -0.017018, -0.46847, -0.09978, 0.019783, 0.61368, 0.23874, 0.080655, -0.14241, 0.016544, -0.20148, 0.11359, 0.17865, 0.051204, -0.026371, -0.0078773, 0.18797, -0.12153, -0.10737, 0.088788, -0.085128, -0.11204, 0.056933, -0.0092716, 0.12732, 0.15346, -0.15756, 0.015901, 0.023232, -0.062912, -0.17669, -0.27004, 0.13876, 0.12107, -0.085341, 0.17369, 0.13924, 0.20381, 0.098496, 0.13793, 0.072284, 0.24476, -0.17756, 0.081643, -0.22498, -0.0823, 0.14352, -0.1115, 0.024772, 0.021059, -0.19645, -0.3505, -0.090564, -0.10395, -0.08435, -0.029817, 0.34041, 0.22345, -0.031715], [-0.062978, 0.039544, 0.057962, 0.028948, -0.0047188, 0.062331, 0.030137, -0.028662, 0.025886, -0.026242, -0.10156, 0.10284, -0.075631, -0.13378, -0.035315, -0.013199, 0.075284, -0.064187, -0.039119, 0.072313, -0.0064788, 0.01043, -0.011513, 0.062707, 0.033031, -0.012809, 0.063289, -0.023375, -0.049077, -0.016259, -0.039135, -0.038367, -0.081052, -0.13105, -0.081695, 0.028054, -0.056287, -0.12993, 0.03191, -0.12381, -0.14202, -0.0989, -0.13147, -0.11861, 0.021031, 0.074212, 0.12853, -0.11382, 0.034221, 0.051207, 0.04947, 0.021944, 0.04087, 0.042515, -0.06858, -0.034433, 0.086074, 0.1135, -0.092408, -0.066537, -0.04122, 0.0031835, 0.020291, -0.16011, -0.043177, 0.049299, -0.075708, 0.13282, 0.053054, -0.039055, -0.060699, 0.087142, -0.05731, 0.04022, 0.060135, -0.058979, -0.031051, -0.028004, 0.14486, 0.071529, -0.059909, -0.032479, -0.036963, 0.061006, -0.16106, -0.092627, -0.11903, -0.090628, -0.002702, 0.067725, 0.054504, -0.029887, 0.12306, -0.07815, -0.090335, -0.082653, -0.12317, -0.090506, -0.031891, -0.0082797, -0.051045, 0.058998, 0.0092829, -0.041127, -0.019457, 0.1198, 0.1503, -0.015508, 0.067667, -0.062893, -0.096117, -0.10644, 0.02851, 0.022057, 0.024041, 0.011818, 0.062682, 0.045887, 0.020829, 0.091022, 0.00095038, 0.050781, -0.02968, -0.032037, -0.084608, -0.04924, -0.14195, 0.0288, -0.037798, 0.025023, -0.093247, 0.084277, -0.055157, 0.028895, -0.0029713, -0.010895, 0.0015371, 0.068669, 0.0083106, 0.014572, 0.027895, 0.05286, -0.1196, 0.019231, -0.037775, -0.048647, 0.069851, 0.22189, 0.057465, -0.025875, 0.0052031, 0.016385, -0.10573, 0.084686, 0.10408, 0.18628, -0.046559, -0.016702, 0.071798, 0.050311, -0.033311, -0.039273, -0.035255, -0.10561, 0.013402, -0.021844, -0.030099, 0.0055542, 0.0012572, -0.027928, -0.021654, -0.028304, 0.12251, -0.072354, -0.10403, -0.0071625, 0.18774, -0.096034, 0.04213, 0.031993, 0.0062037, 0.12498, -0.03519, 0.07661, -0.079394, 0.056712, -0.076674, 0.0649, -0.043362, 0.042177, -0.12699, -0.0074995, 0.06335, -0.052784, -0.081194, 0.053142, 0.0018493, -0.060494, 0.037584, 0.088507, -0.097771, 0.036539, -0.063609, 0.036043, -0.13421, -0.0063736, -0.14987, 0.033302, -0.08167, 0.017974, -0.024408, 0.051047, 0.14906, 0.073608, -0.048458, 0.007732, 0.062614, -0.00077102, 0.10426, 0.046707, 0.015045, 0.077802, -0.079375, -0.0096562, 0.0083418, -0.049447, -0.055075, 0.027932, 0.021031, -0.017476, 0.1117, 0.096103, -0.051675, 0.021466, 0.044231, 0.0011618, 0.11032, -0.08401, 0.092949, 0.093322, -0.048558, -0.017834, -0.040349, 0.11546, -0.030859, 0.075165, -0.00022544, 0.090667, 0.039583, 0.039147, -0.012995, 0.15692, 0.015948, 0.091648, -0.096134, 0.12274, 0.03572, -0.099369, 0.084944, 0.10716, 0.092234, 0.12276, 0.092259, 0.018713, -0.16883, -0.1678, -0.0011542, 0.05343, 0.12082, 0.045572, 0.080976, -0.010389, 0.072048, -0.097469, 0.056376, -0.0017971, -0.0427, 0.02468, 0.022973, -0.098868, 0.080939, -0.06207, 0.09933, 0.10445, 0.0073431, 0.029753, -0.03817, 0.19961, 0.016086, 0.0030988, -0.11245, -0.012189, 0.096798, -0.049526, -0.008884, -0.078073, 0.078164, 0.031405, 0.039277, 0.1298, 0.068542, -0.094889, 0.029213, -0.0084524, 0.093852, -0.13567, 0.0011905, -0.028468, -0.045124, 0.14128, -0.064294, -0.16033, -0.047421, 0.0064721, -0.043752, -0.029922, 0.24829, 0.0085569, -0.013947, 0.01178, 0.0438, -0.068495, -0.010155, -0.0027583, 0.047262, 0.14346, 0.046021, -0.11442, 0.059016, -0.1213, 0.0069158, -0.014921, -0.056108, -0.04694, -0.050182, 0.17556, 0.036407, -0.093104, 0.015797, 0.12222, -0.10681, 0.059339, 0.18145, -0.072752, -0.014145, -0.071737, -0.11251, 0.13919, 0.049667, -0.018628, 0.014276, 0.075382, -0.083277, 0.076475, 0.013228, -0.18173, -0.13648, -0.042763, 0.044274, -0.095543, 0.13647, 0.025993, -0.19238, -0.0019652, 0.078391, 0.12153, 0.084005, -0.056298, -0.0027554, -0.12998, 0.058454, 0.086124, -0.10428, 0.059341, -0.13538, -0.036753, -0.015276, -0.10443, 0.17748, -0.074548, -0.045243, -0.016348, 0.073925, 0.044062, -0.0083352, 0.0022812, -0.063433, -0.047797, 0.012772, -0.068052, 0.010594, -0.071126, -0.022765, 0.058589, -0.014837, -0.073384, 0.051718, -0.0050512, -0.12546, 0.076161, -0.056871, 0.004866, 0.05588, -0.037312, -0.10215, 0.064294, -0.07726, 0.11622, -0.024012, 0.011639, -0.08883, -0.017268, -0.015109, -0.0051581, -0.02441, -0.053352, 0.16754, -0.018811, 0.049664, 0.12853, 0.010361, 0.0033813, -0.046507, -0.088068, 0.056431, -0.018654, 0.11175, -0.038987, 0.079859, 0.019312, -0.090426, -0.031156, 0.057034, -0.11724, -0.075041, 0.010141, 0.065599, -0.10124, -0.1613, 0.030529, 0.080678, 0.069277, 0.029559, 0.082666, -0.035626, 0.072522, -0.011979, 0.0079522, 0.14473, -0.01853, -0.076925, 0.038953, 0.078794, -0.04182, -0.040944, -0.041422, 0.079623, 0.047499, -0.063197, -0.0046514, -0.0027695, 0.043477, -0.012557, -0.1396, 0.0069158, 0.057511, -0.014175, 0.13536, 0.13143, -0.15113, 0.0057379, 0.1189, -0.07887, -0.02136, 0.010645, -0.081876, -0.013683, 0.074349, -0.017127, -0.059566, -0.11375, 0.10446, 0.056438, -0.091057, -0.034523, 0.043961, 0.055387, -0.055578, 0.085128, -0.070856, 0.049698, -0.13204, -0.00075634, 0.015463, 0.18124, 0.015098, -0.10518, 0.077291, 0.093977, 0.079457, 0.074449, 0.028854, -0.016713, -0.06241, -0.00035907, 0.038017, 0.14758, -0.00093295, 0.030548, 0.042361, -0.074571, -0.0038019, 0.16914, 0.083064, 0.009135, 0.079031, 0.063552, -0.20977, 0.26307, -0.037278, 0.15282, -0.052234, -0.010169, -0.062403, 0.0083051, 0.06464, -0.029475, 0.01445, 0.033979, -0.025023, -0.04716, 0.00413, 0.0072512, -0.024558, -0.059325, -0.12058, 0.053132, -0.13641, 0.039018, 0.019287, 0.17683, -0.011333, 0.079997, 0.0042396, -0.05565, 0.001401, -0.080837, 0.094325, -0.014448, 0.055313, 0.11575, 0.052534, -0.2746, -0.038424, -0.0069246, 0.11647, 0.057251, -0.068055, 0.083736, -0.021253, -0.14326, -0.069064, 0.080721, 0.044762, 0.039658, 0.050816, 0.05255, 0.017211, -0.066381, -0.0015901, 0.049124, -0.099759, -0.083311, -0.025877, -0.042162, 0.029874, 0.006615, -0.049968, 0.065694, 0.053228, -0.029124, -0.033262, -0.01435, -0.028978, 0.00024833, 0.072023, 0.10179, 0.036617, 0.017539, 0.0057093, -0.080861, -0.17718, 0.13132, -0.053545, -0.016558, -0.17003, 0.1313, 0.094226, 0.10309, 0.10499, -0.034672, 0.086986, 0.13302, 0.065826, -0.015914, -0.043406, -0.053991, 0.0033165, 0.0063645, -0.070422, 0.053232, 0.0059522, -0.062628, -0.088139, 0.034825, 0.020279, -0.011551, -0.03021, -0.13031, -0.076773, -0.054731, -0.028939, 0.073285, -0.044027, 0.037073, -0.075031, -0.011233, -0.063814, 0.03402, -0.042541, -0.029262, 0.019243, -0.15714, 0.015637, 0.082105, -0.12923, 0.013309, -0.14864, -0.14387, -0.09078, 0.033215, -0.14482, 0.12509, 0.0096552, -0.015786, -0.030273, -0.078853, 0.089295, 0.068846, 0.13783, 0.01098, -0.021948, -0.20132, 0.041346, -0.066078, -0.011335, -0.014459, 0.062247, 0.051341, 0.070963, 0.075897, -0.011843, 0.077324, 0.045899, -0.071715, 0.069196, 0.038818, 0.077428, 0.12669, 0.015667, 0.16738, 0.048817, -0.02025, 0.049601, 0.016744, 0.17359, 0.099884, -0.038524, -0.11492, -0.0122, 0.024856, -0.022834, -0.0097203, -0.083085, -0.14979, -0.084861, -0.096226, 0.04705, 0.07111, -0.088832, -0.12865, -0.076947, -0.073509, -0.097678, 0.018068, 0.070247, 0.051985, -0.066502, 0.14706, -0.07121, 0.036832, 0.079308, 0.084681, -0.01471, 0.048034, 0.10778, 0.085071, -0.019913, -0.069612, -0.058124, 0.018865, 0.089406, -0.096867, -0.034494, -0.1531, -0.0065332, -0.072369, -0.14383, -0.059491, 0.047338, 0.024103, 0.10016, 0.02071, -0.014627, 0.075067, 0.19892, 0.036304, 0.024253, 0.07264, 0.087062, 0.078144, -0.032517, -0.1111, 0.032944, 0.0022895, 0.052788, 0.092809, 0.16489, -0.050242, 0.077638, 0.21429, -0.038651, -0.0079805, -0.0091515, 0.00337, -0.15386, -0.05082, 0.0021393, 0.027267, -0.046504, 0.02346, 0.028795, 0.048263, -0.062982, -0.18048, 0.10337, -0.036005, -0.077258, -0.011419, 0.071634, -0.15019, -0.021916, -0.1246, -0.11212, 0.0044143, -0.088496, -0.073798, 0.046056], [0.10181, 0.012837, 0.12317, 0.043394, 0.16464, 0.047454, 0.055709, -0.039437, -0.043877, -0.081008, -0.0023897, -0.17931, -0.059391, 0.037885, -0.019131, 0.039596, 0.066759, -0.090503, 0.0018418, -0.023106, 0.029352, 0.03446, 0.060116, -0.042037, -0.021507, -0.013924, 0.0072703, -0.040871, -0.031172, 0.085412, 0.016887, -0.0092666, 0.070398, -0.013424, 0.062641, 0.10905, -0.087245, -0.055544, 0.064623, 0.13442, 0.17708, 0.082111, 0.1295, 0.056696, 0.10283, 0.059638, -0.062304, 0.13662, 0.016535, 0.011964, -0.02211, 0.04303, -0.042427, 0.051524, -0.047433, 0.0026287, -0.065997, -0.12469, -0.06708, -0.032996, 0.1278, 0.020998, 0.008835, -0.04334, -0.16238, 0.10537, 0.067962, 0.064125, -0.025197, -0.056376, 0.22874, -0.0086858, -0.047185, 0.010636, -0.0011489, 0.043093, 0.032104, -0.086149, -0.028179, 0.17358, 0.052706, -0.013671, -0.047912, -0.17632, 0.057824, 0.0034557, 0.087576, 0.11495, -0.073282, -0.057106, 0.021072, 0.12181, -0.054961, 0.0078817, 0.013016, 0.13454, 0.082917, 0.16535, -0.042322, 0.0090032, -0.013488, 0.056558, -0.069514, -0.068813, -0.020713, 0.15962, 0.052311, 0.038396, -0.13533, 0.14162, 0.061704, -0.027904, -0.032328, 0.0102, 0.12449, 0.085744, -0.047827, -0.086009, -0.0073168, -0.033607, -0.20271, -0.07685, 0.19817, -0.13368, 0.058448, 0.13615, 0.0092845, -0.037236, -0.070993, 0.089823, 0.030699, -0.071041, -0.12635, 0.10562, -0.03449, -0.01774, 0.12028, -0.093033, -0.020936, -0.0046167, -0.16478, 0.055214, 0.01762, -0.084892, 0.0017106, 0.057234, -0.048496, -0.15025, -0.020809, 0.0025576, -0.25071, 0.03518, -0.18816, 0.10064, -0.080452, 0.025607, 0.00039098, 0.10471, -0.0074726, -0.18687, 0.11131, 0.043783, -0.030258, 0.052235, -0.011758, 0.062393, 0.061326, -0.12391, -0.017334, 0.021548, -0.05486, -0.026128, -0.08142, 0.093775, 0.15897, 0.018915, -0.10847, 0.055797, -0.02273, -0.04628, 0.048083, 0.094116, 0.10725, 0.033906, 0.12932, -0.035737, -0.10149, -0.1302, 0.12888, -0.14594, 0.17935, 0.081892, 0.10943, 0.044105, 0.046964, 0.051621, 0.073284, 0.14463, -0.097756, -0.011751, 0.068676, -0.26099, 0.098612, 0.064046, 0.2394, -0.088976, 0.095466, -0.0010056, 0.009995, 0.14184, 0.27067, -0.0034176, -0.077153, -0.0025422, 0.087663, 0.005217, -0.15058, 0.098315, -0.046143, 0.0074077, -0.078082, -0.031946, -0.12622, 0.14639, 0.10596, 0.23632, 0.10185, 0.0052018, -0.099229, 0.1644, -0.01142, -0.07377, -0.0031133, -0.065662, -0.087318, -0.073754, -0.013776, -0.14758, -0.034689, 0.00077768, 0.18371, -0.039621, -0.0058256, 0.073845, 0.17743, 0.0023892, 0.21014, 0.034851, -0.049277, -0.0049616, 0.033487, 0.09081, 0.01237, 0.026509, -0.21065, -0.26064, -0.075897, -0.04298, -0.26215, -0.10645, 0.056498, -0.11092, 0.14896, 0.0048856, 0.13029, 0.2016, -0.033049, -0.036983, 0.02589, -0.074473, -0.085617, 0.062977, 0.11288, -0.023992, -0.106, -0.14008, 0.030506, 0.020409, -0.011999, 0.13257, -0.043612, 0.056606, 0.019467, 0.06143, 0.055599, -0.12551, 0.054796, 0.00068952, 0.048314, -0.067847, 0.090162, -0.07392, 0.15468, 0.063437, -0.011204, 0.052417, 0.046408, 0.025802, 0.097821, 0.12944, 0.028251, -0.062902, 0.012639, -0.11923, -0.089666, -0.03672, 0.017166, 0.10363, -0.0058675, -0.04816, 0.0043445, 0.065189, 0.10828, -0.061429, 0.033887, 0.21083, -0.19239, 0.007261, 0.085582, -0.033584, 0.098286, 0.035146, -0.058644, 0.072943, -0.01667, 0.016979, -0.14173, -0.060612, 0.019479, 0.11599, 0.0088997, -0.23652, -0.11392, -0.019741, -0.065878, -0.0061061, 0.15015, 0.11918, -0.099232, 0.080621, -0.038212, -0.088275, 0.025888, -0.058867, 0.012489, -0.019059, 0.020928, -0.010417, -0.15162, 0.026013, -0.10092, -0.026332, 0.1352, 0.080852, -0.0095662, 0.11649, -0.097937, 0.063787, -0.039044, 0.047121, -0.19943, 0.025662, -0.070763, -0.084907, -0.064819, 0.0092284, 0.0069, -0.057668, 0.049127, 0.021257, 0.035109, -0.0071775, -0.032108, -0.048576, 0.0078134, -0.15899, -0.040906, -0.080909, -0.014704, 0.14362, 0.016246, 0.013995, -0.07875, 0.011976, 0.18042, -0.10452, -0.017553, 0.11462, -0.044048, -0.10003, -0.047872, -0.031384, -0.093062, -0.11001, -0.025475, 0.0369, -0.026483, 0.17786, -0.022282, 0.045766, 0.054164, 0.035465, -0.052848, -0.059054, 0.042235, 0.050796, 0.026453, -0.058682, 0.17689, 0.071714, -0.010052, 0.13367, 0.10309, -0.079604, 0.0138, -0.079753, -0.13648, 0.016275, 0.094732, 0.019787, 0.019332, -0.030094, 0.044133, 0.067988, 0.039897, 0.046483, 0.0041486, 0.10312, -0.0013808, 0.10323, 0.079951, 0.067636, 0.09731, 0.10567, -0.021499, -0.13753, 0.046181, 0.091237, 0.040902, 0.069553, 0.21375, -0.018445, -0.065873, -0.16071, 0.21879, -0.023247, -0.085097, -0.020856, -0.019272, -0.054382, 0.18833, -0.071878, 0.091556, 0.14711, 0.0095487, 0.032102, 0.016128, -0.029072, -0.13396, -0.058719, 0.031645, 0.022024, 0.04536, 0.26665, 0.050668, -0.020906, 0.059092, -0.069482, -0.15186, -0.11881, 0.008668, 0.03004, -0.19582, 0.044986, -0.061957, 0.0055528, -0.15227, 0.063087, -0.0070447, -0.0481, 0.021417, 0.015483, -0.040147, 0.081859, 0.070964, -0.032566, 0.10834, 0.02054, -0.1385, -0.0049424, -0.15105, -0.0023197, -0.064649, 0.074643, -0.038071, -0.11103, -0.085267, -0.0086283, 0.11318, -0.067837, -0.096807, 0.12368, 0.041863, -0.24188, -0.09012, -0.17453, -0.13485, -0.15233, -0.11597, 0.072284, -0.015951, -0.088815, -0.022747, 0.015939, 0.13424, -0.073258, 0.124, -0.068876, -0.049467, -0.11636, -0.023422, -0.10631, 0.016644, 0.0088022, -0.0064246, -0.037732, -0.088389, -0.0049851, -0.10628, 0.035362, -0.080155, -0.13522, 0.050806, 0.024778, -0.030545, -0.10422, 0.014338, -0.015454, -0.046119, 0.015031, -0.20392, -0.06362, 0.14772, 0.12334, -0.023102, 0.062161, -0.12671, -0.021671, 0.12913, 0.058448, -0.030234, -0.043323, 0.04338, -0.0034959, 0.094412, -0.047616, -0.10089, -0.077324, -0.0010009, 0.095229, 0.10427, -0.087395, -0.074464, 0.044017, -0.085336, -0.066784, 0.018119, 0.12803, 0.036378, -0.069242, 0.14047, -0.083699, 0.067797, 0.086003, -0.029216, 0.10502, 0.019754, 0.096228, -0.039988, 0.04084, 0.13306, 0.01988, -0.089944, 0.064105, -0.012488, 0.078298, -0.024338, 0.06589, -0.015121, 0.017234, -0.083809, 0.037596, -0.1492, -0.10517, 0.022666, 0.081398, -0.082566, 0.054132, -0.0045959, -0.078088, -0.053189, 0.013847, -0.11954, -0.035108, -0.043765, -0.045639, 0.036466, 0.023038, -0.30135, -0.025147, 0.098936, 0.0029945, -0.025838, -0.13769, 0.042122, 0.13765, -0.038651, 0.0052165, 0.098143, 0.09776, -0.081229, 0.14526, -0.034741, 0.055474, -0.027586, -0.099423, 0.0017777, 0.00014438, 0.064154, -0.038407, -0.10467, 0.16293, -0.039335, 0.014807, -0.034684, -0.046803, 0.016357, 0.11071, 0.045739, 0.0023017, -0.021977, -0.020329, 0.042856, -0.027366, 0.0063572, -0.12212, -0.049549, 0.015451, -0.062072, 0.012559, 0.010171, -0.095889, 0.018987, -0.013633, 0.064356, 0.089101, -0.04583, 0.089208, 0.074534, 0.21761, -0.08658, 0.046313, -0.045497, 0.061787, 0.03112, 0.0022665, 0.030181, -0.062062, -0.085769, 0.085398, -0.23506, -0.045732, -0.040863, -0.05698, -0.091985, 0.21905, 0.12335, 0.1636, 0.061615, -0.07902, -0.10348, 0.040485, 0.014392, 0.059034, -0.10099, -0.11791, -0.13701, 0.11852, -0.048481, -0.0029411, 0.061459, 0.0017231, 0.008667, -0.03698, -0.068751, -0.035859, 0.028292, -0.03772, -0.13676, -0.041939, -0.075016, -0.0023422, 0.14062, -0.01245, -0.066643, 0.080742, 0.0055323, 0.060896, -0.03493, -0.069021, 0.054966, 0.036044, 0.088989, -0.0050502, 0.1484, -0.056032, -0.083925, -0.0078025, 0.093676, 0.05923, 0.072922, 0.010148, -0.0097433, -0.039372, -0.11938, 0.02445, -0.022827, 0.043709, -0.12265, -0.0041356, 0.0055956, -0.046851, 0.08786, -0.085285, -0.15378, 0.026661, -0.12281, -0.099473, 0.10275, 0.011545, 0.0096313, 0.080168, 0.1736, 0.0089694, -0.058641, 0.093307, -0.048147, 0.055356, 0.061053, 0.025961, -0.10836, -0.036292, -0.14249, -0.079487, 0.11861, 0.064932, -0.032913, -0.051833, 0.061544, -0.035122, 0.14663, 0.030357, -0.15729, 0.053201, 0.10067, 0.096372, 0.074935, 0.074474], [2.0586e-05, -0.00046936, 6.2475e-05, -0.00044915, -0.00019433, 0.0020545, 0.00083668, 0.00043707, -0.00025807, 1.2324e-05, 5.2388e-07, -2.2076e-08, -0.0025255, -0.00099984, 0.00069184, 0.0021356, -0.00067745, 0.00035909, -0.00060511, 1.2502e-06, -0.00010174, 0.0010023, -0.00077646, -9.4417e-07, -0.00038529, -5.4692e-05, 5.6598e-09, -0.0010979, 0.00029457, -0.00112, -0.00037995, 0.00051986, -0.00066823, -0.00033557, -0.00048264, -0.0014719, -8.9334e-06, 3.5844e-05, -0.00013755, -0.00027699, -0.0003262, -0.0010138, -0.0006684, -5.156e-06, -8.4343e-05, 0.00029773, -0.00064209, -0.00025571, 0.0021081, 0.00013384, 7.2551e-06, -8.9418e-07, -0.0012109, -2.8127e-05, 0.0012435, 0.00082479, -1.3136e-05, -0.0015404, 0.00057218, -0.0023154, 2.8699e-06, -0.001161, 0.00057792, -0.0017244, -0.00093744, 0.00017792, -5.8041e-06, 1.1568e-05, 0.0016441, 6.5034e-05, 4.0282e-08, 0.00028886, -0.00081684, 1.0791e-05, 0.0011252, 0.00012291, 0.0034568, -1.0996e-05, -1.3153e-05, 1.0101e-06, -0.0019978, -4.6893e-05, -0.00073628, -0.00035274, -0.00021308, -1.0722e-05, 0.00013108, -0.0024742, -0.00039686, -0.000454, -0.00083362, 0.00018065, 0.0019222, -0.00030522, -0.00010741, -4.6597e-05, -8.6881e-05, -2.1974e-05, -0.00056479, 0.0021184, 2.4926e-08, 0.0013747, 0.0011277, 0.0014326, 0.0028342, -9.0208e-09, 1.524e-05, 0.00045043, -0.0014429, 0.001508, 0.00077923, -0.00072504, -0.00039477, 0.0012161, -0.0012454, 0.00011877, -6.4476e-05, 0.0022327, 9.4207e-07, 0.0003455, 7.5174e-06, -0.00090143, -5.4132e-07, 3.4635e-06, -0.0002681, 1.8828e-05, 2.9558e-06, 0.00012639, -0.00021096, 0.0016551, 2.2783e-05, 0.00078092, -8.6271e-07, -0.00022525, 0.00044251, -0.0011826, -0.00031676, -0.0003246, 0.0003668, -1.455e-07, -0.00036371, 0.0024007, -2.7343e-11, -0.00059881, -0.0011517, 0.0047525, -0.00026105, -7.4382e-06, -3.0682e-06, -0.00025548, -0.00089589, 0.00045599, -1.3276e-06, 0.00051892, -0.00015199, 8.8413e-06, 0.0026833, 2.1676e-05, 0.00014545, -0.00054948, -0.00055729, -0.0011132, -0.00042147, 4.234e-05, -0.0020247, 0.00032607, 0.00010796, -0.00020537, 0.00034365, 6.7429e-05, 0.001242, 0.0020798, 0.0013771, -0.00050208, -2.0698e-07, 0.00032515, 0.00024541, 0.00035098, 2.0029e-05, 0.0032583, 0.00088327, 6.4179e-05, 0.00057599, -0.00095154, 2.6379e-08, 0.00031593, 0.00050475, 2.7899e-05, -0.00022382, 2.7721e-05, 3.0512e-05, -0.0014568, -0.00080168, 8.7471e-08, -0.00035292, -0.00037293, 4.7362e-05, -2.8732e-05, 0.0013267, 0.0021588, -5.0269e-05, 1.8135e-06, -0.00027009, -0.00045373, -1.1775e-07, 0.0024711, -7.932e-05, -0.0024437, -0.0013833, -0.0011629, 1.4181e-05, -0.0018012, 0.0015729, -5.71e-05, 0.00016226, 0.0022396, -0.00012039, -0.0013246, 0.00070429, -0.00050336, -3.1032e-06, 0.0023159, -0.0012886, 8.4571e-09, 8.3169e-05, 1.8017e-08, -0.000279, 2.6169e-05, -0.00011695, -9.001e-05, -0.00084833, -0.0013915, 0.00072329, -0.00057542, 0.0014122, 0.00097138, -0.00031436, 5.8738e-06, 0.00071251, 0.005153, 0.00012512, -0.00082523, -3.2414e-05, 0.00014756, -0.00057405, 0.0011303, 0.0014414, -0.00312, 0.0009846, -3.1387e-07, -6.2839e-06, 4.4343e-05, -0.00052884, 0.00082143, 8.0018e-06, -9.0181e-05, 0.0034373, -5.4854e-06, -7.5476e-05, -0.00012406, -2.5614e-05, 0.0010011, 1.8985e-05, 0.0011331, -1.01e-05, -0.00012014, -0.005851, 0.00053082, 0.00021601, 0.0011479, 4.4128e-05, 5.5302e-05, 0.00076193, -0.0021303, -6.3246e-06, 0.00043713, 0.0032172, -0.00024925, 0.0027352, 0.00017299, 6.7579e-05, -0.0025921, 0.001937, 0.00040961, 0.00079534, -3.5989e-07, 0.0015833, -0.00012062, 0.0022407, -0.0004104, -0.0019764, -0.0020194, 4.9748e-07, -0.00016467, -0.0012164, -0.00027579, -0.00039706, -0.00037717, 6.178e-05, 5.8222e-10, 0.0001503, 0.00081737, -0.0015244, 0.0027837, -1.0763e-05, -0.00058327, -0.0053138, -0.0011972, 0.0018245, -0.00021306, 0.00048578, 2.8982e-06, 0.0012901, -0.0005953, -0.00015509, 0.00085348, -4.5923e-05, -0.0034651, -0.00011113, -3.605e-05, 0.00067253, -0.0030932, 0.00092421, 0.0010411, -0.00027171, 0.00021644, -0.0018029, -6.1893e-05, -0.0025436, 1.7402e-09, 8.7521e-05, -0.0012533, 1.1472e-05, -0.00094232, 0.0024447, -0.00019136, 0.00051647, 0.0010031, -0.0047903, -2.0402e-05, 0.0013119, 2.3332e-05, -4.7335e-05, 8.2327e-05, -0.0018218, 0.0019659, 5.9939e-05, -1.2297e-05, 0.00028713, -0.00026654, -0.00016979, 0.002466, -0.00041821, 9.7999e-05, 0.00050875, -7.0105e-06, -0.00059551, 6.4379e-07, 0.00058766, 5.4645e-05, 0.00056715, -6.2697e-05, 4.7678e-05, 7.1532e-05, -0.00019945, -0.0019025, 0.00025168, 0.00010321, -6.526e-05, 5.3058e-06, -0.0030904, -0.00036212, 3.4277e-05, -1.0414e-06, -0.0005817, 0.00038071, -0.001777, 0.0013452, -7.7527e-06, -1.7432e-05, -0.0027622, -0.0012887, -0.00026767, -0.00022126, 9.3459e-05, -0.00041651, -0.00074282, 0.0034497, -0.00076587, 5.6594e-07, -0.00021952, 0.0016351, 0.001313, -0.00084412, -0.00016028, 0.00022409, -0.00076305, 6.7119e-05, -1.0085e-05, 0.00085659, -0.0025232, -0.00068687, 8.6176e-05, -0.0017977, -0.0011983, -0.0019802, -0.0001493, -0.0019835, 7.9398e-07, 0.00020226, -0.0014708, 0.00015269, -0.0014508, 5.6235e-05, -7.9938e-05, 0.00043278, 1.7597e-05, -0.0005536, -0.00071599, -0.00031435, 0.00059601, -0.00068955, -1.6512e-07, -0.0012495, -2.0763e-05, 0.0033042, 0.00034269, 1.4342e-06, -4.258e-05, 0.0016643, 0.000339, -9.9858e-05, -7.792e-06, -5.0606e-06, -0.00060586, 0.0020654, -0.00048423, -0.001762, 0.00026012, -0.00027863, 2.5871e-06, 6.1341e-07, -0.00016537, 2.1255e-05, 0.00018401, 3.8789e-06, 0.00081219, 1.7821e-07, 0.00013513, 1.0287e-05, -7.3768e-05, -3.4997e-05, -0.00038948, 2.9284e-05, -0.00047958, 0.00066586, -0.00026936, -1.0316e-06, -0.0001177, 0.0078433, -0.00076101, -0.001989, 1.5016e-08, 7.2391e-05, 0.00027337, 0.0025762, 1.7294e-07, 0.00019264, -0.0011328, -2.7589e-05, 0.00048647, 0.00028554, -0.00015257, -0.00028826, -0.00095608, -0.00080874, 1.6181e-06, -0.0012304, -0.0036995, 0.00062555, -2.1135e-05, 0.00029602, 0.00059988, -0.00015727, -0.00096849, -0.0016059, 0.0016314, -0.00028301, -0.00010597, 0.0012672, 5.6998e-05, -4.4355e-05, -0.00063898, 0.00018708, -0.00022637, -0.00017173, 5.2844e-05, 0.00045445, -0.0025613, -0.00012829, -1.7957e-06, 0.00033658, 0.0015368, -5.8788e-09, 0.0024148, -0.00070373, 6.3688e-05, -0.00021688, -8.9593e-05, 1.0734e-05, -0.0053816, 0.0017317, 6.4569e-07, 0.00011169, -8.5649e-06, -2.38e-06, 0.00070521, -6.2298e-05, -0.00012246, 0.0013442, -3.2002e-06, 7.8063e-08, 0.0017218, 0.0003379, -0.00087715, 0.0012612, -1.177e-06, 0.0014963, -0.00082177, 0.00017015, -0.00059131, 0.0011531, -0.00069392, 0.0025703, 0.0021032, -1.7512e-05, 3.8114e-06, 5.1403e-06, -0.00059454, 6.6116e-06, 4.3827e-06, 2.7301e-05, -0.00059798, 4.3328e-05, -0.00019317, 0.00018509, -0.00045003, 0.00021342, -2.049e-05, 2.3483e-05, -0.00039531, 0.00043285, -2.4525e-06, -0.0034403, 0.0034141, -0.00079026, 2.1596e-06, -9.967e-09, -0.00048531, 6.196e-07, -5.9106e-05, 0.0008453, -6.8329e-05, -0.0020081, 6.3842e-07, -0.00073565, -0.00020227, 4.2277e-12, 0.00034026, -0.00078409, 0.0019541, -0.00027769, -5.2328e-05, 0.000913, -0.00035769, -4.3177e-05, 0.00084303, 0.00014817, -0.00061311, 0.0020584, 0.00085473, 0.00098018, 0.0007641, -0.0020689, -0.0006462, -0.00054945, -0.0001959, 0.00026001, 0.0093377, -0.00023999, 0.00015409, 0.00082602, 5.1474e-06, -0.0002353, -0.00027859, 1.6271e-05, -0.00012868, -0.00018834, -0.00080878, 0.0012319, -0.0006366, 0.00018263, 0.0017665, 1.2554e-10, -2.8546e-07, 0.00057228, -2.3861e-05, -0.00033575, 2.9012e-06, -0.00097542, 0.0011742, 0.00033264, 0.00083623, 1.7565e-07, 4.6413e-05, -9.0782e-05, -0.00016282, -0.00012561, -0.00026672, -2.421e-05, -0.00321, -0.00065325, 0.00042402, 0.00064404, 0.0011862, -5.6428e-05, 0.0023007, -0.002791, -2.741e-07, 0.0046822, 0.0021159, -8.5541e-05, -7.468e-06, -0.0005845, -0.00053945, 5.4432e-07, 0.00017732, 0.00057703, -0.00012575, -0.00011932, 0.0066165, -5.8333e-05, 1.1088e-05, 5.0717e-05, -0.0004029, -0.00017158, -0.0011535, 0.00050518, -0.0012836, -0.0014766, 0.00044471, -0.00069273, -8.7575e-08, 8.9168e-05, -0.00085572, 0.00027341, 0.00040148, -2.0628e-06, -0.00059056, 0.00034339, 0.00069591, -0.00018742, -0.00060569, -4.9745e-09, -0.00010193, 0.00010492, 0.0021616, -0.00049563, 0.00091861, 0.0023744, 5.6244e-06, -0.0001007, 0.002327, 0.00063213, 0.00010004, 2.4972e-06, -0.00043822, -0.00039746, 0.00029769, 0.00090787, -5.3482e-08, -5.7484e-12, -4.8047e-05, 0.00092551, -2.0221e-05, -0.00163, -0.00026291, 0.00044454, -3.2328e-06, -9.3307e-07, -7.3265e-05, -0.00027522, -0.001483, 0.00025163, 0.0026745, 9.0126e-06, 0.00035901, 0.00072794, -0.00020458, -0.00070773, -0.0010385, 7.762e-05, -3.6315e-05, 2.4384e-05, -0.0022163, -1.5148e-07, 0.00055932, 0.0023902, 0.0019802, 0.00012765, -5.8081e-05, 1.9761e-06, -0.0017662, 0.0003704, -7.7606e-08, -0.00065754, -0.00029414, -1.8233e-05, 0.0015334, 0.0016662, -0.0025507, 0.00026853, 0.00063369, -0.0017766, -0.00080965, -2.7737e-06, -0.0013102, -0.00043375, -0.002257, 0.0025466, 9.5641e-05, -0.00014286, 0.00043934, -6.0423e-05, 6.1424e-06, 0.00067672, -4.1459e-05, -7.463e-07, 4.9505e-05, 0.0011863, -1.2252e-06, 0.0001216, 0.00073317, -0.00070611, -0.00023532, -2.4455e-06, 0.00011236, -0.00023876, 0.0014381, 0.0034203, -0.00073077, -1.8323e-05, -1.809e-05, 1.1367e-06, 2.8589e-05, 0.00018951, -9.0083e-07, -0.00038672, 0.0012935, -3.1956e-05, -0.00074197, -9.115e-05, 2.1768e-06, -1.8218e-08, -0.0037389, 0.00057568, 0.0015118, -0.0021046], [-7.6408e-39, -5.5221e-39, 4.0817e-39, 6.1172e-39, -2.8478e-39, -9.7295e-40, 1.0086e-38, 1.1697e-38, -1.6207e-39, -2.6271e-39, -1.1227e-38, -4.3214e-40, 6.7966e-39, 3.3845e-39, -6.973e-39, -3.5562e-39, 6.2121e-39, 6.6463e-39, 6.7948e-40, 6.3638e-39, -8.0965e-39, -5.5967e-39, 1.7805e-39, -5.6566e-39, 7.8361e-40, 8.2066e-39, -1.0359e-38, 2.7606e-39, -6.4075e-39, 6.532e-39, 3.9475e-39, 1.1839e-38, 5.5532e-39, 2.7496e-39, -1.2041e-38, 6.5891e-39, 5.5473e-39, -7.4031e-39, -1.1313e-38, -5.2338e-39, -2.485e-39, -3.9814e-39, -7.1434e-39, 6.9012e-39, -3.0548e-39, -4.2199e-39, 5.7673e-39, -6.9806e-39, 5.7556e-39, 1.7047e-39, -1.0052e-38, 1.2038e-38, -2.0925e-39, -8.8199e-39, 4.318e-39, -1.1662e-38, -8.8779e-39, 7.3342e-39, 1.498e-39, 2.6445e-40, -6.418e-39, 4.3755e-39, 9.8456e-39, 1.1337e-38, 9.1182e-39, 1.1568e-38, -1.013e-38, -3.0416e-39, 1.2181e-38, 2.2436e-40, -4.8466e-39, 6.7365e-39, -1.7698e-39, -4.7592e-39, 1.123e-38, 4.5642e-39, -3.4567e-39, 7.4815e-39, 1.2375e-38, 6.1393e-39, 6.0321e-39, 4.8678e-39, -5.9263e-39, 1.0732e-38, -1.0156e-38, -5.763e-39, 5.2969e-39, 1.1612e-38, 5.4374e-39, 8.0168e-39, 1.1548e-38, -3.534e-39, 4.9059e-40, 2.2003e-39, -5.2268e-39, 1.3514e-39, -2.2358e-39, -1.6778e-39, -1.3025e-39, -2.8068e-39, -6.9163e-39, 8.7133e-39, 2.5236e-39, -3.556e-39, 1.9364e-40, 1.1924e-38, 1.9393e-39, -3.1947e-39, -9.5391e-39, 1.8874e-39, -5.3219e-39, -2.2331e-39, -2.4238e-39, 5.8939e-39, 9.7943e-39, 9.1115e-40, -2.7202e-39, -1.2718e-38, -5.3481e-39, -6.3645e-39, -1.0339e-38, 3.7563e-39, -2.0472e-39, -5.6678e-39, 4.0771e-39, -9.7115e-40, 1.0459e-38, -2.6237e-39, 4.5484e-39, -4.1426e-39, -7.8021e-39, 5.2921e-39, 3.7666e-39, -4.8553e-39, 6.7731e-39, -1.2751e-38, -4.0854e-39, -9.5932e-39, -9.9021e-40, -1.135e-38, -7.3993e-39, -1.118e-38, -1.1613e-38, -6.8607e-39, 1.0486e-38, 1.145e-38, -5.0902e-39, 3.9368e-40, -2.1145e-39, -1.4185e-39, 1.1865e-38, 4.0388e-39, -2.9091e-39, -2.0181e-39, 4.9624e-39, 1.1682e-38, -8.9291e-39, 1.1551e-38, 5.1544e-39, -1.1801e-38, 6.2613e-39, -7.1085e-39, -4.6073e-39, 3.9324e-39, 1.0189e-38, 4.1928e-39, 9.2772e-39, -7.1577e-39, 9.8255e-39, -4.8739e-39, 1.521e-39, -6.5831e-39, 3.3097e-39, -8.9423e-39, -1.0119e-38, 1.205e-38, 8.6962e-40, 3.5832e-39, 5.1246e-39, 4.7384e-40, -1.8427e-39, -1.366e-38, 1.1631e-38, 2.4671e-39, -9.5599e-39, -2.5413e-39, 1.0727e-38, -1.1972e-38, -4.4145e-39, 4.503e-39, 5.6579e-39, -1.1573e-38, -4.4392e-39, -3.7046e-40, 6.8265e-39, -1.9055e-39, -1.5095e-40, 1.4015e-39, 7.7944e-39, -1.0075e-38, 4.2461e-39, -1.2256e-38, 8.5531e-39, 4.7538e-40, 8.8362e-39, 1.2953e-38, 6.5246e-39, 1.0522e-38, -3.8497e-39, 8.5311e-39, 4.6771e-39, 5.9653e-39, 4.9623e-39, -2.6227e-39, 6.9062e-39, 2.3605e-39, -2.0283e-40, -6.0854e-39, 1.0794e-38, -3.2356e-39, -6.0793e-39, 2.019e-40, -5.1227e-39, -4.9593e-39, 6.5604e-39, -5.6847e-39, 1.1194e-38, -1.3171e-38, -7.5861e-39, -1.2968e-38, -8.1445e-39, 6.8864e-39, -8.8306e-39, -1.3846e-39, -1.0951e-38, -5.5519e-39, -7.3494e-39, -9.4081e-39, -1.0363e-38, -9.3948e-39, 8.4988e-39, -3.505e-39, -3.8975e-39, 9.5637e-39, 4.5885e-39, -6.0853e-39, -8.82e-39, 1.1439e-38, -1.077e-38, 1.1202e-38, 5.1056e-39, 1.1171e-38, -3.2443e-39, 4.1932e-39, -2.4701e-39, -3.0373e-39, -9.569e-39, -1.6141e-39, -5.0074e-39, 9.5327e-39, 9.362e-39, 5.1795e-40, 4.9512e-39, -5.3219e-39, -2.021e-39, -8.0316e-39, -2.5903e-39, 3.4691e-39, 1.0184e-38, -7.9778e-39, -3.0306e-39, -6.8503e-39, -1.8865e-39, 2.7057e-39, -9.4254e-40, -1.1502e-38, 9.1202e-40, -7.504e-40, 1.2656e-39, -5.2502e-39, 9.3649e-39, -2.5701e-39, -7.0037e-39, -1.0819e-38, -4.4674e-39, 5.8111e-39, 1.0868e-38, 1.654e-39, 4.3113e-39, 1.1862e-38, -1.5812e-40, 2.9951e-39, -1.2241e-39, 1.1151e-38, -3.0225e-39, 7.7956e-39, 1.1489e-38, 1.2974e-38, -5.1582e-39, -5.7892e-39, -9.5694e-39, 2.8941e-39, 6.8496e-39, 6.1705e-39, -7.3673e-39, 1.2648e-38, -1.1383e-39, 1.3128e-38, -1.0571e-38, -6.592e-39, 1.0283e-38, -1.2066e-39, -4.6822e-39, -7.4299e-39, 6.8773e-39, -7.2749e-39, -5.4964e-39, -4.5225e-39, -3.7766e-39, 6.5453e-39, -4.4602e-39, -5.5602e-39, -1.0363e-38, 9.8841e-39, 6.6098e-39, 1.8571e-39, 1.2981e-38, 1.1782e-38, 9.7952e-39, 6.0628e-39, 7.3456e-39, 9.2338e-40, 4.4493e-39, -3.3968e-39, 1.0251e-38, 1.2082e-38, 2.0958e-39, 6.5029e-39, -7.5584e-39, 4.7434e-39, -1.957e-39, 7.2376e-39, 1.2657e-38, -8.5563e-39, 5.4647e-39, -5.6366e-39, -8.9787e-39, 3.5214e-39, -9.8e-39, 1.0902e-39, 3.6261e-40, -1.8273e-39, 7.0938e-39, -3.4887e-39, -1.2332e-38, -5.0942e-40, -1.0623e-38, -1.0385e-38, -1.2626e-38, 3.2238e-39, -1.5111e-39, 4.2203e-40, 1.1178e-38, 4.8958e-39, -1.1966e-38, -6.813e-39, -3.7184e-39, 9.8918e-40, -8.4836e-39, -3.0418e-39, 5.0637e-39, -1.2932e-38, 3.3268e-40, 5.9581e-40, -4.2669e-39, -4.5539e-39, 7.5564e-40, 3.0945e-39, -6.8854e-39, 7.8535e-39, 1.0548e-38, 7.6297e-39, 5.7948e-39, 1.3529e-38, -9.9007e-40, -1.366e-39, 4.6131e-39, -3.1752e-39, 7.4464e-40, -5.7506e-39, 3.8929e-39, -6.2662e-39, -5.4075e-39, 2.2664e-39, -6.3487e-39, -7.0334e-39, 5.3226e-39, 6.8389e-39, 5.3368e-39, 5.8834e-39, 3.4546e-39, -9.8797e-39, 7.247e-39, 4.356e-39, -2.3986e-39, 1.5447e-41, -3.4479e-39, 3.6195e-39, 7.1499e-39, -1.0987e-38, -4.0471e-39, -1.0842e-38, 9.4022e-39, -6.1185e-39, -5.6596e-39, -1.4e-39, 6.5379e-39, -7.9515e-39, -2.9247e-39, 6.6819e-39, -5.3028e-39, -4.7228e-39, -6.2162e-40, -1.1967e-38, 1.2132e-38, -5.3109e-40, -1.4041e-39, 7.3428e-39, 3.7738e-39, -1.018e-38, 6.2518e-39, 6.9084e-39, 5.3076e-39, 8.7025e-39, 4.2253e-39, -7.5489e-39, -2.2055e-39, 8.1493e-39, 3.3851e-39, 1.0872e-38, -1.1627e-38, -9.0567e-39, 1.2441e-40, -9.0049e-39, 7.1755e-39, 1.4624e-39, 2.6297e-39, 1.1188e-38, 8.8493e-39, -1.1248e-38, -6.9545e-39, -5.093e-39, -4.5303e-39, -1.3148e-38, -5.2759e-39, 1.6077e-39, 6.6248e-41, -1.2715e-39, 7.7183e-40, 3.0219e-39, 1.3586e-38, 6.0321e-39, 2.3234e-39, 5.2556e-39, -7.7051e-39, -6.0909e-39, 6.006e-39, -6.8979e-39, 1.1855e-38, -9.7779e-40, 1.075e-39, 4.0729e-39, -4.6632e-39, 1.0501e-38, -7.2768e-39, 4.9234e-39, 9.7915e-40, 3.0621e-39, 1.1967e-38, -4.4571e-39, -3.7087e-39, 1.2007e-38, 1.0374e-38, -4.3821e-39, -9.5671e-39, 4.6269e-39, 3.6033e-39, -9.1132e-40, -7.3414e-39, -2.4645e-39, 6.9773e-39, -8.8827e-39, 7.5293e-39, -1.1744e-39, -7.6386e-39, -5.0344e-39, 1.1546e-38, -6.456e-39, -3.3004e-39, 7.2136e-39, -3.6519e-39, -8.6003e-39, -5.5413e-39, -1.5619e-39, 9.9845e-39, 6.8099e-39, 7.8542e-39, 8.9328e-39, 1.2487e-38, 5.1829e-39, 5.9237e-39, 8.5477e-40, -9.0619e-39, -1.0719e-38, -7.2419e-39, -9.2189e-39, 1.1826e-38, -5.2948e-40, -1.2992e-38, 6.7259e-39, -5.5115e-39, 8.8213e-39, -7.8472e-39, -8.4973e-39, 3.5349e-39, 9.7981e-39, -1.4346e-39, 6.3799e-39, 6.9889e-39, -9.9488e-39, 6.9597e-39, 1.2738e-38, 6.7651e-39, 6.1123e-39, -7.4122e-39, -1.5004e-40, 1.2586e-38, 1.1484e-38, 1.059e-38, -1.1635e-39, 6.4607e-39, -7.5551e-39, 4.7506e-39, 4.0002e-39, 7.4998e-39, 6.895e-39, 9.3023e-39, -3.5661e-39, 7.4623e-39, 7.8699e-40, 2.9616e-39, -3.7275e-40, 4.2369e-39, -9.6898e-39, 8.5453e-39, -8.8621e-39, 9.5481e-39, 1.1366e-38, -1.0123e-38, 7.7151e-40, 1.0897e-38, 6.2411e-39, -7.1256e-39, 1.1524e-38, 5.0795e-39, 8.6723e-39, 1.2235e-38, 8.9296e-39, -2.1262e-39, 7.1571e-39, 5.495e-39, 8.3781e-39, 1.1691e-38, 2.4789e-40, 1.1185e-38, -5.1488e-39, -8.2691e-39, -1.729e-39, 9.2571e-39, 5.948e-41, -1.5974e-39, 1.1816e-38, -2.7152e-40, -5.3348e-39, 4.8251e-39, 8.8624e-39, -1.8621e-39, 2.6268e-39, 7.7175e-39, -3.1362e-39, -1.1832e-38, 1.2038e-38, -7.6209e-39, -1.1656e-38, 5.5682e-39, -1.4408e-39, -4.9054e-39, 1.0773e-38, 7.4954e-39, 2.4387e-39, -5.3374e-39, -1.8079e-39, -7.39e-39, 5.3118e-39, 7.7246e-39, 6.7703e-39, 6.5192e-39, 1.2723e-38, -8.7239e-39, 1.0146e-38, -1.0358e-38, 1.9842e-39, 8.1274e-39, -1.466e-39, -8.5869e-40, -1.0897e-38, -4.3216e-39, 2.2372e-39, -4.5351e-40, 4.8991e-39, 1.0787e-38, -3.7989e-39, 7.0938e-39, -5.7816e-39, -4.8449e-39, -4.3623e-39, -9.1232e-39, -2.9949e-39, 6.9861e-39, 2.7965e-39, 8.1045e-39, -2.1554e-39, -4.5094e-39, -5.0823e-39, -8.7216e-39, -1.1196e-38, 3.932e-39, 1.0007e-38, -6.3565e-40, 1.3017e-38, 2.2401e-39, -2.0801e-39, -2.2853e-40, -1.3365e-38, 4.8109e-39, -7.0102e-39, 6.1965e-39, 1.2204e-38, -5.1399e-39, 7.1632e-39, -1.1286e-38, 4.5941e-39, -1.2301e-38, -3.4553e-39, -4.5982e-39, 7.7786e-39, 8.138e-39, -9.0573e-39, 5.4378e-39, -6.0253e-40, 8.6927e-39, 5.5176e-39, -8.4908e-39, -4.6301e-39, -7.4223e-39, -1.1629e-38, -1.1124e-38, -7.3806e-39, -1.0738e-38, -1.8658e-39, -6.807e-39, 4.7118e-39, 1.2932e-38, 1.293e-38, -3.9014e-39, -1.0537e-38, 3.606e-39, 7.4545e-39, 2.8169e-39, 4.0173e-39, -3.8059e-39, -4.7794e-39, 1.8086e-39, 1.0649e-38, -2.2198e-39, -7.3267e-39, -1.0811e-38, -1.501e-39, 9.4309e-39, 3.9973e-39, -8.0973e-39, 4.1062e-39, -7.3145e-40, -3.8515e-39, -1.0055e-38, 6.8527e-39, 2.2874e-39, 1.0412e-38, -5.7362e-39, -3.842e-39, 4.3184e-39, -4.2163e-39, -1.1256e-38, 9.1568e-39, 4.284e-39, 1.9504e-40, -3.319e-39, -3.8519e-39, 2.5012e-39, -7.7095e-39, 1.1293e-38, -2.5858e-39, 1.1668e-38, 1.1039e-38, 1.0154e-38, 3.9581e-39, 9.5588e-39, 5.2285e-39, 5.5928e-39, -8.1087e-39, -1.0185e-38, 4.6125e-39, -7.5764e-39, -4.3161e-39, 1.2711e-39, -9.8734e-39, -4.2529e-39, 9.6549e-41, 7.6948e-39, -1.2914e-38, -5.3888e-39, -9.5495e-39, 1.0098e-38, 1.0504e-38, 7.3534e-39, 3.7545e-39, 6.177e-39, 4.0619e-39, -1.2804e-38, 6.7415e-39, -1.1588e-38, 9.605e-40, 5.9387e-39, 1.1139e-38, -6.8865e-39, -7.583e-39, -7.3466e-39, 6.2265e-39, -3.616e-39, 2.6319e-39, 3.4804e-39, 1.3231e-38, -9.1592e-39, -8.4813e-39, -4.1612e-39, 5.2589e-40, 7.94e-40, -1.1131e-38, -6.035e-39, -5.1352e-39, 9.4023e-39, 1.5412e-39, -1.1172e-38, -6.9923e-39, -1.195e-38, 7.5225e-39, 1.2668e-38, 7.6518e-39], [0.068156, -0.16129, -0.0086503, 0.16706, -0.062906, 0.0045002, -0.05069, 0.024837, -0.070683, -0.036323, -0.12861, 0.10281, 0.076711, -0.17958, 0.009762, 0.052472, 0.0018979, -0.21457, -0.071131, 0.018299, -0.027431, -0.038254, -0.077241, -0.019409, -0.001458, 0.20736, 0.015321, -0.088514, -0.10077, 0.076236, 0.060339, -0.097469, -0.13354, -0.23259, -0.10702, 0.049356, -0.093812, -0.097698, 0.027246, 0.20161, 0.0024202, -0.0537, -0.066852, -0.25232, 0.042941, -0.047018, 0.10149, -0.13459, 0.04453, -0.17164, -0.041216, -0.05165, -0.057439, 0.11251, 0.057255, -0.0030243, 0.070768, 0.041921, -0.089783, 0.074521, 0.0019335, -0.1062, 0.069846, -0.13324, 0.048617, 0.041288, 0.10976, 0.16696, 0.064619, -0.12201, -0.10001, 0.012359, -0.20363, 0.014937, -0.0068058, -0.1088, 0.08514, 0.03955, -0.026846, -0.062346, -0.0033681, -0.0082252, -0.18526, -0.082181, -0.095747, 0.26983, -0.043576, -0.057237, -0.10714, -0.028292, 0.12824, -0.10021, -0.0041066, 0.0907, 0.089177, -0.13736, -0.13851, -0.10216, 0.063068, 0.095744, -0.18232, 0.00011667, -0.016354, 0.12252, 0.079388, 0.075904, -0.0057268, 0.043705, -0.075104, 0.11477, 0.029826, -0.068769, -0.21913, -0.06396, -0.040493, 0.079488, -0.1539, 0.029705, 0.11776, 0.098672, 0.025728, 0.062269, 0.030362, -0.22026, -0.021248, -0.17647, 0.17764, 0.020328, 0.071546, 0.012406, 0.094641, 0.017701, 0.10473, -0.0077757, 0.0090502, 0.066222, -0.034824, 0.037619, -0.063822, -0.16711, 0.00085589, -0.10388, 0.20215, -0.0043069, -0.0078139, 0.068325, 0.075533, 0.1652, 0.037059, -0.054662, -0.084734, -0.15008, -0.18506, -0.036571, -0.025555, 0.26834, 0.074938, -0.04269, -0.069349, 0.094993, -0.047165, 0.014279, 0.097731, -0.089364, -0.1155, 0.13181, -0.0037883, 0.091754, -0.064578, -0.031014, -0.048773, -0.012268, 0.042981, -0.17745, -0.20739, 0.079577, 0.075617, -0.11735, -0.15233, 0.09413, -0.088597, 0.054885, 0.002554, 0.088672, -0.092683, 0.1725, 0.03595, 0.064884, -0.0024376, 0.1999, 0.0024883, 0.066297, 0.13148, -0.20388, -0.086047, -0.12784, -0.082797, 0.036746, 0.070214, 0.063776, 0.072151, 0.10761, 0.020034, 0.047675, 0.10327, 0.046567, 0.031974, 0.068538, 0.059695, -0.025341, -0.17844, -0.026321, 0.061161, -0.038133, -0.014341, -0.024174, 0.071057, 0.020221, 0.055257, 0.15943, 0.14879, 0.086452, -0.13282, -0.0061111, -0.16679, -0.044111, 0.1296, 0.047137, 0.034333, 0.095503, -0.12406, -0.054566, 0.0063107, 0.065778, 0.02294, -0.013726, 0.11327, 0.12279, -0.11676, -0.029222, 0.054005, 0.027036, 0.056026, 0.019422, -0.085874, 0.046801, 0.10453, -0.057738, -0.058816, -0.043446, 0.032895, 0.089818, 0.1022, 0.010886, -0.025538, 0.23536, -0.019374, -0.0328, -0.14649, 0.011225, 0.20089, 0.074097, 0.0636, 0.070875, 0.13045, -0.2379, -0.0024892, -0.009863, 0.025572, -0.073595, 0.22293, 0.035338, -0.048273, -0.20168, 0.17387, -0.13815, 0.010135, 0.031428, -0.0033159, -0.003936, 0.033397, -0.021609, 0.1642, 0.026086, 0.030172, 0.12179, 0.026967, -0.098617, -0.024073, 0.07187, -0.088559, 0.090114, 0.005126, 0.048109, -0.033212, -0.093717, -0.051977, -0.0024263, 0.085038, 0.12997, -0.076022, 0.077728, 0.025451, -0.050319, 0.11925, 0.0095643, 0.013211, 0.047502, 0.00010565, -0.076772, -0.090372, -0.063293, 0.089795, -0.04151, 0.038192, -0.020299, 0.035451, -0.011301, -0.069066, 0.046484, -0.16601, -0.0036895, 0.017383, 0.020877, 0.026394, 0.076462, -0.073281, -0.13786, 0.10916, 0.14622, 0.029013, 0.0065616, -0.032637, 0.014656, 0.057723, -0.0057982, 0.072213, 0.15306, 0.045027, 0.12792, -0.057505, -0.020648, -0.12952, 0.15529, -0.020873, 0.065908, 0.13136, 0.080056, 0.15992, 0.058365, -0.050545, 0.012284, 0.16255, -0.10578, -0.021508, 0.073568, 0.074851, 0.0026011, 0.10358, -0.14654, -0.064601, 0.1602, 0.16283, -0.046935, -0.046375, -0.050843, 0.017454, -0.010521, 0.068346, 0.0023359, 0.12509, -0.037331, -0.16105, 0.012463, 0.08701, -0.028562, -0.095641, -0.065299, -0.05032, 0.14156, -0.010769, 0.0099572, 0.11371, 0.047037, 0.15485, 0.013155, -0.064843, 0.085528, 0.072863, -0.078713, -0.0568, 0.016406, -0.060842, -0.029444, -0.092834, 0.013642, 0.05577, 0.0052657, -0.036429, 0.015345, 0.0077632, 0.038252, 0.0038713, -0.0083676, -0.035572, 0.10126, -0.014685, -0.062991, -0.035525, -0.069933, 0.030361, -0.069898, 0.051979, -0.03589, -0.24791, 0.028797, -0.02719, 0.028226, -0.043271, -0.16533, -0.083268, -0.05555, -0.176, 0.016108, 0.16911, 0.085263, -0.0066151, -0.096656, -0.25427, 0.12453, -0.032891, 0.010869, 0.21193, 0.2704, -0.070801, 0.056386, -0.058698, 0.01984, 0.058878, -0.0052203, 0.16866, -0.099068, 0.023355, 0.17823, 0.013322, -0.12933, -0.078678, 0.021532, -0.17021, -0.045572, 0.086482, 0.080935, 0.0032215, 0.0097234, -0.16001, -0.0011688, -0.072571, -0.014302, 0.10505, 0.083137, 0.13857, 0.12746, -0.11897, -0.12777, 0.072949, 0.073356, 0.20589, -0.062464, -0.026276, -0.10315, -0.017021, 0.10027, -0.16043, -0.039364, -0.018035, -0.1061, -0.17601, -0.10918, 0.048606, 0.11586, -0.055534, 0.032724, -0.019429, 0.054386, 0.10005, -0.13753, 0.034893, -0.010414, -0.070372, -0.0039994, -0.10079, -0.071228, -0.17392, -0.01449, -0.13109, 0.043956, 0.044359, 0.053975, -0.096492, -0.036967, 0.15717, -0.0014369, -0.025983, 0.22274, -0.13913, 0.023414, -0.12157, -0.14982, -0.080683, -0.078596, -0.013385, 0.046605, -0.065962, -0.083151, 0.02413, -0.43859, -0.033353, -0.2639, -0.037677, -0.036461, 0.061931, -0.0098791, 0.011601, 0.0010219, 0.12905, -0.12495, -0.12761, 0.037082, 0.10789, 0.11534, -0.011232, 0.083744, -0.053765, 0.062776, 0.046365, 0.12775, 0.059996, -0.036831, -0.011024, 0.2046, -0.1359, -0.011831, 0.14784, 0.088125, -0.0060021, -0.11247, -0.11642, -0.087904, 0.18742, -0.13792, -0.015423, 0.10149, -0.2772, -0.068992, 0.052203, 0.015831, 0.079333, -0.11677, -0.15674, -0.0055189, -0.14235, -0.10237, -0.072525, -0.031029, 0.028159, -0.043046, 0.04326, 0.068049, 0.032547, -0.030964, -0.021667, 0.032785, 0.11584, 0.0029429, 0.080419, 0.027811, -0.01988, 0.074913, 0.075808, 0.053153, 0.097086, 0.033151, -0.013853, -0.097771, -0.049411, -0.017071, 0.045363, -0.026208, -0.023279, 0.051319, -0.08449, -0.013054, -0.21239, 0.009996, -0.095075, 0.27358, -0.072689, 0.095728, 0.0097354, -0.076788, -0.043198, -0.003385, -0.012566, 0.029061, -0.2105, -0.038152, -0.074505, -0.014659, -0.055375, 0.003065, 0.082504, -0.13666, -0.058486, -0.0037336, -0.075597, -0.19149, -0.062744, 0.00015665, -0.072306, -0.11048, -0.01399, -0.041268, 0.015182, -0.095826, 0.030665, -0.061792, 0.12823, -0.040076, 0.15713, 0.089598, 0.077128, 0.14585, 0.16901, -0.039428, 0.030949, -0.35174, 0.085153, -0.15393, 0.13893, -0.12327, 0.068113, -0.17922, -0.1276, -0.18617, -0.061531, 0.10373, -0.14829, 0.15542, -0.068112, 0.074921, 0.11451, -0.054338, -0.17204, 0.12687, -0.036499, 0.012317, -0.0015844, 0.095148, 0.033173, 0.13939, -0.077195, -0.07267, 0.051568, 0.0826, 0.013324, -0.013219, -0.019576, 0.069236, -0.028508, 0.0034721, 0.10315, -0.12991, -0.0088384, -0.036969, -0.023811, 0.17512, 0.08981, 0.039628, -0.031924, -0.074511, 0.047995, -0.082721, -0.0089741, -0.035966, -0.16984, -0.14446, -0.26226, -0.053919, -0.061969, -0.3553, 0.15096, 0.061425, -0.14317, -0.01921, 0.11316, -0.058325, 0.076195, 0.19171, 0.0093749, -0.055938, -0.039335, 0.093488, 0.13903, -0.15236, -0.13101, 0.024324, 0.05078, -0.045008, -0.11262, 0.14003, 0.005514, -0.064845, 0.097805, 0.097682, -0.029051, -0.03731, 0.022781, -0.037625, 0.01612, 0.038272, 0.045896, 0.15709, -0.11849, -0.061982, 0.021029, 0.018478, 0.064536, -0.011833, 0.011374, 0.09328, -0.082322, 0.034674, -0.066124, -0.069253, 0.037194, 0.11681, 0.071462, 0.16087, -0.12847, -0.045528, -0.0018305, -0.010425, 0.14508, 0.054679, 0.08859, -0.018001, -0.11949, 0.084234, -0.090732, -0.10545, 0.048511, 0.17679, -0.17633, 0.10882, -0.13274, 0.19131, 0.042103, 0.075954, -0.012473, -0.1032, -0.058895, 0.023679, 0.15157, 0.059099, 0.031865, 0.019053, -0.040546, 0.017152], [-0.0063766, -0.091857, 0.034048, -0.055822, -0.031853, -0.025995, 0.033075, -0.057194, -0.029932, 0.005765, -0.039993, 0.077547, 0.031195, -0.13539, 0.084511, -0.12167, 0.039584, -0.021233, -0.050312, -0.05368, 0.011024, -0.064201, -0.074201, -0.10104, 0.055584, 0.015079, 0.12461, 0.037184, 0.11344, -0.11391, 0.086143, -0.046592, -0.10451, 0.024217, -0.011355, -0.032084, -0.11682, 0.023189, 0.14023, -0.03384, -0.21091, -0.0045096, -0.011544, -0.076323, 0.0023185, 0.050196, 0.088609, 0.025308, 0.10272, -0.0046612, 0.034597, -0.0041282, 0.061634, 0.024024, -0.0996, -0.05874, -0.0025734, 0.047888, -0.0063574, -0.051549, -0.061208, -0.084999, -0.038659, -0.044636, 0.065918, -0.070089, 0.062669, -0.097842, 0.0042398, 0.045058, -0.1536, 0.049625, -0.18476, -0.033506, 0.07877, -0.070642, 0.034096, -0.042159, -0.021023, -0.021946, -0.011562, -0.010431, -0.097842, 0.038058, -0.088697, 0.039121, -0.086917, -0.11283, -0.044543, 0.10149, -0.080331, -0.085742, 0.010961, 0.017406, 0.076994, 0.029621, -0.068972, 0.033163, 0.057914, -0.07766, -0.013691, -0.081266, -0.059262, 0.057565, 0.028627, -0.030856, 0.10647, -0.0020702, -0.0035788, 0.028763, 0.085797, -0.024948, -0.15993, 0.031317, -0.077169, -0.080678, 0.17803, 0.039537, 0.045982, 0.084615, 0.077978, -0.040849, -0.061401, -0.0040439, -0.066165, -0.19219, -0.011099, 0.028921, 0.060565, -0.080972, 0.036025, 0.14012, 0.20878, 0.078912, -0.10379, -0.0059976, 0.013695, 0.035782, 0.03624, 0.036028, 0.12118, -0.074355, 0.14425, -0.01423, 0.0070233, 0.0085167, 0.069145, 0.037924, 0.026946, 0.048095, -0.019518, -0.070447, 0.0062353, -0.082733, 0.02256, 0.20185, 0.042468, -0.17348, 0.065853, 0.0062389, -0.020306, 0.09218, 0.016519, -0.04776, -0.0050917, -0.015858, -0.030837, -0.19604, -0.0807, -0.079702, 0.013741, -0.072708, -0.0071953, 0.074435, -0.064629, -0.03515, 0.16789, -0.10551, -0.037636, 0.017543, -0.014091, 0.0029828, -0.00041776, 0.0073255, -0.07677, 0.12885, 0.044493, -0.16007, 0.017428, 0.061995, -0.056671, -0.093992, -0.041565, 0.078994, 0.01669, -0.017408, -0.012776, -0.089122, 0.045687, 0.15443, 0.019944, 0.094145, -0.03617, -0.051706, -0.030645, -0.013046, -0.17422, -0.043909, 0.074086, -0.013807, -0.15275, -0.026698, 0.023588, -0.029605, 0.0017861, 0.030567, 0.061714, 0.025003, 0.1289, 0.021507, 0.041136, 0.12399, 0.015253, -0.036846, -0.043807, -0.01674, 0.037426, -0.0085015, -0.012268, 0.040882, 0.045013, 0.082082, 0.053247, 0.014252, 0.15228, 0.13633, -0.076879, -0.042993, 0.040868, -0.03013, 0.0037133, -0.011504, -0.089949, -0.06639, -0.065862, 0.0059357, -0.078119, -0.048306, 0.062919, -0.13099, 0.00025952, -0.034174, -0.09395, 0.023032, 0.016095, 0.04532, 0.084498, -0.064683, 0.0048945, 0.17466, -0.079489, -0.054695, -0.040959, 0.013084, -0.11146, -0.1075, 0.059235, 0.06808, 0.041429, 0.076283, 0.071653, 0.16126, -0.067242, -0.043371, 0.045259, 0.038428, 0.0069014, 0.041178, -0.046907, 0.018791, -0.050111, 0.031764, -0.045183, -0.030547, -0.048647, -0.055871, -0.090187, 0.04522, -0.098373, -0.065383, -0.043323, 0.083491, -0.048638, 0.0063842, -0.072503, -0.025032, 0.078567, -0.073824, -0.011411, 0.051803, 0.00086579, -0.10764, 0.0052559, -0.047235, 0.030447, -0.0097557, -0.058957, -0.077041, 0.051432, 0.092105, -0.0029193, -0.050186, -0.013193, -0.025572, -0.086131, -0.05893, 0.036613, -0.095599, -0.12596, -0.05757, 0.099072, -0.06002, 0.095843, 0.025531, 0.012744, -0.025128, 0.014549, -0.10593, -0.065094, -0.0059307, -0.061344, -0.036216, -0.010109, -0.0099024, 0.056278, 0.079458, -0.14599, 0.0041784, -0.036482, -0.076527, -0.02208, -0.049244, -0.11558, -0.099501, 0.075938, -0.013004, -0.052819, -0.15439, 0.11377, 0.0072794, 0.15439, 0.011859, -0.019711, -0.056736, 0.028889, -0.04113, 0.025631, -0.059347, 0.053148, -0.16579, 0.13975, -0.032554, -0.041594, 0.084874, -0.043963, 0.010694, -0.00049634, 0.035184, -0.027885, 0.0035916, 0.038409, -0.0026738, 0.028058, 0.023752, 0.033175, -0.0196, 0.0042799, 0.0033614, 0.012888, -0.2337, -0.011538, -0.03456, -0.029529, -0.023808, 0.016286, 0.044072, -0.01216, -0.002775, 0.013738, 0.11508, -0.046338, 0.032259, 0.10697, 0.10901, -0.030726, -0.02836, -0.059438, -0.16311, -0.0074087, -0.024651, -0.029409, -0.053327, -0.0090873, 0.075202, -0.03317, -0.042336, 0.024041, 0.024288, -0.22042, 0.053092, -0.018635, -0.28232, -0.0033002, -0.038393, -0.11557, 0.076225, 0.10825, -0.026544, -0.061547, 0.0037849, -0.11532, -0.01738, 0.082378, -0.087367, 0.12438, 0.0040708, 0.069466, -0.10351, -0.075435, -0.023095, 0.056592, -0.035687, 0.015152, -0.029104, 0.028742, 0.03433, -0.023391, 0.056834, 0.012548, 0.070724, -0.070637, 0.10714, 0.032892, -0.20772, -0.15628, -0.0274, 0.073963, 0.067102, 0.0025015, 0.059876, -0.16956, 0.082294, 0.0034864, -0.018407, -0.034992, -0.12372, 0.035252, 0.11231, 0.13379, 0.13326, 0.042669, 0.017171, -0.21661, -0.034155, -0.058902, -0.029805, -0.054442, 0.036631, 0.1423, 0.12348, 0.0085429, 0.013344, -0.021608, -0.046564, 0.17097, 0.052387, 0.17648, -0.067847, -0.13834, -0.0038002, -0.029252, 0.067859, -0.048312, -0.038848, -0.047449, 0.0066801, -0.047796, -0.046456, 0.20254, 0.079244, -0.14059, 0.070136, -0.046635, -0.074301, -0.0072994, 0.035105, -0.0021832, -0.086889, -0.070943, -0.014794, -0.074508, -0.0050695, -0.047753, 0.15078, 0.095323, -0.11627, -0.0090737, 0.043795, 0.10186, 0.076813, 0.025952, 0.088794, -0.020204, -0.038569, -0.074988, 0.00777, -0.009585, -0.068691, 0.027522, 0.10228, -0.060401, 0.015887, 0.081299, -0.023301, -0.0076376, 0.010502, -0.045763, 0.003325, 0.12277, 0.070216, -0.046928, 0.13979, 0.002642, 0.045391, -0.053728, -0.081935, -0.044315, 0.061929, 0.14504, 0.06308, 0.020486, 0.034908, -0.0046916, 0.027079, 0.056232, -0.079732, -0.0095881, 0.088515, 0.13305, 0.049384, 0.09354, 0.053065, -0.11034, -0.1026, -0.064195, 0.13019, 0.06832, 0.047117, -0.0082634, -0.028569, -0.15091, 0.017394, -0.015595, -0.13863, 0.018619, 0.0090561, 0.0039165, -0.013627, -0.014995, 0.013434, -0.051204, 0.046772, 0.069775, -0.022817, 0.082317, -0.054353, 0.035822, -0.072698, 0.040623, -0.10122, -0.11691, 0.03084, 0.066636, 0.072059, 0.035337, -0.0046803, -0.073696, 0.10775, -0.079546, 0.06792, -0.012314, -0.084886, -0.041655, 0.032919, -0.0010183, -0.060165, -0.041502, 0.059685, 0.10864, -0.021474, -0.011313, 0.099673, 0.10718, 0.0076159, -0.022084, 0.0445, -0.050269, 0.061595, 0.13028, -0.0024881, -0.084722, -0.0039201, 0.03546, 0.0011365, -0.0021248, -0.11622, 0.12305, 0.028966, -0.10543, -0.088718, -0.055216, -0.21657, 0.1013, -0.11472, 0.083445, -0.026657, 0.065295, -0.070227, 0.10404, 0.063147, 0.02243, 0.069846, -0.13846, 0.060537, 0.016284, -0.13129, -0.064016, -0.032531, -0.049644, -0.066986, -0.032513, -0.09033, 0.0169, -0.026097, 0.080681, 0.011704, 0.027476, 0.082696, 0.020123, 0.060532, -0.016735, 0.015784, -0.23735, 0.031182, -0.04769, 0.020616, 0.056982, -0.063552, 0.026039, -0.017023, 0.055541, 0.011514, 0.049205, -0.054123, -0.080218, 0.029166, -0.052688, -0.0035148, -0.034734, -0.024585, -0.07329, 0.058087, 0.11453, 0.0062872, 0.01947, 0.18268, 0.0032126, 0.047407, -0.12569, -0.080221, -0.020415, 0.050781, 0.005294, -0.13449, -0.019586, -0.0019109, -0.0055632, -0.025671, 0.03099, -0.04311, -0.12473, -0.060841, 0.058633, 0.0040816, 0.016216, 0.020431, 0.12397, 0.09305, 0.055114, -0.007772, -0.066887, -0.029335, -0.029935, -0.014845, -0.0084634, 0.088454, 0.041824, 0.096039, -0.030556, -0.0018364, 0.050607, -0.099819, -0.073212, -0.027202, 0.013776, 0.015709, -0.0063885, 0.046527, 0.085187, -0.027461, -0.013514, -0.082927, 0.054134, 0.0566, 0.00063453, 0.085568, 0.041934, 0.013621, 0.091971, 0.067387, 0.039843, 0.072282, 0.10438, 0.083993, 0.077501, 0.0096303, 0.098459, 0.12557, -0.12211, 0.12932, 0.15638, 0.0056397, -0.077907, 0.059102, 0.036482, 0.011242, -0.044414, 0.023907, 0.011191, -0.019285, 0.079155, 0.11878, 0.10765, 0.17292, 0.071438, -0.060738, 0.062733, -0.083328, -0.028788, 0.065886, -0.039368, -0.039552, -0.029065, -0.025542, -0.095282, -0.1187, -0.050187, -0.0014251], [-0.11485, 0.057393, 0.0362, -0.08807, 0.15617, -0.11508, 0.17061, 0.058332, 0.12833, -0.16763, -0.16033, -0.06732, -0.048564, 0.095952, -0.028656, 0.12998, 0.052698, 0.095695, -0.019476, -0.15814, -0.0017435, -0.020588, -0.016939, -0.13052, -0.084256, -0.15084, -0.23772, -0.13143, 0.077527, -0.0059928, 0.010665, 0.3013, 0.019284, -0.13211, 0.047063, -0.041902, 0.065353, 0.11102, -0.047585, 0.051688, 0.19267, 0.019794, -0.11766, 0.070163, -0.028039, 0.016813, -0.16493, 0.008971, -0.10236, 0.028097, 0.078438, -0.020517, -0.080588, 0.077226, 0.054761, 0.13026, -0.033345, -0.18013, 0.11843, -0.076449, 0.011732, -0.014883, 0.012205, 0.017855, 0.010778, -0.037103, 0.084015, -0.059689, 0.030061, 0.15635, -0.0092586, 0.1186, -0.14176, 0.055079, 0.025293, 0.049209, 0.077104, -0.18177, 0.12193, -0.041024, 0.093117, -0.21575, -0.039358, 0.1035, 0.030976, -0.13725, -0.052531, 0.069844, -0.21807, -0.14163, -0.022716, 0.14348, -0.054018, -0.0072053, -0.214, 0.025774, -0.13693, 0.18351, 0.0041422, -0.0071992, 0.10302, 0.079807, -0.028628, -0.025664, 0.082726, -0.0065886, -0.061762, 0.11772, 0.002832, -0.054628, 0.079878, 0.024812, 0.010043, 0.0038427, 0.005363, -0.15126, -0.072066, -0.046297, 0.018109, -0.0066832, 0.16982, 0.049747, 0.17583, 0.13706, 0.067214, 0.31413, 0.18135, 0.024011, -0.012555, 0.10037, -0.1276, -0.034244, 0.052218, -0.12699, 0.0827, -0.16026, 0.020631, -0.04962, 0.13091, -0.14289, -0.24798, -0.015146, 0.16005, 0.045347, 0.086782, -0.070404, -0.024018, -0.062541, -0.11708, 0.11941, -0.11469, 0.12161, 0.28053, 0.029027, 0.048683, -0.30229, -0.0044605, 0.18409, -0.082812, -0.075814, -0.014429, -0.057939, 0.099369, 0.0040697, 0.014906, 0.071428, -0.036188, -0.028596, -0.078761, 0.047718, -0.101, 0.057543, -0.083011, -0.07994, 0.099978, 0.055957, -0.096213, 0.023365, 0.052894, -0.07737, 0.11885, 0.052012, 0.10036, 0.010937, -0.030029, 0.17979, 0.13266, 0.037525, -0.027559, -0.12243, -0.022396, -0.12858, 0.061216, 0.049955, -0.0063419, 0.0024087, 0.035044, 0.045444, -0.013385, 0.018211, -0.14868, 0.034113, -0.031592, -0.045579, -0.08642, -0.065696, -0.0047932, 0.013819, 0.066811, 0.031215, 0.057522, 0.016565, 0.064036, -0.15134, 0.091119, 0.044916, -0.24965, 0.07062, -0.080954, -0.0044215, -0.011636, -0.021396, 0.1347, 0.14559, 0.11003, 0.2002, 0.042792, 0.056989, -0.034372, 0.040081, -0.02869, -0.071278, 0.081242, -0.0069032, 0.018559, -0.10217, -0.080119, 0.053746, -0.020695, -0.0066331, 0.012609, -0.038553, -0.035676, -0.076059, 0.003396, -0.077002, 0.083886, -0.0056777, 0.024438, 0.19186, 0.05268, 0.13837, -0.062963, -0.062852, -0.031292, -0.093497, -0.019829, -0.012369, 0.057283, -0.096294, 0.095897, -0.0087147, 0.013137, -0.052761, -0.050244, 0.21971, 0.092653, -0.041596, -0.029165, -0.11606, -0.062257, 0.11522, 0.057987, 0.06405, 0.068517, -0.12698, -0.033526, -0.071017, -0.010934, 0.036325, -0.10719, -0.14436, 0.013838, 0.042061, -0.092909, -0.042336, 0.079736, 0.054017, 0.10687, 0.080866, 0.048797, 0.055545, -0.13826, 0.13166, 0.0034254, -0.046981, -0.07759, 0.070223, 0.00056827, 0.11498, 0.14053, 0.076807, 0.046607, 0.14157, -0.06632, 0.021176, -0.05577, -0.17713, -0.074621, -0.040438, 0.022148, -0.15948, -0.14979, 0.036999, 0.12352, -0.019639, -0.066366, -0.041671, -0.017482, -0.14865, -0.038991, 0.043585, 0.044996, 0.029217, -0.070129, 0.23637, -0.052032, 0.052649, -0.070763, -0.066755, -0.059954, -0.018326, -0.1342, 0.015481, -0.020439, -0.081885, -0.031766, 0.069536, 0.015702, -0.037622, 0.074857, -0.030346, 0.050637, 0.16276, -0.089047, 0.097537, -0.12767, -0.021781, 0.085374, -0.045115, -0.088467, -0.01499, 0.017849, 0.19286, 0.034257, -0.14754, -0.07257, -0.0070075, 0.02894, 0.32451, -0.15997, 0.0019233, 0.042553, -0.024499, 0.012121, -0.05037, -0.067862, 0.17361, -0.11948, 0.13673, 0.017056, 0.044581, -0.025688, 0.094453, 0.0289, -0.085386, 0.036806, 0.070191, -0.12698, 0.10426, 0.070446, -0.0028793, -0.13256, -0.074437, 0.16804, -0.063479, -0.0015786, -0.093618, 0.0034198, -0.12574, 0.0060195, -0.071842, -0.12641, -0.016521, 0.002404, 0.0098017, -0.10544, 0.047474, 0.040498, 0.019388, -0.08894, -0.051169, -0.094234, 0.027826, 0.0078568, 0.054337, 0.26717, 0.03395, 0.030308, -0.019427, 0.093346, 0.043284, 0.046058, 0.021815, -0.09323, -0.16181, -0.064938, 0.014551, -0.0090382, -0.024452, 0.016454, -0.00042868, 0.080848, 0.13923, 0.066493, -0.10184, -0.10439, 0.24737, -0.048586, -0.092188, 0.17493, -0.023341, 0.033315, 0.06671, -0.093052, -0.13037, -0.10349, 0.041263, 0.1989, -0.014381, -0.0076695, 0.064947, -0.11268, -0.10419, 0.17919, -0.15931, 0.048239, -0.098515, 0.074158, -0.022926, -0.14024, 0.061316, 0.10304, -0.049135, -0.17541, 0.20363, 0.024966, -0.15506, -0.061559, -0.088227, -0.0056574, 0.049764, -0.063442, 0.092298, 0.044015, 0.050686, -0.082752, 0.023882, -0.11472, 0.048055, 0.065968, -0.062194, -0.1012, 0.056586, -0.092163, -0.12318, -0.0030537, 0.013931, 0.034758, 0.0429, 0.25553, -0.10381, 0.11879, 0.032665, 0.090287, 0.047957, -0.018564, 0.0175, 0.0028901, -0.097399, 0.075807, 0.077374, -0.11189, -0.031074, 0.17009, -0.12064, -0.061677, 0.11556, 0.012228, 0.073077, -0.10735, 0.064224, 0.061169, 0.11483, 0.023643, -0.038025, 0.0081673, -0.04624, -0.30949, -0.017013, 0.011818, -0.012033, -0.027752, -0.11931, -0.029281, -0.16596, -0.13754, 0.020041, -0.13579, 0.029189, 0.10309, -0.14247, -0.13585, 0.064534, 0.060964, 0.07706, -0.096627, 0.0089052, -0.024605, -0.0099935, 0.0034446, 0.00046025, 0.061125, -0.03655, -0.012374, -0.015242, -0.039408, -0.13799, -0.016359, -0.10215, -0.063759, -0.059254, 0.15215, -0.025643, -0.048015, -0.075843, 0.020184, 0.071998, 0.0065233, 0.034957, 0.024946, -0.076794, 0.092752, 0.10033, -0.0062642, -0.13729, 0.084039, 0.12804, -0.0025914, 0.07656, -0.036905, 0.012301, -0.1895, 0.027452, 0.069048, -0.021369, 0.047573, -0.14232, -0.044196, 0.052237, -0.062067, -0.027584, 0.017361, 0.10004, 0.035751, 0.062631, 0.010943, 0.038592, 0.065773, 0.038556, -0.038823, 0.053729, -0.086798, 0.088056, 0.075357, 0.027333, 0.096782, 0.0016317, 0.033821, -0.085486, -0.048566, 0.065708, -0.14753, 0.050894, 0.020576, 0.10586, 0.039404, -0.35446, -0.061437, -0.060258, 0.045643, 0.056562, -0.020809, -0.22037, -0.096212, 0.046088, 0.039992, -0.016886, 0.042247, 0.063937, -0.054811, 0.044061, 0.00999, 0.0040377, -0.015479, -0.013978, -0.022357, 0.025077, -0.0001748, 0.10604, 0.008622, 0.12586, -0.0053725, 0.035346, -0.11374, -0.039978, 0.095008, 0.0035132, -0.36636, 0.051584, 0.039222, 0.17918, 0.030583, -0.07542, 0.082224, 0.15229, -0.032046, 0.088665, -0.078366, 0.045956, 0.074626, 0.16047, 0.071061, -0.042125, 0.031493, -0.15253, -0.044935, -0.064631, 0.004561, -0.087987, -0.15805, -0.012515, -0.036689, -0.11049, 0.039661, 0.034426, -0.056948, 0.087945, -0.071939, -0.13454, -0.095729, 0.13828, 0.00085609, -0.11176, 0.134, -0.082533, 0.0054634, -0.06403, -0.17205, -0.01769, -0.036605, -0.02006, 0.027119, -0.051945, 0.032487, -0.00086415, -0.06637, 0.038506, 0.02868, 0.091226, -0.012217, -0.0018944, 0.10704, 0.094888, 0.11696, 0.037887, -0.12531, 0.0072313, -0.21933, -0.07226, 0.24654, -0.072757, 0.02213, -0.095787, 0.11249, 0.044166, 0.086288, -0.031042, -0.13761, -0.125, -0.025862, -0.074141, 0.038142, -0.048167, 0.0766, 0.087814, -0.048552, 0.030863, 0.094815, 0.031074, -0.23566, -0.10799, 0.19369, 0.12849, 0.086356, -0.02922, -0.039091, 0.078058, 0.0051235, 0.085588, -0.064074, -0.038812, 0.034398, 0.053268, -0.092422, -0.17674, -0.010102, -0.072011, -0.098833, -0.059024, 0.11277, -0.11723, -0.11779, 0.10326, 0.0045338, 0.015894, -0.12877, -0.16203, -0.0025292, 0.050143, 0.044599, -0.00099646, -0.017744, 0.049291, -0.14618, 0.16517, -0.0074383, 0.024973, 0.070913, 0.11061, -0.14043, -0.2698, -0.18977, 0.13528, -0.091249, 0.13204, 0.14892, 0.088557, 0.055522, -0.16963, 0.15001, 0.15785, 0.018824, -0.014171, 0.0078283, 0.056793, -0.062296, 0.09651], [-0.096629, 0.24709, -0.085876, 0.021286, 0.13436, -0.12413, -0.15459, 0.18598, -0.070652, -0.15515, -0.10743, -0.22425, 0.065414, -0.043457, 0.021131, 0.038518, -0.2354, 0.27822, -0.085039, 0.080074, -0.057596, -0.11924, -0.07813, 0.21148, 0.27783, 0.031524, -0.3682, 0.016195, 0.17748, -0.048402, 0.0048844, -0.13133, -0.066224, 0.053785, -0.12948, -0.1683, 0.049179, -0.082645, -0.12425, -0.24449, -0.10038, -0.021035, -0.032696, -0.17922, -0.28471, -0.17403, -0.13557, -0.049063, 0.075176, 0.10033, -0.051439, 0.068853, 0.053444, 0.039527, 0.041116, -0.0076296, 0.12599, -0.01795, 0.18743, 0.10505, -0.14049, 0.054031, 0.22782, -0.07804, 0.041218, -0.12665, -0.42344, -0.14519, 0.045203, 0.08187, -0.26087, 0.033035, 0.0035314, 0.0080831, -0.022948, 0.069613, -0.067911, -0.12947, -0.18899, -0.1435, 0.03125, -0.042726, 0.093007, 0.28957, 0.028972, -0.21663, -0.075704, -0.021197, 0.17471, 0.13391, 0.013449, -0.09813, -0.0091738, -0.18571, -0.094006, 0.048246, 0.026661, -0.20191, 0.1097, -0.023167, -0.059589, 0.034651, 0.18465, 0.17308, 0.050304, 0.11856, 0.33319, -0.063171, 0.10782, -0.023755, -0.23247, -0.086767, -0.071827, -0.17816, 0.15732, 0.0046915, -0.080418, 0.042991, 0.020261, -0.034038, 0.14237, 0.035423, -0.12531, 0.026585, 0.010249, -0.13195, 0.088159, 0.14401, 0.076489, -0.031379, -0.051285, 0.02319, 0.096926, -0.19616, 0.10418, -0.032109, -0.0052248, 0.0065365, -0.25904, 0.01337, -0.042312, 0.11848, -0.072901, 0.057999, -0.10715, 0.098706, -0.31862, -0.5529, -0.14264, -0.0094827, -0.088174, -0.15821, 0.084242, 0.14632, 0.13454, -0.1698, -0.10179, -0.28881, -0.050966, 0.038033, -0.048561, -0.14648, -0.0098838, 0.10466, -0.14426, -0.1803, 0.017701, -0.20883, 0.36216, -0.10479, 0.0062023, 0.14459, 0.15848, 0.13712, 0.041612, -0.21056, 0.017756, 0.037151, -0.07774, -0.03527, 0.036129, 0.18844, -0.15558, 0.068782, 0.066062, -0.022807, 0.025694, 0.00054709, 0.084454, -0.15187, 0.14254, 0.062489, -0.27729, 0.32409, 0.021313, -0.0030729, 0.22028, -0.042259, 0.077319, 0.096925, 0.17373, 0.0042131, -0.11361, -0.085, -0.11934, -0.067573, -0.26927, -0.12994, -0.0085396, 0.22543, -0.023992, -0.055487, 0.017038, 0.18961, -0.022256, 0.0084073, -0.1713, 0.010644, 0.090417, -0.0030044, -0.38204, 0.093829, 0.12963, -0.11225, 0.05322, 0.080647, -0.079854, -0.081109, 0.20129, 0.12713, -0.0070959, -0.090068, -0.093591, -0.0043968, 0.068821, 0.012815, 0.15749, -0.09836, -0.086584, 0.0018613, -0.15903, 0.13535, -0.28903, -0.0064236, -0.11598, -0.040232, -0.13292, -0.14312, 0.070851, -0.067969, 0.011563, -0.093837, -0.0031244, 0.0089799, -0.024704, 0.099677, -0.051488, 0.092543, 0.014931, 0.069885, -0.17847, -0.092257, -0.16678, 0.060185, -0.24499, 0.16385, 0.099732, 0.24487, 0.15839, 0.20056, -0.072916, -0.052646, 0.035793, 0.11814, -0.081986, -0.12992, -0.029362, 0.070772, 0.21562, 0.027604, 0.062279, 0.013214, 0.063543, -0.12599, -0.17134, 0.32885, -0.041886, -0.070189, 0.063218, -0.12724, -0.042931, -0.079073, -0.25695, 0.044305, 0.094074, 0.1446, -0.18436, 0.14451, 0.080698, -0.44942, -0.079258, -0.17274, -0.030217, 0.035001, -0.00037026, -0.033243, 0.066342, -0.094199, -0.027599, 0.07434, 0.15601, -0.030516, -0.068269, 0.13756, -0.018688, -0.20031, 0.21163, -0.098003, 0.070308, -0.043285, 0.043634, -0.11235, -0.15473, 0.11641, -0.060258, 0.13932, 0.083578, 0.089354, -0.058715, -0.10502, -0.11451, -0.10704, 0.11231, 0.065044, 0.085377, -0.14273, 0.26257, -0.18044, 0.061679, -0.16768, -0.0499, -0.12112, 0.015569, -0.015302, -0.15539, -0.063601, 0.090707, 0.12252, 0.0076406, 0.18057, 0.063967, 0.013892, -0.024687, -0.028662, -0.18827, -0.11735, -0.12074, 0.21322, -0.059921, -0.17592, 0.16626, -0.19409, 0.1083, 0.13101, -0.017166, -0.097805, 0.0070003, -0.21653, -0.096938, 0.012075, 0.014099, 0.19449, 0.33889, 0.066613, -0.18918, -0.17993, -0.00067904, -0.061621, -0.14144, -0.15556, -0.062303, -0.12644, -0.057057, -0.1671, 0.15375, 0.11575, -0.12643, -0.043113, 0.0036673, 0.014639, -0.26411, 0.12996, 0.015442, 0.14155, 0.1541, 0.024409, -0.122, -0.17341, -0.15181, 0.13766, -0.0091793, -0.05656, -0.21923, -0.0026159, -1.2747e-05, -0.046969, -0.095951, -0.0042471, -0.12355, 0.042644, 0.060086, -0.075969, -0.013617, -0.17888, 0.27264, 0.0039908, 0.15036, 0.00823, 0.061507, 0.050475, 0.022378, 0.060659, 0.021691, -0.042748, -0.039011, 0.048533, 0.019233, -0.044856, 0.087784, 0.095065, 0.084559, -0.038857, 0.3752, -0.25043, -0.0094501, 0.19558, 0.036204, -0.24895, 0.050107, 0.12693, -0.41227, 0.081071, -0.075592, -0.24182, 0.053849, 0.077691, 0.11148, 0.11854, -0.23337, 0.058072, -0.33157, 0.026769, -0.19042, -0.30881, -0.12576, -0.040371, -0.046006, 0.44858, 0.062328, -0.019991, -0.047453, 0.04884, -0.038553, -0.21405, 0.018389, -0.057593, -0.016397, 0.060561, 0.10991, 0.08463, -0.060225, 0.096137, 0.19972, -0.06891, -0.037689, 0.019729, -0.1717, 0.069443, -0.034657, 0.1981, 0.18063, 0.10872, -0.17282, 0.017864, -0.050033, -0.10859, -0.015569, 0.16385, 0.0093502, 0.04884, 0.063678, 0.1573, 0.18312, -0.16351, -0.088865, 0.3151, 0.055696, -0.05127, -0.031958, 0.096795, -0.20629, -0.031086, -0.13632, 0.1842, 0.11487, 0.091051, 0.2485, 0.00052946, 0.25022, 0.13313, 0.067115, 0.16713, -0.016843, 0.09838, -0.087163, 0.1805, -0.010941, -0.03046, -0.051069, -0.14206, -0.21799, -0.020607, 0.03104, -0.074813, -0.032354, -0.06616, -0.33121, 0.048842, 0.10317, -0.11624, -0.11803, 0.14152, 0.17723, -0.0052282, -0.12124, 0.018129, 0.2691, -0.15019, 0.01137, -0.027828, 0.13418, 0.18165, -0.16156, -0.040404, 0.016319, 0.18945, 0.0099672, 0.074498, 0.028121, 0.2284, -0.042035, 0.063703, -0.089012, 0.0014902, -0.040237, -0.26522, 0.14629, 0.37146, -0.12427, -0.064989, -0.016767, 0.030282, 0.080551, -0.16914, -0.13843, -0.10937, -0.049707, 0.071337, -0.13384, -0.041832, 0.057082, -0.074298, 0.047113, -0.058609, 0.039411, -0.018975, -0.11238, 0.1435, 0.0024311, 0.019428, -0.10554, 0.036825, 0.06346, 0.019188, 0.042128, 0.050274, 0.076064, 0.11028, 0.0073366, 0.144, -0.088341, 0.089448, 0.22034, 0.045789, 0.10573, -0.10329, -0.13001, 0.16479, 0.07688, 0.071117, 0.12976, -0.18665, 0.11741, 0.26699, 0.13178, -0.057994, 0.12657, -0.1157, -0.24694, 0.040277, -0.096523, 0.050843, -0.11903, 0.12886, 0.11638, 0.052327, 0.10826, -0.14174, 0.24346, 0.17231, -0.037397, -0.21177, 0.010136, -0.07005, -0.095481, -0.22522, 0.023926, -0.032209, -0.14316, 0.067089, 0.034604, -0.014118, -0.11889, 0.066702, -0.10484, 0.19763, 0.18534, 0.0068229, 0.16317, 0.069964, -0.040012, -0.16576, 0.21714, 0.10191, -0.085558, 0.021656, 0.035214, -0.11353, 0.07617, 0.008977, 0.099592, 0.019717, 0.36478, 0.031446, -0.041275, -0.19233, -0.019644, -0.17319, 0.083901, -0.13933, 0.11179, -0.083131, -0.1198, 0.2473, -0.019852, 0.15049, -0.020272, 0.018601, 0.14952, -0.008908, 0.16365, 0.022215, 0.23569, 0.097385, -0.038031, 0.0071459, -0.082235, 0.064324, 0.18859, 0.05025, -0.13108, 0.10489, -0.036266, -0.12084, 0.17234, 0.21152, -0.093617, 0.10788, -0.0050672, 0.092316, -0.13972, -0.0023563, -0.030549, 0.21217, -0.02202, 0.21184, 0.053559, 0.15414, -0.15502, 0.024802, 0.19945, -0.15329, 0.28047, 0.28474, 0.024029, -0.08313, -0.11493, -0.045383, 0.07389, 0.018052, 0.0028787, -0.14904, -0.045858, 0.13555, 0.48738, -0.041687, -0.036798, -0.41087, -0.066631, -0.17495, -0.10493, 0.084412, -0.072332, 0.15904, -0.073376, -0.088733, -0.11021, -0.097297, 0.11198, 0.10584, 0.055648, -0.053492, 0.15697, -0.020975, 0.16952, -0.073915, 0.018538, 0.086832, -0.011962, 0.049171, -0.42293, 0.12412, 0.014293, -0.079595, 0.13558, -0.082085, 0.22465, -0.1942, 0.026303, -0.045533, -0.075235, -0.13564, 0.12187, 0.016975, -0.042707, 0.22733, -0.21974, -0.33868, -0.051495, 0.13441, -0.36183, 0.058693, -0.11871, 0.41735, -0.021596, 0.15079, 0.020437, -0.15224], [0.057288, -0.032886, 0.041324, 0.040359, 0.060689, 0.093976, 0.037143, -0.0264, -0.01125, -0.047575, -0.022899, 0.00079392, 0.03292, -0.0048798, -0.047237, 0.042155, -0.010479, 0.061403, 0.10314, 0.084587, -0.031892, -0.088663, -0.05868, 0.098442, -0.020558, 0.077233, 0.15687, -0.081701, 0.081118, 0.016948, 0.032268, 0.10474, -0.040396, 0.047438, -0.032872, -0.043748, 0.036088, 0.010685, -0.066979, 0.019706, 0.015862, 0.087438, -0.047497, 0.10104, -0.04776, 0.016162, -0.16097, 0.017677, -0.063525, 0.039575, -0.13852, -0.099062, 0.033301, 0.031548, 0.038132, 0.08941, 0.036526, -0.13916, 0.15342, -0.085241, 0.019417, -0.09525, -0.0001963, 0.024877, -0.011875, 0.071471, 0.034965, -0.027716, 0.066818, -0.16704, 0.10699, 0.040978, 0.12193, 0.0078263, -0.00095025, 0.17903, 0.066454, 0.041285, 0.15612, -0.099144, -0.044648, -0.040326, -0.066544, 0.049575, 0.063686, -0.055325, 0.013292, 0.026123, 0.012818, 0.025177, 0.015096, 0.029832, 0.04648, 0.044051, -0.014288, 0.0020539, 0.09033, 0.076576, -0.04272, 0.031261, 0.15994, 0.028253, -0.089331, 0.0026026, 0.036124, 0.063654, 0.00063678, 0.009461, -0.09461, 0.045364, -0.0049476, 0.12864, 0.048195, 0.063495, -0.041395, -0.121, -0.20052, -0.074172, -0.091369, -0.13536, 0.11404, -0.065262, -0.045942, 0.080119, 0.029207, 0.20718, 0.063109, -0.028139, 0.079809, 0.0016958, 0.1692, -0.11363, 0.080884, -0.0036642, -0.015938, -0.14436, -0.0071672, -0.0039845, 0.052739, -0.11328, 0.059393, 0.048364, -0.0064671, -0.03032, -0.056694, -0.069528, -0.1062, -0.15117, -0.0053074, 0.010849, -0.063373, 0.14424, 0.06691, 0.06855, -0.070153, -0.084951, -0.041418, 0.094193, -0.084832, -0.042289, 0.07472, -0.019496, 0.057784, 0.026252, -0.00074395, -0.054945, -0.0021041, 0.01135, 0.062733, 0.089471, -0.0799, -0.051629, -0.060461, 0.017589, 0.11218, -0.072961, -0.034516, 0.020101, 0.10491, -0.019204, 0.083029, -0.061724, 0.11721, 0.043459, -0.014672, 0.030066, 0.062416, -0.1153, -0.0073719, -0.13722, 0.037212, -0.07413, 0.043169, 0.15537, -0.014731, 0.049366, -0.059618, 0.025228, -0.078397, 0.080729, -0.015293, -0.018156, -0.017882, -0.16427, 0.044664, 0.0053758, 0.076658, 0.040685, 0.036555, -0.056402, 0.060461, -0.083979, -0.081662, -0.089375, 0.0022872, -0.14584, -0.046379, -0.03214, -0.11954, 0.057723, -0.031828, 0.0094824, 0.066165, 0.16495, 0.080622, 0.20416, -0.099708, 0.005109, -0.041286, -0.0085798, 0.0065981, 0.10175, 0.1003, -0.015596, 0.034311, 0.0082011, -0.14804, -0.016834, 0.061566, -0.087606, -0.065713, 0.028632, -0.030397, -0.0095119, 0.11801, 0.026415, 0.093968, -0.047284, -0.010842, -0.0099648, 0.125, -0.0062765, -0.070002, -0.092206, 0.026908, -0.073049, -0.013245, 0.017588, -0.11314, -0.022623, 0.11961, 0.022497, -0.011315, -0.051688, -0.12623, 0.13042, 0.060074, -0.1432, 0.086573, 0.1373, -0.018427, -0.17111, 0.085196, 0.10628, -0.0028406, -0.028361, 0.066212, -0.11224, 0.0054398, 0.077877, 0.037299, -0.042055, -0.042194, 0.0077896, 0.033651, -0.062494, -0.0052882, 0.018051, 0.13873, 0.02096, 0.10077, -0.13567, -0.14716, 0.13987, -0.042051, -0.042868, 0.0098331, 0.057031, -0.02148, 0.05233, -0.049935, 0.11213, -0.082828, -0.0005078, -0.091815, 0.0035141, 0.052412, -0.023676, -0.063902, -0.082256, 0.016327, 0.010473, -0.064337, 0.12779, 0.063947, -0.065226, -0.14309, 0.097599, 0.085731, -0.013546, -0.0036106, 0.10004, -0.027135, -0.016876, 0.024765, 0.017723, -0.084004, 0.035168, 0.072218, -0.0021768, -0.036944, 0.0060533, 0.060651, 0.088435, 0.01207, -0.053008, -0.084027, -0.05111, -0.014167, -0.037234, 0.05448, 0.066094, -0.057684, 0.015378, 0.042112, 0.020598, -0.1395, 0.11531, 0.053425, -0.11504, -0.032198, 0.069163, 0.029079, 0.033157, 0.076759, 0.0053371, 0.016686, -0.20248, -0.11031, 0.16828, -0.15964, 0.010989, -0.042458, -0.094259, -0.0020115, 0.034645, 0.029965, 0.0038094, 0.045368, 0.10375, -0.10509, 0.10964, 0.065238, 0.084506, 0.048749, -0.03418, -0.00019907, -0.093591, -0.20282, 0.010219, 0.076723, 0.043524, -0.054072, -0.063759, 0.11638, -0.12241, -0.020464, 0.012699, 0.089569, 0.031942, 0.084904, 0.061579, -0.077796, -0.0386, 0.13402, 0.043613, -0.034104, 0.01421, 0.0464, -0.055942, -0.020429, -0.03282, 0.10914, 0.067879, 0.052072, -0.085495, 0.13121, -0.01559, -0.049443, -0.014145, -0.012763, 0.11994, -0.029576, 0.020209, -0.046983, -0.025893, -0.0047465, -0.033014, -0.026434, 0.11989, 0.039712, 0.097031, -0.076277, 0.035901, -0.048612, -0.059007, -0.141, 0.081797, 0.072784, -0.056686, 0.099947, -0.029656, -0.17592, -0.072678, 0.058195, -0.094974, -0.0031622, -0.10079, 0.12736, -0.047593, -0.080548, 0.037584, -0.067832, -0.13135, 0.10757, 0.013517, 0.1939, 0.12102, 0.040364, -0.078189, -0.039585, -0.047402, 0.034366, 0.0070377, -0.069126, 0.014236, 0.14471, 0.044234, 0.012445, -0.090648, 0.028656, -0.13064, 0.02937, 0.023913, -0.10597, 0.0047832, -0.04262, -0.04595, -0.085161, 0.13578, 0.012959, -0.10165, 0.097852, 0.013889, -0.024447, -0.069904, 0.022936, -0.026197, -0.093833, -0.05157, 0.044247, 0.1231, 0.09961, 0.026214, 0.034645, 0.059347, -0.012992, 0.025523, -0.0089298, 0.10199, 0.11899, 0.016564, -0.14088, 0.12003, 0.050729, -0.030041, -0.03486, -0.067717, -0.025124, -0.10335, 0.046845, 0.076442, 0.0092147, 0.05727, 0.11936, -0.05447, 0.031127, 0.059108, 0.055659, -0.044271, -0.062815, -0.033026, 0.10324, -0.037117, -0.070346, 0.089465, -0.11906, 0.13463, -0.19271, -0.0048334, 0.0022036, -0.024088, 0.010161, -0.00045451, -0.021554, 0.075118, -0.035824, 0.0057924, -0.14219, 0.010445, 0.097402, -0.056352, -0.049679, -0.063917, -0.067538, 0.0031337, -0.20895, 0.010402, 0.0023605, -0.1284, 0.00049755, -0.10573, 0.023333, -0.089931, -0.012482, 0.052559, 0.070431, 0.090458, 0.068964, 0.038817, 0.047162, -0.048045, 0.057111, 0.01129, -0.0071187, -0.061537, 0.059115, -0.1196, -0.052386, 0.020955, 0.10944, -0.0060515, 0.072566, -0.013621, -0.0070955, 0.095284, 0.063992, -0.12383, 0.0031585, 0.042639, 0.003227, 0.12097, -0.1336, -0.029669, 0.00039756, -0.02033, 0.036192, -0.048349, 0.054873, -0.092067, -0.046697, 0.11322, -0.021919, 0.052879, 0.10535, -0.027843, 0.026573, -0.024382, 0.028465, -0.0010976, -0.1356, 0.045067, -0.028258, -0.065528, -0.0040152, 0.07607, 0.027885, -0.010419, -0.0071943, -0.075333, -0.033393, 0.0071389, 0.036594, -0.0083719, 0.12674, 0.07816, 0.084825, -0.016926, 0.0086335, 0.16575, -0.013221, 0.059918, 0.11381, 0.01751, 0.043704, 0.084161, 0.029296, 0.059954, 0.016913, 0.072869, -0.083467, 0.082674, -0.13469, 0.20035, -0.077845, 0.040132, -0.015501, -0.06245, -0.23164, -0.03333, -0.047933, 0.12641, 0.019198, -0.0029089, 0.03239, 0.095392, -0.012794, 0.006735, -0.078242, -0.0013135, 0.0052311, 0.026672, -0.13391, 0.031696, 0.096415, -0.020607, 0.064056, 0.0037369, 0.1227, -0.13993, -0.040786, 0.058852, -0.0013949, -0.066988, 0.033061, -0.068872, 0.0087774, -0.1882, 0.060124, -0.069635, -0.14109, 0.11486, 0.0095406, -0.11699, 0.10531, -0.063908, -0.025825, -0.042498, -0.072539, 0.066731, -0.028813, 0.018488, -0.026387, -0.063307, 0.027029, -0.0934, -0.053785, -0.04258, 0.04993, -0.048785, -0.22472, 0.085171, 0.062039, 0.017307, -0.0018026, 0.068573, -0.024258, -0.025429, -0.089467, -0.12201, -0.017179, -0.010003, 0.052593, -0.0094041, 0.021479, -0.16589, -0.058779, -0.055234, 0.069029, 0.042466, -0.11688, 0.025191, 0.0096694, 0.12314, 0.10747, 0.020239, 0.07928, 0.051714, 0.039619, -0.036739, -0.11119, 0.046594, -0.021363, 0.039001, 0.00061465, 0.038331, 0.099989, 0.08929, 0.13429, 0.033976, 0.044098, -0.15496, -0.060695, 0.064019, 0.049317, -0.20665, 0.041969, -0.0041378, -0.044911, -0.075349, 0.0087015, -0.11276, 0.081223, 0.23778, -0.057386, 0.036418, -0.047924, -0.12955, 0.088361, -0.030679, -0.16823, -0.0066625, 0.029132, -0.020527, 0.063334, 0.079812, -0.049074, -0.049888, 0.048689, 0.021404, -0.086712, 0.18615, -0.073579, 0.1762, 0.14002, -0.22993, 0.012419, 0.02235, -0.053407, -0.26056, 0.17861, 0.060537, 0.078391, -0.035609, 0.07494, -0.10853, 0.026655, 0.025128], [-0.20624, -0.071054, -0.050309, 0.019677, -0.32418, -0.12858, 0.14267, -0.0035104, 0.03631, 0.1804, -0.10921, -0.0060618, 0.037384, 0.14778, -0.061915, 0.13583, 0.1544, -0.14646, -0.051786, 0.12348, 0.048343, 0.0025397, 0.095506, -0.21173, -0.057567, 0.0083423, -0.053312, 0.013449, 0.057081, 0.054217, 0.063445, 0.1358, 0.06576, 0.18295, 0.018764, -0.0036654, 0.12926, -0.10899, 0.013118, -0.08029, -0.0070718, -0.17253, 0.080205, -0.018673, 0.074653, 0.10176, 0.0074029, 0.026006, -0.012469, -0.069038, -0.17505, 0.21611, -0.23663, 0.12624, 0.0080533, -0.16345, 0.093969, -0.13736, -0.17682, -0.00087044, 0.38734, 0.0197, 0.0098658, -0.21726, -0.054301, -0.033192, 0.16129, -0.051468, -0.11366, 0.17336, -0.41003, 0.0070584, 0.15651, 0.017685, -0.16815, 0.027427, -0.01603, -0.18234, 0.099533, 0.1777, 0.10309, 0.18852, 0.011354, -0.10517, -0.056072, -0.035778, -0.32473, 0.0037132, -0.12076, -0.036234, 0.1071, -0.14185, 0.07779, -0.10091, -0.35959, -0.20093, -0.27193, -0.1001, 0.083247, 0.085068, -0.1458, -0.051899, -0.047765, -0.0051698, -0.024725, -0.21187, -0.11523, -0.096865, -0.14328, -0.03683, -0.056249, -0.036354, 0.042921, 0.16889, 0.10131, 0.069332, 0.14318, -0.14854, 0.22145, 0.23282, -0.012364, 0.076346, -0.2545, -0.1132, 0.15988, -0.17806, -0.28756, -0.07523, 0.022725, -0.096274, -0.038171, 0.017142, -0.045844, 0.21451, 0.082623, -0.0022468, 0.20498, 0.015578, 0.22567, -0.12364, 0.04416, 0.047193, -0.0208, 0.077554, 0.012375, -0.083766, 0.14692, 0.25421, 0.046603, 0.013437, -0.074934, 0.092455, 0.16906, 0.017981, 0.087958, 0.037303, -0.0036699, 0.12, 0.15119, -0.12075, 0.010098, 0.14491, 0.067517, 0.24105, -0.13889, 0.18156, 0.041454, 0.053701, -0.051633, -0.30006, 0.13563, 0.098905, 0.071169, 0.048441, 0.13242, 0.23961, -0.099033, -0.013207, -0.19122, -0.016285, 0.13668, -0.11645, -0.01108, 0.037051, -0.066311, 0.22487, -0.15661, 0.031872, 0.006009, -0.094406, 0.0012524, 0.070358, -0.0052302, 0.10311, -0.10747, 0.003605, -0.020228, -0.12816, 0.065779, -0.093505, 0.095741, -0.028005, -0.10323, -0.1129, 0.34296, -0.13535, 0.33802, 0.17765, 0.11045, -0.026879, 0.076818, -0.034122, 0.15886, -0.057101, 0.05197, 0.21103, 0.048429, 0.040566, -0.14859, -0.1502, -0.009085, 0.059109, -0.19163, -0.036738, 0.059589, 0.029859, 0.025024, -0.082639, 0.10303, -0.034174, 0.119, -0.14367, 0.060718, 0.22184, -0.064916, -0.068253, -0.035574, 0.096692, -0.14639, 0.020798, -0.21419, -0.12757, -0.093686, 0.028094, 0.10841, -0.21575, -0.18272, -0.017047, 0.0718, 0.14078, -0.27616, 0.048306, 0.081283, 0.031898, 0.14482, 0.4017, 0.031109, -0.046909, 0.059463, -0.084631, 0.0094176, -0.022785, -0.065491, -0.13644, 0.27791, 0.08431, -0.019328, -0.023715, -0.20171, -0.20095, -0.11179, -0.17136, 0.21696, 0.030923, -0.22164, 0.12082, 0.11925, -0.16273, 0.027381, -0.22282, 0.16753, -0.018325, -0.09238, -0.037479, -0.016944, -0.25743, -0.015153, 0.31995, 0.052553, 0.090255, 0.027914, -0.006612, 0.13103, -0.26972, -0.053197, -0.089645, -0.0051794, -0.049509, 0.23151, 0.029815, 0.0074354, -0.077231, -0.08307, -0.031606, 0.12269, -0.119, -0.057016, 0.13451, -0.081992, -0.21142, -0.04824, -0.18475, -0.047855, -0.16995, -0.047225, 0.269, 0.017467, 0.034415, -0.099476, 0.13926, -0.011258, 0.21367, 0.28107, 0.036896, -0.13069, 0.16811, -0.056672, 0.10277, -0.13498, 0.34584, 0.22341, -0.10498, 0.15481, -0.04839, 0.031102, 0.060789, 0.10232, 0.065799, 0.044265, 0.17029, -0.0073331, -0.0049557, -0.017578, 0.24455, -0.039562, -0.079546, 0.10715, -0.046638, -0.14985, 0.19823, -0.16047, -0.013788, -0.0015364, -0.041984, 0.054619, 0.23452, 0.063847, -0.15292, -0.029361, -0.2503, 0.1065, 0.020438, -0.29626, 0.11675, 0.15737, 0.10519, 0.27298, -0.04873, -0.1477, -0.17738, -0.033484, -0.051204, -0.17014, 0.060355, -0.056644, -0.072519, -0.011229, 0.0085358, 0.026057, -0.12858, -0.0031334, 0.032127, -0.17586, 0.047739, -0.16701, 0.14593, -0.043311, 0.053606, 0.17308, -0.22858, 0.23136, -0.13301, 0.013979, -0.090507, -0.16496, 0.04263, 0.15898, -0.0024029, -0.16407, -0.059079, 0.00055681, -0.12241, -0.069001, -0.061387, -0.10785, -0.061688, -0.27499, -0.096208, -0.18904, -0.044226, 0.067111, -0.22685, 0.11231, -0.016006, -0.41308, 0.068207, 0.045866, -0.0011979, 0.09098, -0.11817, -0.048284, 0.0047265, -0.0039681, -0.070267, 0.10109, 0.067055, 0.15499, -0.056584, -0.067777, 0.12163, -0.048853, 0.005624, -0.24868, 0.10424, 0.02033, 0.14326, 0.048582, 0.044022, -0.0086905, 0.10409, 0.033158, -0.17747, 0.061032, 0.11055, 0.099476, 0.14475, -0.037316, -0.3006, 0.14873, 0.039105, 0.11191, 0.027119, 0.15558, 0.18535, 0.0052134, -0.045075, -0.090936, -0.0081554, -0.11522, -0.10214, -0.14555, 0.16117, -0.24051, 0.2177, -0.16516, 0.028218, 0.23501, 0.080232, -0.1888, 0.030274, 0.036361, -0.040946, 0.026163, 0.022137, -0.11211, 0.022565, -0.21848, -0.15735, 0.12062, -0.027367, -0.033986, 0.13566, 0.13106, -0.2782, -0.02627, 0.10588, 0.0078791, -0.08586, -0.22192, -0.12669, -0.15767, 0.10153, 0.031633, -0.14587, -0.056772, 0.03268, -0.23763, 0.20012, 0.19065, -0.033346, 0.32092, -0.10684, -0.033484, -0.066051, -0.21492, 0.19244, -0.12933, 0.052378, -0.07637, -0.35417, 0.10548, 0.2105, -0.081732, -0.067777, -0.23316, 0.20903, 0.26046, -0.11498, 0.086733, -0.071978, -0.19423, 0.11255, 0.14174, 0.00072076, 0.12728, 0.11319, 0.099197, 0.080479, 0.053837, -0.10252, -0.013526, -0.17248, -0.073374, 0.098821, 0.031459, 0.093028, -0.12056, 0.16779, -0.071155, -0.14261, -0.090747, -0.15954, 0.021898, 0.1666, 0.16623, -0.057579, -0.2024, -0.23133, 0.18845, -0.10171, -0.31666, -0.0029508, 0.043035, -0.088425, 0.12183, 0.20105, -0.29852, 0.013106, -0.25835, 0.027145, -0.0086886, -0.19478, -0.42379, 0.033911, 0.21594, -0.011663, -0.051025, 0.10725, 0.10309, -0.054612, -0.17063, 0.028437, 0.0071241, 0.018759, 0.076792, 0.04586, 0.08263, 0.19942, 0.031484, 0.10427, -0.1274, -0.23505, 0.13084, 0.12132, 0.17529, 0.051087, -0.18897, 0.007531, -0.041741, -0.11521, -0.034041, 0.47078, -0.048436, 0.1168, 0.042192, -0.033645, -0.022552, -0.33446, 0.050361, -0.14982, 0.14188, -0.096571, 0.070538, 0.12187, 0.22783, -0.018004, 0.098583, 0.23746, 0.051785, 0.10777, -0.024411, -0.082118, 0.061515, 0.38881, -0.031706, -0.040805, -0.10219, 0.14047, 0.041873, -0.27758, 0.092365, 0.06469, 0.059164, -0.054364, -0.039656, 0.045718, 0.021862, -0.014922, 0.38863, 0.01315, -0.021212, 0.1852, 0.22942, -0.041091, -0.074616, 0.22944, 0.052951, 0.073135, 0.1373, 0.20386, 0.013401, 0.10039, -0.083264, 0.092439, 0.022578, -0.13654, 0.0071082, 0.053477, -0.061727, -0.035155, -0.06724, -0.00087857, -0.13522, 0.14629, 0.13983, 0.076491, 0.056678, 0.0050022, 0.072341, 0.078035, -0.095397, 0.13412, -0.18655, -0.10217, -0.049101, 0.0024392, -0.014859, -0.10635, -0.050481, 0.058976, -0.034536, -0.19407, -0.021658, 0.032604, -0.080451, 0.25076, 0.10283, -0.11746, -0.15465, -0.11075, 0.26522, -0.07122, -0.014231, 0.041273, 0.03653, -0.026211, 0.20367, 0.066744, 0.16431, 0.21384, 0.062897, -0.084548, 0.0019672, -0.12478, -0.042783, 0.16959, -0.019909, -0.034567, -0.082215, -0.11038, -0.12018, -0.093929, 0.048426, -0.12534, 0.11172, 0.12016, 0.028725, 0.060583, -0.050786, -0.0467, -0.15816, -0.38249, -0.026206, -0.2336, -0.10603, -0.18458, -0.13128, -0.48809, -0.039716, 0.028924, -0.077678, 0.34366, 0.096793, -0.13912, -0.016375, -0.065263, 0.0097338, 0.12023, 0.061035, -0.014374, -0.074943, -0.037574, 0.10043, -0.11683, 0.075949, 0.14714, 0.051316, -0.031105, 0.2124, -0.028173, 0.12609, -0.027746, 0.011036, 0.064099, -0.25851, -0.1178, 0.036237, -0.023813, -0.093337, 0.022605, 0.12653, -0.31109, 0.099293, -0.34481, 0.17203, -0.090337, 0.02471, 0.14361, -0.032565, -0.13957, -0.065088, 0.037018, -0.1132, -0.20199, 0.15411, 0.25976, -0.0065536, -0.012543], [-1.7832e-39, -1.088e-07, 1.0991e-18, 4.4032e-39, -2.5398e-12, 7.3062e-10, 8.1527e-26, 3.9592e-21, 9.8334e-16, -1.8927e-19, -9.336e-20, -1.0736e-13, 1.7835e-05, -9.3122e-21, -1.1936e-11, 4.1845e-11, -3.1115e-12, -2.0475e-32, -4.9899e-14, -5.8292e-23, -2.09e-17, -1.8435e-14, 1.356e-09, -2.9409e-38, -8.3077e-10, -5.8243e-16, -9.5528e-22, -1.7296e-22, 3.6375e-14, 4.9419e-12, -1.2523e-13, 2.0627e-31, -2.0668e-18, 2.5013e-30, -4.9763e-11, 4.3143e-08, -7.6454e-21, -1.1536e-21, -2.5388e-16, -3.2933e-14, -3.1452e-15, 4.0947e-31, 1.0912e-11, 5.7129e-40, -7.0523e-39, 3.4995e-19, -1.0156e-11, -8.221e-10, 7.8779e-08, 1.9745e-19, -1.1478e-21, 3.919e-18, 3.592e-10, 4.3156e-37, -1.1334e-07, 1.5289e-10, 2.1668e-39, 3.7667e-20, -6.9499e-09, -3.021e-10, -1.847e-30, -9.621e-09, 2.9107e-12, 3.5339e-12, -1.1531e-12, -1.0669e-21, 3.0393e-19, 4.5923e-18, 1.2298e-07, 6.7657e-16, 2.5937e-19, 1.8266e-24, 1.0865e-06, -7.6833e-28, -1.4546e-07, 2.9407e-39, -4.2466e-08, -8.1482e-21, -1.3539e-15, 4.2619e-25, 3.7252e-10, -6.4715e-33, -1.6124e-08, -4.9842e-11, 6.4817e-15, 1.741e-33, 5.6751e-15, 1.1466e-09, 1.2243e-14, -6.6494e-12, 1.8461e-13, 1.1164e-09, 1.2884e-07, 2.4233e-27, -5.1874e-22, -2.0593e-36, -4.7482e-28, 1.3394e-22, 3.4512e-15, -1.1346e-10, 8.4747e-15, 2.482e-07, 1.709e-12, 1.4838e-09, -8.5575e-09, 6.9163e-10, -1.7538e-12, 7.3835e-12, 3.8367e-07, 3.4611e-10, 4.5738e-17, -1.6071e-11, -3.6401e-12, 2.8342e-08, 3.93e-11, 2.1257e-15, 4.2809e-14, -1.2912e-07, 5.6757e-39, -3.3891e-10, -7.6189e-11, 9.4409e-08, -1.0466e-38, 3.9609e-13, -8.4025e-10, 1.5532e-17, 1.6282e-10, -2.4189e-13, 2.58e-11, 5.5138e-10, -2.3065e-20, 1.25e-09, 1.7499e-14, -2.9178e-17, 1.3307e-23, -6.5797e-07, -4.7833e-09, -4.3669e-17, 6.873e-22, 3.1911e-22, 1.1151e-11, 2.0932e-09, -1.2719e-26, -3.1227e-13, -2.4861e-07, -3.3348e-06, 4.2979e-08, -5.8924e-23, 1.404e-11, 8.7225e-21, 4.4329e-31, -1.3025e-18, 6.9249e-22, 3.2026e-11, 8.9497e-27, -5.7486e-39, 1.4212e-07, 2.2385e-14, -7.2023e-24, 8.889e-33, -5.8106e-10, -7.585e-20, -6.1817e-14, 1.3393e-15, 7.6718e-09, -3.6212e-23, 4.4767e-18, 1.1125e-11, -5.2785e-10, 7.746e-14, -3.4573e-12, 2.1792e-07, -2.9068e-12, -2.5421e-10, 1.0068e-13, 1.0953e-10, 3.5002e-11, 3.2168e-25, 1.9136e-17, -3.5029e-07, 2.4652e-11, 5.0472e-23, 1.2987e-14, -4.1102e-11, 6.0977e-26, -1.4932e-19, 4.2088e-15, 9.8038e-39, -4.5448e-12, 1.4373e-33, -1.301e-38, -1.3436e-05, -8.8617e-14, -4.6815e-17, -2.0674e-09, 4.3377e-18, 2.7515e-12, 5.4738e-10, -6.3729e-13, -7.2079e-09, -5.486e-19, 2.9827e-18, -1.4216e-21, 2.0004e-09, -1.2323e-15, 6.4285e-07, 1.4722e-19, 1.8854e-09, -9.8676e-15, -3.8429e-28, 7.7736e-15, 5.9476e-11, -1.0541e-12, 1.8644e-20, 2.9851e-14, 2.0864e-14, 2.6059e-12, -3.7449e-21, 5.0065e-10, 1.3496e-24, 3.6089e-16, 1.1976e-06, -1.7661e-11, -1.5232e-27, 5.3386e-28, -4.6804e-10, -1.183e-10, 4.9843e-16, 3.3923e-09, 2.406e-12, -4.9087e-20, 4.283e-10, 3.6354e-14, 1.8999e-09, 4.1612e-17, 1.1953e-11, -9.286e-21, 1.7028e-20, 5.6776e-12, -3.5475e-06, -5.9618e-21, 2.3014e-11, 8.7823e-16, 8.2334e-16, -5.8713e-35, -1.558e-11, -1.6301e-08, -1.4636e-06, 2.8231e-08, 1.9151e-08, 7.1723e-16, -1.4527e-11, -1.0284e-11, -3.9351e-21, -7.0475e-17, -2.01e-12, 5.6233e-07, 1.0567e-18, -5.8928e-15, 6.8631e-19, -2.2424e-15, 6.2846e-11, -9.1896e-13, -1.4171e-09, -5.3157e-12, -7.5482e-19, 1.0367e-05, -3.0644e-14, -2.6187e-09, 3.4889e-11, 9.0636e-19, 2.5584e-14, -2.3131e-22, -8.9117e-10, 3.1873e-22, -2.4719e-10, -1.053e-07, -1.1033e-20, 2.4106e-09, 1.5816e-21, 3.0758e-33, -2.8737e-10, 4.9863e-10, 3.0427e-10, 3.7583e-15, -2.9757e-34, 1.0413e-08, -6.9031e-35, 7.4439e-08, -1.3862e-09, 1.9094e-12, -2.8298e-07, 6.2799e-39, -2.8433e-11, 9.8784e-12, 1.2913e-19, 8.1689e-08, -2.6006e-11, -4.2526e-28, -1.293e-22, 6.4989e-19, 3.6242e-17, -3.4451e-07, 3.787e-09, 3.7358e-19, 5.8447e-18, 1.5531e-05, 1.3074e-12, 5.169e-10, -1.9449e-31, -5.1189e-10, -1.1449e-22, -5.4263e-12, -8.8572e-15, -1.1061e-13, -3.614e-12, 2.4041e-19, -2.6775e-07, 2.7383e-18, -3.2204e-11, 4.5568e-15, 9.9348e-09, -1.6921e-08, -4.3536e-11, -1.6798e-08, -1.0623e-25, 1.4787e-07, 1.1581e-18, 4.906e-08, -1.2541e-13, -4.3033e-32, -2.6759e-09, -1.3099e-11, 8.3001e-11, -3.9148e-07, -8.0426e-15, -1.7885e-19, -5.273e-10, 1.0435e-06, -1.1823e-38, 1.7937e-29, 1.2283e-12, -1.0223e-12, 5.9098e-34, 2.7665e-07, -8.0858e-08, -3.2058e-30, -1.9376e-35, 4.1837e-11, -8.3298e-20, -8.0539e-15, 1.3537e-05, -4.3665e-12, -5.6195e-28, -3.9719e-08, -1.5082e-39, -1.0921e-21, -9.5393e-39, 1.1329e-10, 2.3611e-19, 4.3786e-13, 2.2867e-17, -3.8594e-13, 4.3975e-16, -1.0513e-19, -1.9864e-10, -1.1273e-12, 1.4462e-31, 9.5789e-39, 8.877e-12, 1.1374e-07, -8.9399e-32, -3.0475e-10, 1.8089e-25, -6.0339e-11, 9.5458e-15, -2.3155e-08, -9.6036e-16, 1.0987e-15, 1.5627e-11, 6.7666e-09, 3.2194e-11, 1.0376e-20, -3.0457e-17, 2.3807e-11, 4.0528e-23, -1.6375e-12, 3.1241e-10, 2.2729e-10, 1.6798e-18, 9.6556e-10, 1.1101e-09, 7.9361e-14, 2.2887e-17, -1.1337e-10, 5.6275e-10, 1.7541e-17, 2.3066e-16, -7.1999e-39, 1.2555e-09, 1.08e-10, -1.9809e-08, -3.2373e-17, 1.9474e-09, 5.4375e-07, 1.4461e-11, -1.2826e-33, -1.6975e-09, 1.1991e-37, -9.7921e-13, -3.8043e-09, -1.3318e-20, -2.4526e-10, -8.7903e-26, -6.234e-13, -8.82e-20, -5.7111e-39, 1.6758e-26, -6.9056e-17, 3.7024e-39, -6.0252e-11, 2.7575e-09, 5.4271e-27, 3.0761e-09, -2.8997e-12, -8.713e-06, 2.7833e-16, 3.274e-27, -1.2879e-38, 4.0759e-09, 8.982e-21, 4.437e-28, 1.2972e-38, 1.8996e-22, -2.2701e-21, -6.3107e-10, 1.0304e-12, 1.2683e-08, -1.9262e-17, -1.695e-23, -3.772e-15, -6.7556e-20, 3.334e-19, -3.5469e-19, 9.4705e-39, 3.329e-34, -1.9988e-09, -1.5116e-18, 1.0429e-11, -7.4832e-26, -1.5948e-39, -1.1331e-34, -5.4584e-12, 8.3446e-32, -5.463e-12, -8.196e-27, 2.8629e-11, 2.1605e-33, 7.5437e-27, -0.00023189, -9.0303e-22, -1.7996e-07, 1.1213e-09, -3.2478e-35, -1.0559e-16, 1.292e-12, 3.1491e-16, -2.1643e-09, -8.0207e-12, 6.9513e-34, 3.5506e-09, -1.4223e-08, -6.9111e-11, -1.9816e-14, 3.2309e-09, 6.4324e-09, 6.7424e-22, 2.0821e-09, 1.759e-07, 1.2019e-13, -4.8268e-18, 2.0934e-16, -1.8442e-16, -1.2611e-16, -2.2872e-13, -2.7997e-22, 2.1975e-06, -5.5252e-12, -2.8714e-26, 9.7781e-11, 1.3557e-09, -1.5785e-18, 1.5984e-09, 4.3143e-11, -2.4007e-27, -5.2973e-16, 1.9285e-27, -2.5857e-09, 4.1022e-09, -3.3267e-12, 9.9341e-17, -5.6927e-17, -4.395e-23, -2.1623e-21, -7.8718e-11, -2.7179e-15, 6.0099e-14, -6.9914e-08, 1.4805e-08, -6.2318e-18, -2.3528e-05, -6.1442e-11, 1.2541e-11, -2.8699e-39, -6.2408e-23, -1.2528e-22, 1.0953e-11, -7.0297e-08, -1.1994e-34, 3.0186e-11, -2.5265e-21, -1.9026e-28, 3.3068e-13, 1.2901e-11, -3.4062e-14, 2.1187e-12, 1.4635e-09, 6.6726e-18, 5.2053e-13, 1.0112e-14, 1.5653e-18, 2.1322e-11, 7.835e-20, 4.2127e-08, 1.3375e-08, -2.005e-13, 9.9528e-18, 2.8392e-33, 5.3011e-16, -1.5294e-15, 8.2008e-27, 1.9016e-10, -3.068e-13, 1.1622e-14, 1.9301e-09, 7.8814e-11, 7.9045e-39, -9.3486e-16, 1.1905e-38, -1.6228e-32, 4.6087e-22, -5.5937e-10, 2.3604e-40, 4.5974e-11, 1.9705e-09, 1.505e-18, 1.0017e-27, 1.1877e-14, 1.9815e-25, -2.7478e-27, 1.2255e-17, -1.7181e-15, 3.3194e-32, -8.1769e-09, 2.9165e-34, 4.1106e-13, 2.7998e-39, -4.9256e-26, -1.8168e-10, 3.6603e-08, 1.2128e-08, -2.2835e-16, 5.5513e-14, 2.5559e-16, -1.2208e-25, 1.2468e-15, -2.0933e-12, 7.2385e-21, -2.626e-18, 2.352e-13, 1.1783e-12, -5.5116e-23, 3.7119e-18, -2.8392e-12, -1.8499e-10, 1.3088e-24, 2.8978e-10, 8.577e-10, -0.0001718, 4.7186e-15, -2.0987e-20, 1.7757e-18, -2.6069e-23, 1.593e-10, -5.314e-15, -5.0141e-32, 2.0774e-13, -3.1216e-24, -1.9431e-13, -3.0448e-17, -5.7745e-15, 4.6969e-14, 3.0072e-07, -3.3217e-32, -6.0008e-39, 1.3903e-07, 1.0145e-16, -1.1852e-14, -9.3201e-20, -3.1326e-09, 4.0329e-08, 1.0537e-31, -7.1477e-11, -1.1156e-18, 7.5014e-22, 3.0807e-26, 7.2031e-31, -9.7149e-10, -1.2929e-11, -1.348e-18, 1.2512e-07, 6.3907e-13, 3.8166e-11, -7.2386e-09, -9.7875e-13, 5.1939e-24, 5.367e-07, -9.1799e-09, 1.3084e-36, 3.44e-09, 3.8637e-07, 1.5875e-17, 1.1483e-13, 4.1795e-27, -5.1869e-16, -1.0488e-15, 7.2447e-18, 2.9081e-24, -5.5347e-11, 2.3432e-19, 4.7005e-06, 5.0742e-24, -6.4976e-14, -3.171e-28, 3.8397e-10, -1.3116e-09, -1.5554e-09, 1.9388e-13, -2.6175e-09, -6.3437e-27, -9.7557e-11, -7.0627e-13, -4.0793e-19, 2.9509e-12, 1.2373e-18, 7.9398e-39, 1.1511e-09, -2.9986e-30, -4.0699e-13, 3.5916e-15, 1.5558e-12, 5.454e-12, -8.3061e-38, 4.05e-24, 1.3188e-22, 2.3046e-11, -1.7782e-06, 4.743e-11, -9.4046e-14, -3.5573e-09, 2.7442e-28, 1.272e-38, 2.8125e-12, 1.7138e-12, 4.5611e-14, -7.5356e-28, -1.8285e-11, -1.7175e-18, -1.5793e-12, -1.7793e-26, -8.1545e-13, 8.7343e-21, -1.9009e-09, 2.1892e-09, 1.0535e-10, -1.0597e-08, -1.6506e-14, 8.5751e-13, 5.1778e-24, -1.3517e-30, 1.6709e-19, -6.9399e-23, -3.7445e-09, 6.5934e-13, -5.3675e-08, -3.2117e-20, -1.3387e-11, -4.9628e-12, -3.2186e-12, -6.0888e-14, 2.7383e-11, -1.0251e-18, -8.1463e-16, 2.0012e-18, 2.2126e-39, 3.5006e-17, -6.5899e-18, 1.0975e-12, 5.7574e-13, -2.1052e-13, -2.8692e-22, -1.877e-28, -9.5806e-11, 1.1049e-12, 1.6605e-23, 9.3422e-13, -2.0317e-13, 7.5625e-14, 7.8214e-08, 2.0023e-08, 7.5209e-08, -9.2849e-18, 8.9418e-10, -4.269e-09, 3.0655e-15, 3.4005e-33, -1.003e-10, 6.9351e-16, -2.426e-08, -3.7332e-10, 6.1468e-28, -6.5745e-14, 4.5411e-23, 8.8294e-37, -1.035e-39, -7.5418e-22, 2.0546e-16, 3.9074e-13, -1.3534e-24, 2.5986e-07, 6.433e-33, 3.5856e-19, 6.0852e-13, -1.9091e-17, 8.9517e-24, 2.5835e-21, 6.9425e-39, -1.6483e-13, -9.7304e-13, 1.9187e-07, -3.5711e-12, 4.3848e-33, 3.8389e-25, -1.422e-30, 7.0382e-16, 3.1434e-23, -1.3009e-21, 1.5062e-15, 5.525e-29, 3.8939e-15, -1.9265e-10, 6.667e-24, -1.9417e-29, 6.6725e-33, -5.6414e-09, -2.1798e-21, 9.1434e-13, 1.5737e-10], [-0.0089069, 0.049233, 0.088893, -0.091465, -0.050737, -0.075681, -0.049726, -0.016139, 0.060289, 0.071898, 0.1145, 0.13283, 0.0052279, -0.061113, 0.051755, -0.0034594, -0.028804, 0.0013903, 0.019635, 0.0056187, 0.045547, -0.060444, -0.067808, 0.083295, 0.084769, -0.072067, 0.014087, -0.071168, -0.015797, -0.027468, -0.019467, -0.058706, 0.091304, 0.10173, 0.10576, -0.052014, -0.018901, 0.063091, 0.075144, -0.0183, -0.061012, 0.12995, 0.010758, 0.069475, 0.061593, -0.0050543, 0.0089947, 0.04319, -0.027975, 0.10122, -0.025934, -0.13401, 0.024549, -0.072689, 0.028541, -0.00051338, 0.031027, 0.038206, 0.21231, 0.012003, -0.032755, 0.052335, -0.051312, 0.11766, 0.034638, -0.12145, 0.028587, -0.12813, 0.07937, 0.067057, -0.12466, 0.15872, -0.013006, -0.0011, 0.07593, 0.026962, -0.045295, 0.0054499, -0.046704, 0.013702, 0.051015, -0.037395, 0.10376, 0.14397, 0.028605, -0.022371, -0.13269, -0.090685, 0.12882, 0.052611, 0.035909, -0.055788, 0.055521, 0.028145, 0.053704, 0.063437, -0.0072134, -0.045492, -0.07142, -0.090209, 0.14432, 0.0018792, -0.0015288, 0.039019, 0.026177, -0.082646, 0.038756, 0.038298, 0.0031518, -0.095513, -0.030615, 0.12707, -0.084772, 0.041859, -0.14108, -0.12274, 0.019912, -0.019958, 