{"type": "mlp", "dim": 768, "T": 2.804953639241477, "layers": [{"W": [[6.741997236482776e-40, -2.986102567746826e-39, -9.79272348550887e-39, -4.415484454595177e-39, 1.0478733352614477e-38, 9.138611375346689e-39, 1.6510476857260362e-39, 1.1122644009956374e-38, 1.3999355614384148e-38, 4.828508769164131e-39, -1.3128384159076915e-38, 1.0239203800913579e-38, 4.796938916061357e-40, -1.3636214722548228e-38, 4.8014623075041976e-39, 1.3129505197848375e-38, 7.638182255058605e-39, 4.537824817023055e-40, -6.411133853474115e-39, -5.20343738368195e-39, 6.993538718619867e-39, 1.0469787463218227e-39, -1.703334335325388e-39, 1.1313357928354053e-38, 8.234338062034777e-40, -1.1052919602266964e-38, -4.3889592759639725e-39, 6.813054279011759e-39, 3.6239764313044116e-39, 7.015094892896575e-39, 1.1479840593706627e-38, -4.872206860475636e-39, 6.355807787505642e-39, -1.0680007456239308e-38, 1.5366680998739874e-39, 1.042524298763427e-38, 1.204808673916884e-38, -4.625960885235229e-39, 5.6903591727670734e-39, -1.3258777783779268e-39, -2.1588376115418845e-39, -3.3447705148846205e-39, -1.0811928496267775e-38, 3.4805871646439104e-39, 4.95169831846139e-40, 1.2715092196501275e-38, -7.781902228156687e-39, 5.097558074314496e-39, -7.553881540743289e-39, -1.580286317173026e-39, 6.429069072519008e-39, 2.5289331476562476e-39, -9.631654036123983e-39, 8.873261498142141e-39, 6.444266154364611e-39, -1.2308604939268396e-38, -6.126252678273808e-39, 7.616665317138898e-39, -1.3718755405992353e-38, -1.4466907254796909e-39, 8.107712528902993e-39, 1.1740145796439605e-38, -9.053646445559282e-39, 9.539923637350816e-39, -7.832916498750432e-39, -1.0440752559037417e-38, -1.1781325754410718e-38, 1.1218986081975634e-38, 4.257524486502626e-39, 1.3182879255056043e-38, 1.2485862188513164e-38, -3.101638224831943e-39, 1.1484740934436371e-38, 8.512278605941282e-39, -4.532135545257896e-40, 2.0739217272007293e-42, -8.666211242247364e-39, 8.350986350100567e-39, 7.07274150912197e-39, 5.793745572166494e-39, 6.174151862381359e-39, 8.282055077341965e-39, 2.1867963185020933e-39, -1.3530867906597217e-38, 8.419156717793041e-39, 4.8475706321743413e-39, -8.09087592785413e-39, -1.0566250046905419e-38, 1.2199466209672922e-39, 1.3671080429639094e-38, 7.510121792299353e-39, -9.13445792669843e-39, 7.83421830502379e-39, 1.3678276097253402e-38, 3.984673458618548e-39, -9.766328627634848e-39, 4.732744032112173e-39, -1.1240191931636261e-38, 1.3523900650632594e-38, 2.005256701150349e-39, -6.210679509450914e-39, -5.218619051244445e-39, 6.382040094757803e-39, 9.329224400254936e-39, 5.209376086573759e-39, -6.695668907953733e-39, 4.009482046630955e-39, -1.282272172765067e-38, -4.656290589197075e-39, 7.673230130949833e-41, -7.102208013229792e-39, -8.495090278977874e-39, -1.2544964753842992e-38, -1.387332843569663e-38, -5.1660871744138366e-39, 1.072043211433815e-38, 8.704688095480794e-39, 1.3003487828250108e-38, 4.128743756332711e-40, 1.225734684274186e-38, -1.2876489549726814e-39, 9.205070757614222e-39, 8.093566420905634e-39, -6.068971800947603e-39, 7.226906760973129e-39, -5.93063982044485e-39, 5.531191285398275e-39, 3.142144158241716e-39, 5.0628969567994214e-39, 8.812503999325946e-39, 5.6862309474911725e-39, 7.68067803228772e-39, 5.768234933623461e-39, 1.1763983284616234e-38, 1.2777095449652255e-39, 4.1525840471062694e-39, -4.443650553728106e-39, -1.1920434054262707e-38, 5.202093538454663e-39, -1.1817336322346938e-38, -1.925117843274077e-40, -9.819999760116953e-39, -1.3871739363238086e-38, 1.3529266222452494e-38, -1.1406303252895789e-38, 1.1568845466966682e-38, 1.0317400459118297e-38, 1.3823610366182386e-38, -2.8751953994893743e-39, -1.3863169021830276e-38, -6.640767435419951e-40, -5.12887849629062e-40, -8.18652435713355e-39, 7.162106516087356e-40, 3.425318551912475e-39, 1.262551419216931e-38, -5.54432845850132e-39, -6.91273424397304e-39, -3.133463114255224e-39, -2.0452077203682494e-39, 1.9764894449762247e-40, 8.054649559954405e-40, -8.883328426309851e-39, 1.157607336444567e-38, 1.295229419145293e-38, -5.734512686079484e-39, 8.941116573680142e-39, -7.911338766007906e-40, 9.615162154497344e-39, -2.0723746936961147e-39, -5.161290529770453e-40, -1.3077165298907378e-38, 3.2636997935295725e-39, 6.554759939575087e-39, 2.002845066493246e-39, 8.101311397517957e-39, -5.181774710721953e-39, -4.245408859980074e-39, -1.3836540147112711e-38, 6.878911102939632e-39, -1.7207244492676591e-40, -3.9436910837309046e-39, -1.5510440208194957e-39, 1.2230426497943715e-38, -1.185723269092473e-38, 6.865656220765584e-39, -7.721003198195595e-39, -3.388720839919704e-39, 1.3169119905434837e-38, -7.215477770698096e-39, -1.604907131191213e-40, 1.213484392969212e-38, -3.7099699141646327e-39, -1.3265307834623021e-38, 1.244351214632434e-38, -1.6178593328969673e-39, 6.388570145601557e-39, -1.8330917705249376e-39, -8.090229929262077e-39, -8.108773311840487e-39, 9.433935026703144e-39, -1.0464349023878183e-38, -9.935248151016883e-39, 8.029972693997645e-40, 4.8859199672475186e-39, 1.0231705452830977e-38, 1.3419496908548074e-38, 8.601049462357795e-39, 6.437368963323204e-40, -3.963055627209409e-39, -1.1890788183951451e-39, -1.7491567951088097e-39, -3.98638164144656e-39, -1.07250493927781e-38, 5.987972545814235e-40, 7.444493380021165e-39, -4.624254103705681e-39, -1.0319798080790756e-38, -1.2865651907403726e-38, 2.7307341395036645e-39, 5.5482871266630375e-39, -1.1531186972036417e-38, 7.446082452479709e-39, -2.830073588938115e-39, -1.1391226682718119e-38, -1.2878887171399274e-38, 8.629237982266153e-39, 2.0827022633781886e-39, 5.8569707575783655e-39, 1.3054678662450358e-38, 1.7852444344605667e-39, 1.892641350064885e-39, -1.3785506258340466e-38, 7.600139804349115e-39, 2.963520642994232e-39, 3.830616106749142e-39, -9.074011516141315e-39, 2.283647061863903e-39, 5.7320421968868794e-39, 1.3264602981495466e-38, -1.3720547666728225e-39, 9.693392443865205e-39, -8.478943116773459e-39, 6.400263981286347e-39, 1.328458970149213e-40, -1.0467710738894098e-38, -1.0950728510457612e-38, 1.4347894976221802e-39, 1.382424375308826e-38, 2.5398955055426607e-40, 9.870623068439151e-39, 6.563659586122014e-39, 1.3017597502487395e-38, -4.470296244027242e-40, 6.636978324372417e-39, -1.3483998676860945e-38, 1.3065584968398198e-38, 4.918308178653458e-39, 1.2870538235148827e-38, -7.546048282327713e-40, -7.576606397939244e-39, -3.951224464275115e-39, -9.720583239266964e-40, -1.2284481586205045e-38, 3.490495746085151e-39, -7.054413926507065e-39, 9.402390396972728e-39, 1.329069375760273e-38, 2.659570598291393e-39, 2.1587395206493818e-39, 1.2086538369029914e-38, 1.0836877214126614e-38, 1.2350835871087753e-38, -3.454489382044325e-39, 1.3962725672526697e-38, 3.5466667950276115e-39, 1.77071997587784e-39, 1.1279330197744853e-38, 1.0211622043240273e-38, 2.9554785911074717e-40, -7.917449828610827e-39, 1.2428032002188943e-39, -1.3099021351055453e-38, -1.2748300167508844e-38, -5.050587951088792e-39, -5.1187569174828016e-39, -1.2251807509912383e-38, 1.1560680100815061e-38, 7.284044705855973e-39, -8.390298377218736e-39, 5.1529247779384336e-39, -1.2096566060840622e-38, -4.6881827409466437e-39, -1.945890691709228e-39, 2.7336404325186742e-39, -1.3417005399878504e-38, 9.062351311619668e-40, -1.3460860436618014e-38, -9.598549761202773e-39, -1.822001894478271e-39, -3.080925632230758e-39, -9.482635753532288e-39, -1.2256852184383952e-38, 1.2754939519632815e-38, 8.260262083624786e-39, 1.315458844035979e-38, -9.895479300599344e-40, 1.1878095222461597e-38, -3.679125933666379e-39, 6.754601916169378e-39, 1.3399382670391155e-38, -1.3632375164755978e-38, -3.324413852093374e-39, -4.1405048543437895e-39, -1.3476575998895417e-38, 5.84550533354326e-39, 7.488702945272148e-39, 1.3885347372625145e-38, 2.8514952385622486e-39, 1.3836841426282541e-39, 1.0003732409565365e-38, 1.3412870168110282e-38, 3.726122681562905e-39, 6.230670433342972e-39, 6.289040119575958e-39, -1.261830170897343e-38, 1.312506448301493e-38, 7.093064540750073e-39, 7.998827434329562e-39, -5.425517966905076e-39, -9.70483824972181e-39, 6.344566571224829e-39, 4.9775256504573605e-39, -1.139374481605851e-38, 1.1056096345885588e-38, -2.548792349492659e-39, -1.1503745344209544e-38, -8.067856797980667e-39, -5.87157228757663e-39, -5.402997699284912e-39, -5.5088475813846155e-39, 1.308766102440517e-38, -6.416911407042526e-39, -3.600126331441603e-39, 6.397622533681095e-39, -1.3009740421997926e-38, 1.2085117452387088e-38, -1.2845002373233436e-40, 2.2519286711239108e-39, -1.283954711831182e-38, 1.3485132327318584e-38, -7.72288093813779e-39, -9.828564496330906e-39, 1.3697377196620614e-38, 4.3461930481312434e-39, -8.884626028687816e-39, -2.6946030598995135e-39, -6.674715292016684e-39, 1.2992479227514372e-38, -4.4095975997465484e-39, 5.387600231758911e-40, -8.748132551770257e-39, -3.645363048466937e-39, -8.074081365759198e-39, 9.297221545926686e-39, -8.617251275202319e-39, -3.4832538356215205e-39, 1.156571496619738e-39, -7.203528898692798e-40, -1.3917275958134786e-40, 1.3739091049306635e-38, 9.055371443968866e-39, 7.032427553601809e-39, 6.661582322809032e-39, 7.963077507907707e-39, 9.498142522338507e-39, 1.340233240365856e-38, 6.702522658742746e-40, 1.2274865876142848e-38, 1.1885596373141128e-38, 7.676338210943706e-39, 9.009135601138468e-39, 1.9096895471818607e-41, -6.563935641919486e-39, -5.4987091869952254e-40, 1.023116875551914e-38, -1.3209701508961684e-38, -1.7327265706146012e-39, 2.2114647766680674e-39, 1.1907285670771948e-38, -6.358481464975574e-39, -3.5347333373054213e-40, 7.929749025232206e-39, 5.323563694536195e-39, 2.859456015138078e-39, 8.981719196683953e-39, -3.0593049982246904e-39, -5.031157546582464e-39, -1.9824323517634263e-39, 1.3132644106408462e-38, -3.9092163389115854e-40, 8.031498708025295e-39, 1.1957125653252588e-38, -1.0301726935794824e-38, 9.730913611545967e-39, -6.017524529128381e-39, 1.2824024935222493e-38, -9.81330155345748e-39, 9.194911343747867e-39, -3.033275879249857e-39, 7.896122065983803e-39, 4.643680304316616e-39, 1.3421252735523873e-38, 3.676986150911355e-39, -3.453323501722007e-39, -1.2065661824508403e-38, 1.1405644642617557e-39, 1.1953311318832696e-38, -1.392436372576734e-38, -9.280398957862467e-39, -9.197107178441464e-39, -8.305830908386164e-39, -1.181781977031713e-38, -4.58851819026847e-39, -3.3640762038276235e-39, -9.963693108544212e-39, 2.8819524606843485e-39, 8.580912803425448e-39, -9.540341224293184e-39, -3.337385671977629e-39, 1.2475756023988453e-38, -5.39816602217992e-40, -1.1721945731984954e-39, -1.7368127569365723e-39, -1.0539206387842415e-38, 2.684363772020692e-39, 1.3634765779936117e-38, 1.2738265469205814e-38, -1.0469198917863211e-39, -8.91487725993566e-39, 9.583030380710376e-39, -7.843221647657077e-39, 8.051498039708139e-39, 4.6831688950412895e-39, 6.746708401919836e-39, -4.463044524474361e-39, 7.534585660889536e-40, -1.0190866010386694e-38, 1.3748312994500357e-38, -3.5828875577334793e-39, -6.367770672495583e-39, 2.8793908870915628e-39, 1.1655015513433408e-38, -4.334423542329379e-39, 1.1204350920814225e-38, -1.1802478354729702e-38, 9.386223616589812e-39, -6.394321074499146e-39, 5.248096765739982e-39, -6.618217740532036e-39, -1.0854554594254071e-38, -1.3534009617754234e-38, -1.3411809385172788e-38, 6.657783402672248e-39, 1.3041622764658244e-38, -1.1841554963705863e-38, 7.384701375846889e-39, -1.365629112564661e-38, 4.901060997154548e-39, -7.88931035414872e-42, 9.720968596344653e-39, -6.992745583689059e-39, 1.842631810470061e-39, -7.972694619268368e-39, 1.1112431346748375e-38, 2.3394747926826037e-39, 3.5394276871609095e-39, 1.9330309757021192e-39, -1.0872163310756777e-38, 8.541176182872589e-39, -5.287634401910907e-39, 1.3443983197913686e-38, -7.273656880339933e-39, -4.8242838542941915e-39, 6.31397342315169e-39, 6.663116744627468e-39, -3.137931855057956e-39, -8.606298726405156e-40, -1.0990786028358802e-38, 1.518270452335867e-39, 1.354517096002258e-38, -1.2027805746494668e-38, -1.29691462067849e-38, -3.451477991644491e-39, 4.7467976544108864e-39, 1.352855856672801e-38, -1.8592105726014878e-39, 4.920855739261601e-40, 1.078593440975455e-38, 2.8109472661985457e-39, 5.122253157151292e-39, -1.1033838121078253e-38, -6.915252377313432e-39, -8.171868176495176e-40, -4.281685674624515e-39, -1.0785823707175868e-38, 1.1222123589237257e-38, 6.471096816061038e-39, -6.88964504917636e-39, -9.551341417238134e-39, -3.8964855423631945e-39, -7.843067504826001e-42, 1.898016730974035e-40, 1.0950844818230151e-38, 1.3375490531574417e-38, -3.764463608845296e-39, 1.2664271305095607e-38, 7.802337363661936e-39, -1.1461340651380611e-38, -2.137579913838077e-39, -1.1346750870758913e-38, 1.2627617541164262e-38, -5.136257734003754e-39, -4.4000813818753186e-39, -9.010290271073072e-39, -1.194755478474125e-39, -7.117129039277923e-39, -4.50555151209119e-39, 1.1832581048340327e-38, 3.507923695085959e-39, -3.287464414186057e-39, 4.449125426828223e-39, 1.0342657462639287e-38, -1.3496049843654139e-38, 5.023650790709076e-39, -4.895918231790476e-39, 4.946020257083946e-39, 1.3821455169144255e-38, 1.02596557520004e-38, 5.470216585320109e-39, -4.018732017793963e-39, -1.573181733958899e-39, 5.47726091270027e-39, -5.353059625911768e-39, 1.0201080074893158e-38, 4.5818732329506414e-39, 3.6204297448912055e-39, 5.31328096640498e-39, -5.237479127275793e-40, -1.18226444409298e-38, -1.202145926574974e-40, 1.0298931345358496e-38, 6.915612511018764e-39, 5.8757677751788186e-39, 2.5780920990832265e-39, -2.364242743039545e-40, -1.9352926714235394e-39, -9.381055627853382e-39, 5.915383884063745e-39, -9.500443454416928e-39, -7.471647741662851e-39, -2.5995375707812535e-39, 8.374486125347294e-39, -7.677633010724742e-39, 3.4854580781059034e-39, 1.0850654780627855e-38, 1.122966117367686e-38, 6.630798598144745e-39, -1.3201318941548093e-38, -7.587909271352488e-39, -8.2945798830161e-40, 1.104278961566836e-38, 8.77812734539913e-39, -8.728626477146855e-39, 1.1592584864250809e-38, -3.299865905595332e-39, -3.161121943344067e-39, -6.459908849121869e-39, 1.0275228381834441e-38, 1.2624865390980329e-38, 1.3738949518161738e-38, 1.0001316571012869e-38, -1.3818885187760683e-38, 2.4206870451825485e-40, 1.395261390280813e-38, 6.719830096075622e-39, 2.0608588229162933e-39, -7.034996133686916e-39, -8.239092667724231e-39, -1.2470063949626366e-38, 8.091432243344467e-39, 2.2593793750587258e-39, -2.7610400213916174e-39, 3.7311519417513666e-39, -1.6926158033717676e-39, 1.088281458038411e-38, -5.0001664297454566e-39, -1.4017711222968338e-38, -1.3116694527287517e-38, 7.879768912905132e-39, 1.0054162338699487e-39, 1.0235318000272006e-38, 2.073963766154659e-40, 1.0029713884392412e-38, 1.437886367228338e-39, -1.3576218128798161e-38, -9.497104160176442e-39, 4.62820996927047e-39, 5.171049172276011e-39, -9.2542297090412e-39, 2.718018757238381e-39, 1.1891797118845765e-38, -1.3368004795177994e-38, 5.4065513921904395e-39, -4.477619429801804e-39, -1.0619241549632327e-38, -9.973314423800266e-39, -1.0585604781294674e-39, -8.755122228510309e-39, -9.693143012738555e-39, -8.164567411496044e-40, 5.2384039842622474e-39, -6.740691226314025e-39, 5.475917067472982e-39, 3.7573043749910607e-39, -5.0274525134427895e-40, 7.078035614720189e-39, -7.432693045653085e-39, 1.765543579350624e-39, -6.828573659504156e-39, -7.023903455043321e-39, 5.4941885981493136e-39, -4.787042946306295e-39, -1.3094383053138537e-38, 1.3197969838218357e-38, -1.0807859125527376e-38, 3.703516934736417e-39, 5.1359102119846016e-39, 9.111905429213586e-39, 5.111332838218809e-39, 2.8656049127995352e-39, -1.8530784905216024e-39, -6.09611355090311e-39, 6.11029889525747e-39, -1.3785266636303066e-38, 2.4333113430476508e-39, -1.1389131741513953e-38, 1.899297517770428e-39, -1.353374897623987e-38, -3.3598526902561485e-39, -4.365113379996557e-39, -5.202404626713743e-40, 9.255828590588995e-40, 3.682672620079585e-39, -9.415266928561409e-39, -1.3544648275695388e-38, 1.0480398095190095e-38, 1.1127907286988378e-38, 1.3570540067420717e-38, 1.1324461817385363e-38, 4.805959074276216e-39, 4.484407319562993e-40, -5.084751607649031e-40, 6.96312773934709e-39, -1.5617933813393313e-39, -1.0835295148160391e-38, -5.564256323962483e-39, -1.0126137231722602e-38, -5.590965072692514e-39, 5.793403655341199e-39, -4.168215531475813e-39, -1.4100747966068834e-39, 2.112998336176891e-39, 4.446947809014662e-39, 8.27420920724021e-39, -4.979778938387995e-39, 4.197225212284265e-40, -7.203168764987466e-39, -8.427577120265169e-40, -4.9909851222072004e-39, -4.5006862038230545e-39, -6.94311019078421e-39, -2.0505620818004346e-40, 7.280886179117385e-39, 7.43669935796259e-39, 1.359728805250775e-38, -5.870609595531639e-39, -1.1168264682760933e-39, -1.3856068642511542e-38, 1.0801961060291032e-38, -1.2127229273836978e-38, 1.8896804064097666e-39, 1.3329314944577986e-38, -6.081146282005657e-39, -2.1058292932334053e-40, 2.0554371991578206e-39, -5.1193440615393537e-39, 3.3643186284619517e-39, 1.789137241594461e-39, 5.85114976375756e-40, 1.1184975166948006e-38, 9.276424875417641e-39, 1.2464577866138534e-39, 2.7201725529780484e-39, 1.0875543242652729e-38, 1.119110024253557e-38, -2.7554936820698197e-39, 7.279308317046555e-39, 1.1044213334908114e-38, -6.421102690749322e-39, 3.692176226264636e-39, -1.3059403840872061e-38, 8.4374114328878e-39, 2.9425866452356834e-39, 1.078499834238038e-38, -3.000203834193327e-39, 1.2659548929270832e-38, 1.1649963832469517e-38, -7.992291778291951e-39, -7.230381981164654e-39, -1.2428012384010443e-38, 1.3802199926945967e-38, 8.719145291737234e-40, 1.2979379889469864e-38, -8.640553467365576e-39, 8.861189311871983e-39, -1.3395807958008663e-38, -7.448795366306642e-39, -1.7217908373990103e-39, -6.273041495008762e-39, 6.4288630816447525e-40, 2.0465753876694305e-39, -3.563192307817394e-39, -4.2253590815525144e-39, 1.1186817874428593e-39, -7.690335781303846e-39, 1.2956670446557016e-38, 1.2728057009893208e-38, -1.3815380540301407e-38, -4.5288270795836255e-39, -3.9703087480607545e-39, 6.709401632904117e-39, 1.2945848218517035e-38, -8.374212872146751e-39, 9.640019787956002e-39, -6.948729397626152e-39, 7.952508914889769e-41, -1.2825347760972816e-38, -6.692528598095181e-39, 1.3569905279216378e-38, -3.3663364982505794e-39, 1.0170744765737454e-38, 3.4916966588690775e-39, 4.4712589360722333e-39, 1.3415576075444893e-38, 1.3700384383125055e-38, -6.386686800465504e-39, -2.634401876573655e-39, 2.8037193687195583e-39, 5.043791653536817e-39, 1.355574655953284e-38, 7.103686383109655e-39, -5.927852637799308e-39, -5.961614121700286e-39, 7.630350397941494e-40, -1.3350447926718469e-38, 1.0568775186738133e-38, -4.644155344496022e-40], [0.3419356346130371, -0.05181092023849487, -0.40927013754844666, 0.3568820655345917, -0.34113776683807373, -0.2480333000421524, 0.14811977744102478, -0.11656282842159271, -0.00031855300767347217, 0.5468799471855164, -0.28636041283607483, -0.3473663330078125, -0.05145831033587456, -0.20804338157176971, -0.024255845695734024, 0.24070487916469574, 0.0437517911195755, -0.20132654905319214, -0.17895150184631348, 0.09593335539102554, -0.10132770985364914, -0.09848852455615997, 0.2376408576965332, -0.17225046455860138, 0.010066164657473564, 0.07916798442602158, -0.0860181376338005, -0.1876727044582367, -0.11749494075775146, -0.07520250976085663, 0.29723814129829407, -0.24552899599075317, 0.14697934687137604, -0.06587762385606766, -0.1282777041196823, 0.18407894670963287, -0.1251007318496704, -0.24600276350975037, 0.25603678822517395, -0.13510356843471527, -0.15287956595420837, 0.05033605918288231, 0.000680023804306984, -0.17631050944328308, -0.2101047784090042, 0.15306298434734344, 0.2647147476673126, -0.026550419628620148, 0.015536676160991192, -0.2067602574825287, 0.015199592337012291, 0.2683412432670593, 0.06884647160768509, -0.2585691809654236, 0.04155217111110687, -0.28412410616874695, 0.12363934516906738, -0.14779850840568542, -0.3234351873397827, 0.09353002905845642, -0.5770345330238342, -0.24564766883850098, -0.19485518336296082, 0.008753803558647633, 0.24992884695529938, 0.07168582081794739, -0.02441243827342987, 0.0670301616191864, 0.01911182887852192, 0.19273890554904938, -0.4199824631214142, 0.28231361508369446, 0.1670801043510437, -0.1293589323759079, -0.35586559772491455, -0.5317067503929138, 0.2802293300628662, 0.6506428122520447, 0.27734920382499695, -0.08014196902513504, -0.3319830298423767, -0.07670864462852478, -0.05404646694660187, 0.13747075200080872, -0.296917587518692, 0.483516663312912, -0.37163737416267395, -0.03142477944493294, -0.09812362492084503, -0.13118956983089447, 0.1267891377210617, -0.28135979175567627, 0.24358361959457397, -0.3409416377544403, -0.15506736934185028, 0.11904463917016983, -0.46455585956573486, -0.03106713853776455, 0.12374092638492584, 0.10030107200145721, -0.23983170092105865, -0.09703181684017181, 0.09637931734323502, -0.1071532741189003, -0.07805752009153366, 0.05774250626564026, -0.2652965486049652, -0.24735140800476074, 0.08304191380739212, -0.22015202045440674, 0.33565887808799744, -0.32703056931495667, -0.10914456844329834, 0.010408485308289528, -0.09994249045848846, 0.24088922142982483, -0.14690327644348145, 0.14678192138671875, 0.16174018383026123, 0.2683295011520386, -0.09127528965473175, 0.20716002583503723, 0.2967309057712555, -0.39683210849761963, -0.04006142169237137, -0.2399258017539978, -0.7376495599746704, -0.15836867690086365, -0.062278296798467636, 0.03933294117450714, 0.04462013021111488, 0.046608082950115204, -0.4412502944469452, 0.38647791743278503, 0.09550804644823074, 0.14932897686958313, -0.002832273254171014, -0.060002777725458145, -0.050448667258024216, 0.055164892226457596, -0.13940176367759705, 0.03485371544957161, 0.0652250349521637, -0.2009771764278412, 0.008664545603096485, 0.16143357753753662, 0.18924789130687714, 0.6038408875465393, 0.017723316326737404, -0.15028232336044312, -0.1713005006313324, -0.25109729170799255, -0.10174647718667984, -0.07026682049036026, -0.20651105046272278, 0.19744624197483063, -0.014061212539672852, 0.018648112192749977, 0.006291068624705076, -0.2732028365135193, -0.01122716162353754, -0.21047867834568024, -0.00020728640083689243, 0.09925910085439682, 0.047986119985580444, 0.09276056289672852, -0.3320542275905609, 0.1629529446363449, 0.008271073922514915, -0.12978282570838928, 0.39612624049186707, 0.0673162117600441, 0.05419335886836052, -0.05372516065835953, -0.2006509155035019, 0.4586605429649353, 0.18984612822532654, 0.037494558840990067, 0.1463884860277176, 0.055745791643857956, -0.12977363169193268, -0.10393990576267242, -0.18831197917461395, 0.13322016596794128, -0.20261961221694946, 0.3204118013381958, -0.2640302777290344, 0.05271020904183388, -0.061311181634664536, -0.06218104809522629, 0.2373066544532776, -0.01446339301764965, 0.12476512789726257, -0.28993406891822815, 0.054498329758644104, -0.17805969715118408, 0.10999976098537445, -0.10802567005157471, -0.10614613443613052, -0.05612533539533615, 0.2331218421459198, 0.12432046979665756, -0.012893248349428177, 0.3169506788253784, 0.31219059228897095, -0.022172462195158005, 0.43903404474258423, 0.12798577547073364, -0.10612168908119202, -0.10311576724052429, -0.014323949813842773, 0.09900093823671341, -0.08101671189069748, -0.17180688679218292, 0.26097822189331055, 0.16597211360931396, 0.08540733903646469, -0.018019551411271095, 0.31167465448379517, -0.33132994174957275, 0.403955340385437, 0.23574966192245483, -0.10014808923006058, -0.007921718060970306, -0.020823944360017776, 0.022892707958817482, 0.2334662526845932, -0.3003576695919037, 0.34449756145477295, 0.11197198927402496, 0.18237672746181488, -0.08132705837488174, 0.05539204552769661, 0.10717383772134781, 0.11963357031345367, -0.01785983517765999, 0.13979476690292358, -0.15938466787338257, -0.1645522564649582, -0.026957053691148758, -0.2915647327899933, 0.07728680968284607, -0.26545464992523193, -0.058539699763059616, -0.3561330735683441, -0.13321071863174438, -0.16074348986148834, 0.12752754986286163, 0.0641077384352684, 0.19488483667373657, 0.18982666730880737, -0.09226023405790329, 0.02249181643128395, -0.1460835486650467, 0.18487392365932465, 0.17880026996135712, 0.10607653111219406, -0.0926172137260437, 0.24673326313495636, 0.09805396944284439, -0.4159577488899231, 0.09324614703655243, 0.1768055260181427, 0.23908838629722595, 0.29175955057144165, -0.4121145009994507, -0.2004597783088684, 0.023747246712446213, 0.03959718346595764, -0.07822606712579727, 0.23439355194568634, 0.08290015906095505, 0.024641582742333412, 0.11980119347572327, -0.24691669642925262, 0.13566333055496216, -0.23341496288776398, -0.05488115921616554, -0.3106308579444885, 0.1468639075756073, -0.07682190090417862, -0.019488928839564323, -0.21981272101402283, 0.03598657622933388, 0.1514466106891632, 0.09968934208154678, 0.012292458675801754, 0.013995936140418053, -0.09025248140096664, 0.040177103132009506, -0.15111792087554932, 0.17310158908367157, -0.23677866160869598, 0.017800357192754745, 0.017319029197096825, -0.0005467019509524107, 0.33080029487609863, 0.06002076715230942, -0.3104257881641388, 0.794306218624115, 0.09852946549654007, 0.06740080565214157, 0.2264949232339859, -0.08894053101539612, -0.04332512989640236, -0.1276555061340332, -0.00993743073195219, 0.3949436545372009, -0.24274607002735138, -0.1545516848564148, 0.011138424277305603, -0.2539355158805847, 0.23655781149864197, 0.001192488824017346, -0.031454555690288544, -0.012737012468278408, 0.5104354619979858, 0.19679324328899384, -0.16388556361198425, 0.06519054621458054, -0.13277588784694672, -0.004970178473740816, 0.1050138995051384, -0.19892975687980652, -0.12245547771453857, 0.27895575761795044, -0.3064277172088623, -0.019389770925045013, 0.12249871343374252, 0.27823251485824585, 0.10725722461938858, 0.11019565910100937, -0.19070512056350708, -0.019308406859636307, 0.0765712559223175, 0.08370652794837952, -0.1327897608280182, 0.21562941372394562, 0.021250637248158455, 0.23318099975585938, -0.2545711100101471, 0.005012447014451027, 0.29813113808631897, 0.3345598578453064, -0.054755400866270065, -0.10157254338264465, 0.4520464837551117, 0.19653640687465668, -0.32123294472694397, -0.011514305137097836, -0.08559073507785797, 0.1048503965139389, 0.3562253713607788, 0.1730036735534668, -0.14057417213916779, -0.125483438372612, 0.15900591015815735, -0.04995312914252281, -0.26547136902809143, -0.3344469666481018, 0.1825369894504547, -0.011832845397293568, -0.3282492756843567, 0.08638449758291245, -0.2759852111339569, 0.26364216208457947, -0.39418771862983704, 0.4647738039493561, 0.2759106457233429, -0.26077479124069214, 0.18626418709754944, 0.041273485869169235, -0.1998448669910431, -0.005589545238763094, 0.055304963141679764, 0.005877792369574308, -0.01267328392714262, 0.12353005260229111, 0.61216139793396, -0.04864576831459999, 0.11683948338031769, 0.11815331876277924, -0.28496113419532776, 0.185094952583313, -0.1719881147146225, -0.1440349519252777, 0.19884765148162842, 0.07231475412845612, 0.12850520014762878, -0.0016402769833803177, 0.23233787715435028, 0.09565822780132294, 0.13790293037891388, -0.05431371182203293, 0.2190491408109665, -0.000865868991240859, -0.06487231701612473, -0.13488690555095673, -0.3539773225784302, -0.12709122896194458, 0.005939302500337362, 0.14492696523666382, -0.09585703909397125, 0.12947233021259308, -0.07360383123159409, 0.11222658306360245, -0.48404252529144287, 0.017179610207676888, -0.3661932349205017, 0.0388653427362442, -0.0740739032626152, -0.3355260491371155, -0.24394339323043823, 0.10283178836107254, -0.0781521424651146, -0.13679401576519012, -0.15174753963947296, -0.4882979691028595, -0.06192995235323906, -0.6337202191352844, -0.3454650044441223, -0.024536045268177986, 0.09331668168306351, 0.06931372731924057, -0.2756092846393585, -0.08682996779680252, 0.1308685541152954, 0.1614256054162979, -0.2854125499725342, -0.03200875222682953, 0.055534206330776215, 0.009302669204771519, -0.22638534009456635, 0.30295273661613464, 0.11436822265386581, 0.2657393515110016, 0.18232065439224243, 0.05214918777346611, -0.06538347154855728, 0.08522778749465942, 0.5727401375770569, -0.35923945903778076, 0.45600658655166626, 0.5719037652015686, 0.1038982942700386, 0.24596211314201355, -0.27424144744873047, 0.128476083278656, -0.033567167818546295, -0.2172277420759201, 0.24646048247814178, -0.0884806290268898, -0.11522334814071655, 0.014215698465704918, 0.07613272219896317, 0.009453571401536465, 0.24762079119682312, 0.01625213958323002, 0.1327073723077774, 0.20791421830654144, -0.32063624262809753, 0.2388988435268402, -0.014436550438404083, 0.20380200445652008, 0.032825496047735214, -0.024318763986229897, 0.0783044844865799, 0.021356137469410896, -0.005699898116290569, -0.48808443546295166, -0.13279281556606293, 0.040324799716472626, 0.06099929288029671, -0.10603471845388412, -0.13600192964076996, -0.08981307595968246, -0.0666278526186943, -0.252897173166275, 0.17613080143928528, -0.039697226136922836, 0.027459824457764626, -0.16141526401042938, 0.03862191364169121, -0.320095032453537, -0.044568054378032684, 0.11800951510667801, -0.08856984972953796, -0.04040542617440224, -0.24322953820228577, -0.34386685490608215, 0.2070392370223999, -0.3099367022514343, 0.14054903388023376, 0.2990554869174957, 0.2972381114959717, 0.11676444858312607, -0.18731795251369476, 0.04150889813899994, 0.009250223636627197, 0.27734678983688354, 0.30058372020721436, 0.16543325781822205, 0.048063330352306366, 0.26629528403282166, -0.25421762466430664, 0.11133274435997009, -0.27400943636894226, 0.0904940739274025, 0.31376150250434875, -0.24186505377292633, 0.2187017798423767, -0.17152631282806396, 0.03714209049940109, -0.27061203122138977, -0.12761569023132324, -0.10383034497499466, 0.1656169891357422, -0.20465685427188873, 0.4235405921936035, 0.1634824275970459, -0.0029247114434838295, 0.2054385542869568, -0.17911909520626068, -0.15863078832626343, 0.2270822823047638, -0.32235264778137207, 0.19063782691955566, 0.0032361198682338, 0.16613420844078064, -0.205217644572258, 0.3245812654495239, -0.1117786094546318, 0.2781754732131958, 0.128470778465271, -0.10823005437850952, 0.5409970879554749, -0.16099491715431213, 0.10335845500230789, 0.030058614909648895, 0.5830553770065308, 0.0666864663362503, -0.12853431701660156, -0.10396799445152283, 0.18231232464313507, 0.16987614333629608, 0.21461369097232819, 0.06292783468961716, -0.20823074877262115, 0.0019235968356952071, -0.238822802901268, 0.2534918189048767, 0.3247203826904297, -0.17469172179698944, 0.03466905280947685, -0.15396477282047272, 0.03089118003845215, -0.022034209221601486, -0.28426283597946167, -0.0689236968755722, 0.12452294677495956, -0.4377966821193695, -0.0033233906142413616, -0.5594384074211121, 0.2327718287706375, 0.5108774900436401, -0.17452174425125122, 0.09844230860471725, 0.08248750120401382, 0.14720191061496735, -0.035721346735954285, -0.09298601001501083, 0.231425479054451, -0.3076070547103882, 0.2446093112230301, 0.16797246038913727, -0.25244665145874023, 0.2081993669271469, 0.25117507576942444, -0.19557425379753113, 0.13698609173297882, 0.1177237406373024, -0.0330665223300457, 0.09110458195209503, -0.18119913339614868, 0.30890846252441406, -0.298735111951828, 0.13259758055210114, 0.0381983183324337, 0.03721223026514053, 0.10001462697982788, 0.1496826857328415, 0.11669408529996872, -0.17318366467952728, 0.22870202362537384, -0.08953571319580078, 0.3878830075263977, 0.08788950741291046, -0.32921820878982544, 0.136328786611557, 0.14285142719745636, 0.02638954110443592, 0.42657819390296936, -0.03254207596182823, 0.038699619472026825, 0.1171838566660881, 0.15772509574890137, 0.17834153771400452, -0.11078829318284988, -0.16079986095428467, 0.03385566920042038, 0.041837409138679504, 0.2754231095314026, -0.2705554962158203, -0.18454863131046295, -0.006441845092922449, -0.20164011418819427, 0.038640912622213364, 0.0110727958381176, 0.5744712948799133, -0.7260702252388, 0.1454315334558487, 0.3131484091281891, 0.4031238257884979, 0.04004588723182678, 0.12799912691116333, -0.07572837173938751, -0.03786787763237953, -0.1180315762758255, 0.06613166630268097, 0.07602601498365402, 0.06443746387958527, 0.1633516103029251, 0.4259018898010254, -0.021002009510993958, -0.05315914750099182, -0.2746890187263489, -0.009281652048230171, 0.34560829401016235, -0.19756008684635162, 0.05102638900279999, 0.11834986507892609, 0.23337024450302124, -0.17359204590320587, -0.020555341616272926, -0.11322589963674545, -0.38817256689071655, -0.00933883897960186, -0.5278447270393372, -0.20925822854042053, -0.08691418170928955, -0.16551992297172546, -0.1030055582523346, -0.11623570322990417, 0.058017630130052567, 0.18996351957321167, -0.2644602358341217, -0.013653405010700226, 0.19080202281475067, 0.012543858960270882, 0.12175612151622772, 0.2475482076406479, -0.3091868460178375, 0.4013204276561737, 0.21832811832427979, -0.2051040381193161, 0.2693653404712677, 0.14103788137435913, -0.32559195160865784, 0.1342420130968094, 0.022976089268922806, 0.27133145928382874, -0.42831480503082275, -0.10280634462833405, -0.06770218163728714, 0.02925633080303669, -0.23373399674892426, 0.47852563858032227, -0.08394533395767212, -0.18317420780658722, -0.2770884037017822, -0.32742512226104736, 0.15067608654499054, -0.07041092962026596, 0.20395563542842865, -0.9119201302528381, -0.15432828664779663, -0.49098658561706543, -0.06178373098373413, 0.3991507291793823, -0.4792548418045044, 0.3021889925003052, 0.3236498236656189, -0.31267470121383667, -0.22455932199954987, -0.027674205601215363, 0.10192542523145676, -0.038819581270217896, -0.20608411729335785, 0.547092080116272, 0.0006490910309366882, -0.07645771652460098, 0.11168412119150162, -0.24490514397621155, -0.2407715916633606, -0.16910895705223083, -0.23972855508327484, -0.20193658769130707, -0.2504924535751343, -0.3032487630844116, 0.12843336164951324, 0.0023323993664234877, -0.35678696632385254, 0.1834050863981247, -0.27324435114860535, -0.618776798248291, 0.05710001289844513, -0.03955502063035965, 0.34278202056884766, -0.08235806971788406, -0.04729408398270607, 0.044006720185279846, 0.02279050461947918, -0.10752569139003754, -0.19901446998119354, -0.10475173592567444, 0.6662085056304932, -0.1047189012169838, 0.10712069272994995, -0.08732172846794128, 0.1046397015452385, -0.10840816050767899, 0.13340257108211517, -0.17004433274269104, 0.21515092253684998, -0.43355581164360046, 0.19161804020404816, 0.021369097754359245, -0.542484700679779, 0.014970689080655575, -0.1631174087524414, 0.13649019598960876, 0.04148922488093376, -0.2896606922149658, 0.09596782922744751, 0.08282027393579483, 0.06917621195316315, 0.2627078890800476, -0.0613587312400341, -0.019462192431092262, -0.26223987340927124, -0.1447908729314804, -0.508004367351532, 0.08981349319219589, 0.1569138467311859, -0.06162765622138977, 0.2482527643442154, -0.3006979525089264, 0.2611025869846344, 0.14056824147701263, 0.30754977464675903, -0.035831138491630554, 0.3561084568500519, -0.25131919980049133, -0.14791536331176758, -0.16513566672801971, -0.2303410768508911, -0.2249584197998047, 0.09843192249536514], [0.014368507079780102, 0.3635009825229645, 0.05866319686174393, -0.39474865794181824, 0.9580798149108887, 0.5035325884819031, 0.2531143128871918, 0.0024251407012343407, -0.030064979568123817, 0.002036110498011112, -0.15303871035575867, 0.9196459054946899, -0.013302893377840519, 0.2135927826166153, -0.2578953802585602, -0.06343068927526474, -0.029526030644774437, 0.3985191285610199, 0.051020629703998566, 0.31570205092430115, -0.6697666049003601, 0.08484801650047302, -0.1928715705871582, 0.29290512204170227, 0.019595712423324585, 0.06762136518955231, -0.16343028843402863, -0.167071133852005, 0.22329485416412354, -0.101717509329319, -0.038665786385536194, 0.47562700510025024, 0.2308131754398346, -0.14574642479419708, 0.045677393674850464, 0.036546528339385986, 0.13302910327911377, 0.11497475951910019, -0.07695643603801727, 0.26621776819229126, 0.21233049035072327, 0.19681675732135773, -0.07790921628475189, 0.36891087889671326, 0.24103446304798126, 0.4215928614139557, -0.20650069415569305, -0.1875632107257843, -0.3803254961967468, 0.37568211555480957, -0.07672528177499771, 0.5146692991256714, -0.17695437371730804, 0.9195225834846497, -0.10909518599510193, 0.23391219973564148, 0.10594084113836288, -0.12777003645896912, 0.14760960638523102, -0.1653721183538437, 0.48529052734375, 0.013257449492812157, 0.6145450472831726, 0.10623747110366821, 0.0010298872366547585, -0.2809293270111084, 0.4280565679073334, 0.1786775290966034, -0.22487236559391022, 0.1949198842048645, -0.3884561061859131, -0.5072610378265381, 0.30213940143585205, -0.09840180724859238, -0.014545368030667305, 0.7459091544151306, -0.34553393721580505, -0.04369809478521347, 0.177561417222023, 0.474029004573822, 0.2866004407405853, -0.5985727906227112, 0.047055479139089584, 0.1350984424352646, 0.20966459810733795, -0.667657732963562, 0.21869072318077087, 0.030055901035666466, -0.08277378976345062, 0.08132030814886093, -0.007762875873595476, 0.04731413722038269, -0.12681284546852112, 0.01088685728609562, 0.09350182861089706, 0.140016570687294, 0.6783173084259033, 0.7543625235557556, -0.20985406637191772, 0.07366152852773666, 0.28608381748199463, 0.16020135581493378, -0.48127204179763794, 0.010340296663343906, 0.04482753202319145, -0.4156126379966736, 0.050975654274225235, -0.07087681442499161, -0.27078959345817566, 0.20092764496803284, -0.22057445347309113, 0.2623286247253418, -0.10660487413406372, -0.10347365587949753, 0.22084259986877441, -0.2634030878543854, -0.3294740915298462, -0.41686496138572693, -0.3270963430404663, -0.2064952254295349, -0.5750924944877625, -0.08590001612901688, 0.0010244520381093025, 0.860907793045044, -0.1611051857471466, 0.16085894405841827, 0.7052638530731201, -0.2223907858133316, -0.019360745325684547, 0.009200695902109146, -0.8162009119987488, -0.4111238718032837, 0.352989137172699, -0.04277708753943443, 0.005561530124396086, -0.26567941904067993, 0.30944785475730896, -0.16890133917331696, 0.2847515344619751, -0.8584838509559631, 0.17537274956703186, -0.10573030263185501, 0.08981470763683319, 0.42793282866477966, -0.14805614948272705, -0.036248695105314255, -0.20795707404613495, -0.7696478962898254, -0.4396509528160095, 0.3311474919319153, -0.1890435665845871, 0.449291855096817, 0.6295265555381775, 0.06946956366300583, -0.25439170002937317, -1.2223625183105469, -0.14731450378894806, 0.5387385487556458, -0.019680876284837723, -0.555885910987854, 0.24470876157283783, 0.2084188610315323, 0.0004536291235126555, -0.40206536650657654, 0.024221273139119148, 0.42740651965141296, 0.0863056555390358, -0.1596963107585907, 0.004647186491638422, -0.05583880841732025, -0.3834022283554077, -0.060554392635822296, -0.05841745436191559, -0.08297689259052277, -0.311096727848053, -0.010922254994511604, 0.18247100710868835, -0.111260786652565, -0.4189988672733307, -0.08861581981182098, 0.0680742859840393, -0.11302308738231659, -0.13044722378253937, -0.17158345878124237, 0.8072245717048645, -0.4336598217487335, -0.06899043172597885, 0.07690350711345673, 0.1689382791519165, 0.2637934684753418, -0.3159429132938385, -0.06146770715713501, -0.08364537358283997, 0.7355949282646179, 0.14417973160743713, -0.06628455966711044, 0.5950914621353149, 0.0765652060508728, -0.048533543944358826, -0.14501450955867767, -0.24203476309776306, 0.23544733226299286, 0.31553006172180176, -0.38617825508117676, 0.10413968563079834, -0.13320209085941315, 0.26019540429115295, 0.21483957767486572, 0.07762960344552994, 0.2536396086215973, 0.45630380511283875, -0.10702156275510788, -0.2669687271118164, 0.07367739826440811, 0.3221558928489685, -0.03390522301197052, -0.4841008484363556, 0.0054454924538731575, -0.3578646779060364, 0.1973692625761032, -0.13508765399456024, -0.15220850706100464, -0.21628713607788086, -0.2238059639930725, 0.15553417801856995, 0.576553225517273, -0.18813097476959229, 0.784105658531189, -0.5511813759803772, 0.39953795075416565, -0.16169042885303497, -0.0957423523068428, -0.01763981021940708, -0.2710922360420227, -0.307864785194397, 0.17760276794433594, -0.2088761329650879, 0.802075982093811, 0.16602778434753418, -0.09167175740003586, 0.4228633642196655, -0.01415998674929142, 0.2835661470890045, -0.14731474220752716, 1.2416801452636719, -0.153750479221344, 0.1667751669883728, -0.052782732993364334, -0.08899499475955963, -0.28078803420066833, -0.2623126804828644, -0.1112285926938057, -0.14638511836528778, 0.15809758007526398, -0.21375764906406403, -0.20609253644943237, -0.31536808609962463, -0.2776201665401459, -0.3838542699813843, -0.29436835646629333, 0.28675615787506104, 0.15093640983104706, 0.1598132848739624, -0.5485177636146545, 0.22930850088596344, 0.41023796796798706, 0.2683209478855133, -0.3099116384983063, -0.33445295691490173, 0.16407081484794617, -0.5563506484031677, -0.33657246828079224, 0.1076221838593483, -0.2198992371559143, -0.31754693388938904, -0.34282994270324707, -0.06185869872570038, -0.23704873025417328, -0.17544011771678925, -0.5913260579109192, -0.0665191113948822, 0.03523813933134079, -0.23432321846485138, -0.14544764161109924, 0.18344061076641083, 0.5665784478187561, 0.24796618521213531, -0.04957576468586922, -0.016203029081225395, 0.3212663531303406, 0.3004007339477539, -0.2181106060743332, -0.6324574947357178, 0.10874099284410477, -0.03814426064491272, -0.13967099785804749, -0.098411425948143, -0.03089674934744835, 0.24394196271896362, -0.5711289644241333, -0.09673542529344559, 0.3282815217971802, -0.15204092860221863, 0.08520037680864334, 0.14736221730709076, 0.1799413561820984, -0.01988411881029606, -0.1131281927227974, -0.06470169126987457, -0.22110791504383087, 0.21382127702236176, 0.21635852754116058, -0.2204826921224594, -0.1655956357717514, -0.027333790436387062, 0.21784372627735138, -0.17588312923908234, 0.189766526222229, 0.23943917453289032, -0.2714330852031708, -0.046672288328409195, 0.1741853803396225, 0.20036639273166656, -0.11356239020824432, 0.2746292054653168, -0.14098988473415375, 0.19747313857078552, 0.005002814810723066, 0.30091986060142517, -0.023831384256482124, 0.22581163048744202, -0.25377485156059265, -0.19689273834228516, 0.6016140580177307, -0.09348076581954956, -0.11516880244016647, 0.1721823364496231, 0.019844627007842064, -0.05926130712032318, -0.7677179574966431, 0.07173297554254532, 0.051382239907979965, 0.22106684744358063, -0.3354048430919647, -0.0653773695230484, 0.14914457499980927, -0.12383803725242615, 0.24110598862171173, 0.17924588918685913, -0.09691391885280609, 0.0945514515042305, 0.1322259157896042, 0.19142509996891022, 0.037926677614450455, 0.00908395554870367, 0.2409590184688568, -0.12493252754211426, 0.6180902719497681, 0.15215082466602325, 0.582605242729187, -0.4243726134300232, -0.5116824507713318, 0.3219341039657593, -0.2651488184928894, 0.22440046072006226, -0.23475992679595947, 0.6701407432556152, -0.24568568170070648, 0.04281337186694145, 0.45117300748825073, -0.13455234467983246, 0.09646839648485184, -0.4489111602306366, 0.40752965211868286, 0.20414786040782928, -0.5103683471679688, -0.02563297376036644, -0.14145946502685547, -0.726276695728302, 0.1997748166322708, 0.17525453865528107, -0.14945752918720245, 0.18053360283374786, -0.17756341397762299, 0.21151775121688843, 0.372692734003067, 0.02825368568301201, 0.03236409276723862, -0.3491463363170624, 0.0743836909532547, 0.0482587032020092, 0.23928096890449524, -0.39454206824302673, -0.13233809173107147, 0.25234493613243103, 0.29316461086273193, 0.14337702095508575, -0.02182740531861782, 0.08382099121809006, 0.2586784362792969, 0.21244309842586517, -0.3160858750343323, 0.5203777551651001, -0.2674209773540497, 0.3932122588157654, -0.21645890176296234, 0.3273400366306305, -0.19958147406578064, 0.12907648086547852, -0.24251751601696014, 0.17544926702976227, 0.33055388927459717, -0.12941332161426544, 0.601553201675415, -0.10042525082826614, -0.15273341536521912, 0.2149990051984787, 0.5871409177780151, 0.491291880607605, 0.21622717380523682, 0.3737778663635254, 0.2059517353773117, 0.14239411056041718, 0.317320853471756, -0.21225406229496002, 0.020426299422979355, -0.11934919655323029, -0.8025498390197754, -0.03020111843943596, -0.23780949413776398, 0.41166460514068604, 0.5673468112945557, -0.6787940263748169, -0.47321856021881104, -0.29766952991485596, -0.7189804315567017, -0.5064173340797424, -0.20732983946800232, -0.11805900186300278, -0.282035231590271, -0.11325552314519882, 0.19089561700820923, -0.395630806684494, -0.3807730972766876, 0.27252718806266785, 0.07337541878223419, 0.45090124011039734, 0.10391587764024734, 0.15704183280467987, 0.3302008807659149, -0.22877174615859985, -0.5695317387580872, 0.5861941576004028, 0.5383911728858948, -0.3286985456943512, 0.14773325622081757, -0.2838778495788574, 0.10632435232400894, -0.2627546787261963, -0.2290830761194229, -0.20912088453769684, -0.2965244948863983, -0.2787446677684784, 0.39968395233154297, -0.14606039226055145, -0.1362791359424591, 0.5182797312736511, -0.2695334851741791, -0.22492820024490356, 0.5875692367553711, 0.12537391483783722, -0.1580810248851776, 0.06085018068552017, 0.1600857377052307, -0.13704286515712738, 0.11705704778432846, -0.775658905506134, 0.1943732351064682, 0.027773389592766762, 0.3680979609489441, 0.24419893324375153, 0.23959200084209442, -0.11827995628118515, -0.045931026339530945, 0.48404166102409363, 0.032094214111566544, 0.18688857555389404, 0.043716367334127426, -0.3645409345626831, 0.5247095823287964, 0.10073411464691162, 0.5410481095314026, -0.18748487532138824, -0.2408750206232071, -0.3183898329734802, -0.5711507797241211, 0.45383235812187195, 0.02292301133275032, 0.03152579069137573, -0.2630528211593628, -0.10073798149824142, -0.20035617053508759, -0.0025320015847682953, -0.3489285707473755, -0.00411650538444519, -0.36136388778686523, 0.05754021555185318, 0.2925741672515869, -0.3551938831806183, -0.1424800008535385, -0.12967723608016968, 0.12469062209129333, 0.026361621916294098, -0.03877224400639534, -0.7470538020133972, -0.2488359659910202, 0.35919690132141113, 0.6532080173492432, -0.33788132667541504, 0.17043179273605347, -0.03426768258213997, 0.3818918764591217, -0.08400508016347885, 0.36305665969848633, 0.24903154373168945, 0.2894812822341919, 0.04766223207116127, 0.014022888615727425, -0.09483414143323898, -0.2184327393770218, -0.18026961386203766, -0.1595916599035263, -0.0674433559179306, -0.1359369307756424, 0.23018743097782135, -0.335371732711792, -0.9386909008026123, -0.19207057356834412, -0.16289927065372467, -0.45751869678497314, -0.42498332262039185, -0.2606413662433624, 0.0010413638083264232, 0.25546377897262573, -0.03383307904005051, 0.34815335273742676, 0.06707382202148438, -0.22413550317287445, -0.03574549779295921, 0.7399019002914429, -0.7492666840553284, -0.27818065881729126, 0.5167039632797241, 0.23351918160915375, 0.03487033769488335, 0.15665419399738312, 0.5993914008140564, 0.688523530960083, 0.35040804743766785, -0.07403774559497833, 0.22577518224716187, -0.1658789962530136, -0.27779465913772583, -0.003984156996011734, -0.29342979192733765, 0.3872601389884949, -0.01657923310995102, -0.028208905830979347, -0.29563185572624207, 0.29383623600006104, 0.11508763581514359, -0.10834036022424698, 0.2638593316078186, -0.38463056087493896, -0.029814764857292175, 0.31485462188720703, -0.16024556756019592, -0.2679345905780792, -0.11638901382684708, 0.18206189572811127, -0.039111942052841187, 0.12834157049655914, -0.44696563482284546, 0.2442615032196045, -0.19351880252361298, -0.05793749913573265, -0.6056918501853943, -0.48015597462654114, -0.06451088190078735, -0.3846598267555237, -0.013331608846783638, -0.35054805874824524, 0.14352700114250183, -0.10596036165952682, -0.3888895511627197, -0.02676442079246044, -0.3137870728969574, -0.5900319814682007, -0.3793447017669678, -0.4570908844470978, -0.4153235852718353, 0.029310645535588264, 0.11768174171447754, -0.11232634633779526, 0.09113836288452148, 0.3082158863544464, 0.03846241161227226, -0.462811142206192, -0.556282639503479, 0.1913796067237854, -0.18830253183841705, 0.24149619042873383, 0.05362682044506073, -0.5844480395317078, -0.37449076771736145, 0.4438357949256897, -0.5639514327049255, -0.12412568181753159, -0.25305336713790894, 0.5030975341796875, 0.0323466919362545, -0.07641205191612244, -0.32228320837020874, 0.23681257665157318, -0.14372780919075012, 0.38312700390815735, -0.035509176552295685, 0.0855751559138298, -0.6648857593536377, -0.3384273052215576, 0.09732753783464432, 0.524188220500946, -0.29861196875572205, 0.2006940096616745, 0.5243103504180908, 0.2595406770706177, -0.09183815866708755, 0.6093233823776245, -0.25334134697914124, 0.08720166236162186, -0.005254028365015984, -0.5728216767311096, 0.5228439569473267, 0.11762125045061111, 0.06617823243141174, 0.1830783635377884, -0.05913371592760086, 0.2968549132347107, 0.28248393535614014, -0.22544580698013306, -0.07451167702674866, -0.1000421792268753, -0.2033182978630066, 0.05479976534843445, 0.3464537262916565, 0.3515883684158325, -0.21237532794475555, 0.26395419239997864, 0.001084151561371982, -0.22906628251075745, -0.25582998991012573, 0.5289527177810669, -0.3771277964115143, 0.36609792709350586, 0.12188857048749924, -0.40308678150177, -0.06918583810329437, 0.2361447960138321, 0.04331107437610626, -0.16266612708568573, -0.705622136592865, -0.06999348849058151, -0.0035788980312645435, 0.12252262234687805, 0.08423671126365662, 0.3022850751876831, -0.18439462780952454, 0.45748648047447205, 0.09228944778442383, 0.5363995432853699, -0.2443346381187439, -0.41058650612831116, -0.08553723245859146, -0.01807565987110138, 0.699302077293396, 0.02532409504055977, 1.1649333238601685, 0.33952030539512634, -1.0733821392059326, 0.37723225355148315, 0.511482298374176, -0.44471579790115356, 0.17931592464447021, -0.05773494765162468, 0.012034501880407333, -0.05343124642968178, 0.0941779688000679, 0.47190773487091064, -0.8030696511268616, -0.10577327013015747, 9.093138214666396e-05, -0.11897013336420059, -0.32583460211753845, 0.08285355567932129, 0.4643326997756958, -0.21394304931163788, 0.056134775280952454, 0.1602533906698227, 0.21871306002140045, -0.5270138382911682, -0.46593546867370605, 0.13163872063159943, 0.048513151705265045, 0.15103888511657715, 0.5308040976524353, 0.20711930096149445, 0.46835288405418396, -0.3685797452926636, 0.27073967456817627, 0.06212808936834335, 0.13458462059497833, -0.12951931357383728, 0.07240308821201324, 0.21712493896484375, 0.12171625345945358, -0.5160120129585266, -0.022463204339146614, 0.1486452966928482, -0.17548179626464844, -0.13069631159305573, -0.08308861404657364, 0.08062607795000076, 0.24842026829719543, 0.7317638993263245, 0.7289970517158508, -0.1906384825706482, -0.2934902012348175, 0.7036011815071106, 0.07076971232891083, -0.21718554198741913, -0.17038887739181519, 0.01804758980870247, 0.2768338620662689, -0.11742611229419708, 0.004285433795303106, -0.15734171867370605, 0.2872873544692993, 0.10936687141656876, 0.009717798791825771, 0.363795667886734, -0.5166069865226746, 0.3221910893917084, 0.2320271134376526, -0.2730439603328705, 0.3801244795322418, -0.5583613514900208, 0.47005394101142883, -0.033841367810964584, -0.05737335607409477, -0.6210790872573853, 0.5030970573425293, -0.42765939235687256, 0.099822998046875, 0.1471068114042282, 0.0790620893239975, -0.1611597239971161, 0.3568178713321686, -0.11457473784685135], [0.261109858751297, -0.03273865580558777, 0.45904654264450073, 0.11797270178794861, 0.11207612603902817, 0.3068852424621582, 0.03989435359835625, -0.422322154045105, 0.5342709422111511, -0.49872127175331116, -0.1614231914281845, 0.39763811230659485, -0.11591310054063797, 0.13943806290626526, 0.2837904691696167, 0.592140257358551, -0.23996412754058838, -0.13262148201465607, 0.14276038110256195, 0.27764418721199036, 0.27086174488067627, 0.3281623423099518, -0.4425984025001526, 0.27009838819503784, -0.3769776523113251, 0.9474027156829834, 0.3288126587867737, 0.13790160417556763, 0.303989976644516, 0.23501332104206085, -0.09065524488687515, 0.32089293003082275, 0.15671756863594055, 0.5121138095855713, 0.3123771846294403, 0.21157576143741608, 0.07881254702806473, 0.1212223544716835, 0.5043795108795166, 0.4030095338821411, 0.2508087158203125, 0.500270664691925, -0.24349237978458405, 0.13234974443912506, 0.3301962912082672, 0.056222882121801376, -0.38208630681037903, 0.0012795759830623865, -0.3812830448150635, -0.13333022594451904, 0.018413323909044266, 0.8685632944107056, -0.6691593527793884, -0.30079084634780884, 0.3710947632789612, -0.12712687253952026, -0.44421836733818054, -0.11090458184480667, -0.38055676221847534, 0.057498522102832794, 0.08149895071983337, 0.3124009072780609, 0.05586967617273331, 0.2342851608991623, -0.08141600340604782, 0.37549200654029846, -0.3194132149219513, 0.4308938980102539, -0.3459649384021759, -0.1435914933681488, 0.22858677804470062, -0.0409223809838295, 0.345799058675766, 0.11763131618499756, 0.24520355463027954, -0.12687282264232635, -0.08226162940263748, 0.2287096530199051, -0.34013038873672485, -0.22035770118236542, 0.448243111371994, 0.07828133553266525, 0.1257627159357071, 0.04839872941374779, -0.1057383343577385, -1.1987779140472412, -0.010974916629493237, 0.08524604141712189, -0.2998008728027344, -0.16055794060230255, -0.37458527088165283, -0.43573451042175293, -0.20550309121608734, 0.6034375429153442, -0.5649580359458923, 0.6385408639907837, 0.06759417802095413, 0.358547568321228, -0.13295766711235046, -0.0288455281406641, 0.05713662505149841, 0.2847111225128174, -0.0903356596827507, -0.18206892907619476, 0.08298924565315247, -0.3532954454421997, -0.1333136409521103, 0.2469549924135208, -0.655771791934967, 0.4784037172794342, -0.06498629599809647, 0.2046550214290619, -0.19033940136432648, -0.176179900765419, 0.5695109367370605, 1.1494998931884766, -0.4946707785129547, -0.12668947875499725, -0.15534864366054535, -0.452501505613327, -0.329180508852005, 0.13646332919597626, 0.6255592107772827, 0.5807309746742249, -0.09969408065080643, -0.3388633728027344, 0.4503992795944214, -0.05207742378115654, -0.19722291827201843, 0.01663617230951786, -0.19336959719657898, -0.3781474232673645, -0.28561118245124817, -0.012333381921052933, 0.08166124671697617, -0.472398966550827, 0.38436105847358704, -0.16035780310630798, -0.48739683628082275, -0.6892696022987366, -0.1109558492898941, 0.0025459451135247946, 0.6701101660728455, -0.06653797626495361, -0.010321269743144512, -0.006308797746896744, -0.33915987610816956, -0.24679365754127502, 0.17418311536312103, 0.033116500824689865, -0.42573264241218567, -0.11174888163805008, 0.4635503888130188, 0.18395136296749115, -0.0804625004529953, 0.2454134076833725, 0.07356876879930496, 0.3793845474720001, 0.13070759177207947, -0.26624199748039246, -0.03294670209288597, -0.12399602681398392, 0.37354204058647156, -0.6537852883338928, -0.22431834042072296, 0.6770210862159729, 0.016787145286798477, -0.3164375126361847, -0.08900948613882065, 0.03929637372493744, 0.16219240427017212, 0.41082531213760376, -0.2516874670982361, -0.028637804090976715, 0.4655429720878601, 0.02179093472659588, 0.0060074650682508945, 0.09120441228151321, 0.19810819625854492, -0.1826789826154709, -0.2572619915008545, 0.1497315615415573, 0.335384339094162, 0.02117738500237465, 0.4724974036216736, -0.15654833614826202, -0.3393767774105072, 0.21084383130073547, 0.07125551998615265, -0.08807430416345596, 0.24456624686717987, -0.19059595465660095, -0.23513665795326233, -0.49379318952560425, -0.09811776131391525, 0.35856014490127563, 0.42850562930107117, -0.7110962271690369, 0.3626963794231415, -0.37633216381073, -0.17476068437099457, -0.18464069068431854, -0.21509715914726257, -0.30004164576530457, -0.06114532798528671, 0.07045678049325943, -0.34009626507759094, 0.3619278073310852, 0.19976717233657837, -0.3473653793334961, 0.3796840012073517, 0.02448423020541668, -0.2577786445617676, 0.5471925139427185, 0.1593276560306549, 0.15221190452575684, 0.45426884293556213, -0.14455367624759674, 0.16414541006088257, -0.08343049138784409, 0.3469610810279846, 0.051211848855018616, -0.19744613766670227, 0.1938699632883072, -0.21591342985630035, 0.40672263503074646, 0.30511102080345154, 0.16013991832733154, -0.04131714254617691, -0.10615956783294678, -0.4102567136287689, 0.0583220049738884, -0.38489797711372375, -0.23279131948947906, -0.1885279268026352, -0.17886511981487274, 0.767785906791687, 0.3099514842033386, -0.25392603874206543, -0.016007309779524803, 0.3531262278556824, 0.20623014867305756, -0.23047778010368347, 0.04921965301036835, 0.45540183782577515, 0.07439514249563217, 0.16558293998241425, 0.3737655282020569, 0.10118979215621948, -0.7053279280662537, -0.04654616117477417, -0.29872599244117737, 0.6166703701019287, 0.28754478693008423, -0.5758740305900574, -0.4248824715614319, -0.3678702116012573, 0.548750638961792, -0.04144209623336792, 0.0772668793797493, -0.02373100258409977, 0.2447984367609024, 0.1871854066848755, 0.5450417995452881, -0.3988548517227173, 0.3617587983608246, 0.1436123251914978, -0.3637378513813019, -0.7437043786048889, -0.37622982263565063, -0.6010175347328186, 0.48283809423446655, 0.16477422416210175, 0.15078385174274445, -0.8328052759170532, -0.14169535040855408, -0.011318393051624298, 0.5370096564292908, -0.14016607403755188, 0.3541094660758972, 0.13382498919963837, -0.11591465026140213, 0.0010104678804054856, 0.04999208822846413, 0.23426753282546997, -0.2433559000492096, 0.2578125, -0.24802187085151672, -0.2276293933391571, 0.5809804797172546, 0.26133692264556885, -0.058056268841028214, -0.31287166476249695, -0.347125768661499, -0.28628337383270264, -0.3374190330505371, 0.11760025471448898, -0.06400531530380249, -0.2129203975200653, -0.03569687530398369, -0.9061815142631531, 0.15052786469459534, 0.017915427684783936, -0.010362199507653713, -0.5284028649330139, 0.24556595087051392, 0.0885252058506012, -0.18469752371311188, -0.19224819540977478, -0.18409615755081177, -0.1656065285205841, -0.04815666005015373, 0.31265875697135925, -0.007933390326797962, 0.24041147530078888, -0.009021985344588757, 0.011473232880234718, 0.38365697860717773, 0.06303152441978455, -0.039403531700372696, -0.1298038810491562, -0.07272063195705414, -0.06675289571285248, -0.02544552832841873, -0.07885375618934631, 0.310787558555603, -0.3135990500450134, -0.06160333752632141, 0.1528763324022293, 0.5288570523262024, 0.04126498103141785, -0.7485700845718384, -0.2805202007293701, 0.12425501644611359, -0.26552829146385193, 0.2543734610080719, -0.09807831794023514, 0.23841464519500732, 0.04987657442688942, 0.14192432165145874, 0.34242698550224304, -0.1676827371120453, -0.13436613976955414, 0.09809347242116928, -0.06373483687639236, -0.007700025569647551, -0.09431950747966766, 0.06650747358798981, -0.228499636054039, -0.14029300212860107, -0.3403862416744232, 0.11958429217338562, -0.052435871213674545, 0.3851667642593384, 0.06840319186449051, 0.5706479549407959, 0.1391828954219818, 0.13333888351917267, -0.05796637758612633, 0.11765468120574951, -0.4040818214416504, 0.769980788230896, 0.35642340779304504, -0.8244741559028625, 0.26452213525772095, -0.3036969304084778, 0.36738792061805725, -0.0205250047147274, -0.6843404173851013, 0.5480131506919861, -0.10048302263021469, -0.0508793480694294, -0.6244874000549316, -0.1274450421333313, 0.15139101445674896, -0.38983431458473206, -0.21521051228046417, -0.3837352693080902, -0.03592311963438988, 0.46375980973243713, -0.07979562878608704, -0.11503802239894867, 0.044160861521959305, -0.4215313792228699, -0.22651919722557068, -0.15331204235553741, 0.05253612622618675, -0.45829352736473083, -0.31093883514404297, -0.6101240515708923, -0.19611191749572754, -0.02308076247572899, 0.5766428112983704, -0.22155547142028809, -0.06067158281803131, -0.029300406575202942, 0.526726484298706, 0.43064990639686584, 0.5292425751686096, -0.19943776726722717, -0.26822564005851746, -0.017114456743001938, 1.0218539237976074, 0.12523557245731354, -0.034192249178886414, -0.3214033544063568, -0.12603549659252167, 0.041332803666591644, -0.04138984531164169, -0.21831029653549194, 0.02610085718333721, 0.24472634494304657, -0.0934990718960762, -0.3249085247516632, 0.7890415787696838, -0.5537774562835693, -0.1559590995311737, 0.2445940226316452, 0.01740400120615959, 0.058502838015556335, 0.19717513024806976, -0.35845252871513367, 0.34393879771232605, 0.46509531140327454, -0.5491041541099548, 0.008177884854376316, -0.17262567579746246, 0.50276118516922, 0.01306404359638691, -0.10743110626935959, -0.18529081344604492, 0.7668506503105164, -0.10313215851783752, -0.315512090921402, 0.22468996047973633, -0.32806921005249023, -0.0707821324467659, -0.008906573057174683, -0.045130178332328796, 0.33151769638061523, 0.5516939759254456, 0.2524787485599518, 0.060482628643512726, -0.01317480206489563, 0.7232663631439209, -0.6161198616027832, 0.18249067664146423, -0.3291071057319641, 0.2433512657880783, 0.6957228779792786, -0.5376270413398743, -0.13083365559577942, 0.2613689601421356, 0.24407123029232025, 0.03576086089015007, 0.32503369450569153, -0.17607343196868896, 0.1302146315574646, 0.34294164180755615, -0.16271831095218658, 0.2616003751754761, 0.10475824773311615, 0.5018877387046814, 0.7552261352539062, 0.3405030369758606, -0.10430975258350372, -0.5647677779197693, -0.22614923119544983, -0.28589481115341187, -0.29597610235214233, 0.2885289490222931, -0.6392113566398621, 0.1090562716126442, 0.11599013954401016, -0.33973848819732666, -0.0631648600101471, -0.4594525396823883, -0.13129112124443054, -0.18713441491127014, -0.3003183901309967, -0.25637057423591614, -0.24003998935222626, 0.25006046891212463, -0.13013334572315216, 0.2764689028263092, 0.26152747869491577, 0.06352932751178741, 0.3289016783237457, 0.09593971818685532, -0.13174091279506683, 0.2258252054452896, -0.2521081864833832, 0.15288996696472168, 0.6995100378990173, 0.010299940593540668, -0.23039644956588745, 0.038957443088293076, 0.17250871658325195, 0.5991696119308472, 0.07169397175312042, 0.7151442766189575, 0.7011497020721436, 0.18438994884490967, -0.33119508624076843, -0.21658816933631897, 0.12240917235612869, -0.31488072872161865, -0.012723694555461407, 0.37715572118759155, -0.083732470870018, -0.01894148625433445, -0.14424936473369598, 0.16881196200847626, -0.2293189913034439, -0.743779182434082, -0.1588103473186493, 0.2644071877002716, 0.17584742605686188, -0.2399187982082367, -0.20886628329753876, -0.16329871118068695, -0.4319736361503601, -0.08730803430080414, 0.021602129563689232, 0.17328082025051117, 0.0936235710978508, 0.09780029207468033, 0.20234322547912598, -0.018581097945570946, -0.5263454914093018, 0.2829939126968384, -0.050577227026224136, 0.02282918058335781, -0.14792516827583313, 0.05772469565272331, -0.4685157239437103, -0.18585997819900513, 0.8377297520637512, -0.170304074883461, -0.2537221610546112, -0.3137649595737457, -0.5314489603042603, -0.0003738343948498368, 0.20240479707717896, -0.1346396803855896, 0.18020707368850708, -0.326973557472229, -0.3333626985549927, 0.04673360288143158, 0.34892308712005615, -0.20700357854366302, 0.1691358983516693, 0.059216346591711044, 0.48063626885414124, -0.3899748921394348, -0.21751520037651062, 0.5239119529724121, 0.5964453816413879, 0.0906989723443985, 0.35483884811401367, 0.1934022605419159, -0.3909010887145996, -0.3670044243335724, 0.381594717502594, 0.16519717872142792, 0.25921350717544556, 0.3637233078479767, 0.4935833215713501, 0.18256396055221558, -0.26812654733657837, -0.28043922781944275, 0.35258278250694275, 0.3273766040802002, 0.38970085978507996, 0.11949443072080612, -0.0021796103101223707, 0.3413321077823639, -0.6506966948509216, -0.5368911623954773, 0.15213242173194885, 0.3883166015148163, -0.00023825805692467839, -0.033835239708423615, -0.231260284781456, 0.03060385026037693, -0.20151875913143158, 0.09095782786607742, -0.21823257207870483, -0.18916870653629303, 0.25961318612098694, -0.039584897458553314, 0.5636544227600098, -0.06514872610569, 0.11770528554916382, 0.5283017754554749, -0.4461568593978882, -0.15937252342700958, -0.01046614721417427, -0.35637497901916504, -0.19870935380458832, -0.30939218401908875, 0.17353682219982147, -0.4619903862476349, 0.7948886156082153, 0.36959952116012573, 0.1573762446641922, 0.4995809495449066, 0.05240117013454437, 0.3737812936306, 0.042519282549619675, 0.3847294747829437, -0.047217562794685364, 0.05054928734898567, -0.6814702749252319, -0.33733388781547546, -0.2925716042518616, 0.042342621833086014, 0.3409920930862427, -0.10348061472177505, 0.9366181492805481, -0.4160533845424652, 0.2743261456489563, -0.017437784001231194, 0.2615315914154053, 0.30119559168815613, -0.31424611806869507, 0.05794821307063103, -0.3979478180408478, 0.16943851113319397, -0.0888543352484703, 0.04406775161623955, 0.042736832052469254, -0.43532782793045044, -0.056153442710638046, 0.20239484310150146, 0.09453906118869781, 0.030020643025636673, -0.16673295199871063, 0.37068960070610046, -0.06156684458255768, -0.21105407178401947, -0.016805609688162804, 0.051906950771808624, 0.22221341729164124, 0.2582886517047882, -0.3170068562030792, 0.2710093557834625, 0.2640458941459656, -0.23802995681762695, -0.6336125731468201, -0.30034375190734863, -0.14173159003257751, -0.04684476554393768, -0.19850918650627136, 0.47549813985824585, -0.45838403701782227, -0.24366004765033722, -0.13516056537628174, 0.18639340996742249, 0.5391228199005127, -0.11295188963413239, 0.05156191438436508, -0.15695157647132874, 0.04421238973736763, -0.3070783019065857, 0.13407431542873383, 0.34969040751457214, -0.3997015953063965, -0.4538785219192505, -0.1301209032535553, -1.0594300031661987, -0.31198614835739136, -0.25536301732063293, 0.30020254850387573, -0.016625959426164627, -0.28999122977256775, 0.20231136679649353, -0.0246160626411438, -0.030287452042102814, 0.15120914578437805, -0.04260902479290962, -0.24037900567054749, -0.2957484722137451, 0.12195388227701187, -0.49881839752197266, 0.07441619038581848, 0.7288572192192078, 0.2099253386259079, -0.1361778825521469, -0.2702197730541229, 0.23356978595256805, -0.13136334717273712, -0.0607416070997715, 0.10859737545251846, 0.06025240942835808, 0.06425703316926956, -0.20646968483924866, -0.12438710033893585, -0.8538103699684143, 0.0023677675053477287, -0.27228620648384094, -0.0925135612487793, 0.3271059989929199, -0.31500673294067383, 0.25676295161247253, 0.057723794132471085, -0.4082759916782379, -0.2375916987657547, 0.21469856798648834, 0.3115089535713196, -0.021576710045337677, 0.4575069546699524, 0.39353764057159424, 0.21698851883411407, 0.34052929282188416, 0.024852316826581955, 0.12950515747070312, -0.1924780011177063, 0.42132890224456787, -0.16425733268260956, -0.024648234248161316, -0.12710514664649963, 0.2070314884185791, 0.2184886634349823, -0.24028442800045013, 0.06989443302154541, 0.02780098095536232, 0.02746046707034111, -0.5073196291923523, -0.15719003975391388, -0.2395733892917633, -0.4948209226131439, 0.23495252430438995, 0.6547197699546814, -0.7033321261405945, -0.06251002103090286, -0.26063698530197144, -0.168992817401886, -0.21166808903217316, -0.2144370973110199, 0.08621473610401154, -0.14188846945762634, -0.0840732604265213, 0.4393787086009979, -0.011340667493641376, -0.3603943884372711, -0.37807825207710266, 0.196968212723732, -0.13862153887748718, -0.03669556602835655, -0.2600290775299072, -0.7670893669128418, -0.37262892723083496, -0.12368864566087723, 0.5428165197372437, -0.1869402378797531, -0.36172711849212646, -0.10956569761037827, 0.3602752089500427, 0.41295188665390015, 0.45925483107566833, -0.19857525825500488, -0.723487138748169, -0.2592668831348419, 0.3294089436531067, -0.18528234958648682, -0.09249820560216904, -0.44994375109672546], [1.0540747816153172e-38, 6.632861309484231e-39, 6.968124769670872e-40, -1.0770982555140204e-38, 1.1146400222822072e-38, -1.3591439032717658e-38, -6.70609456852831e-39, -1.0664876235421529e-39, -1.7151262619026815e-39, -1.1575864570974485e-38, -1.3530782427390894e-38, -7.668768396639423e-39, 7.070764276988807e-39, 2.4897402309075468e-39, -1.0602938843298372e-39, -1.313059260545669e-38, -1.2203426279133104e-38, -9.927526996478453e-39, 5.069578347877322e-39, -4.103177065851105e-39, -1.2934867643750586e-38, -3.9370433238161476e-39, -6.714450511271079e-39, 1.2314514214892454e-38, 4.209015737563094e-39, 9.342028064323472e-39, 7.715227045925648e-39, 4.825393682677937e-39, 2.7779424834683033e-39, 7.026771912999794e-39, 9.286510020465387e-39, -2.6953443467871413e-39, 4.806774629982453e-39, -1.3531917479146997e-38, 1.3098826570568911e-38, 1.2327630368518534e-38, -8.823406101378393e-39, 1.2814580183572944e-39, 7.40458299845873e-39, -6.508601168160228e-39, -8.449944646352722e-39, 1.1407320595580889e-38, -1.2312595837294793e-38, -6.612068842870579e-39, -1.4091695577989296e-39, 6.47596072303071e-41, 8.722176300315568e-39, -1.2979777858233732e-38, 8.479977275040131e-39, 6.926590283188284e-39, -7.2921862499337e-39, -1.1178526391415183e-38, -1.3599605800167743e-38, 1.2687246994716676e-38, -1.73647504400667e-39, -9.388876274582779e-39, -1.1374377469983077e-38, -7.414628907149474e-39, 2.8009728237294817e-39, 5.4787476903709184e-39, 1.590484967396382e-39, 2.21468636183755e-39, 8.194506153186344e-39, 8.274995335678697e-39, 1.192798425038849e-38, 4.933971892887681e-42, 8.600225498860772e-39, 1.3450223179975324e-39, 5.4616938880600854e-39, 1.3080037960759244e-38, 7.539889575577005e-39, 1.8334505029318047e-39, 1.3994843433329022e-38, -1.2830587215930926e-38, -7.818103372684055e-39, -4.407178958597124e-39, -9.704395439407084e-39, 6.50491154930366e-40, 1.0406834129708435e-38, 4.507673077966178e-39, -1.2907343339314318e-38, 1.3695116902197658e-38, 7.2356886984490524e-40, 6.642862376624117e-39, -7.544799725396e-39, 4.230141713211255e-40, -1.0956674219841742e-38, 5.5281238430598677e-39, -1.1358028520799799e-38, -5.5225620894549625e-39, -9.450868317346045e-39, -8.417155663585985e-39, -1.0669130577559219e-38, 6.292131383988258e-39, -8.990295143285621e-39, -4.673055724024257e-39, 4.0082348909977057e-39, 6.890474617867241e-39, 1.2150405349138446e-38, -2.0083914058150435e-39, 1.3590903736704286e-38, -1.2823301865214902e-38, 1.0305025592379844e-38, -1.3142136502205799e-38, 1.2774315273499035e-38, -1.1818520419549292e-38, -1.0418827843264591e-38, 1.986270508257212e-39, -1.6455489905520257e-39, 9.113774761364996e-39, -1.0524564220188685e-38, 1.3554338254576194e-38, 1.3721066147160025e-38, 9.021628176947924e-39, -1.2180851360872831e-38, 9.69871737802964e-39, -8.902051175091695e-39, 7.11752981063872e-39, -1.1849627844158839e-38, 1.8484584094847235e-39, -1.20765541174716e-38, -3.7141920264376433e-39, 8.555207384395873e-39, -2.221191189308946e-39, -2.374347506265791e-39, 1.0210753238192392e-38, 5.326074821384265e-39, -3.878405989576476e-39, -1.3348799999724423e-38, 3.073254924437044e-39, -1.1088648509211854e-38, 3.429675188838061e-39, 6.972669180590677e-39, -1.138371992684473e-38, -1.1353051108654518e-38, -1.2577557554824723e-38, 5.216011234802337e-39, 1.3723888362267175e-38, -1.3170505789616054e-38, 2.4011038991436092e-39, -2.560290003392444e-39, -1.321034190235988e-38, -9.540467341154974e-39, -7.430448165513237e-39, -1.1959321487946185e-38, 6.972883579255719e-39, 2.7905878008103705e-40, -6.834729563657935e-39, 1.919638766278567e-41, -2.003100102813753e-40, 8.711788474799528e-40, -7.620817364488692e-39, -8.5684552600776e-39, -5.447741159250803e-39, -2.059062358285029e-39, -1.1597960245159959e-38, -1.045354221012131e-38, -6.596754051953973e-39, -1.3551489414798221e-38, -4.975233126169725e-39, 1.364513819116905e-38, -1.3458647786342845e-38, 6.03450546391907e-39, -3.9459205495876454e-39, 7.148864245599487e-39, 1.251865397387683e-38, -9.135740114793287e-39, -1.0811859832643023e-38, -1.3558088129266727e-38, -6.015508060638218e-39, -3.514036158987344e-39, 9.216547392037042e-39, 5.419198110830971e-39, 6.621926977567104e-39, -1.3462438298688844e-38, -7.580794879049111e-39, 3.692998788463195e-39, 6.837973569602847e-39, -9.994855183793868e-39, -3.3171943624051724e-39, 9.241419038480343e-39, -7.814989687496325e-39, 2.7583747517124716e-39, -1.3630238184597883e-38, -1.0454957521570278e-38, -1.1390729221763283e-38, -3.369651970417172e-39, -9.217894039861258e-39, 2.4482575924681393e-39, 1.3111746542409986e-38, -6.101840657726806e-39, -1.1286085857641363e-38, 1.2912990572125547e-38, 6.170008222822351e-39, 1.929349764636338e-40, -1.2454030292597561e-38, -1.1790186164600644e-38, 5.7760808037252154e-39, 6.07325416905458e-39, 8.532734760923496e-39, -1.3421712361420171e-38, 1.0293072516479153e-38, 2.70128304967895e-39, 3.57698108470635e-39, 6.151994531063455e-40, -2.0917742696362274e-40, 2.504986358199401e-39, 1.7286586011726662e-39, 1.1707051330607646e-38, 1.1026667676836303e-38, -4.610000095726569e-39, -2.657526103831943e-39, -6.883037926917069e-40, 5.17521243001352e-39, -1.1842517655750855e-38, -1.3624855797196412e-38, -4.837002039156404e-41, -9.612135349814402e-39, -1.177578922417817e-38, -6.749541827414701e-39, -7.244083877548822e-39, -4.16361366731897e-39, -9.109476978974911e-39, -2.620203920533116e-39, 1.138720635742397e-38, 3.4896465592157703e-39, -1.3135547596826543e-38, 5.2398711437543955e-39, 2.1157476837638964e-39, 1.1208533796730235e-38, 6.138086643805031e-39, 1.3138561789823306e-38, -1.369686432138267e-38, 9.521717967702308e-39, 3.391576686189998e-40, 1.1480473980612502e-38, 4.4213236652960185e-39, 2.6699079770627172e-39, -8.50595314467332e-39, -2.824127879553985e-39, -8.441057611491974e-40, 1.0691182811492298e-38, -1.4096572096645146e-39, 7.488938363414155e-39, -6.471040764122465e-39, 1.2205319433358407e-38, -1.3557209515129595e-38, -8.182952447347986e-39, 4.316648071309419e-39, 3.050532869838017e-39, 1.3617297193279843e-38, -5.412624619734823e-39, -1.0984513816432484e-38, 6.698746159381391e-39, 5.773450566507678e-39, 8.267539026550024e-39, -4.208155340305999e-40, -1.1597651959497807e-38, -1.032070331959871e-38, -1.7659821857699577e-39, 1.0884179445088362e-39, 7.914291301872239e-39, -1.4006863771556e-38, -2.1348151519679642e-39, -1.09059976621779e-39, 3.766782757803754e-39, -4.267591414670336e-39, 1.381976240059935e-38, 4.004094054035626e-39, -3.9934189623343994e-39, -1.4587166689005265e-39, 3.066223208743062e-40, 4.4198228746407266e-39, -1.2039055370566267e-38, 6.137377586782083e-39, 1.0662987285091619e-38, -1.0707967564497981e-38, 1.3137861140591144e-38, -1.9064749685046996e-39, -8.123318789900179e-39, 1.0403457000409412e-38, 1.3148910378982345e-38, 1.174562627473358e-38, -9.284167049433036e-39, -1.3924290858247196e-38, 2.839637450957132e-39, 5.0206842418601006e-39, 6.087938375662239e-39, -1.1031670312353942e-38, -1.176642855043648e-38, 8.555197575306623e-39, -8.061654650977565e-39, 2.256894872881478e-39, -8.175634866767281e-39, 7.816807171604554e-39, -6.534875514366318e-39, 6.645059612616178e-39, -9.578302399691744e-39, -1.3336818897854445e-38, 1.9578073338498463e-39, 5.292035880387351e-39, 9.173091725359865e-39, -7.813331951413029e-40, 9.519973351114223e-39, 7.879725472652738e-40, -1.2072654303845384e-38, -1.9930850226892235e-39, -1.0577408586576838e-38, -1.0570245148827209e-38, 3.086392097540089e-39, -1.1544577780161505e-38, -1.362953753536572e-38, -1.1422568124171207e-38, 1.3320895943404322e-38, -9.992423930958264e-39, -3.172960112770683e-39, 1.3134044003574323e-38, 6.135738067578823e-39, -3.5969650021060864e-40, 1.1429583024283617e-38, 4.9342549551774745e-39, 6.241502470472203e-39, 1.3526271647634232e-38, 3.308020061359238e-39, 1.4312161865381519e-39, 1.3493303298664062e-38, 9.439056772590251e-39, -3.879025363497707e-39, 8.408412962467063e-39, -4.0196064280357015e-39, 5.867706105113558e-39, 1.3045358626364134e-38, -7.929278188948193e-39, 3.03389245057416e-39, 7.408913010713493e-39, -6.543370185657055e-39, -4.469623620764366e-40, 7.294310618405617e-39, 1.18280296309282e-38, 1.3844421049676074e-38, 1.291596552876531e-38, 1.1641453746895672e-38, 1.0250531897699181e-38, 3.588045737380659e-39, -1.8348700182761657e-39, -6.155656123950736e-39, 7.732795124772888e-39, 6.244646984226148e-39, -5.0745977989765336e-39, -8.365653741126655e-39, 1.2584635513368027e-38, 2.6600414345754062e-39, 2.141402656048755e-39, 7.133588691039882e-39, -6.596266400088388e-39, 9.768265222112545e-39, -1.049096248431264e-38, -7.077776374504289e-39, 8.308410698858986e-40, 7.138578714871343e-40, -1.3293056346813581e-38, 8.922751156006701e-39, 6.887089080777432e-39, -2.126816540333598e-39, -7.314015677410952e-39, 1.1402701915842474e-39, -6.930069707275203e-39, -6.795403523555124e-39, 8.307878205442543e-40, 3.242772802263346e-39, 4.9660279965575754e-39, -5.319998791242953e-39, -9.869752862092805e-39, 8.817073633618109e-39, 1.1078609607013431e-38, -7.824119146991401e-39, 4.5750657250109515e-39, -7.698620257824935e-39, 1.0645636407506349e-39, -1.037890905391137e-38, 5.023390149194712e-39, -6.047519322757254e-39, 1.658880944141612e-39, -1.361605143894506e-38, -5.0173743748873654e-39, 1.048971813127632e-38, 6.213577394675138e-39, 4.101538947946309e-39, -9.383671852086277e-39, -1.0923988933161366e-38, -7.288132293476409e-39, 9.382553615911746e-39, -6.16132437623893e-39, 1.1466927628357874e-38, 1.3546912774013737e-38, 1.2402068744241933e-38, -3.296893751552499e-39, -3.396296259417844e-39, -2.4835619059783387e-39, 9.049711599471458e-39, 1.284866536741918e-38, 4.591001291147253e-39, 1.1636238114011456e-38, -8.900033305303067e-39, -1.1838732748598713e-38, 7.208800583515588e-39, -8.252120539547058e-40, -9.018204804799579e-39, -1.3943247623872582e-38, 1.3189143059191575e-38, 1.408014887864326e-39, 7.819272055603301e-39, 4.8077989791598744e-39, 8.68934808119183e-39, -3.50807643661857e-39, -1.0891169121828415e-38, -8.054501022317187e-39, 6.943733768600834e-39, -1.280147944422997e-38, -6.316177665636072e-39, 1.0556540449846113e-38, -5.0190054862998395e-39, -5.901878169464583e-39, 6.489843386916776e-39, -2.5041890193732e-39, -1.4843253983360625e-39, 2.9006331705122627e-39, -1.1701561043224421e-38, -6.615434761781887e-39, 4.129343512075442e-39, 1.357004821165974e-38, -6.36986281110282e-39, 1.3588295920262177e-38, 1.29463288638903e-38, -5.663415005895036e-39, 3.604453541099438e-39, 9.027042794214075e-39, -2.480008213072811e-39, 1.010359174073008e-38, -5.9216939310486e-39, -1.06157074749053e-38, 1.378068298902626e-38, 1.3068386164028383e-38, -1.3485582144125632e-38, 4.22882449265479e-39, -1.3640583971159993e-38, 3.020976682628478e-39, 1.317283755026069e-38, -1.3988461920122486e-40, 1.3255207275292168e-38, 1.3535234352612054e-38, 1.2633325029809457e-38, 1.2320360432085617e-38, 1.4459410308012771e-39, -1.5944478394534926e-39, 1.2999997193775475e-38, 4.9065456793439156e-39, -1.201989401536509e-38, 7.776383914804176e-39, 2.115250222809061e-39, -1.3251855369365503e-38, 5.967056764935723e-39, -5.31698459824619e-39, 1.918349571691388e-40, -1.3797822270543417e-38, -6.231439746199886e-39, -1.3335280272140617e-38, 5.121736078017956e-39, 8.719499820248708e-39, -1.1417723835380037e-38, -9.197327182300363e-39, 7.736938764331897e-39, 4.137622383402673e-39, -1.1192808425363582e-38, -5.162668006160884e-39, 2.5552929730686618e-39, -1.3785385746672534e-39, -1.334943058403337e-38, 2.0100827730614836e-39, 1.2803256290682735e-38, 1.3532954440010597e-38, 1.2730161760186624e-38, 1.307055957794655e-38, -1.3379585125687174e-38, 6.554352161721969e-39, -3.736041072093396e-39, -4.415579742890751e-39, -1.0208512561947937e-38, 5.405414939135872e-39, 4.123806981842895e-39, 1.0934494467748409e-38, -1.3757340159207537e-38, -1.0580799728860504e-38, -5.032135652910563e-39, 8.093588841681063e-39, 8.935203094160691e-39, -1.0393549820266636e-38, -8.311074567239668e-39, 1.7107654210817026e-39, -4.624912713983914e-39, -1.0172318423912891e-38, 1.200579274891859e-39, -6.366285296123399e-39, 1.379583102542561e-38, 1.0701821469433452e-38, 1.3916201162212649e-38, 2.7801943701004733e-39, 1.3300596733850113e-38, -4.041637642491816e-39, -9.78837525637407e-39, -1.1170871097904577e-39, 1.2477950457383586e-38, -1.504858624733814e-39, -4.359721183505835e-39, -3.4681506407730276e-39, -1.3292623345588105e-38, 6.51651430058827e-40, 1.3029210062861255e-38, -1.0548979043332616e-38, -1.0071832712334623e-39, -1.187239053641333e-38, 7.120510372472338e-39, -1.3133578772484167e-38, 1.7537908891303318e-39, 4.1950952386184914e-39, 1.3606585667818545e-38, -3.2727073400582524e-39, 1.1962202557588837e-38, 2.5713826820360393e-42, -7.604729056819779e-39, -7.278725376885396e-39, 1.3662574547960643e-38, 1.2614666740756973e-38, -8.6708565466566e-39, -4.126927673522946e-39, -4.6655027253015465e-39, -1.1236278105025402e-38, 1.4542395203070087e-39, 3.1669765683280163e-40, -2.018126226246708e-39, -1.210458429065349e-38, 9.712721954882102e-40, -2.1381544462084502e-39, -8.286002535115968e-39, 7.588406732307323e-39, 8.5784283012482e-39, -1.64171083405824e-39, -8.454944479273433e-39, -1.3310054097185841e-38, 1.3571568620493532e-38, 1.377117658024428e-38, 1.332759274876533e-38, 1.0433942248500799e-39, 9.502115203484868e-39, 1.8815472701228254e-39, 1.0526144884856443e-38, 1.2668999286114239e-40, -4.5768481766575726e-39, 3.478588913033783e-39, 8.070446397542739e-39, 1.4026591251336765e-39, -1.285492216506239e-38, -1.6453682230501278e-39, 3.909834311534353e-39, 4.712464440736464e-39, -1.2853889408094184e-38, -5.493469732037115e-39, -3.372762853007973e-39, -2.98044972974174e-40, 1.0142105027723584e-38, 7.522940870650997e-39, 3.636274226627326e-39, 1.358735424769415e-39, -1.1242952489610981e-38, 5.4894648210260746e-39, -7.401617850908218e-39, 1.382711781623859e-38, 1.2995681194505355e-38, -1.1754640827754581e-38, -3.847661501269189e-39, -1.1650899899843686e-38, 4.548930107352829e-39, 2.5717708417106573e-39, 1.1057241206730942e-38, 7.68753738827059e-39, 7.753999573135051e-39, -6.171176905741598e-39, 1.3720357090137076e-38, -2.4526856956154057e-39, 1.225648224158937e-38, -1.3761046593645676e-38, 1.1670694641950738e-38, 1.1125609157506885e-38, -6.358555733794183e-39, 6.565243053386701e-39, -3.9427928514152724e-39, -5.226574222626417e-39, -4.084377245653723e-39, -1.3009405511664952e-38, 3.280827864659015e-39, 1.2625389476605986e-38, -3.299921957533905e-39, -1.2065708067357725e-38, 1.1126604079416556e-38, 6.251902907674422e-39, 8.049932789323488e-39, 6.614396399619823e-39, 6.393131372102934e-39, 1.3344290621266225e-38, -9.324350684196014e-39, 1.0733060616098645e-38, 6.627094966303534e-39, -8.67133298813447e-40, -7.261429149940235e-39, -1.3081485502072892e-38, 4.4601928820994603e-41, 1.2982989634313965e-38, 4.400751202541266e-39, -1.2257422512858932e-38, 1.8521424231474334e-39, 1.0572222380960372e-39, -1.0237677786885929e-38, -5.674951896151822e-39, 6.137255673815687e-39, -7.345626168169192e-39, 6.580378478099873e-39, -5.278136400919713e-39, -6.061570142459039e-39, -9.510214708608665e-39, -1.2869895039153702e-38, -1.0025460943553186e-38, 1.0350897097609517e-38, 1.0201769513737606e-38, 1.1094374214737085e-39, -1.0334855032789927e-38, -2.112755911542563e-39, -1.0119367558841449e-38, -1.2584300603035054e-38, -1.2185716669140967e-38, 9.487225006002952e-40, 5.820288967677735e-39, -1.1392375747458865e-38, -2.383488176148582e-39, 1.3234913670931816e-38, 3.363927666190405e-39, -5.7455198855167555e-39, -4.614243227476545e-39, -1.3538607278015683e-38, 6.254135176128091e-41, 1.356498391900967e-38, -4.810481064420592e-39, -4.762926599735265e-39, 1.3137673366596924e-38, -1.3216373090950334e-38, -4.018244365928378e-39, 1.3333388519213778e-38, -7.012580963451577e-39, -9.108411992142024e-40, -4.041540952897778e-39, 8.203838800958747e-39, 6.844212150366021e-39, -1.1027616355896651e-38, 1.1521625912614329e-38, -3.7091403454737524e-39, 1.173423091562169e-38, 1.3587802663202735e-38, -1.0303289383582546e-38, -1.354552688983252e-38, 7.450703934815052e-41, 6.118056483555972e-39, 5.656694378460134e-39, -4.650253795412764e-39, -8.000658931422434e-39, -7.992185279608662e-39, 4.0686700911671064e-39, 1.0331187834708788e-38, 6.024312418889571e-39, -8.417044961007304e-39, -1.3689815790107117e-38, -7.13863616810838e-39, 5.836934992135449e-39, -3.1087806431046067e-39, 8.43207809093258e-39, 2.4514119153113344e-39, 5.1661684497247674e-39, 1.4017061020480892e-38, 1.944600095823585e-39, -1.0109198335885844e-38, -1.4296271140796076e-39, 6.717868278225567e-39, 1.0004406434126705e-38, 1.3868115605409342e-38, 7.072920875325403e-39, -1.3581290829239017e-38, -5.6668215624618094e-39, 1.0025040554013888e-38, -1.2155012818489146e-38, 6.604818524616162e-39, 1.2726381056929876e-38, 7.774127824276613e-39, -7.854032665309343e-39, 1.0764578621158239e-38, -8.350320733330013e-39, 1.344835244652545e-38, -1.3654306887021126e-38, 4.481261404510584e-39, -6.374935511543676e-39, -7.148864245599487e-39, 9.025111804930236e-39, -2.5162261731817502e-39, -3.9249417102782385e-39, -1.3750263601962697e-38, -1.1739000935594252e-38, -6.706341197058031e-39, 2.9140393929204582e-39, -6.291289203611199e-39, 8.552750908187912e-39, 6.997137253076253e-39, 9.224606259505374e-39, -4.879387113806836e-39, 7.913852695452905e-39, -9.938116608973356e-39, -6.775709674937503e-39, 1.8276631402741432e-39, 8.075832988839604e-39, 9.19331806739393e-39, 6.794501087344098e-39, -3.08713758832311e-39, 7.125570461227015e-39, -1.0337891646562118e-38, 9.409133445183059e-39, -5.322979353076572e-39, -1.3776291319639066e-39, -9.936956333844895e-39, -1.3645474502800487e-38, 7.085535364101255e-39, 6.192230013869614e-39, -1.059556380948063e-38, 1.276463230111055e-38, 2.87182107278728e-41, -1.313009654580032e-38, -1.103209070189324e-38, 1.1653179812445143e-38, 1.367503209130849e-38, 4.006102114735003e-40, -9.114954654671957e-39, -4.783223006692546e-39, -3.853440456136065e-39, 7.017233274353135e-39, -1.210466276336749e-38, -2.0064940476943477e-39, 3.776821660002177e-40, 5.654899315127334e-39, -1.7394654149295392e-39, 4.652322111946107e-39, -7.823387669193023e-39, 3.731370544311801e-39, 7.62506750273099e-40, 6.533549886019067e-39, 7.614302727928046e-39, 1.3423005759902743e-38, 1.191688036135718e-38, -5.5127992430540115e-39, 1.2014054804664248e-38, 2.2617195434941483e-39, -8.516977159692164e-39, -7.058159597302206e-39, -1.3441923289171128e-38], [-0.660472571849823, 0.029170110821723938, 0.27716946601867676, -0.5574072599411011, 0.45662567019462585, 0.29012325406074524, 0.04602838680148125, 0.03836726397275925, 0.7404725551605225, -0.20450332760810852, 0.6351377964019775, 0.2321174591779709, 0.15412834286689758, 0.6090582609176636, -0.1333317756652832, -0.2402999997138977, 0.024455493316054344, 0.2384757101535797, 0.1845843344926834, 0.4787013530731201, -0.08143437653779984, -0.137754887342453, -0.16362561285495758, 0.5992262959480286, -0.0932326465845108, -0.05630156397819519, 0.31991830468177795, -0.012616398744285107, 0.11008407920598984, -0.15793761610984802, -0.39902156591415405, 0.11046299338340759, 0.15259218215942383, -0.1326165497303009, -0.06372217833995819, -0.09681781381368637, 0.5356979966163635, -0.08377814292907715, -0.10633069276809692, -0.198599711060524, 0.11484606564044952, 0.010647928342223167, 0.3112649917602539, 0.3185429275035858, 0.3576134145259857, -0.08986251801252365, -0.47278210520744324, 0.23942676186561584, 0.0469600148499012, 0.062369249761104584, -0.06602980196475983, -0.24308188259601593, -0.20597153902053833, 0.8111680150032043, -0.10199180245399475, 0.20806506276130676, -0.11303926259279251, 0.043197207152843475, 0.3618146479129791, -0.2767648696899414, 0.3181559443473816, 0.4189119338989258, 0.2531050145626068, 0.15768873691558838, -0.24711482226848602, -0.010669843293726444, 0.4009435176849365, -0.17514599859714508, 0.04001510143280029, -0.4569074213504791, 0.27278217673301697, -0.4911206066608429, -0.2286752313375473, 0.06895867735147476, 0.31528550386428833, 0.3910841643810272, 0.08896525949239731, -0.2541990876197815, -0.4258404076099396, -0.40465492010116577, 0.33457183837890625, -0.47203099727630615, 0.15185588598251343, -0.31136953830718994, 0.2032882571220398, -0.24626174569129944, 0.16841842234134674, 0.023537343367934227, 0.3610609173774719, 0.0726516991853714, 0.25363248586654663, 0.11274024844169617, -0.1887340396642685, 0.44517162442207336, -0.36540719866752625, -0.285756379365921, 0.6057577133178711, -0.06800621002912521, 0.04159688204526901, -0.01304285041987896, 0.6105974912643433, 0.00844035018235445, -0.10382465273141861, -0.015313582494854927, 0.18486431241035461, -0.4676363468170166, 0.30320245027542114, 0.019392021000385284, -0.034008681774139404, 0.16514059901237488, -0.19562090933322906, 0.3005824089050293, -0.11442848294973373, -0.23672837018966675, -0.20471055805683136, 0.12817330658435822, 0.09799224883317947, -0.04399517551064491, -0.012051157653331757, -0.48934125900268555, 0.2740478217601776, -0.21123957633972168, -1.0021085739135742, 0.721707820892334, 0.010006189346313477, 0.5988821983337402, 0.5578407049179077, -0.06448591500520706, -0.057330984622240067, -0.17739900946617126, 0.2336556315422058, -0.11207061260938644, 0.5568328499794006, -0.48336881399154663, 0.011102219112217426, -0.15082940459251404, -0.06487295776605606, 0.07976748049259186, 0.2115292102098465, 0.5434852838516235, 0.21390023827552795, 0.032348789274692535, 0.45424163341522217, 0.7162197232246399, 0.08423458784818649, -0.19951167702674866, -0.22818811237812042, 0.2767675817012787, 0.12099523842334747, 0.05883749946951866, 0.08540946245193481, 0.20789027214050293, -0.20156344771385193, 0.13741962611675262, 0.25545719265937805, 0.23530371487140656, -0.16073837876319885, -0.1739155650138855, -0.37880879640579224, 0.3271869421005249, -0.2528780400753021, 0.34961333870887756, -0.07823555916547775, -0.13948023319244385, -0.12621153891086578, -0.1530943661928177, 0.17523206770420074, -0.3996477723121643, -0.2706054151058197, -0.14446786046028137, -0.1074715182185173, -0.11722675710916519, -0.20307186245918274, -0.25865939259529114, -0.0984879583120346, -0.25356289744377136, -0.006486193742603064, -0.30097830295562744, -0.00811461266130209, -0.0407366007566452, 0.07218218594789505, -0.2333725392818451, -0.2950628697872162, -0.21587327122688293, 0.8791704177856445, -0.20566381514072418, 0.3800511956214905, 0.33605360984802246, -0.4861418902873993, 0.4452795386314392, -0.060339827090501785, -0.023631783202290535, -0.22348549962043762, 0.6497817039489746, -0.06424461305141449, 0.12395551800727844, -0.0082535520195961, -0.09646763652563095, 0.38195139169692993, -0.08834583312273026, -0.43604302406311035, -0.14616377651691437, 0.17808754742145538, -0.4800010621547699, -0.5997416973114014, -0.27348875999450684, -0.3227292001247406, -0.04973127320408821, 0.5303705930709839, -0.20344725251197815, -0.3540855348110199, -0.06336142122745514, 0.36766475439071655, 0.11774478852748871, 0.14742563664913177, -0.5959237217903137, -0.08432123810052872, 0.032177358865737915, -0.3083901107311249, 0.5831544399261475, 0.22021712362766266, -0.353570818901062, 0.1866452842950821, 0.3530544936656952, 0.11992726475000381, 0.14481428265571594, -0.5074169635772705, -0.04702606797218323, -0.34880247712135315, 0.4854576885700226, 0.07939054816961288, 0.23036637902259827, 0.07081592082977295, 0.053367163985967636, -0.12117095291614532, -0.11521153151988983, -0.04909571632742882, 0.47922319173812866, 0.29442235827445984, -0.09567370265722275, 0.5205939412117004, 0.12231696397066116, 0.1561942994594574, -0.04917525500059128, 0.14462560415267944, 0.09416865557432175, -0.005983969196677208, -0.10818515717983246, 0.0961751714348793, -0.34659770131111145, -0.08001864701509476, 0.32549741864204407, -0.16490213572978973, 0.11879235506057739, 0.2725104093551636, -0.5383558869361877, -0.3367214500904083, 0.038481369614601135, -0.6945399045944214, -0.19544923305511475, 0.6612107157707214, 0.12144845724105835, -0.6873353719711304, -0.06842977553606033, -0.12756402790546417, -0.09999463707208633, 0.23750470578670502, -0.2965003252029419, -0.028303271159529686, 0.19644275307655334, -0.5374664068222046, 0.04041951149702072, 0.09118303656578064, -0.00013741973089054227, -0.1273096203804016, -0.050419971346855164, 0.08445132523775101, -0.03568986430764198, 0.2716209888458252, -0.2228197306394577, -0.004747495520859957, 0.14574530720710754, 0.18376855552196503, -0.38258078694343567, -0.13701073825359344, 0.20867706835269928, -0.15656737983226776, -0.28129807114601135, 0.016633329913020134, 0.04059182479977608, 0.36964985728263855, -0.37449538707733154, 0.1431065797805786, 0.6892929673194885, 0.1043669655919075, 0.18605554103851318, 0.05008330196142197, 0.17365148663520813, 0.27544689178466797, 0.06308571249246597, -0.22985245287418365, -0.0973416343331337, -0.11161640286445618, 0.21146847307682037, 0.2246471345424652, 0.1471123993396759, -0.11735132336616516, -0.12360172718763351, 0.06742779165506363, -0.0759912058711052, 0.14484453201293945, 0.01600545458495617, -0.24438722431659698, 0.28938981890678406, -0.2124210000038147, 0.020954446867108345, -1.090264081954956, 0.09535962343215942, 0.538100004196167, 0.0025052623823285103, -0.23818661272525787, 0.14263160526752472, -0.04910529404878616, 0.47543907165527344, 0.121819868683815, -0.13920904695987701, 0.3574133813381195, 0.7153095602989197, -0.21647199988365173, -0.036879461258649826, 0.34928837418556213, 0.1445106863975525, 0.032425057142972946, 0.1526997983455658, 0.07119008153676987, -0.23520059883594513, -0.05851941928267479, -0.4697761833667755, 0.00338950683362782, -0.18957090377807617, 0.24837085604667664, -0.025631487369537354, -0.06340683996677399, -0.31327298283576965, 0.06164711341261864, 0.07292404770851135, -0.16767200827598572, -0.1836298555135727, -0.03221654146909714, -0.15990445017814636, 0.3033185601234436, -0.15808768570423126, -0.35008251667022705, -0.29948437213897705, 0.014265251345932484, 0.013007093220949173, 0.1390146166086197, 0.07716673612594604, 0.05373057350516319, 0.3534107208251953, -0.08662259578704834, -0.4792006313800812, -0.07660500705242157, -0.3466911017894745, 0.08234591037034988, 0.11080550402402878, -0.20505085587501526, 0.26984721422195435, 0.08353351801633835, 0.1924067586660385, -0.19963976740837097, 0.013345654122531414, 0.04690489172935486, -0.32228344678878784, -0.07190816104412079, 0.047096673399209976, -0.0714053064584732, -0.2185860127210617, -0.2343263030052185, -0.11827798932790756, -0.0032296543940901756, 0.12002651393413544, 0.1675092726945877, -0.12864576280117035, -0.17906898260116577, -0.08145599812269211, -0.14382407069206238, -0.11043241620063782, 0.024127796292304993, -0.0469362698495388, -0.542094349861145, -0.1560896337032318, -0.08796856552362442, -0.1941215991973877, 0.10409004986286163, 0.1369006633758545, 0.20485258102416992, 0.21031911671161652, 0.06376447528600693, -0.012008899822831154, 0.10937271267175674, -0.1174444630742073, 0.7248552441596985, -0.17766712605953217, 0.2848421335220337, -0.12778210639953613, -0.002902866806834936, -0.1993769407272339, -0.24832841753959656, -0.29192978143692017, 0.03824426606297493, -0.033758219331502914, 0.22631005942821503, -0.20538286864757538, -0.5456944108009338, 0.6003378629684448, 0.19828428328037262, 0.5078768730163574, 0.09203698486089706, 0.32052117586135864, 0.307821124792099, 0.14476048946380615, -0.35646817088127136, 0.32263293862342834, 0.21612028777599335, 0.061947301030159, -0.42903709411621094, 0.18553179502487183, 0.30287110805511475, 0.04764123260974884, -0.18727517127990723, -0.17189180850982666, -0.4578874111175537, 0.35007861256599426, 0.5936086773872375, -0.3067936599254608, -0.46552547812461853, 0.1955660581588745, 0.04028550162911415, -0.14852435886859894, -0.22691313922405243, 0.2882589101791382, -0.7029479742050171, -0.03982267901301384, 0.056485988199710846, 0.29535341262817383, 0.293919175863266, 0.3048725724220276, -0.09806860983371735, -0.47311514616012573, -0.17920365929603577, -0.01922452636063099, 0.3767329156398773, 0.023426849395036697, 0.35765188932418823, -0.13039995729923248, -0.02929241769015789, -0.06389296054840088, -0.25600576400756836, -0.2019500434398651, 0.41708439588546753, -0.42233970761299133, -1.023620843887329, 0.1564846634864807, -0.25999927520751953, -0.1280059516429901, 0.09904974699020386, -0.20838148891925812, -0.41119763255119324, 0.04272457957267761, -0.00998907070606947, -0.30864617228507996, -0.5737714171409607, -0.06743141263723373, 0.2463672161102295, 0.1489570289850235, -0.6639859080314636, 0.09917022287845612, -0.18927529454231262, 0.1263245940208435, -0.21805500984191895, -0.1162293329834938, 0.20338906347751617, 0.20481574535369873, 0.12574069201946259, -0.1421830803155899, 0.2675015926361084, -0.3440321981906891, -0.1555165797472, 0.3688160181045532, -0.22984720766544342, -0.16149529814720154, 0.05106740817427635, -0.00349248293787241, -0.24511252343654633, -0.35571613907814026, 0.03330602869391441, -0.08185218274593353, -0.5392431020736694, -0.4537745714187622, -0.6232361793518066, -0.6111749410629272, 0.001522129401564598, -0.33123576641082764, 0.26424750685691833, 0.00938721839338541, -0.03279832378029823, -0.16694283485412598, -0.4187994599342346, -0.13057014346122742, -0.2674044668674469, -0.15815706551074982, 0.22503304481506348, 0.16033396124839783, 0.3384222388267517, 0.46998971700668335, -0.30310606956481934, 0.38545340299606323, -0.6206887364387512, 0.09485845267772675, -0.6321039199829102, 0.427077978849411, 0.09400526434183121, -0.021679753437638283, -0.09128793329000473, 0.5081949234008789, 0.06340695172548294, -0.02920379303395748, -0.061023227870464325, 0.0006390953785739839, 0.04944378882646561, -0.04945238307118416, -0.23641429841518402, -0.21287333965301514, 0.12375616282224655, -0.3270200490951538, -0.24099914729595184, 0.13234582543373108, -0.012881730683147907, -0.4086402654647827, -0.2948935329914093, -0.10976900905370712, 0.04307587072253227, -0.36078187823295593, -0.1674458235502243, 0.0156248202547431, -0.3419828414916992, 0.28317204117774963, 0.10552548617124557, -0.18585427105426788, -0.1860109269618988, -0.4008350074291229, 0.513251543045044, 0.04867899417877197, 0.058130234479904175, 0.05897922441363335, 0.2666882872581482, 0.2865699827671051, 0.33284157514572144, -0.382015198469162, 0.44470977783203125, -0.0695367231965065, 0.3991413116455078, -0.3087247908115387, -0.058030471205711365, 0.06800686568021774, 0.31933411955833435, 0.34680449962615967, -0.07078790664672852, 0.2848491072654724, -0.11934394389390945, -0.17440305650234222, 0.07032039016485214, -0.010308368131518364, -0.27746105194091797, 0.049113836139440536, -0.1742224246263504, -0.15533748269081116, 0.1345352828502655, 0.20555174350738525, -0.09651757776737213, -0.2297990769147873, -0.16854695975780487, 0.4504796266555786, 0.31172534823417664, 0.22738173604011536, -0.3496491312980652, -0.22728890180587769, 0.0629914253950119, -0.3079826533794403, 0.2559415102005005, -0.041815243661403656, 0.21755042672157288, -0.11588893085718155, -0.27107730507850647, -0.2058984339237213, -0.04682406783103943, -0.1652851551771164, -0.24066989123821259, -0.41567060351371765, 0.20851105451583862, -0.18178586661815643, 0.10509372502565384, 0.05901072546839714, -0.19778133928775787, -0.03810858726501465, -0.022152328863739967, 0.13998134434223175, 0.1507522463798523, 0.04670927673578262, 0.16231156885623932, 0.2243117243051529, 0.26468178629875183, -0.2904437780380249, 0.16186709702014923, 0.3782784342765808, -0.02010691538453102, 0.049273211508989334, -0.5934498310089111, 0.4025934636592865, 0.10626602917909622, -0.40456315875053406, -0.3662739396095276, 0.3204920291900635, -0.2446213811635971, -0.015585889108479023, 0.12487173825502396, 0.044481776654720306, -0.24368208646774292, -0.16323287785053253, 0.0899655818939209, 0.031100427731871605, -0.162673220038414, -0.0870886743068695, 0.14274495840072632, 0.41736990213394165, -0.13526858389377594, -0.20543214678764343, -0.048568062484264374, 0.10323090106248856, -0.15825125575065613, -0.042509447783231735, -0.14928165078163147, 0.19675835967063904, -0.12640689313411713, -0.04012962803244591, 0.10065624117851257, 0.2918001115322113, 0.2816261053085327, 0.11204198747873306, 0.3061184585094452, 0.22068007290363312, 0.0820847600698471, 0.1119137555360794, -0.04924455285072327, 0.4257631003856659, 0.1630258560180664, -0.1326800137758255, -0.3772084712982178, -0.2230697125196457, -0.1855415403842926, 0.42803797125816345, -0.5360734462738037, 0.3994467556476593, 0.4316968619823456, -0.10184414684772491, -0.23447509109973907, 0.6245569586753845, -0.32619282603263855, 0.11533380299806595, -0.22069913148880005, 0.4476921558380127, 0.06023208796977997, 0.10682456195354462, 0.057192955166101456, 0.08282075822353363, -0.4729692041873932, 0.22109468281269073, 